svm_type c_svc
kernel_type rbf
gamma 0.25
nr_class 2
total_sv 3053
rho -0.49526608854956916
label 1 0
nr_sv 1996 1057
SV
0.27597478473293091 1:26.173 2:58.867 3:-0.1894697 4:125.1225 
0.50424084723215956 1:57.07397 2:221.404 3:0.08607959 4:122.9114 
0.50473434975028408 1:17.259 2:173.436 3:-0.1298053 4:125.0318 
0.45086892077519203 1:21.7794 2:124.9531 3:0.1538853 4:152.715 
0.50491587149854233 1:91.33997 2:293.5699 3:0.1423918 4:160.5402 
0.5048770796985661 1:55.375 2:179.222 3:0.1654953 4:111.2273 
0.50479141219929191 1:29.562 2:191.357 3:0.09901439 4:103.4076 
0.45924554899589387 1:145.12 2:208.86 3:-0.1760859 4:154.2257 
0.50416224932402387 1:38.49699 2:41.466 3:-0.1886419 4:123.9661 
0.50462815337814315 1:29.27699 2:107.251 3:0.1149632 4:107.7885 
0.48150479652719291 1:28.867 2:109.024 3:-0.1239433 4:97.9913 
0.36114864583851819 1:24.013 2:76.02 3:0.285099 4:98.91692 
0.48951033391398557 1:28.379 2:145.216 3:0.3870011 4:154.9975 
0.28913882191266649 1:22.3814 2:82.4281 3:-0.2814865 4:89.98764 
0.50467567647658162 1:123.21 2:456.16 3:-0.1518468 4:143.2996 
0.50464122114567933 1:20.08405 2:177.451 3:0.2578101 4:92.53101 
0.46531598541245428 1:32.85699 2:182.675 3:0.2204406 4:94.57175 
0.50460530572992968 1:0 2:115.478 3:0.150497 4:109.6315 
0.34116241979156914 1:39.54504 2:237.442 3:0.1089429 4:137.6333 
0.50471345695811376 1:106.798 2:323.756 3:-0.1509505 4:175.4021 
0.42335452426647446 1:34.082 2:119.828 3:0.2200156 4:138.3639 
0.43437546946939792 1:0 2:86.7108 3:0.420188 4:129.8851 
0.50487662338373385 1:48.65997 2:307.15 3:0.1756066 4:164.0174 
0.45402475544204912 1:23.4109 2:83.4714 3:0.1766868 4:98.0325 
0.50495334564574179 1:122.239 2:435.793 3:-0.1812907 4:168.7663 
0.6158717424642649 1:16.2456 2:48.3062 3:0.5508614 4:26.32639 
0.50412857507799425 1:43.89899 2:242.13 3:0.2006008 4:133.1948 
0.49376731792346873 1:61.43698 2:233.85 3:0.2758731 4:161.2433 
0.50468203106618681 1:59.52499 2:217.67 3:-0.08601014 4:117.0831 
0.35134769662301718 1:29.1585 2:125.9875 3:0.1910455 4:127.9927 
0.49958431771245637 1:50.59702 2:243.062 3:0.1863443 4:135.2273 
0.50488187682090202 1:60.24097 2:197.734 3:-0.1319924 4:132.022 
0.3484690913364939 1:26.2049 2:62.7079 3:-0.140245 4:113.5866 
0.50457743273174116 1:28.47198 2:148.376 3:-0.1868249 4:167.2337 
0.38533269598225672 1:27.0799 2:77.7039 3:-0.2509235 4:97.98032 
0.38884653947852399 1:20.686 2:84.468 3:0.1761782 4:119.9423 
0.44608625032012122 1:19.6245 2:49.2309 3:0.4302725 4:93.61318 
0.50489795598100751 1:49.61401 2:323.485 3:-0.1963741 4:162.2486 
0.50465894172252945 1:79.82401 2:201.754 3:-0.1412161 4:131.0716 
0.50479911244354181 1:66.96402 2:221.403 3:-0.1187778 4:141.6626 
0.50459724777691883 1:58.42999 2:134.861 3:0.2876077 4:128.6684 
0.50473640880669712 1:69.82007 2:369.3401 3:-0.1539849 4:151.1659 
0.50485620988033775 1:19.022 2:221.012 3:0.168945 4:136.8066 
0.50475392598423985 1:45.82898 2:221.595 3:0.2419124 4:162.71 
0.5047106070114934 1:50.12195 2:340.594 3:-0.2004177 4:173.5482 
0.5049158919414779 1:97.3279 2:83.6299 3:0.3004524 4:92.68482 
0.49225619464873016 1:62.138 2:244.5 3:-0.2045531 4:144.239 
0.49968818667237613 1:24.457 2:142.604 3:-0.2302375 4:91.75098 
0.50436523860514515 1:37.86899 2:197.708 3:0.09417659 4:110.7027 
0.50466530212349492 1:123.73 2:178.77 3:-0.1441443 4:130.352 
0.50464523194330901 1:41.8037 2:121.0217 3:-0.1792956 4:140.4431 
0.50104604141543629 1:32.3706 2:102.0206 3:-0.0857908 4:125.3724 
0.5048269118037596 1:37.9575 2:67.9255 3:-0.2099991 4:152.0504 
0.41274180538238975 1:36.256 2:90.028 3:-0.1349387 4:139.8553 
0.5002149145982544 1:23.5141 2:153.6969 3:-0.1169007 4:117.8439 
0.37182904936775707 1:25.043 2:195.966 3:0.1230792 4:105.0391 
0.47413141395482672 1:21.51999 2:103 3:0.2982677 4:124.8862 
0.40602226855567314 1:20.7173 2:50.1779 3:0.1636157 4:118.7613 
0.3708930526683778 1:20.5763 2:65.2607 3:0.3237194 4:114.1607 
0.4236997292757379 1:23.78099 2:129.774 3:0.1596782 4:107.5001 
0.50459480759983488 1:56.26801 2:188.294 3:-0.1361132 4:140.0558 
0.47724432356040342 1:23.642 2:151.537 3:-0.2189088 4:91.83887 
0.46011612095406812 1:31.36601 2:91.29401 3:0.2184253 4:142.0142 
0.50454005103408628 1:55.93298 2:308.106 3:-0.1353047 4:156.4504 
0.49143157259428749 1:45.746 2:188.873 3:0.09065958 4:129.8741 
0.50375478404799723 1:22.548 2:144.287 3:0.15148 4:117.9153 
0.30515015213476265 1:43.43298 2:201.142 3:-0.1850777 4:136.0046 
0.44163376380064223 1:19.02501 2:100.994 3:0.2232255 4:122.3841 
0.50618818984322322 1:29.56006 2:56.53003 3:0.2784214 4:164.6464 
0.49491015444935532 1:33.14001 2:214.8301 3:-0.113854 4:94.21469 
0.50503968266134935 1:28.3723 2:52.6541 3:-0.3765493 4:134.9389 
0.33040838274228712 1:22.81599 2:68.18298 3:0.2088072 4:162.9902 
0.5047848055566303 1:107.96 2:426.329 3:0.1836555 4:161.2625 
0.39437434955931627 1:25.9741 2:79.5938 3:-0.2461588 4:98.93889 
0.50480913264756699 1:48.3483 2:179.8393 3:-0.318316 4:174.3914 
0.53095746338348571 1:19.7492 2:45.8642 3:-0.1964635 4:134.1424 
0.45031607642870752 1:41.04199 2:161.264 3:0.1591512 4:111.8727 
0.4866309937289911 1:24.9733 2:117.708 3:-0.3051164 4:164.3772 
0.51266626714813479 1:21.8378 2:17.2425 3:-0.4093676 4:107.8929 
0.50487198390023091 1:90.125 2:105.859 3:0.1675169 4:166.9783 
0.35818587521643064 1:19.8109 2:86.19101 3:0.2891504 4:150.8858 
0.50483274623853325 1:133.704 2:423.4241 3:-0.1397143 4:168.7031 
0.50066427042093564 1:25.72598 2:199.071 3:-0.2194515 4:91.55596 
0.47520477405371586 1:30.9354 2:97.29181 3:-0.0967374 4:148.2518 
0.48736282779704337 1:29.211 2:176.555 3:0.3540535 4:152.2124 
0.463775757018975 1:31.4923 2:71.82829 3:-0.1760218 4:123.4992 
0.48027891569711434 1:21.644 2:73.9961 3:-0.2648312 4:157.1783 
0.21678577641341132 1:20.8785 2:92.2616 3:0.1469187 4:119.0167 
0.47579893495605852 1:25.478 2:116.22 3:-0.1509489 4:103.902 
0.50328104406595175 1:24.42801 2:149.011 3:-0.09140104 4:160.8258 
0.50491138357375143 1:101.7999 2:143.13 3:0.1561447 4:146.4445 
0.50490655956521546 1:133.717 2:530.427 3:-0.1441823 4:150.1387 
0.32753600619951451 1:21.668 2:71.211 3:0.2286803 4:104.5063 
0.34444118365508275 1:18.82098 2:87.70099 3:0.1093747 4:69.35226 
0.50488107484740752 1:43.10399 2:205.986 3:0.176378 4:160.2271 
0.50351604434778663 1:33 2:190.282 3:-0.1433576 4:147.0817 
0.50383513210236353 1:29.858 2:112.33 3:-0.1596831 4:93.77798 
0.42384047678373504 1:30.45 2:131.288 3:-0.1449632 4:97.56283 
0.49199602749613208 1:87.06299 2:308.712 3:-0.1642287 4:159.7162 
0.46227397986051733 1:64.33502 2:177.46 3:0.1431059 4:127.2456 
0.48391032932037042 1:29.39799 2:145.365 3:-0.2487779 4:146.5296 
0.38308982377834083 1:24.971 2:86.212 3:0.2084478 4:144.791 
0.37782145214544571 1:21.882 2:104.326 3:-0.1929159 4:154.4893 
0.50456250669619829 1:26.32098 2:225.844 3:-0.1376455 4:86.96635 
0.45507649972811787 1:23.9763 2:60.1777 3:-0.392868 4:155.3271 
0.50319673919708663 1:36.33099 2:132.271 3:-0.1338904 4:104.564 
0.43277905935879468 1:22.55 2:99.0742 3:0.235968 4:99.85901 
0.48779630644210481 1:22.8266 2:77.73849 3:-0.1647308 4:122.3429 
0.50468088905674069 1:59.342 2:174.813 3:-0.2064767 4:157.2909 
0.50472254016507034 1:87.79102 2:197.525 3:-0.07853987 4:152.4239 
0.39109351608193249 1:23.5682 2:78.0788 3:-0.2331371 4:135.9661 
0.49788118073240306 1:27.13199 2:102.757 3:-0.2512551 4:95.90387 
0.35014485600727308 1:27.2091 2:46.9291 3:-0.2033886 4:108.4065 
0.50125128249452033 1:21.901 2:168.932 3:0.2447439 4:131.3683 
0.50492751643056066 1:23.48599 2:266.225 3:0.1282682 4:156.9778 
0.4723388673708433 1:32.022 2:149.33 3:-0.09873985 4:111.3344 
0.50395234095961472 1:25.48297 2:208.115 3:0.1670111 4:136.845 
0.44268409591863866 1:21.5758 2:104.7904 3:-0.167391 4:129.3687 
0.50148782918932489 1:26.77801 2:131.898 3:0.1374579 4:111.296 
0.50487256423348736 1:73.80501 2:171.091 3:0.1713515 4:155.2502 
0.5046684626974377 1:79.06 2:382.3521 3:-0.1219006 4:145.2937 
0.50491164842328984 1:201.17 2:341.52 3:-0.1657539 4:161.2845 
0.50463688949072449 1:30.41699 2:124.113 3:0.3845311 4:179.9615 
0.46269628593027357 1:63.22702 2:176.913 3:-0.1263382 4:124.4193 
0.50487662338675243 1:137.34 2:250.1899 3:-0.1590459 4:146.84 
0.42061370785268509 1:34.758 2:153.46 3:0.2183561 4:101.1032 
0.50464312699055824 1:50.754 2:140.167 3:0.3087629 4:156.7828 
0.44075600040431384 1:26.211 2:75.754 3:-0.2965076 4:164.2646 
0.48106613550715605 1:22.00301 2:115.296 3:-0.1963527 4:147.1009 
0.24837870652118249 1:26.7498 2:59.7091 3:0.2118464 4:123.219 
0.25787978777830101 1:22.20599 2:132.477 3:0.1605484 4:91.65759 
0.48334709929870578 1:23.99802 2:73.11502 3:0.2908404 4:149.7734 
0.50426908285043148 1:0 2:118.287 3:-0.1559274 4:151.5312 
0.40322882249560921 1:39.263 2:191.421 3:0.1158582 4:130.0993 
0.50146087890215996 1:28.23301 2:150.484 3:0.244699 4:92.58045 
0.40895845236644657 1:91.146 2:372.908 3:-0.2069705 4:145.0822 
0.20321007086968454 1:20.8704 2:63.3006 3:-0.2645898 4:110.8483 
0.5043228523001827 1:30.02899 2:136.845 3:0.2922238 4:150.3117 
0.47564760127094013 1:25.89301 2:166.133 3:0.225785 4:128.6079 
0.39561350793555317 1:26.8119 2:96.10239 3:-0.2364044 4:138.8089 
0.50390470614169058 1:121.3398 2:104.4128 3:-0.1536185 4:157.8045 
0.50270612872307519 1:24.51801 2:42.61099 3:0.2676385 4:108.4697 
0.35261706710996854 1:21.664 2:87.076 3:0.2398175 4:100.6033 
0.32125454692331135 1:27.0542 2:114.9732 3:-0.2867806 4:129.4292 
0.50462802158058107 1:36.93901 2:112.141 3:0.1312338 4:114.6249 
0.37125706250410678 1:25.20599 2:197.985 3:0.2347466 4:105.0089 
0.5045233450223684 1:27.19702 2:200.046 3:-0.1635672 4:139.295 
0.50426137220642286 1:50.75998 2:279.995 3:-0.1165064 4:157.6013 
0.50482117060803744 1:36.44098 2:225.614 3:-0.1091292 4:108.423 
0.31075107869406293 1:22.7167 2:61.42069 3:-0.1431142 4:114.5342 
0.50475429466548194 1:60.18201 2:156.243 3:0.2510956 4:154.3905 
0.46256064363460475 1:23.612 2:142.554 3:0.1988855 4:98.82353 
0.45820573929010555 1:24.069 2:67.991 3:0.207844 4:134.7686 
0.50467152953784833 1:45.47998 2:227.1801 3:0.1624598 4:122.8867 
0.50493196733594137 1:68.40991 2:155.49 3:-0.1388937 4:144.0769 
0.50445346862787899 1:108.469 2:34.21301 3:0.2405673 4:134.3593 
0.45660183283744671 1:21.07101 2:75.718 3:0.2221708 4:134.9142 
0.17430033187477578 1:25.44891 2:49.2227 3:0.2052755 4:116.5338 
0.50510426553547305 1:42.7215 2:94.3934 3:-0.3558331 4:176.0723 
0.5045269111643037 1:97.20501 2:172.365 3:-0.09005467 4:151.284 
0.50474411409607833 1:42.59998 2:181.718 3:0.05547264 4:165.6928 
0.50323730772256126 1:33.09601 2:129.194 3:-0.157092 4:115.6988 
0.50493967483588809 1:51.13 2:274.75 3:-0.1325657 4:131.8462 
0.50444964310643536 1:80.22101 2:252.343 3:-0.1687138 4:123.1476 
0.50461048091849237 1:42.513 2:155.459 3:-0.08623955 4:111.3069 
0.4213459196371252 1:32.39101 2:97.23399 3:0.2721891 4:163.4049 
0.49751122881045823 1:30.407 2:218.479 3:0.2842778 4:152.7095 
0.50470748443261959 1:57.24298 2:277.317 3:-0.1971121 4:143.1293 
0.504717132874546 1:73.41003 2:118.1801 3:0.1420037 4:123.4635 
0.50066695223740343 1:48.40799 2:246.561 3:0.1959212 4:133.7496 
0.5058225578946558 1:0 2:126.088 3:-0.1727193 4:109.1865 
0.50476214385330986 1:41.32901 2:161.773 3:0.1446067 4:97.20302 
0.50489202393203114 1:77.32703 2:329.416 3:0.2035125 4:136.4001 
0.50449177409041956 1:25.789 2:191.669 3:-0.1855473 4:121.8567 
0.40701850714539556 1:35.04501 2:144.243 3:-0.06442587 4:113.9272 
0.4134150164654446 1:21.2079 2:56.9959 3:0.4919596 4:93.19295 
0.38715000387896126 1:32.217 2:96.265 3:0.1087279 4:141.5802 
0.50487439459709194 1:161.83 2:240.38 3:-0.1812508 4:155.2419 
0.50490531586326604 1:156.482 2:509.043 3:-0.1672319 4:175.3609 
0.50472717524182897 1:31.26401 2:181.29 3:0.2979027 4:143.0359 
0.4795087091598258 1:24.9938 2:99.76479 3:0.2812917 4:88.02106 
0.30088931985296619 1:28.022 2:81.88501 3:-0.2466587 4:103.545 
0.50053069562224073 1:34.60699 2:201.837 3:0.2872964 4:152.5722 
0.49111708826478273 1:35.854 2:223.529 3:-0.07938398 4:159.6777 
0.50458175630127489 1:53.694 2:146.475 3:-0.1348491 4:135.826 
0.50452019255035252 1:51.26001 2:67.65991 3:0.1770727 4:125.0675 
0.50487291204121176 1:75.78003 2:49.96997 3:0.09151085 4:133.4337 
0.48505147818336469 1:22.4451 2:37.6895 3:-0.2014975 4:134.3154 
0.50337871229558984 1:37.79999 2:231.082 3:-0.1701628 4:147.0185 
0.42080186843183154 1:25.237 2:154.203 3:0.2189267 4:93.19295 
0.46584958811427379 1:35.08501 2:155.11 3:0.1946249 4:131.2419 
0.064639190602153881 1:23.627 2:92.679 3:-0.08233782 4:98.18906 
0.43802521931084382 1:29.20203 2:187.233 3:-0.16709 4:90.03983 
0.50470877858462415 1:56.142 2:246.801 3:0.1981832 4:147.9359 
0.50495059095001427 1:96.06995 2:162.0399 3:0.1612515 4:142.602 
0.49464474694631944 1:35.33398 2:119.967 3:0.1412604 4:142.0417 
0.50488188893646047 1:128.1 2:381.53 3:-0.1817326 4:176.1575 
0.43475271877262711 1:29.7135 2:144.9665 3:-0.09323585 4:143.0854 
0.41717710724844426 1:24.7665 2:111.8302 3:0.3244582 4:167.1238 
0.37781815043972855 1:33.909 2:144.274 3:-0.1112454 4:110.7219 
0.4329844165864612 1:24.672 2:99.96399 3:-0.175154 4:101.1719 
0.50401370787072797 1:20.03801 2:109.654 3:-0.1999739 4:75.79584 
0.36809846155587228 1:31.33099 2:132.88 3:0.2494461 4:105.5308 
0.50491587437171936 1:49.14499 2:244.814 3:-0.1779569 4:143.415 
0.40640882849697818 1:23.75101 2:129.84 3:0.3050942 4:88.63905 
0.471404628511082 1:19.153 2:142.453 3:0.2619713 4:127.3307 
0.40712495733241527 1:24.57199 2:60.627 3:-0.2591302 4:107.9258 
0.49463518036997606 1:26.636 2:128.675 3:0.2482951 4:141.594 
0.46215360648381115 1:25.328 2:81.23801 3:-0.2447871 4:95.41772 
0.47857414985007796 1:19.881 2:69.692 3:0.3647078 4:124.7846 
0.48627719551617865 1:19.7263 2:109.4343 3:-0.2283529 4:154.4097 
0.50487340837122407 1:16.431 2:140.393 3:-0.2270102 4:34.40971 
0.50328822633890358 1:16.789 2:128.108 3:0.4190153 4:149.9052 
0.3990332625358417 1:24.7307 2:88.3701 3:-0.26004 4:106.8656 
0.50479438645557306 1:26.58501 2:251.462 3:-0.1115851 4:166.6487 
0.48612008742432511 1:45.51797 2:182.305 3:0.1115851 4:109.0053 
0.48136817525735726 1:51.978 2:122.143 3:0.05964218 4:117.2259 
0.48144733848322446 1:80.54999 2:249.893 3:-0.2121712 4:151.078 
0.45230583960285875 1:30.572 2:82.9572 3:0.2968907 4:145.9474 
0.37789083800867784 1:32.2122 2:121.7376 3:0.07931677 4:155.8929 
0.50051041371030058 1:55.59204 2:224.408 3:0.1422918 4:153.6983 
0.50480702400583644 1:26.4551 2:38.1431 3:-0.1513146 4:158.1231 
0.50063079613112216 1:78.15201 2:264.895 3:0.07070789 4:142.1927 
0.16518897934963461 1:22.1237 2:78.8399 3:-0.159063 4:105.0034 
0.50344111482013276 1:62.89795 2:335.545 3:0.1257588 4:150.9764 
0.50275103539513732 1:29.44101 2:133.357 3:0.3079125 4:161.0071 
0.52892695936085654 1:20.9366 2:66.0649 3:-0.1862604 4:146.7768 
0.47940716515527027 1:32.53003 2:42.87 3:-0.1560346 4:110.5351 
0.50365747129249694 1:37.25897 2:230.846 3:-0.1929708 4:151.9432 
0.38333996832110206 1:41.41301 2:180.032 3:0.1887619 4:153.9263 
0.49878853412184238 1:22.7872 2:162.0099 3:-0.1020847 4:114.7897 
0.5039441735707455 1:37.28799 2:178.754 3:0.1427734 4:116.3772 
0.50487153742868762 1:75.78299 2:514.136 3:0.1537508 4:160.5869 
0.40213949439876073 1:19.8673 2:62.1475 3:0.2126621 4:115.3307 
0.50486966250117571 1:64.37598 2:373.5129 3:-0.117297 4:153.171 
0.50479868144042594 1:49.72501 2:229.877 3:-0.05363147 4:116.4239 
0.50440202187482008 1:67.63501 2:162.362 3:-0.1976886 4:139.1302 
0.48452928790660987 1:29.3048 2:102.4868 3:0.2093718 4:150.6111 
0.4757788321826556 1:35.5376 2:129.8506 3:-0.1321309 4:121.7551 
0.50491096175161998 1:148.4301 2:296.22 3:-0.1641486 4:171.1861 
0.50490253577656929 1:46.29001 2:278.999 3:0.1758608 4:140.4514 
0.23464105763677173 1:21.6742 2:80.222 3:0.313838 4:103.7043 
0.50205042155098267 1:41.7 2:139.596 3:-0.1564739 4:145.6892 
0.48689813982054947 1:21.96001 2:184.829 3:-0.2751613 4:88.08148 
0.50494258842365647 1:40.85199 2:205.657 3:0.1243663 4:119.176 
0.46772108035291865 1:30.0762 2:95.32201 3:-0.07529272 4:145.5518 
0.45826349472109151 1:27.28601 2:144.471 3:-0.1044264 4:110.3072 
0.50229056335778999 1:29.2495 2:46.2495 3:0.2573052 4:152.7013 
0.44234940965600822 1:24.8381 2:66.4681 3:-0.08955971 4:137.4603 
0.41155902434179448 1:31.924 2:142.356 3:-0.09629899 4:118.6075 
0.46771374374973629 1:22.39201 2:82.56401 3:0.2879985 4:150.7924 
1 1:23.2085 2:38.2578 3:0.2055369 4:127.2016 
0.30894284713330156 1:23.8772 2:50.7041 3:-0.2748511 4:97.20027 
0.38612687480626384 1:32.78497 2:180.912 3:0.2102727 4:99.68597 
0.31616465484995593 1:20.0749 2:63.60471 3:0.1365462 4:109.0712 
0.50430147914010615 1:31.66003 2:109.24 3:0.2907992 4:157.0932 
0.42034445235777834 1:21.99419 2:87.33009 3:-0.1217895 4:111.6695 
0.50466694428329784 1:21.23601 2:77.972 3:0.1345283 4:84.61799 
0.50486757185189801 1:30.64697 2:250.963 3:0.2259476 4:154.4015 
0.50411393529525494 1:67.35001 2:161.65 3:-0.1629068 4:168.5329 
0.50484996789657677 1:40.70798 2:282.252 3:0.157944 4:145.0053 
0.51746513721470522 1:20.1113 2:55.71811 3:-0.2582854 4:107.3738 
0.50482095854225917 1:33.4515 2:59.0685 3:-0.1509388 4:135.1092 
0.50487342709237149 1:52.12 2:80.68994 3:0.1192167 4:133.4255 
0.50041834514512906 1:42.04401 2:223.623 3:-0.09630278 4:119.2886 
0.27429192308844458 1:30.15199 2:156.177 3:-0.07456908 4:108.4587 
0.50313507564266002 1:87.78699 2:278.795 3:-0.1539903 4:158.1588 
0.44751156006801224 1:23.957 2:101.655 3:0.2180713 4:118.0993 
0.36712430108927424 1:119.84 2:351.6901 3:-0.1677006 4:170.2495 
0.49407650134418463 1:38.0204 2:151.1344 3:-0.1086522 4:136.1227 
0.50487171758199234 1:66.573 2:326.049 3:0.09251707 4:131.4232 
0.50482136473381767 1:72.375 2:109.389 3:-0.1792897 4:122.7356 
0.50488866287025036 1:72.38 2:156.17 3:-0.1297804 4:158.0023 
0.3212550809912797 1:20.373 2:123.697 3:0.2871405 4:137.6223 
0.50471731067806513 1:82.125 2:243.807 3:-0.1489647 4:167.0222 
0.50308694356962613 1:18.4748 2:81.6796 3:-0.3352248 4:165.6846 
0.50458508797914159 1:19.8338 2:61.888 3:0.342671 4:79.74548 
0.35118606243221084 1:22.181 2:51.453 3:0.1593816 4:94.54704 
0.50488185745301239 1:39.0042 2:53.6024 3:-0.1505167 4:114.1167 
0.50487789842590391 1:124.01 2:159.4501 3:-0.1156879 4:133.8018 
0.40331598677728803 1:29.2604 2:99.5724 3:0.1086352 4:140.2563 
0.46915541221091861 1:22.49402 2:224.318 3:0.1118973 4:80.91554 
0.32159452630816349 1:20.68501 2:67.255 3:0.3391265 4:95.19524 
0.45757442037837676 1:24.0428 2:98.6396 3:0.1598028 4:138.2046 
0.50488565541634034 1:126.453 2:8.522003 3:0.3624534 4:165.583 
0.44082357311655446 1:78.034 2:293.484 3:0.1380849 4:152.8386 
0.50474933885987283 1:107.749 2:416.877 3:-0.1622813 4:159.8041 
0.462066569853397 1:26.81805 2:185.099 3:0.1241267 4:96.40925 
0.50484447802945032 1:70.12 2:233.49 3:0.09340785 4:159.9277 
0.76279540044936711 1:21.9116 2:28.7592 3:-0.1198398 4:121.1151 
0.28766635013614139 1:34.103 2:153.657 3:0.1818246 4:103.4022 
0.5048853915907906 1:168.5 2:328.7001 3:-0.1635768 4:149.1197 
0.44681667607110886 1:21.6631 2:85.99489 3:0.3497697 4:97.10414 
0.5046474748183456 1:57.034 2:110.574 3:-0.1269336 4:130.3932 
0.40507911475026287 1:29.646 2:215.417 3:-0.1347539 4:141.4731 
0.24298599783536518 1:21.5594 2:92.9074 3:0.1413967 4:103.2538 
0.50464186390396981 1:21.79199 2:198.951 3:0.2111822 4:134.3593 
0.45862497422120063 1:23.63901 2:131.233 3:-0.3466923 4:147.48 
0.50481358094402107 1:57.67297 2:176.639 3:0.07800644 4:122.7329 
0.47386338633509206 1:34.79102 2:213.839 3:-0.09728985 4:137.1115 
0.49517141325238029 1:24.409 2:81.03299 3:-0.1506686 4:141.4264 
0.46819306979471381 1:35.08203 2:266.098 3:0.06392246 4:104.7013 
0.50440889049598558 1:65.30801 2:244.413 3:-0.0973189 4:112.2023 
0.47720837783783776 1:21.9125 2:92.6382 3:-0.1878039 4:110.211 
0.50487342709308036 1:129.9828 2:79.3958 3:-0.1956031 4:151.1934 
0.50487113394610361 1:47.798 2:233.745 3:0.04787695 4:132.217 
0.50495293464391178 1:48.13699 2:241.736 3:0.06906598 4:103.2209 
0.50473573070750954 1:38.37399 2:342.486 3:0.1644761 4:152.2866 
0.50487193219593918 1:113.9299 2:274.2 3:-0.2783759 4:165.3687 
0.34343708768635056 1:25.89301 2:152.685 3:0.3063563 4:98.6862 
0.49156768627885095 1:32.0573 2:76.31439 3:-0.2440116 4:168.5713 
0.50440047258600718 1:48.20102 2:222.944 3:-0.1781767 4:148.9522 
0.48870483875669024 1:28.2326 2:85.70309 3:0.1600414 4:105.951 
0.48267511621567838 1:30.798 2:176.551 3:-0.07568594 4:121.9968 
0.50459110357363524 1:23.827 2:131.212 3:0.4911059 4:161.5647 
0.50468001617845082 1:33.826 2:89.224 3:-0.3405301 4:163.6356 
0.30539523296850268 1:30.31903 2:103.784 3:-0.2279925 4:138.0069 
0.50474807951710332 1:31.189 2:94.01399 3:0.4605505 4:170.1643 
0.5016198345534475 1:44.89 2:130.229 3:-0.1022978 4:141.0062 
0.503921907743758 1:31.19397 2:56.98401 3:0.05549404 4:97.49416 
0.50138095770607283 1:28.076 2:55.2305 3:0.2976711 4:141.756 
0.41263748556966462 1:22.0404 2:81.48911 3:-0.1002183 4:124.5127 
0.50396311480284828 1:53.90302 2:249.735 3:-0.1537405 4:111.9222 
0.50097159722565399 1:23.2857 2:110.878 3:-0.2955763 4:145.4173 
0.50444154953740161 1:66.64001 2:125.0699 3:-0.1346738 4:147.6997 
0.29345639630005027 1:28.74301 2:101.285 3:0.1396532 4:111.6997 
0.2655109564333864 1:35.2309 2:149.5759 3:-0.1046193 4:144.5548 
0.47144071140384181 1:41.05501 2:153.411 3:0.1804264 4:137.0373 
0.35375794538521632 1:22.416 2:51.8446 3:0.1481098 4:118.6542 
0.47005015216518597 1:20.4691 2:72.0845 3:-0.3224114 4:143.9643 
0.46701639113660975 1:29.66199 2:173.457 3:0.1350171 4:119.9231 
0.41431697461089106 1:29.44701 2:144.551 3:0.2625119 4:128.575 
0.50374354431110102 1:61.95105 2:263.96 3:-0.08549134 4:165.767 
0.50488372825091954 1:75.97998 2:353.79 3:-0.2745448 4:179.761 
0.50366024740142834 1:26.7713 2:115.1162 3:-0.2809191 4:90.34196 
0.50487762331378383 1:26.26498 2:265.965 3:0.2148565 4:91.22911 
0.50207846444065718 1:54.724 2:264.645 3:0.1446313 4:162.515 
0.50460403355522776 1:35.476 2:210.752 3:0.1131722 4:123.1559 
0.34177531109855541 1:0 2:102.072 3:0.1903382 4:142.0142 
0.50470983622710308 1:19.72701 2:89.55602 3:0.2754506 4:175.284 
0.50488192503039708 1:0 2:134.522 3:-0.1889924 4:145.3486 
0.5047667602579492 1:63.241 2:261.38 3:-0.1638191 4:157.2964 
0.50487987100160348 1:54.129 2:327.641 3:0.1061524 4:136.5127 
0.36734407351409604 1:117.89 2:351.997 3:-0.1411603 4:170.4417 
0.50487259471012735 1:54.91599 2:221.034 3:0.1214149 4:142.0691 
0.43402455218764735 1:31.63098 2:131.915 3:0.1433506 4:102.0508 
0.50478652457835227 1:59.045 2:172.696 3:-0.2910136 4:173.7789 
0.50452290252944265 1:30.8692 2:111.9612 3:-0.3508342 4:164.2289 
0.48595285941937011 1:26.80499 2:117.837 3:0.1675056 4:94.60471 
0.44972535336613928 1:23.04501 2:92.10899 3:0.3757275 4:138.4601 
0.34328109213662367 1:45.61099 2:134.505 3:-0.1342714 4:162.1772 
0.45679691254578941 1:19.23199 2:51.043 3:0.4913905 4:91.70428 
0.50484837292079754 1:264.35 2:382.98 3:-0.1856 4:163.5065 
0.50487014729058033 1:48.12 2:82.46997 3:0.188316 4:142.9151 
0.50472679489579908 1:41.492 2:235.379 3:0.2123854 4:162.265 
0.5048729339312803 1:124.7599 2:323.97 3:-0.1625812 4:163.5972 
0.48790833195816419 1:83.42004 2:247.65 3:-0.141773 4:150.6578 
0.43953769705544377 1:38.612 2:162.349 3:0.09505654 4:110.6423 
0.31136551034400362 1:148.42 2:383.84 3:-0.1663617 4:174.9297 
0.50477330283793942 1:107.372 2:250.022 3:0.215817 4:157.3403 
0.5047810979843449 1:18.1034 2:114.3904 3:0.1428662 4:67.05608 
0.44197755504903391 1:24.07399 2:152.073 3:-0.2106128 4:144.4312 
0.48698648939582212 1:26.604 2:156.405 3:0.1211574 4:101.724 
0.50487124996870314 1:120.9975 2:45.2385 3:-0.4233237 4:89.6086 
0.47384233394211833 1:22.54799 2:128.383 3:0.2913564 4:132.0577 
0.50467569275297064 1:25.837 2:160.46 3:0.2121649 4:149.0043 
0.3937644655682716 1:43.729 2:196.751 3:0.06026977 4:117.7423 
0.3680890053213422 1:28.448 2:63.763 3:0.1883127 4:126.1057 
0.26049902351323617 1:21.83102 2:103.733 3:0.1643294 4:86.16159 
0.50487243492950751 1:41.51999 2:372.669 3:-0.1526712 4:159.2218 
0.50485995258273308 1:96.29401 2:370.749 3:0.1125926 4:140.4129 
0.48995022946403544 1:32.687 2:91.33099 3:-0.195174 4:125.5976 
0.38923804709126991 1:19.155 2:116.077 3:-0.2510476 4:74.08743 
0.50429196151583366 1:0 2:113.399 3:0.3370253 4:93.47311 
0.50482407834535259 1:142.4589 2:37.9739 3:0.1340409 4:130.9068 
0.50036726682620469 1:99.20996 2:342.4501 3:0.1080154 4:148.3809 
0.30962147105765836 1:43.35101 2:189.322 3:0.0987077 4:105.6516 
0.50469504838842327 1:55.23102 2:96.35602 3:0.1482502 4:134.8949 
0.47875467282620737 1:25.60901 2:113.118 3:0.2886409 4:106.5168 
0.35119708144765999 1:31.49899 2:119.921 3:0.10601 4:157.1646 
0.47548649990127911 1:60.33997 2:199.7699 3:0.124846 4:120.2911 
0.49992520459969947 1:48.45502 2:184.937 3:-0.2076296 4:121.8045 
0.50355128218277578 1:25.3896 2:100.5721 3:0.1707752 4:153.9702 
0.36131237372997727 1:41.51801 2:189.502 3:-0.1700965 4:130.6514 
0.49666632871409283 1:43.82501 2:183.851 3:-0.09593499 4:113.117 
0.49797686995191415 1:41.66 2:132.705 3:0.1524709 4:135.4662 
0.5048433744549381 1:45.991 2:251.854 3:0.2571067 4:167.7336 
0.50433992189979093 1:133.71 2:492.87 3:-0.1666256 4:172.51 
0.49164572472662993 1:20.6591 2:40.1293 3:0.2817537 4:101.6223 
0.70359889758838257 1:21.0356 2:39.7326 3:0.3944905 4:111.6997 
0.36668974460189341 1:19.7207 2:64.2594 3:0.1722801 4:150.7265 
0.46285030023732127 1:24.9566 2:106.8158 3:-0.2852927 4:94.13229 
0.50457668023969593 1:58.896 2:203.396 3:-0.1565229 4:150.7292 
0.36669373518519377 1:27.769 2:116.185 3:0.1037269 4:127.8553 
0.50296806424773466 1:78.298 2:228.247 3:0.08828935 4:148.9 
0.85192974252201337 1:21.643 2:31.07 3:0.6301231 4:160.5979 
0.50486185742932033 1:25.4552 2:30.8162 3:0.209136 4:95.25842 
0.50487816074539216 1:46.96002 2:267.21 3:-0.1651649 4:163.7784 
0.50476193381505918 1:55.009 2:245.492 3:0.1818731 4:121.1508 
0.50483329908453911 1:51.30902 2:273.349 3:-0.145599 4:122.5791 
0.49520779580778529 1:31.22101 2:214.572 3:-0.235904 4:90.75395 
0.504637461009949 1:23.864 2:213.301 3:-0.2544321 4:91.18242 
0.50478450680292508 1:49.35498 2:164.413 3:-0.1657754 4:155.8077 
0.44792954306285954 1:33.66699 2:183.122 3:-0.1638789 4:152.0092 
0.50447158342695908 1:21.36398 2:163.215 3:0.1409295 4:83.61272 
0.50476770260362402 1:22.66 2:190.525 3:-0.338962 4:85.08492 
0.504999875864801 1:50.347 2:56.084 3:0.2291461 4:131.7693 
0.50482857580515828 1:242.01 2:268.73 3:-0.189671 4:170.7768 
0.49335772161602659 1:31.78998 2:140.194 3:0.1463887 4:95.77478 
0.50499865128285149 1:45.43298 2:150.0359 3:0.2479176 4:156.4971 
0.50196798122159803 1:48.44101 2:189.554 3:0.08351105 4:108.2802 
0.5047850579516111 1:122.958 2:327.22 3:-0.2420466 4:171.1366 
0.36725015380890225 1:40.91998 2:165.169 3:-0.05848904 4:109.6919 
0.50321041909175046 1:41.04001 2:218.853 3:-0.116194 4:99.23003 
0.51702054207094783 1:21.12 2:50.954 3:0.2488138 4:113.268 
0.50479970543574071 1:72.09998 2:252.774 3:-0.1954655 4:110.1424 
0.50473249910306017 1:62.41602 2:338.124 3:-0.1001212 4:128.4678 
0.44682626151236055 1:23.904 2:35.174 3:-0.199371 4:107.7693 
0.50484373488001422 1:33.80399 2:280.591 3:-0.1098068 4:104.0778 
0.50441830254378894 1:24.448 2:52.96198 3:-0.2619794 4:157.3239 
0.50079424972193343 1:23.50499 2:96.856 3:-0.246409 4:93.38796 
0.49904273590054371 1:59.155 2:224.793 3:-0.1227197 4:151.1962 
0.50405073763190578 1:36.43301 2:97.86201 3:-0.2364067 4:150.1112 
0.5047311657733099 1:125.3459 2:359.273 3:0.1187388 4:142.2943 
0.50482236380715018 1:145.0701 2:246.7301 3:-0.1491587 4:178.6212 
0.48496728287864999 1:22.48201 2:115.235 3:0.3583543 4:165.1572 
0.47160466269139423 1:19.4481 2:88.4821 3:0.2652582 4:107.8901 
0.50439801953942442 1:54.3213 2:136.2933 3:-0.1169782 4:159.1366 
0.49028760849678088 1:41.65399 2:135.881 3:0.08194737 4:151.7263 
0.50472884021223086 1:85.75702 2:239.3781 3:0.2082306 4:156.3021 
0.37179417831755546 1:35.10403 2:160.794 3:0.1496299 4:131.4836 
0.50496442052142165 1:67.72101 2:327.982 3:0.1660938 4:117.734 
0.48855673706755381 1:22.2243 2:79.0878 3:-0.2075828 4:152.0064 
0.30832562111938611 1:28.381 2:83.07899 3:-0.1879144 4:102.9462 
0.50147276174002442 1:58.27496 2:307.717 3:0.1163814 4:126.8748 
0.43112673104719967 1:26.43799 2:150.249 3:-0.1052234 4:97.37057 
0.50488166674340396 1:46.845 2:196.777 3:-0.0870846 4:165.8604 
0.50171192744112458 1:29.112 2:132.348 3:-0.1500824 4:115.8883 
0.50482058913034489 1:146.99 2:308.16 3:-0.1297912 4:153.4896 
0.48776589020591621 1:31.55701 2:205.633 3:0.1637851 4:152.8853 
0.43726680784410243 1:22.8991 2:123.9511 3:-0.1665575 4:132.4999 
0.50120047814022017 1:38.798 2:226.615 3:-0.07278331 4:119.6539 
0.42776500792836336 1:75.22998 2:297.7001 3:-0.1615676 4:161.6306 
0.49717035023842693 1:29.91299 2:136.499 3:0.2430576 4:122.5708 
0.41173259255738004 1:20.1414 2:66.4 3:-0.2353871 4:141.2177 
0.50628372208342587 1:0 2:92.3334 3:-0.2203686 4:114.2678 
0.50482836876301529 1:131.653 2:54.701 3:0.2117808 4:151.3939 
0.48332767825740514 1:39.98499 2:210.578 3:0.2501134 4:144.8981 
0.3490516572000536 1:27.396 2:48.5871 3:-0.1759749 4:107.6731 
0.4968415091633126 1:52.767 2:234.527 3:-0.1330922 4:119.4534 
0.4842933704452152 1:49.30801 2:215.808 3:-0.1343765 4:125.0922 
0.41128464388519093 1:32.2326 2:130.3156 3:-0.1148222 4:142.5004 
0.50474516757491283 1:19.806 2:84.918 3:0.6332026 4:179.7308 
0.41546451293759307 1:22.9261 2:101.2691 3:0.283987 4:90.65781 
0.49084475322806465 1:16.5471 2:69.511 3:-0.2989768 4:88.97963 
0.37234717820829832 1:20.97101 2:48.12 3:0.2111316 4:124.8478 
0.39520167732749517 1:25.88998 2:145.31 3:0.1604495 4:99.89746 
0.50482195533581775 1:117.75 2:196.76 3:-0.1697249 4:165.8824 
0.50460183148792104 1:33.87001 2:182.588 3:0.08988446 4:105.4456 
0.50483984548401983 1:79.64099 2:259.646 3:-0.20852 4:135.7546 
0.50437871972095571 1:75.42096 2:270.971 3:-0.1468442 4:146.6835 
0.72923940368118056 1:16.2825 2:61.4856 3:0.3145723 4:32.69581 
0.39510235389984005 1:36.94299 2:170.159 3:-0.1298789 4:118.4866 
0.50483995109070068 1:17.83298 2:225.681 3:0.2611819 4:101.2323 
0.38349423067326882 1:21.4258 2:55.5162 3:-0.2065336 4:130.0087 
0.44210488131346781 1:56.183 2:169.292 3:-0.1844508 4:153.149 
0.48800744546994612 1:61.93896 2:203.118 3:0.1220424 4:120.3269 
0.50476906182087822 1:35.83299 2:238.96 3:0.1522729 4:159.2822 
0.39843013758818036 1:137.7 2:368.7899 3:-0.145754 4:158.2357 
0.47123568403134602 1:21.5214 2:87.9574 3:0.1354904 4:115.1302 
0.50054403462947072 1:36.13202 2:198.432 3:0.1305431 4:104.531 
0.50463118844988353 1:29.85201 2:164.775 3:-0.2566063 4:155.5303 
0.44808490335856649 1:20.217 2:121.656 3:0.1624463 4:97.86496 
0.45813136311267616 1:25.33 2:110.725 3:0.1170016 4:97.63424 
0.47453357254765949 1:24.17101 2:132.558 3:0.1833637 4:125.3449 
0.50482041976742265 1:103.403 2:123.007 3:-0.2109031 4:157.431 
0.54080196239763834 1:18.90796 2:80.34601 3:0.184695 4:62.84001 
0.50485543600398897 1:59.79004 2:85.98999 3:0.1966094 4:147.0515 
0.49396886158647579 1:55.823 2:121.783 3:0.1457291 4:118.7228 
0.50482101861221018 1:229.37 2:257.34 3:-0.2694986 4:178.0691 
0.50480599418187888 1:116.173 2:258.424 3:-0.1646519 4:172.0293 
0.50459573844656147 1:32.52101 2:248.108 3:0.1130798 4:108.9119 
0.50474186018057654 1:68.95197 2:318.898 3:0.1222772 4:142.1488 
0.32067580353602382 1:19.0238 2:79.65839 3:-0.2894069 4:126.1552 
0.24915770824516528 1:23.10101 2:60.334 3:0.2377822 4:127.7208 
0.5048698527719464 1:52.687 2:126.183 3:0.07018167 4:163.4543 
0.50464940387326385 1:53.888 2:213.106 3:0.144878 4:153.5335 
0.42588595691503461 1:28.032 2:84.03 3:0.3081662 4:130.8409 
0.47104958599511082 1:24.8449 2:84.84921 3:-0.3033278 4:152.1382 
0.47959620602572078 1:26.35001 2:211.189 3:-0.1818901 4:158.0847 
0.50375117415558313 1:28.9233 2:177.5503 3:0.1047901 4:134.1122 
0.50486972331053515 1:18.20801 2:194.996 3:0.07515021 4:67.96796 
0.47867951068010972 1:23.9714 2:105.2884 3:0.1941106 4:161.3504 
0.50452350777896549 1:16.06702 2:193.432 3:0.3052224 4:22.58824 
0.50363393266251055 1:37.909 2:93.16699 3:-0.1770918 4:144.6674 
0.50302824003336177 1:44.339 2:214.353 3:0.1158583 4:145.4694 
0.50478531385483616 1:50.27101 2:159.565 3:-0.1626734 4:167.8077 
0.39849112504157219 1:135.799 2:368.4061 3:-0.1238228 4:156.9998 
0.50488079260828178 1:99.02298 2:278.762 3:-0.08752339 4:157.041 
1 1:16.6815 2:43.877 3:-0.1423949 4:38.7631 
0.50482014719061885 1:61.84601 2:254.116 3:-0.1904301 4:157.6672 
0.50482305353539592 1:99.73602 2:461.163 3:-0.152427 4:171.6091 
0.50482135560294328 1:124.02 2:244.35 3:-0.1580021 4:147.8151 
0.47952512691833826 1:32.00101 2:137.612 3:-0.1402421 4:104.2976 
0.5045457836736067 1:29.228 2:252.266 3:0.2507415 4:91.34722 
0.50487595770950944 1:82.39301 2:238.279 3:0.2551616 4:162.2266 
0.45383638491537748 1:21.3013 2:102.4839 3:-0.1893143 4:117.1078 
0.52996221350999795 1:22.9708 2:49.5455 3:-0.2733093 4:114.6743 
0.45428616295285751 1:25.4795 2:86.8821 3:0.2853279 4:168.2719 
0.5045981869457723 1:75.41998 2:256.871 3:0.1797306 4:149.5592 
0.50482135048909793 1:141.12 2:412.623 3:-0.1730835 4:176.6354 
0.31382480660286211 1:22.036 2:92.201 3:-0.3391192 4:96.46418 
0.50481962168378502 1:47.20001 2:344.435 3:0.1668334 4:124.2106 
0.44038195794992996 1:0 2:101.38 3:-0.1234277 4:138.8748 
0.50475571242635064 1:134.611 2:581.0731 3:-0.1441794 4:166.3108 
0.50480340720910077 1:68.23999 2:247.595 3:0.05759451 4:127.2511 
0.37947640388927295 1:25.9282 2:88.9003 3:-0.3555239 4:145.9226 
0.14150205439003763 1:20.2218 2:67.9967 3:-0.2029868 4:94.34653 
0.42270529697684589 1:20.5644 2:93.16389 3:0.3833153 4:98.24124 
0.48692211977150746 1:30.54401 2:86.84502 3:-0.1384535 4:132.1291 
0.50482243438788232 1:73.9483 2:80.8773 3:-0.3161046 4:167.794 
0.50495725231526811 1:110.457 2:335.376 3:-0.1464408 4:165.0556 
0.50476774086998966 1:22.6348 2:96.82181 3:-0.2135037 4:167.2749 
0.32149265818211187 1:23.105 2:54.4047 3:-0.3031989 4:105.322 
0.5012031181839175 1:38.189 2:125.027 3:0.2569136 4:141.2479 
0.50201418526882358 1:27.98502 2:163.344 3:-0.237361 4:93.64889 
0.50345640270090175 1:55 2:304.91 3:0.1634281 4:129.5171 
0.50492526300194507 1:52.05695 2:271.7339 3:-0.1348218 4:172.1968 
0.3169574737555923 1:19.402 2:123.003 3:0.1972412 4:136.7352 
0.50481161579969336 1:80.1383 2:85.2203 3:0.1370369 4:140.8359 
0.50418151367069364 1:0 2:74.8973 3:0.4430498 4:144.3159 
0.40139994121392364 1:36.80099 2:127.257 3:0.05376019 4:120.2637 
0.50465313795945244 1:49.3868 2:132.6848 3:-0.08265645 4:144.3461 
0.50482499816255622 1:87.83197 2:407.772 3:-0.1481448 4:159.8096 
0.48726109281865282 1:27.4931 2:126.0981 3:-0.1430784 4:113.518 
0.50416855203080901 1:41.35301 2:113.471 3:-0.1386325 4:147.2273 
0.50474089150156209 1:86.08011 2:67.1131 3:0.2909212 4:157.041 
0.50480731192700679 1:0 2:114.673 3:0.3890661 4:75.04051 
0.50287907996989378 1:17.8354 2:104.4923 3:0.1987493 4:134.0792 
0.50480520959252362 1:46.85999 2:43.18994 3:-0.1247203 4:107.967 
0.5043165541619008 1:82.22101 2:279.1251 3:-0.136815 4:174.6963 
0.50479188148982423 1:13.01898 2:185.778 3:0.07066933 4:100.3397 
0.50476641454739257 1:41.211 2:101.906 3:-0.1737143 4:147.5981 
0.50392685454674224 1:28.12431 2:66.6373 3:0.1877341 4:132.0275 
0.38918412830492577 1:20.4698 2:151.5261 3:0.1423591 4:162.2376 
0.46790483405970329 1:33.1188 2:98.1478 3:-0.1444683 4:133.5711 
0.5048223814074726 1:91.03604 2:434.303 3:0.188821 4:160.3452 
0.5049365864218841 1:55.26703 2:338.299 3:0.1695382 4:129.5802 
0.50460786141281067 1:20.37799 2:168.589 3:0.1750783 4:85.13161 
0.50485996687540879 1:118.1866 2:122.5416 3:0.1705225 4:160.6418 
0.50303308352862319 1:41.60394 2:217.171 3:0.07104542 4:103.6658 
0.50386153825664137 1:36.46701 2:183.588 3:0.172462 4:121.8018 
0.32401293384183377 1:19.945 2:88.8249 3:-0.3040593 4:133.0108 
1 1:19.784 2:35.068 3:0.2976086 4:151.6411 
0.5025858972993309 1:71.29898 2:247.941 3:-0.2894139 4:161.6498 
0.50480773257892475 1:117.683 2:351.136 3:-0.1712611 4:146.4472 
0.36517448767562033 1:21.923 2:133.677 3:0.2584425 4:90.36668 
0.50487701665601081 1:95.96002 2:389.99 3:-0.07932715 4:157.0437 
0.26597694822988538 1:24.5392 2:119.5048 3:-0.1799122 4:100.5402 
0.50465320963836902 1:25.6207 2:137.7801 3:-0.2687805 4:163.3362 
0.43399303234194486 1:43.96497 2:194.524 3:0.08480196 4:127.1247 
0.50194974048373531 1:36.808 2:207.527 3:-0.179283 4:100.3671 
0.42209193727588701 1:26.27899 2:146.862 3:-0.1688726 4:127.8938 
0.46058825031911355 1:23.194 2:134.078 3:0.2745055 4:119.1431 
0.48428030994557936 1:22.4562 2:67.17271 3:-0.2290339 4:131.2721 
0.50478284335248969 1:48.85901 2:144.992 3:0.2054155 4:140.9155 
0.49145579077693252 1:39.8132 2:136.2772 3:0.1003268 4:148.1364 
0.50447071413463751 1:21.12599 2:63.72501 3:0.5735579 4:179.4671 
0.48650086008053656 1:26.914 2:131.683 3:-0.1456149 4:98.01877 
0.47259954948754967 1:27.039 2:159.746 3:-0.1245521 4:125.1939 
0.5046893323108208 1:49.9534 2:79.494 3:-0.1023785 4:171.7739 
0.50480685728978325 1:74.68896 2:291.669 3:0.1423936 4:133.4502 
0.43117286607545674 1:19.2706 2:72.6143 3:0.3960886 4:88.40284 
0.28543596571388019 1:31.388 2:273.818 3:-0.2224535 4:95.42596 
0.49557316411207553 1:28.7415 2:88.2518 3:-0.2633919 4:135.653 
0.27633709296507286 1:21.13931 2:58.7444 3:-0.1614604 4:115.9295 
0.50371882861447237 1:20.34799 2:179.635 3:-0.1711893 4:81.16548 
0.4512917145482821 1:25.9409 2:116.874 3:0.08309755 4:150.3777 
0.50424492324938974 1:27.11801 2:231.509 3:-0.1039278 4:122.2248 
0.45644846460979838 1:18.605 2:104.528 3:0.3040232 4:126.8363 
0.49004889865378531 1:29.405 2:127.867 3:0.1509215 4:135.9249 
0.48574874865408618 1:28.112 2:107.826 3:0.2291167 4:115.3362 
0.37711932377053448 1:34.03003 2:133.8 3:0.1826925 4:98.91692 
0.50062861474226583 1:29.15401 2:96.634 3:-0.2439397 4:111.3372 
0.50427073483539031 1:42.829 2:176.471 3:-0.1472107 4:144.6235 
0.45510869178759583 1:23.849 2:152.702 3:0.2881998 4:148.0018 
0.37966844887090001 1:23.4794 2:88.2974 3:0.1567694 4:127.5587 
0.45711994769364006 1:20.40901 2:157.486 3:0.2977301 4:135.5322 
0.50478495529813405 1:150.8652 2:92.63819 3:0.2355737 4:116.6134 
0.83203747611958423 1:26.1424 2:58.255 3:-0.1475393 4:139.0451 
0.47559962617111795 1:28.61501 2:119.225 3:-0.2976728 4:160.3781 
0.50487680236481525 1:102.7 2:132.6499 3:-0.1412135 4:138.1222 
0.29304166112133562 1:34.55199 2:142.721 3:-0.1333303 4:111.9112 
0.47287191163044839 1:33.61699 2:126.371 3:0.058635 4:111.5184 
0.50482101861215123 1:84.70996 2:229.26 3:0.1488553 4:140.119 
0.46305138216237507 1:21.511 2:66.43651 3:-0.2714708 4:100.0403 
0.50404825562705236 1:26.58899 2:160.218 3:0.1097486 4:109.3321 
0.50094020494128366 1:39.66901 2:118.702 3:-0.1173532 4:122.9087 
0.515169217300395 1:24.1321 2:14.2132 3:0.2080286 4:129.0474 
0.50472712740939829 1:39.78271 2:140.2927 3:-0.1734174 4:173.1444 
0.46932400754388204 1:26.1711 2:162.9081 3:0.1086621 4:125.29 
0.42291994932496635 1:29.871 2:134.471 3:-0.1003982 4:131.7281 
0.43387658171439375 1:26.139 2:96.55801 3:0.2669547 4:160.2463 
0.50224004459940508 1:56.627 2:242.817 3:-0.112933 4:153.1545 
0.41900865867933007 1:34.043 2:136.205 3:0.1304303 4:97.78531 
0.33197522677483693 1:69.836 2:353.007 3:-0.1421528 4:155.9451 
0.50478575499829015 1:104.314 2:404.776 3:-0.2346179 4:172.282 
0.50447530337798752 1:39.634 2:230.514 3:0.103678 4:133.2277 
0.48140047764849275 1:22.971 2:107.3 3:-0.2773538 4:163.9817 
0.50330165985716568 1:28.6536 2:66.9996 3:-0.2708353 4:165.4978 
0.49526685835316886 1:18.9669 2:119.4503 3:-0.1730325 4:106.6487 
0.5049115314573861 1:40.38 2:63.93994 3:0.1579376 4:121.7441 
0.49938912861050538 1:32.99698 2:278.607 3:-0.1251331 4:158.2412 
0.43032548399620946 1:19.4191 2:87.09061 3:-0.1548799 4:120.3186 
0.46231597735043006 1:21.9675 2:66.0056 3:-0.2576243 4:165.1737 
0.43604913094179376 1:23.069 2:77.62302 3:0.200287 4:138.5397 
0.50478657620812173 1:232.75 2:312.77 3:-0.198909 4:160.5182 
0.50461360645921927 1:18.134 2:184.205 3:0.2277043 4:119.0634 
0.50480051394937508 1:30.10699 2:174.125 3:-0.1821503 4:159.9496 
0.47713553817750004 1:30.03401 2:79.91701 3:0.1887779 4:115.8196 
0.339266106565562 1:35.058 2:123.872 3:0.1300825 4:137.2543 
0.50464076870830366 1:80.1001 2:92.47009 3:-0.2285742 4:148.6171 
0.53845427216656927 1:18.9148 2:44.3015 3:0.4090978 4:145.1069 
0.44375528037835454 1:45.87598 2:176.506 3:0.08486763 4:127.3252 
1 1:16.8425 2:57.3256 3:0.4408547 4:45.32204 
0.50473327062010598 1:36.043 2:253.842 3:-0.1667797 4:164.9348 
0.48423513733397267 1:89.05597 2:305.335 3:-0.09487846 4:158.6478 
0.4618451755434495 1:23.311 2:183.419 3:-0.1927194 4:155.0497 
0.28021273074881703 1:25.40201 2:75.804 3:-0.2053066 4:118.7778 
0.50457793425236619 1:42.33501 2:165.19 3:-0.1320027 4:164.748 
0.4223282971515 1:19.8934 2:66.81 3:0.6915999 4:88.82582 
0.50480238218430473 1:16.92599 2:212.269 3:0.2144584 4:46.22843 
0.5047288199095461 1:105.5439 2:350.2139 3:-0.2461411 4:168.2362 
0.4809379501242404 1:19.3224 2:73.12469 3:-0.1104538 4:101.6306 
0.50410310174161976 1:27.892 2:198.562 3:0.1374906 4:111.8508 
0.50421470424731141 1:43.112 2:213.628 3:0.2442888 4:164.8441 
0.5046402349279786 1:12.15399 2:126.68 3:0.09334982 4:100.1227 
0.18949412992459783 1:22.9561 2:93.0764 3:-0.08107382 4:119.4836 
0.50474581528471729 1:56.32001 2:268.979 3:-0.1445709 4:157.0904 
0.50144894051434241 1:55.978 2:250.073 3:-0.1340766 4:125.4273 
0.49162666138747479 1:35.59998 2:75.8999 3:0.2358466 4:167.3408 
0.50478533130689041 1:57.8261 2:76.3661 3:0.1893438 4:174.9627 
0.66126857239699521 1:20.23999 2:34.38 3:0.08369496 4:79.01762 
0.45180115116490543 1:26.15201 2:174.647 3:0.1930462 4:114.7265 
0.32974718350369048 1:26.664 2:173.52 3:-0.1966496 4:122.3291 
0.19853162049248632 1:22.2154 2:92.2673 3:-0.1663456 4:103.6411 
0.50455702417315462 1:68.01001 2:122.1 3:0.1092635 4:143.1678 
0.40618498794274294 1:36.327 2:207.765 3:0.1430746 4:134.0215 
0.16704027718393538 1:23.1825 2:52.06091 3:0.2709614 4:96.4889 
0.3755293941411148 1:29.3 2:140.004 3:0.115444 4:118.6322 
0.50452763103041465 1:26.0416 2:101.5712 3:-0.2447489 4:179.6265 
0.50478672885570353 1:64.4476 2:101.0816 3:0.2190093 4:92.65461 
0.50565393871652897 1:24.62101 2:45.91801 3:0.1585492 4:136.3589 
0.50297962269148244 1:31.42001 2:170.517 3:0.07166761 4:109.7468 
0.50466396534050229 1:17.017 2:116.682 3:0.2022699 4:48.35157 
0.50478696667054312 1:37.1825 2:37.09451 3:0.3805078 4:178.2065 
0.42436510785059012 1:27.1331 2:68.1601 3:-0.2548164 4:139.2374 
0.50471200522832849 1:57.604 2:296.194 3:0.2575167 4:144.3076 
0.50478724326430324 1:55.966 2:178.857 3:0.1260944 4:130.7503 
0.43468012683430712 1:28.88898 2:128.421 3:-0.1845035 4:131.6375 
0.49664036030681347 1:28.20801 2:146.402 3:0.09174325 4:105.6709 
0.3141761954180271 1:21.9443 2:102.0659 3:-0.1372929 4:157.5518 
0.41780083083175468 1:27.9849 2:72.5699 3:0.09422857 4:121.9556 
0.5047726407501768 1:84.155 2:282.35 3:0.06754287 4:136.9604 
0.50224534423664802 1:31.34399 2:174.942 3:0.2300307 4:108.0165 
0.50478642722192735 1:15.25098 2:195.058 3:-0.2851069 4:90.32822 
0.43546768325509666 1:20.23201 2:124.481 3:0.3574828 4:132.5631 
0.52996925116662208 1:21.2117 2:17.6556 3:0.1813899 4:144.7828 
0.50477155246393113 1:68.92401 2:116.968 3:-0.1196695 4:118.981 
0.50495954265728016 1:95.21802 2:290.488 3:-0.1339182 4:144.2664 
0.50426740571163209 1:20.08701 2:50.79599 3:0.258852 4:131.0057 
0.47595395281623465 1:29.72899 2:156.544 3:0.1247736 4:137.6059 
0.46855721266388239 1:22.4544 2:43.6843 3:-0.1938154 4:114.8748 
0.49120067169753734 1:30.3359 2:90.31129 3:0.2112557 4:145.9281 
0.49512858827431966 1:18.42599 2:180.526 3:0.3606666 4:142.8739 
0.4873473059402762 1:31.6179 2:115.8819 3:0.08894084 4:127.7098 
0.50450016320279334 1:33.461 2:231.562 3:0.1023083 4:130.2834 
0.33674732419983022 1:23.5512 2:108.1505 3:0.1186875 4:133.5436 
0.75673746773421358 1:20.4245 2:30.2525 3:-0.08889898 4:101.7899 
0.4461534319803877 1:19.7795 2:78.8501 3:0.2738194 4:109.6068 
0.50211869086671879 1:34.64001 2:98.22998 3:0.1226134 4:100.1254 
0.44356893503645156 1:44.81897 2:174.162 3:-0.1748044 4:126.2074 
0.5049512246692982 1:52.41498 2:231.214 3:-0.1918154 4:157.0657 
0.50474591196793495 1:66.789 2:201.069 3:0.1114902 4:115.0671 
0.49667885929569683 1:21.3086 2:97.2892 3:0.1824857 4:113.68 
0.79232616342654805 1:19.6087 2:45.3507 3:0.2536992 4:84.10986 
0.4800213720371066 1:0 2:111.707 3:0.1651158 4:164.5997 
0.50083788111913996 1:74.73901 2:262.163 3:-0.1170548 4:142.5827 
0.50476171563564431 1:39.937 2:132.112 3:-0.149623 4:159.9799 
0.27109586506433025 1:21.7441 2:108.8241 3:-0.1272998 4:132.1483 
0.49568931687883983 1:30.0053 2:109.5407 3:0.153929 4:128.5173 
0.50490677009940965 1:29.948 2:119.051 3:0.1688236 4:109.7331 
0.48379817017607607 1:34.16199 2:173.64 3:-0.3074167 4:90.96544 
0.50477639487718251 1:89.625 2:405.73 3:-0.1854199 4:179.0057 
0.50477276787467773 1:168.71 2:234.92 3:-0.1644061 4:168.6455 
0.50477207741711605 1:0 2:72.2849 3:-0.1122887 4:124.7517 
0.49796862251949159 1:36.17101 2:146.059 3:0.0980344 4:158.7494 
0.44043919691848143 1:32.64401 2:232.12 3:-0.1360459 4:145.9666 
0.50447974982011456 1:85.5618 2:91.2538 3:0.1991356 4:160.9577 
0.45397913204370993 1:25.6959 2:130.1129 3:-0.1618687 4:105.3166 
0.50421521861236196 1:97.06369 2:104.8517 3:-0.2179046 4:153.4429 
0.4959393420657916 1:16.39999 2:105.684 3:0.3887915 4:90.1387 
0.50329191824187203 1:16.80699 2:135.2 3:-0.3166419 4:148.7269 
0.44851466316541388 1:34.519 2:117.717 3:0.1154571 4:135.1586 
0.5039894150608516 1:19.51601 2:147.62 3:0.3370514 4:80.00092 
0.49995830860308049 1:40.04401 2:209.288 3:-0.1656088 4:132.585 
0.27220460382322886 1:29.444 2:156.192 3:-0.09920408 4:108.0357 
0.4725316909448477 1:24.0832 2:83.7874 3:-0.1122327 4:121.7276 
0.5049156663450155 1:20.96802 2:185.766 3:-0.1732991 4:148.0348 
0.50470753329270834 1:106.783 2:330.5829 3:-0.1565571 4:173.8146 
0.42147012807317907 1:31.373 2:99.34099 3:0.2776677 4:164.4129 
0.50488100038570405 1:0 2:81.8397 3:0.3168046 4:136.7929 
0.45142427176342936 1:33.423 2:112.148 3:0.1588257 4:133.7496 
0.50488536135097106 1:50.599 2:356.081 3:0.2210068 4:153.6571 
0.50477207815361047 1:59.86301 2:214.674 3:-0.2567984 4:168.1785 
0.50166305074174389 1:47.21199 2:128.928 3:0.2200153 4:137.3587 
0.504367242441774 1:135.635 2:437.9451 3:-0.2133996 4:170.0682 
0.43046558666841628 1:23.784 2:66.65405 3:0.1822254 4:97.92538 
0.44198004563789883 1:29.257 2:102.056 3:0.1444305 4:117.0034 
0.50480739222640691 1:28.5169 2:23.0529 3:0.2318703 4:104.5173 
0.50465661887961488 1:30.01001 2:51.63 3:-0.06008602 4:98.14236 
0.44528268738018351 1:29.33299 2:60.645 3:0.1934533 4:123.6365 
0.43074589798965757 1:24.297 2:87.41699 3:-0.3408321 4:99.65026 
0.50200228588331697 1:18.08499 2:142.925 3:0.1834017 4:81.94278 
0.51539143546018495 1:25.47998 2:20.34998 3:0.1000151 4:94.10483 
0.49233870303170352 1:18.72 2:128.041 3:0.1903015 4:161.4438 
0.50463643803754732 1:19.94501 2:186.055 3:0.1162088 4:102.526 
0.48657913848186096 1:47.491 2:212.091 3:0.1604779 4:115.3994 
0.49069864917125389 1:63.92401 2:198.59 3:-0.08822914 4:120.0522 
0.50464087566706961 1:150.23 2:520.54 3:-0.2007677 4:172.9 
0.49923927024456893 1:32.92299 2:131.191 3:-0.1079135 4:109.9995 
0.49618038359858319 1:23.3541 2:116.3886 3:-0.1982317 4:153.377 
0.47681709250499615 1:80.91202 2:293.96 3:-0.1225463 4:151.0204 
0.48721425256569656 1:21.12001 2:163.938 3:0.3242649 4:146.0188 
0.5041886338667585 1:110.21 2:417.6 3:-0.1650197 4:166.3822 
0.49135065052630655 1:24.66351 2:61.84251 3:-0.2614432 4:151.696 
0.49102475648894572 1:30.4276 2:99.7376 3:0.1603495 4:106.3548 
0.49769640613861443 1:24.73001 2:178.245 3:0.1467229 4:99.04326 
0.4364099934130018 1:45.522 2:193.01 3:0.05224883 4:129.2616 
0.50464300698787534 1:104.441 2:131.9009 3:0.2652953 4:147.2932 
0.39854901813995253 1:54.87396 2:243.387 3:0.09189203 4:132.9421 
0.50278638233925632 1:28.01099 2:189.006 3:0.214919 4:117.5308 
0.50490533406049121 1:89.384 2:318.322 3:-0.1992902 4:163.5285 
0.37553939485504084 1:22.9972 2:33.5553 3:0.2461369 4:110.7246 
0.4410166178796826 1:27.5186 2:89.57629 3:-0.1690258 4:149.919 
0.50123511374914653 1:38.159 2:131.664 3:-0.1802001 4:129.8988 
0.43777323174668442 1:20.8338 2:65.9273 3:-0.4782349 4:92.57771 
0.50433159510372627 1:30.62402 2:233.835 3:0.1309913 4:119.1321 
0.50472626278786481 1:73.56702 2:347.598 3:0.1135295 4:142.1653 
0.48122300203850304 1:23.85901 2:186.872 3:-0.125839 4:96.00275 
0.49213282624023846 1:61.18597 2:248.206 3:-0.2148715 4:144.2362 
0.44815735532693968 1:19.5487 2:114.119 3:0.1276992 4:111.3976 
0.43069466016910329 1:20.4237 2:70.16679 3:-0.4495321 4:95.50835 
0.49910519258431663 1:24.99799 2:135.127 3:-0.2365552 4:149.9272 
0.50410795324410451 1:23.02 2:95.43301 3:-0.2137221 4:144.3076 
0.50471028762506165 1:145.26 2:201.25 3:-0.1567783 4:169.5546 
0.43932636840808953 1:28.99899 2:144.166 3:-0.2766673 4:95.08537 
0.41955351888270737 1:25.98241 2:91.1124 3:-0.147398 4:144.6949 
0.50389088516123715 1:33.41699 2:175.35 3:0.134072 4:112.6171 
0.50478552164416213 1:0 2:103.196 3:-0.2392862 4:123.7601 
0.5046715277430559 1:161.0801 2:395.7301 3:-0.1674849 4:169.1838 
0.50493365420963499 1:70.155 2:228.11 3:0.2110792 4:162.2129 
0.45970231625967084 1:35.793 2:189.074 3:0.121691 4:119.8572 
0.50486999366469032 1:64.64001 2:295.176 3:0.1031919 4:143.3216 
0.50495100705422546 1:68.35101 2:276.72 3:-0.08061547 4:122.5489 
0.50464432896805356 1:57.73599 2:354.248 3:-0.1251562 4:148.6555 
0.50506092408923076 1:17.0626 2:97.4999 3:-0.1744615 4:103.9762 
0.50458978442885094 1:18.771 2:105.37 3:0.4768966 4:174.949 
0.48102162080834776 1:21.1127 2:75.5402 3:-0.2040242 4:143.4891 
0.42408540765903741 1:18.6507 2:76.714 3:0.2709156 4:102.3008 
0.50478477564813606 1:65.6185 2:86.37289 3:-0.1721603 4:136.716 
0.50482243438788055 1:47.00299 2:289.482 3:-0.1139623 4:129.0721 
0.50474509182339311 1:35.141 2:102.754 3:-0.1355987 4:109.2689 
0.50402679931842753 1:46.11298 2:129.385 3:0.1729937 4:109.8073 
0.50494744738711439 1:65.18005 2:94.12 3:0.1727259 4:126.287 
0.47794080191893795 1:25.36398 2:182.097 3:0.1786563 4:94.92332 
0.49719012947132624 1:37.38098 2:110.986 3:-0.1654937 4:131.36 
0.39004662600279227 1:21.68597 2:151.806 3:0.4442269 4:164.0421 
0.36810425183534401 1:21.883 2:83.4063 3:-0.2080709 4:117.0886 
0.50179175127874043 1:59 2:252.511 3:0.1422766 4:127.6851 
0.50463898127877937 1:33.117 2:157.027 3:0.1905075 4:150.9242 
0.50478601594232586 1:70.10999 2:81.40002 3:0.1743807 4:124.7709 
0.50476398798551048 1:73.48596 2:252.368 3:0.2545852 4:156.39 
0.50494879684317362 1:72.255 2:223.116 3:0.0974308 4:125.886 
0.49516187095788111 1:19.25299 2:157.719 3:-0.09723214 4:72.60975 
0.49106448885476761 1:63.05798 2:243.462 3:-0.1127913 4:120.5246 
0.21706662654858816 1:20.1885 2:67.9504 3:-0.2161085 4:139.6933 
0.51382831763536463 1:20.2417 2:56.6614 3:0.2882226 4:97.59304 
0.49220459414608542 1:26.6 2:76.43501 3:-0.2764095 4:94.24216 
0.36109784665269595 1:30.6738 2:119.5498 3:-0.1964853 4:124.0403 
0.44268259749717503 1:17.9675 2:85.1273 3:0.2459144 4:147.6722 
0.51185572791399658 1:26.97 2:48.4861 3:0.2148416 4:113.6745 
0.37168672223621002 1:21.39799 2:78.43898 3:0.2612525 4:107.3518 
0.49154084847083135 1:26.61499 2:156.145 3:-0.1268779 4:139.7565 
0.23412104290194549 1:25.082 2:76.01971 3:0.1478131 4:118.4317 
0.50477242430408409 1:135.22 2:193.35 3:-0.1078649 4:138.0975 
0.50087372177975298 1:50.76599 2:181.721 3:0.1594221 4:123.7244 
0.34488618607112553 1:27.64502 2:175.645 3:0.1963919 4:138.4683 
0.50484701063462079 1:65.25995 2:195.777 3:-0.1125935 4:125.5399 
0.50007844531515588 1:26.609 2:89.528 3:-0.2657994 4:161.8833 
0.49245325369938908 1:24.44501 2:160.46 3:0.1379274 4:93.36874 
0.50464079094829928 1:51.38397 2:260.226 3:0.1334375 4:113.4383 
0.50482195533581742 1:101.2702 2:73.11021 3:-0.1214578 4:96.26917 
0.50479597756982431 1:31.59801 2:94.306 3:0.3464143 4:157.2387 
0.50000007776618804 1:19.6112 2:73.3826 3:0.3115283 4:150.1881 
0.45531181398063791 1:27.8034 2:67.06129 3:0.2160348 4:158.6395 
0.50429963141780232 1:16.88 2:120.335 3:0.1191165 4:113.518 
0.14836543379288744 1:24.91498 2:152.383 3:0.1103134 4:97.22774 
0.50206134819973069 1:42.73399 2:162.518 3:0.1583177 4:149.5839 
0.50462996644217983 1:43.6197 2:55.0496 3:-0.07599934 4:132.8652 
0.49398539446814588 1:62.05005 2:230.02 3:-0.1682614 4:161.1142 
0.50482633585074488 1:164.325 2:508.176 3:-0.1467182 4:158.0902 
0.49246077653512638 1:18.53198 2:130.846 3:0.3153937 4:158.8318 
0.47749697222539572 1:27.45001 2:138.658 3:0.184003 4:125.7377 
0.4979142961818076 1:37.922 2:117.339 3:0.2730737 4:138.1332 
0.48053073235431415 1:21.3004 2:77.41069 3:-0.3128298 4:156.6427 
0.50482804924495017 1:124.764 2:366.875 3:-0.1292045 4:145.8073 
0.48583254577135726 1:30.25198 2:202.271 3:0.1261649 4:153.7093 
0.50405209296472075 1:22.6178 2:58.501 3:0.3855601 4:161.3889 
0.49158949805793606 1:24.09497 2:87.29395 3:0.1016448 4:93.41817 
0.50016857365961409 1:98.91205 2:338.3041 3:0.1645009 4:147.1174 
0.5042517171059121 1:23.01199 2:155.418 3:0.1329096 4:126.7457 
0.50486280430309294 1:113.506 2:402.56 3:-0.09158337 4:147.3866 
0.44582734994464301 1:22.158 2:73.59 3:0.655875 4:165.2836 
0.40454131846590202 1:29.42799 2:216.328 3:0.07904761 4:139.3115 
0.50473564249044034 1:84.091 2:382.966 3:-0.1073858 4:142.2834 
0.36961968983435078 1:21.5488 2:117.3143 3:0.1100151 4:124.7077 
0.46043307117973875 1:16.3642 2:58.5712 3:0.3391393 4:32.40192 
0.44957320866479478 1:35.3345 2:114.0745 3:-0.1612212 4:135.2493 
0.50480338872239006 1:182.6201 2:434.14 3:-0.2855029 4:179.9231 
0.5049961935589683 1:47.53101 2:159.912 3:0.1529889 4:138.7677 
0.50430826990689603 1:39.17899 2:159.468 3:-0.209765 4:120.4504 
0.50175393084661679 1:23.25403 2:209.735 3:0.1233169 4:96.87343 
0.5046747414921926 1:18.477 2:181.036 3:0.2435196 4:165.9428 
0.50216048519544099 1:28.5013 2:103.052 3:0.1283102 4:144.7224 
0.50478408209410808 1:32.83201 2:63.92001 3:-0.2115773 4:148.5072 
0.56788724658350764 1:15.9557 2:63.09971 3:0.343257 4:154.6377 
0.40614639974174366 1:22.63901 2:120.977 3:0.3271212 4:125.8283 
0.50482236380715018 1:82.574 2:196.307 3:0.1783759 4:165.3797 
0.45504835466772009 1:28.849 2:137.139 3:-0.2346449 4:130.0691 
0.50482186043253596 1:245.6 2:428.0801 3:-0.1648455 4:173.4026 
0.24375126983717477 1:22.5022 2:64.6707 3:-0.1509099 4:112.7709 
0.50478592441799819 1:63.703 2:289.815 3:-0.1624058 4:157.9748 
0.32539741560617441 1:18.2162 2:87.2622 3:-0.2339139 4:70.6981 
0.40108199488085411 1:22.4788 2:61.16409 3:-0.08436874 4:106.8931 
0.50486490325696942 1:156.66 2:423.75 3:-0.1204137 4:157.3239 
0.50439519424186863 1:31.19998 2:226.781 3:-0.1069043 4:128.7535 
0.5047231469330753 1:32.7101 2:233.7761 3:-0.06338482 4:167.9945 
0.50482141656224566 1:89.42419 2:58.9772 3:0.2008257 4:121.0245 
0.44364442351797506 1:41.31201 2:156.694 3:-0.1818962 4:141.0913 
0.50488844024451551 1:31.838 2:291.045 3:0.2235387 4:146.8867 
0.50482279282976117 1:112.055 2:323.6121 3:0.09374706 4:134.6862 
0.504824983754112 1:64.64301 2:335.479 3:0.1267571 4:120.813 
0.50481596788831018 1:19.33699 2:158.935 3:0.1209962 4:122.3044 
0.50475360302777517 1:97.6158 2:52.4688 3:0.1980819 4:139.6027 
0.13773857371172887 1:21.0394 2:79.0063 3:-0.2493014 4:125.1142 
0.50486151384880662 1:136.911 2:93.55 3:0.0849838 4:139.6191 
0.43849565404192181 1:38.4443 2:136.8558 3:-0.09352873 4:128.4129 
0.50334605853841841 1:19.36099 2:134.668 3:0.228131 4:86.48844 
0.50396101369562385 1:56.83099 2:212.218 3:-0.1186152 4:126.8666 
0.46609063746273749 1:28.812 2:91.606 3:0.3995219 4:139.9295 
0.50482658258777469 1:59.31302 2:183.086 3:-0.1640772 4:146.1698 
0.43188912919055478 1:19.215 2:90.07098 3:0.1832845 4:118.9041 
0.44859828315493688 1:19.54401 2:128.647 3:0.2413382 4:123.0076 
0.49323097405167327 1:17.7691 2:70.4381 3:-0.2301479 4:146.2357 
0.41928899752058424 1:24.89301 2:109.849 3:-0.153579 4:94.58274 
0.74648133033655939 1:18.045 2:68.7258 3:0.4278488 4:121.9529 
0.48410727000794607 1:47.64404 2:216.571 3:0.1116667 4:122.0352 
0.42989626667711311 1:29.47801 2:144.707 3:-0.1845708 4:131.404 
0.50289858039844826 1:45.13898 2:193.736 3:0.1693683 4:122.2028 
0.50488454699418328 1:50.5088 2:56.5448 3:-0.1459508 4:138.9627 
0.44382356081886798 1:34.56801 2:145.2 3:0.1864333 4:137.7844 
0.50482131371903671 1:40.28601 2:286.943 3:-0.1450434 4:169.8567 
0.4936731294320309 1:26.01599 2:159.644 3:0.137508 4:103.8526 
0.50481377661502669 1:50.92603 2:255.777 3:-0.07748083 4:142.1872 
0.50167304378402355 1:26.60101 2:71.294 3:-0.1736853 4:92.16296 
0.50369175929666754 1:26.30698 2:204.143 3:0.299419 4:93.58572 
0.50449780797004518 1:35.13501 2:277.744 3:0.2099948 4:152.9458 
0.50468290868917232 1:38.584 2:236.343 3:-0.2600251 4:153.3962 
0.50369674736601366 1:60.09601 2:335.938 3:-0.1336221 4:155.0634 
0.50315533746371632 1:21.5507 2:78.6256 3:-0.3990502 4:167.7638 
0.5042996569707463 1:12.705 2:86.651 3:0.4088956 4:149.7981 
0.46713848579369871 1:28.70502 2:176.09 3:0.1961263 4:92.78645 
0.48633112375611576 1:28.392 2:120.951 3:-0.2355416 4:93.7203 
0.50184246845079361 1:49.211 2:216.048 3:-0.1821301 4:116.9485 
0.50461457023925793 1:32.28998 2:131.617 3:-0.1679482 4:169.4118 
0.50442639686297841 1:31.85297 2:124.654 3:0.07174124 4:95.35455 
0.50394950756654544 1:57.26602 2:210.766 3:0.1124809 4:122.038 
0.50472596121182023 1:65.13495 2:208.9979 3:0.2077876 4:142.819 
0.33115611932883104 1:21.19 2:92.241 3:0.3034168 4:133.5244 
0.47785138048294507 1:46.33405 2:196.958 3:0.1244687 4:127.4488 
0.5045760043800035 1:27.263 2:120.722 3:0.1657847 4:172.0568 
0.50482857580515828 1:125.5466 2:29.0616 3:0.2243484 4:153.171 
0.39704807145313181 1:25.257 2:108.599 3:0.3396652 4:131.6512 
0.49204094580583013 1:17.9192 2:99.38161 3:0.2455334 4:116.2151 
0.50203364731743116 1:56.22601 2:245.269 3:0.1549515 4:157.0217 
0.50471262539026007 1:73.06104 2:192.014 3:-0.1921568 4:147.219 
0.48805374927153117 1:28.70502 2:86.07501 3:-0.1855075 4:89.95743 
0.50465071092034286 1:40.0534 2:132.3574 3:-0.2482545 4:167.7418 
0.43722869076242094 1:33.73 2:147.798 3:-0.1569021 4:137.1087 
0.46444970909377736 1:25.27699 2:165.228 3:0.09363604 4:113.724 
0.44867503756481458 1:35.43698 2:168.356 3:0.09007657 4:96.24719 
0.50461064444310577 1:39.06401 2:177.51 3:-0.06602563 4:123.5431 
0.36132836166204974 1:26.8465 2:104.6587 3:-0.1765358 4:115.4708 
0.50179794898674479 1:47.67902 2:198.491 3:0.07150877 4:116.7398 
0.50448488515671608 1:28.91699 2:167.195 3:-0.1138857 4:104.3442 
0.50150241363320114 1:43.15399 2:179.338 3:-0.09775459 4:118.7283 
0.50490531558204854 1:83.42099 2:372.55 3:0.1248703 4:155.7501 
0.50480480798930505 1:113.1899 2:160.37 3:0.1281078 4:136.8945 
0.50487138662117292 1:32.57301 2:95.406 3:0.2498663 4:179.7995 
0.45504155010891156 1:35.88501 2:165.431 3:0.05049312 4:95.98901 
0.50447335332797327 1:105.2338 2:82.6118 3:0.1585001 4:159.0762 
0.50218412455239081 1:33.06897 2:154.993 3:0.3707728 4:157.2634 
0.48445545743478319 1:29.69904 2:166.063 3:0.1214053 4:128.8496 
0.50412419971057165 1:48.90298 2:186.641 3:-0.1890698 4:151.339 
0.32717607280996014 1:26.03481 2:61.6891 3:-0.1016982 4:128.3223 
0.46309489438790874 1:33.08701 2:148.132 3:0.114549 4:141.0913 
0.49364606474871953 1:28.19501 2:90.43896 3:-0.1733025 4:94.43168 
0.35171350168638571 1:21.8821 2:53.5227 3:-0.2914536 4:103.4653 
0.50456722977135959 1:42.23102 2:165.488 3:0.2584281 4:157.6315 
0.48962690059347458 1:22.8081 2:79.0705 3:-0.2024185 4:112.5759 
0.49345358780020432 1:24.5172 2:156.1913 3:0.1043165 4:114.471 
0.50016315396102407 1:18.3504 2:93.7039 3:-0.1788153 4:112.8753 
0.40158123060166251 1:21.60699 2:133.448 3:0.4334609 4:147.4113 
0.50483985694784927 1:41.14499 2:246.09 3:0.108379 4:177.1325 
0.50488113757941733 1:128.5 2:228.51 3:0.156676 4:132.368 
0.49887547285693046 1:33.92102 2:145.1801 3:0.1744546 4:127.2374 
0.50462180060363382 1:30.977 2:36.67 3:0.1026099 4:137.257 
0.46060415045091013 1:26.2354 2:133.7294 3:-0.1365345 4:121.7963 
0.50057818035208679 1:23.95599 2:151.776 3:0.09688094 4:111.7519 
0.50475516838612022 1:56.32007 2:133.6 3:-0.132485 4:138.6194 
0.50124954735185501 1:22.9665 2:141.2075 3:0.2403387 4:123.4168 
0.3493085436051856 1:24.26202 2:191.932 3:-0.3467865 4:90.99565 
0.50488169626491275 1:38.881 2:63.093 3:-0.26326 4:95.75006 
0.28393479301667296 1:31.71802 2:272.956 3:-0.1715237 4:95.00847 
0.50493321582884254 1:74.86804 2:239.6531 3:0.1212019 4:109.8183 
0.50174218301812334 1:29.161 2:126.252 3:0.124772 4:120.2966 
0.40238726780287626 1:38.26199 2:89.54399 3:-0.1914249 4:141.1545 
0.38552544482323842 1:35.144 2:161.857 3:0.1218669 4:129.4621 
0.49749326501024632 1:26.7913 2:113.6098 3:0.1669349 4:135.1366 
0.50494958889769814 1:34.09201 2:289.385 3:0.2878993 4:139.7675 
0.50494638883896803 1:106.677 2:355.059 3:-0.1733736 4:176.4733 
0.479766402492944 1:0 2:113.642 3:0.4621102 4:161.7734 
0.50453537323313002 1:35.97501 2:108.833 3:0.1310068 4:123.8975 
0.50487804756878718 1:71.9579 2:83.5419 3:0.3413537 4:141.1957 
0.50493304656709925 1:57.4885 2:51.5174 3:0.3611673 4:72.92012 
0.50469864495491457 1:26.23898 2:218.637 3:-0.1363263 4:105.6956 
0.50362453985267219 1:33.71701 2:149.918 3:-0.1336899 4:97.94736 
0.35438759246130469 1:20.4347 2:70.7009 3:-0.4256316 4:90.40513 
0.50434418015631866 1:33.32401 2:241.645 3:0.0656289 4:107.3545 
0.50468933293916085 1:89.12799 2:338.871 3:-0.1046411 4:160.7269 
0.47999083759098443 1:25.158 2:93.409 3:0.129262 4:109.3596 
0.50345114966147975 1:30.30399 2:198.275 3:0.0879287 4:107.3216 
0.50180227553314671 1:19.7221 2:60.6184 3:-0.2638192 4:122.9389 
1 1:24.789 2:60.4321 3:0.2262271 4:145.0877 
0.43468889511130948 1:18.0818 2:110.9383 3:0.2345862 4:105.5994 
0.097149799305794926 1:31.32901 2:127.765 3:-0.1451229 4:139.4379 
0.40751038012179142 1:39.66599 2:165.803 3:-0.08934522 4:107.8352 
0.50491096175107641 1:110.658 2:258.821 3:0.07922732 4:152.6519 
0.50442979718970482 1:33.77499 2:165.231 3:0.08849506 4:105.6599 
0.50491294461237723 1:30.285 2:270.284 3:0.1151698 4:175.6768 
0.50360328790434672 1:16.627 2:106.086 3:0.3863312 4:138.5754 
0.3306597319757717 1:70.633 2:352.721 3:-0.06448007 4:154.5773 
0.39929857324672569 1:41.263 2:190.351 3:-0.2054574 4:106.547 
0.50492674273080718 1:101.12 2:198.5499 3:-0.1614172 4:153.7203 
0.50425012608692132 1:17.27901 2:85.216 3:0.434659 4:94.17899 
0.50494175058642299 1:61.82001 2:231.735 3:0.1022366 4:132.3131 
0.50495598320141655 1:146.49 2:326.9501 3:0.130103 4:155.5029 
0.50482647968033278 1:36.40698 2:194.724 3:-0.1927539 4:141.2287 
0.45947580710642788 1:29.186 2:91.62799 3:0.1094418 4:126.883 
0.49829979438998229 1:18.5493 2:115.3733 3:0.4014814 4:141.8357 
0.50431928533785153 1:51.04797 2:212.034 3:-0.1614234 4:149.2021 
0.49469785753348938 1:23.49001 2:131.078 3:0.2461371 4:140.8661 
0.50412053785402455 1:55.59497 2:244.493 3:0.1837283 4:111.9744 
0.38766759168658776 1:26.776 2:83.48401 3:0.09674032 4:127.8773 
0.43426793714075684 1:0 2:84.0782 3:-0.08685506 4:129.5802 
0.25361264069169376 1:26.734 2:84.198 3:-0.1890005 4:111.1888 
0.41710489686610397 1:22.3736 2:84.93851 3:-0.2170954 4:110.1369 
0.41905988629576874 1:20.106 2:116.708 3:0.2672608 4:131.4891 
0.48549229690302398 1:25.72399 2:127.55 3:0.451967 4:149.4246 
0.47167968900350948 1:28.93301 2:149.453 3:0.1229576 4:110.2357 
0.32089779338993785 1:19.5431 2:78.5592 3:0.3707317 4:104.91 
0.47233501452235171 1:22.9436 2:107.7595 3:0.2683979 4:125.9712 
0.34462642100218199 1:28.30701 2:172.686 3:-0.2809196 4:139.0835 
0.50456658913992047 1:36.36798 2:154.61 3:0.1148489 4:95.25292 
0.39638649145412447 1:28.879 2:184.347 3:-0.3280158 4:90.61112 
0.50080111003434913 1:23.33501 2:76.84401 3:-0.2802735 4:90.02609 
0.50488713587516376 1:42.91602 2:341.609 3:-0.1430602 4:156.7306 
0.50113246837754855 1:15.669 2:98.492 3:0.4123228 4:28.15289 
0.43318456335941558 1:29.00201 2:94.75397 3:0.1656048 4:122.0957 
0.3557935432376006 1:21.7708 2:59.8645 3:0.07182201 4:129.2644 
0.41525763189890919 1:37.254 2:118.847 3:0.145308 4:150.4573 
0.49031688990833189 1:22.1615 2:43.2918 3:0.3643137 4:122.2083 
0.50488005481103759 1:96.50403 2:326.1591 3:0.1455303 4:128.8029 
0.48475121266966187 1:22.89901 2:65.64001 3:-0.3391542 4:87.43328 
0.29706629915687804 1:23.6012 2:86.779 3:0.1631643 4:105.8851 
0.50488119772642714 1:110.8493 2:92.7343 3:0.1384411 4:129.8357 
0.50494916671143319 1:128.033 2:438.173 3:-0.1680952 4:158.6999 
0.50495699011442063 1:85.35303 2:351.128 3:-0.130145 4:123.079 
0.48162346357021457 1:31.64799 2:182.328 3:0.06872844 4:113.518 
0.47726957523379698 1:27.6644 2:133.1509 3:0.1808475 4:173.5235 
0.47778513232289122 1:36.4598 2:86.62981 3:0.1441943 4:110.5544 
0.50491261637753926 1:57.76599 2:349.719 3:-0.1745149 4:130.4674 
0.50463870764042906 1:60.878 2:122.469 3:0.07906072 4:155.8846 
0.50455075148844142 1:31.1971 2:72.3011 3:-0.1521627 4:109.3431 
0.31855463772921483 1:30.7791 2:97.78629 3:-0.1384717 4:122.6944 
0.50489468266511961 1:30.90201 2:302.673 3:0.2259173 4:147.3371 
0.50308675956349069 1:24.981 2:148.083 3:-0.1530131 4:122.8263 
0.50306143806774017 1:28.5418 2:74.8788 3:0.1563727 4:149.518 
0.48997449472029764 1:64.62199 2:55.871 3:0.3269918 4:116.8057 
0.50491589209766352 1:104.3057 2:73.6497 3:0.4133481 4:166.9783 
0.39556343239649217 1:24.6969 2:90.6712 3:-0.281721 4:97.00252 
0.50490283191010721 1:34.5918 2:151.0658 3:-0.3912621 4:168.173 
0.44150684864783535 1:27.5134 2:47.7821 3:-0.1380502 4:117.0996 
0.50494366994132622 1:123.0534 2:62.8214 3:0.3555003 4:101.1774 
0.50487776271392559 1:112.867 2:398.4 3:0.1678232 4:131.9149 
0.50478674166945314 1:59.084 2:139.29 3:-0.1101858 4:151.2374 
0.50465918848456526 1:31.28601 2:226.447 3:0.1819135 4:137.5262 
0.3625695756952505 1:20.0262 2:105.8781 3:0.2522962 4:153.4264 
0.50487071558843355 1:78.82007 2:150.3201 3:-0.1415614 4:147.7491 
0.50493264956964967 1:76.23999 2:192.0801 3:0.08598031 4:137.0098 
0.49642716820414434 1:23.34451 2:76.4985 3:-0.2329121 4:147.2218 
0.3854402752197591 1:19.3397 2:114.1269 3:0.2885472 4:74.91417 
0.50487830879980167 1:17.1385 2:129.3122 3:0.1731196 4:57.85763 
0.5048776074308311 1:87.43103 2:340.28 3:0.1704477 4:138.3145 
0.50331206412397222 1:29.98699 2:84.941 3:0.4338068 4:167.4946 
0.41939961093336303 1:31.4079 2:64.0616 3:-0.1103297 4:126.5013 
0.49728442705797149 1:30.13602 2:142.798 3:0.06736875 4:105.2781 
0.49228636281571386 1:24.6748 2:123.3929 3:0.1502321 4:122.4198 
0.50468778951152182 1:0 2:88.7937 3:-0.2755883 4:167.7665 
0.43392917730842312 1:36.142 2:135.467 3:-0.1139729 4:128.9567 
0.4485210988221594 1:19.108 2:131.455 3:0.2581392 4:122.5159 
0.5047538750931243 1:48.3166 2:104.0272 3:-0.1452188 4:146.3127 
0.44852257427399495 1:29.7621 2:76.6331 3:0.1756115 4:105.2534 
0.50488021834341712 1:18.81097 2:227.705 3:0.3773375 4:144.0879 
0.50370014730425483 1:19 2:54.925 3:0.3597796 4:160.5594 
0.50485048025525869 1:42.13901 2:207.689 3:0.09088385 4:126.9929 
0.41806153340785462 1:21.936 2:153.652 3:0.1784756 4:145.67 
0.46145604470679202 1:78.08997 2:296.614 3:0.1882226 4:152.6546 
0.47007637695643201 1:32.8158 2:44.7278 3:-0.241382 4:124.2573 
0.50487608880744139 1:22.19098 2:155.93 3:-0.1734152 4:82.04715 
0.6417363047576703 1:16.5798 2:46.7507 3:0.4269851 4:108.412 
0.49915524367096192 1:37.09998 2:279.643 3:0.09918053 4:157.7221 
0.50493287478181081 1:62.76501 2:276.937 3:-0.1682809 4:152.1657 
0.47933053940986614 1:21.2808 2:136.7988 3:-0.141408 4:147.469 
0.27338112708223733 1:24.05 2:93.03619 3:-0.2544976 4:97.54086 
0.5040363538830922 1:55.44104 2:197.475 3:0.08791979 4:117.3028 
0.50487623717857011 1:16.57199 2:208.138 3:-0.1437021 4:156.9943 
0.48755043006709586 1:17.0363 2:60.9623 3:0.2417745 4:87.29321 
0.50417848076510641 1:15.22 2:63.942 3:0.2685504 4:179.9258 
0.18233957509317864 1:25.4765 2:61.0658 3:-0.1855851 4:127.4791 
0.4759916781599105 1:34.5129 2:83.97689 3:0.249991 4:109.7304 
0.50133362937684767 1:33.357 2:175.534 3:-0.1120618 4:125.7899 
0.50476314801618172 1:55.073 2:353.997 3:-0.07715862 4:163.0616 
0.50482819521743028 1:66.97998 2:97.47998 3:-0.1005166 4:141.0199 
0.50471579949712697 1:41.3592 2:63.985 3:0.2765349 4:159.697 
0.50449212142940891 1:27.2386 2:80.9539 3:-0.208886 4:157.1481 
0.35629023752193778 1:21.349 2:70.435 3:0.3248506 4:87.56512 
0.35072815268468699 1:22.558 2:192.458 3:-0.1193578 4:90.78691 
0.50347453480904614 1:45.867 2:352.688 3:-0.2686678 4:162.6633 
0.50487617817095287 1:46.20099 2:69.71999 3:-0.1804365 4:108.3076 
0.43556950871848943 1:22.2285 2:71.9649 3:0.2667688 4:92.69306 
0.39252591146825344 1:30.369 2:154.176 3:-0.07685474 4:113.7404 
0.81321319741112141 1:18.40611 2:71.43171 3:0.4601702 4:120.1154 
0.49629868609287708 1:34.117 2:86.774 3:0.1933711 4:135.4031 
0.50451941922864019 1:42.349 2:128.753 3:0.1590606 4:145.6617 
0.49946338588173761 1:35.298 2:187.857 3:-0.1393281 4:100.3259 
0.48735649949364734 1:29.93101 2:173.38 3:-0.1450792 4:150.6386 
0.50488173668761938 1:100.1905 2:52.3955 3:-0.1057222 4:130.5663 
0.49975230773717277 1:31.771 2:162.014 3:0.2716962 4:147.8618 
0.50488006037892053 1:59.57899 2:203.141 3:0.07259129 4:141.2726 
0.49999911540267677 1:22.34302 2:147.334 3:0.1695863 4:92.71778 
0.50459922786349642 1:51.97998 2:136.5 3:-0.1058339 4:136.3671 
0.50487439459709194 1:0 2:151.555 3:-0.100496 4:132.5026 
0.38231156263668009 1:40.995 2:181.999 3:-0.1040277 4:154.6239 
0.50347268790783284 1:31.632 2:191.702 3:0.1472815 4:142.5827 
0.47291776422574028 1:27.4298 2:155.7345 3:-0.052134 4:134.5928 
0.43786714076285033 1:81.41992 2:60.12 3:0.1548586 4:126.4326 
0.36061468168555899 1:33.36499 2:182.295 3:-0.1363853 4:98.23849 
0.50487438708234511 1:77.56702 2:325.814 3:0.1929151 4:154.4207 
0.48472655446735147 1:39.44696 2:165.199 3:-0.08702026 4:121.2964 
0.504880224672831 1:93.50995 2:269.04 3:-0.1147453 4:119.4891 
0.50482345078866353 1:44.04202 2:253.626 3:-0.07099948 4:124.488 
0.50058224241853411 1:33.4008 2:101.7778 3:-0.1559558 4:115.7977 
0.50304339790679831 1:20.7571 2:84.0116 3:-0.1770714 4:157.3019 
0.32830824563370548 1:23.8247 2:91.56529 3:-0.135749 4:119.1431 
0.50490488609271578 1:17.6374 2:103.6401 3:-0.313038 4:100.032 
0.50468067368805714 1:0 2:117.785 3:0.3090457 4:102.938 
1 1:21.2914 2:39.9268 3:0.1462396 4:114.8666 
0.43496640135950448 1:27.7191 2:92.92811 3:-0.1707 4:129.594 
0.50487107216396931 1:26.51901 2:222.162 3:0.2788633 4:112.3836 
0.433863353073208 1:25.3845 2:109.9575 3:-0.3087332 4:104.6354 
0.49777570416690625 1:26.4346 2:51.6626 3:-0.2112551 4:104.4733 
0.56973979680133313 1:20.035 2:54.01801 3:0.439217 4:92.46784 
0.49079798100095406 1:26.6357 2:84.1707 3:-0.2699125 4:135.5459 
0.47843792353900805 1:34.019 2:119.505 3:-0.1723701 4:153.8082 
0.24279285670505898 1:39.34399 2:155.325 3:0.322738 4:138.9682 
0.40515113443174666 1:28.95099 2:173.435 3:0.1811742 4:94.90685 
0.47982705572941931 1:26.339 2:103.302 3:-0.221273 4:89.38613 
0.50496140517622878 1:103.971 2:249.5801 3:-0.1569387 4:147.2657 
0.8773673851010646 1:19.3139 2:38.5414 3:0.2488351 4:74.09567 
0.50495143630058048 1:81.67303 2:349.909 3:0.156357 4:135.7656 
0.48897206435312079 1:26.2929 2:69.9843 3:-0.2271486 4:149.886 
0.30526244863437413 1:26.286 2:89.90301 3:0.1765443 4:103.4131 
0.47394184991247063 1:23.6461 2:64.4231 3:0.177008 4:128.8524 
0.36178836778686885 1:20.9143 2:88.8185 3:0.1422048 4:102.8556 
0.39577490453202047 1:36.17297 2:216.516 3:0.1244555 4:138.1772 
0.44858606774555054 1:23.1604 2:91.5765 3:-0.08238302 4:126.4079 
0.5045781082392411 1:49.5756 2:62.3974 3:0.07304793 4:124.5649 
0.43099820845729053 1:30.07697 2:184.132 3:0.2087337 4:93.33303 
0.42811939469793303 1:20.91301 2:114.213 3:0.2380774 4:133.9666 
0.47028945947729894 1:26.85201 2:80.25101 3:-0.2320384 4:92.02563 
0.38815983845877444 1:26.2015 2:85.1022 3:-0.193112 4:125.3779 
0.32616354328392627 1:27.496 2:254.115 3:0.2881014 4:145.7853 
0.50433833492895497 1:31.40099 2:156.106 3:-0.1860535 4:166.797 
0.37241086536724499 1:20.2011 2:105.848 3:-0.2235852 4:156.0275 
0.50472656909041091 1:38.37802 2:173.572 3:-0.1529388 4:98.05722 
0.50491907984276896 1:52.54004 2:397.888 3:0.2445089 4:179.9561 
0.44796508520220901 1:29.36099 2:119.626 3:0.3633613 4:155.0964 
0.50492800787991143 1:59.38 2:177.4701 3:-0.133559 4:141.2122 
0.17507148596638519 1:42.83398 2:191.608 3:0.1084531 4:130.6789 
0.46681237761358052 1:18.7207 2:58.183 3:-0.34389 4:168.8927 
0.46501078946599894 1:30.207 2:141.567 3:-0.1959744 4:154.8959 
0.48163402973856689 1:46.97998 2:181.2899 3:0.1895009 4:112.2106 
0.50351572921236087 1:25.2 2:147.637 3:0.2009349 4:115.3857 
0.48824702369798012 1:29.414 2:123.76 3:0.2304864 4:165.0501 
0.50487110372222732 1:132.868 2:501.298 3:-0.1381638 4:165.8439 
0.50473523914254381 1:62.42603 2:217.892 3:-0.1686798 4:147.9222 
0.42504258739499218 1:44.431 2:187.808 3:0.1876934 4:107.2172 
0.50469637268105949 1:40.96999 2:218.609 3:0.1276465 4:109.6095 
0.42039668171293243 1:24.4496 2:112.0448 3:-0.3945677 4:169.5189 
0.50492449657976357 1:128.1899 2:213.76 3:0.1037673 4:145.4996 
0.26300553568232682 1:25.2038 2:70.6044 3:0.4339791 4:153.5418 
0.50379996406171723 1:28.48999 2:128.184 3:-0.1763714 4:162.5425 
0.50487113582414689 1:111.587 2:288.303 3:-0.130616 4:164.8771 
0.50487061154606938 1:0 2:125.367 3:0.3609356 4:156.4916 
0.5048213947748672 1:41.96201 2:181.276 3:-0.1438534 4:98.59281 
0.46734626961628617 1:33.53111 2:95.2851 3:-0.07733767 4:132.2307 
0.50401299260835319 1:66.774 2:166.65 3:-0.06437884 4:167.7281 
0.50409991133724086 1:28.98203 2:163.228 3:0.2048338 4:120.6345 
0.50487294470573607 1:0 2:91.8311 3:0.2275915 4:152.4349 
0.50434077718190828 1:27.66101 2:113.793 3:0.1068459 4:112.6885 
0.30834389690397079 1:23.8798 2:121.2746 3:0.2903935 4:155.7253 
0.49988478542773096 1:29.77 2:180.69 3:0.103748 4:121.9748 
0.5012687147147884 1:45.15701 2:158.861 3:0.09840839 4:151.1192 
0.35879699144933741 1:21.6137 2:57.2939 3:0.1449523 4:118.1021 
0.4001251498190368 1:25.8227 2:65.9156 3:-0.3696284 4:117.0227 
0.91133429667308752 1:24.3655 2:45.9655 3:0.2567794 4:112.466 
0.50221534493007469 1:38.36902 2:259.637 3:0.2000854 4:137.9437 
0.50445563746191491 1:44.201 2:214.818 3:-0.1888028 4:171.5569 
0.50495654872286144 1:46.08499 2:321.849 3:-0.1762239 4:155.8709 
0.39935229137652772 1:22.349 2:170.707 3:0.227616 4:125.8009 
0.50487290891633141 1:105.306 2:351.917 3:-0.1368439 4:151.4433 
0.60282826689417934 1:16.925 2:73.5794 3:0.2334571 4:62.85374 
0.5048724348474467 1:122.856 2:207.746 3:-0.1722098 4:139.2236 
0.50487120183492273 1:33.31104 2:284.244 3:-0.1214465 4:93.13527 
0.50487700550327608 1:180.809 2:67.384 3:-0.2521439 4:63.20806 
0.50044901092157856 1:17.8583 2:82.03901 3:0.5372357 4:151.9377 
0.47811608477637851 1:25.10699 2:173.141 3:0.2033954 4:117.594 
0.50487794202744318 1:138.888 2:185.681 3:-0.1628783 4:131.8737 
0.45216851711439909 1:25.707 2:68.537 3:-0.1846485 4:141.7533 
0.50487350461558311 1:156 2:281.8201 3:-0.1758876 4:151.3967 
0.41277579820762633 1:34.30301 2:206.783 3:-0.1034661 4:134.9252 
0.39503224150570782 1:34.32605 2:171.247 3:0.07500613 4:118.6047 
0.33499439871959014 1:22.60699 2:117.62 3:0.2094875 4:122.9361 
0.45972085054470324 1:25.369 2:142.166 3:0.11085 4:110.8071 
0.50487182406703945 1:49.146 2:251.549 3:0.07581629 4:118.6706 
0.50211089789381225 1:46.70801 2:191.365 3:-0.1451879 4:135.2575 
0.50487124996870247 1:49.8774 2:67.3114 3:-0.2578213 4:167.0222 
0.50486465399173008 1:71.73199 2:346.349 3:0.1577482 4:161.0181 
0.4273221779112204 1:76.89197 2:296.744 3:0.11198 4:163.3939 
0.44516927032271159 1:23.8097 2:91.16711 3:0.1514069 4:141.1078 
0.4977196640210928 1:37.61899 2:132.101 3:0.2176478 4:136.1089 
0.50428363935929821 1:45.092 2:117.084 3:0.09934831 4:146.5296 
0.50487190170583918 1:109.99 2:190.29 3:-0.1693273 4:138.1112 
0.50488211756474999 1:38.28198 2:242.887 3:-0.1208774 4:97.63699 
0.49995604071472266 1:30.7987 2:165.7957 3:-0.1035064 4:149.5949 
0.50488185745525038 1:106.29 2:167.17 3:-0.134641 4:145.0135 
0.50491908771250271 1:52.30695 2:293.0349 3:0.1338096 4:113.051 
0.39481117742151539 1:23.7308 2:53.6121 3:0.305395 4:94.75029 
0.46707196222707192 1:19.9739 2:57.0782 3:-0.4755996 4:171.5816 
0.50474562077660445 1:27.76599 2:152.465 3:0.2293671 4:129.127 
0.3112586527282884 1:29.9562 2:64.4042 3:0.2543044 4:124.2051 
0.50488030602903211 1:74.909 2:208.183 3:0.2205167 4:143.6786 
0.42330133034734085 1:24.91002 2:131.839 3:-0.2385785 4:87.65301 
0.63976015521045837 1:19.4246 2:35.9836 3:0.3697 4:157.4008 
0.50487987100160348 1:106.74 2:398.08 3:-0.138049 4:156.9558 
0.48846183297453244 1:29.821 2:123.15 3:0.1844757 4:123.6283 
0.50488188893646058 1:97.68903 2:360.95 3:0.1555575 4:132.8789 
0.50488215796141045 1:17.112 2:109.585 3:0.2716893 4:54.95171 
0.50439399794517126 1:26.11902 2:197.747 3:0.09089488 4:99.59808 
0.50039789741004226 1:32.4713 2:131.9413 3:0.2582636 4:176.1904 
0.45731588967911763 1:22.33301 2:221.761 3:0.1637021 4:82.83543 
0.50458884789681624 1:36.72705 2:71.56702 3:-0.09036168 4:114.2074 
0.50485775095024321 1:53.828 2:81.07201 3:0.1654494 4:161.9849 
1 1:21.3402 2:37.4932 3:-0.1022603 4:116.932 
0.49439332450970008 1:16.29401 2:177.313 3:0.3983032 4:143.7693 
0.31996536192752978 1:21.6376 2:69.6488 3:-0.3836176 4:105.745 
0.39131468337870595 1:0 2:100.8187 3:0.2214582 4:86.0737 
0.44450087742966427 1:18.1492 2:68.18719 3:0.1955655 4:82.78325 
0.43405322211624531 1:27.6956 2:174.1608 3:-0.2265463 4:97.09865 
0.3606180328711468 1:30.553 2:95.008 3:0.1190908 4:140.8991 
0.50464210531748399 1:52.54599 2:246.736 3:-0.1311882 4:165.3111 
0.50469543269724448 1:99.508 2:338.628 3:-0.1604604 4:174.1003 
0.49136536850697299 1:18.7806 2:100.6169 3:0.4026374 4:112.5072 
0.43886345188820342 1:27.41899 2:133.275 3:-0.3025037 4:124.8148 
0.47198513208352899 1:43.577 2:128.614 3:0.1329586 4:124.2023 
0.4962018464403799 1:30.6249 2:59.755 3:-0.1880309 4:114.8363 
0.50248393973808603 1:43.60199 2:180.443 3:0.1695853 4:158.3978 
0.50496361278658841 1:42.515 2:159.519 3:-0.2106954 4:171.0707 
0.44992515365451646 1:23.6516 2:53.1584 3:-0.1550621 4:122.7164 
0.50488401048938647 1:42.83899 2:276.185 3:-0.1199504 4:101.4301 
0.50487763791907658 1:16.62399 2:113.21 3:0.344045 4:41.42733 
0.40952028559190312 1:23.9673 2:90.63139 3:-0.1420023 4:150.2925 
0.50357103809962567 1:21.85901 2:172.168 3:0.05433154 4:99.69421 
0.47807909780481922 1:33.95999 2:88.384 3:0.1460668 4:103.5532 
0.50487231543816558 1:70.37 2:290.05 3:0.1256244 4:149.2158 
0.50487110978189453 1:28.914 2:270.675 3:0.2183382 4:164.2701 
0.30953685119985902 1:23.4067 2:65.02029 3:0.2249957 4:117.1984 
0.2641524745143386 1:26.965 2:102.892 3:0.1272692 4:116.119 
0.50492302622289609 1:52.04999 2:201.312 3:0.2950279 4:163.0478 
0.41953420222887883 1:23.2174 2:84.5849 3:-0.1373456 4:144.1016 
0.50485908953744962 1:101.461 2:294.658 3:0.252975 4:140.921 
0.47957938468359329 1:26.306 2:172.93 3:0.09262487 4:111.7903 
0.42363308112779963 1:25.3226 2:75.67661 3:-0.16334 4:113.8201 
0.50397508536115643 1:40.61801 2:94.908 3:-0.1255538 4:148.9329 
0.50444157549232949 1:16.35004 2:179.963 3:0.1255392 4:123.6283 
0.38880143817892404 1:26.33002 2:232.039 3:0.1241583 4:142.7036 
0.5048600988102232 1:63.40204 2:276.716 3:0.09033124 4:133.8457 
0.50426937909612535 1:59.42139 2:146.9474 3:0.1144856 4:141.6873 
0.50469529803267643 1:121.61 2:204.5499 3:-0.1518872 4:148.0842 
0.32543917510559234 1:19.45401 2:94.00101 3:0.1392679 4:154.7228 
0.40612837783959305 1:24.50702 2:115.348 3:0.3596335 4:144.6922 
0.50463301321480003 1:18.41299 2:178.501 3:0.2565252 4:97.83749 
0.50486587343012868 1:145.332 2:414.1619 3:0.1562697 4:155.8956 
0.68781682138243483 1:17.2788 2:57.273 3:0.4406188 4:84.5658 
0.50485519524165734 1:99.70996 2:233.0701 3:0.1522059 4:146.5901 
0.32848927238632336 1:34.888 2:125.068 3:0.1888176 4:138.4436 
0.50476424060103264 1:34.37097 2:194.474 3:-0.04834981 4:99.66949 
0.50483990952346069 1:45.52795 2:95.409 3:-0.2846162 4:134.7027 
0.50282842042748555 1:48.25601 2:189.859 3:-0.09197696 4:122.3923 
0.4848945151596718 1:38.20299 2:223.28 3:0.2073703 4:167.1952 
0.50458467812660801 1:20.72 2:204.158 3:0.1574541 4:107.1513 
0.50487152518288569 1:72.64102 2:268.716 3:0.1599026 4:157.4365 
0.39026318901940105 1:57.35399 2:177.414 3:-0.06453731 4:149.2103 
0.4174499638937923 1:32.63898 2:117.452 3:-0.1854753 4:137.7844 
0.23563270000809389 1:27.33501 2:174.465 3:-0.1306215 4:121.9336 
0.48956196327548618 1:35.04102 2:155.54 3:-0.1683567 4:143.0332 
0.50475836267071206 1:23.63701 2:193.925 3:0.4400012 4:160.455 
0.50472898931201293 1:34.30499 2:221.358 3:-0.06882647 4:113.4301 
0.43466696170322672 1:21.6736 2:71.4453 3:-0.1473746 4:114.7924 
0.5048270806356201 1:65.384 2:317.548 3:0.09021332 4:136.8808 
0.50434438205165133 1:57.34998 2:227.84 3:-0.1038831 4:126.8638 
0.50484837292038998 1:117.51 2:382.6801 3:0.1497757 4:141.2287 
0.50481638795606432 1:92.34399 2:320.221 3:0.2152784 4:146.4939 
0.50444590680656953 1:86.55698 2:365.215 3:0.07905033 4:160.3973 
0.50460110670412528 1:22.909 2:135.967 3:0.185846 4:137.0895 
0.49237608379007175 1:30.95401 2:163.073 3:-0.0435415 4:126.3584 
0.50416726164838865 1:105.65 2:311.76 3:-0.1343166 4:171.4003 
0.38773174771904745 1:20.6352 2:86.74421 3:0.326806 4:105.4566 
0.38167472137852454 1:28.46201 2:155.245 3:0.1664385 4:114.0261 
0.29524954798076536 1:25.3628 2:59.2445 3:0.1154464 4:132.4807 
0.50482134355520791 1:99.68994 2:303.4301 3:0.07385967 4:140.3799 
0.49961402281935441 1:22.278 2:64.11002 3:0.4106616 4:170.884 
0.50485111433729624 1:204.3501 2:423.3201 3:-0.1630056 4:179.9615 
0.5048154556892358 1:90.97009 2:314.5 3:-0.1578017 4:158.0627 
0.48897488498490055 1:27.74399 2:84.095 3:0.2395941 4:118.8437 
0.42007621976331255 1:22.677 2:114.946 3:0.2158772 4:142.8382 
0.50476854562668605 1:26.7601 2:96.3434 3:-0.2759216 4:175.5312 
0.32564950914836693 1:21.53989 2:46.5042 3:0.1363833 4:124.0018 
0.10422643237157203 1:21.9613 2:63.0069 3:-0.1649412 4:114.4134 
0.41748093011553788 1:16.01401 2:94.53 3:0.3071912 4:154.4756 
0.46284545417820538 1:23.2464 2:134.4314 3:-0.08532247 4:116.0037 
0.50433519803079729 1:37.828 2:108.095 3:0.166249 4:118.6267 
0.34449111668818172 1:23.42701 2:91.40501 3:0.150436 4:101.6663 
0.42813160017598517 1:20.4614 2:77.34241 3:-0.1471688 4:126.9764 
0.44421798844908605 1:20.267 2:86.72998 3:0.2266158 4:153.5253 
0.49942212157003357 1:18.2753 2:65.34991 3:-0.2628928 4:170.3786 
0.47161926054398423 1:20.0985 2:74.5526 3:0.2525166 4:92.47059 
0.3649124596864447 1:26.97089 2:144.9599 3:0.1343399 4:96.76357 
0.45437314563005315 1:39.05399 2:189.864 3:0.06257281 4:117.0227 
0.46825976859410107 1:24.8216 2:84.3707 3:0.1568939 4:131.5441 
0.37729143295186307 1:28.5961 2:78.5621 3:0.1292594 4:131.9258 
0.33002648487269404 1:28.825 2:80.82901 3:0.213882 4:134.3044 
0.50474571589808137 1:41.909 2:285.001 3:0.2563677 4:118.2147 
0.50482240805091017 1:90.50397 2:376.77 3:-0.1291064 4:170.2577 
0.50167044705582586 1:27.758 2:159.013 3:-0.2220539 4:154.6981 
0.50484842072814473 1:14.55901 2:138.262 3:-0.2038154 4:141.1792 
0.50483208908283517 1:92.32904 2:303.8541 3:-0.1095011 4:130.8162 
0.42930673835915933 1:31.24199 2:141.67 3:0.09420856 4:115.5972 
0.50482411961733331 1:139.054 2:86.91401 3:0.4843248 4:179.9506 
0.388153894852038 1:31.2078 2:85.6038 3:-0.2628489 4:147.7766 
0.504674807073348 1:29.65799 2:191.974 3:0.1853757 4:93.52804 
0.44783681441759082 1:25.2252 2:124.2602 3:0.1844605 4:139.8389 
0.4290298188100557 1:19.9448 2:96.4167 3:0.1241254 4:124.672 
0.48193976014691087 1:34.20299 2:183.981 3:-0.08729346 4:115.2209 
0.50482363597597824 1:202.91 2:297.71 3:-0.1873455 4:168.3433 
0.24862972060878924 1:20.3305 2:78.6095 3:-0.2407315 4:102.7924 
0.4427362490070772 1:20.823 2:64.8034 3:-0.3230112 4:118.1927 
0.50467977899322114 1:43.43399 2:169.542 3:0.1652693 4:102.5507 
0.50215819935219064 1:33.70799 2:159.288 3:-0.171305 4:125.084 
0.35201199592597998 1:32.68591 2:129.4456 3:0.2171189 4:140.1712 
0.50480620400434439 1:28.504 2:191.921 3:-0.1425023 4:131.6841 
0.43187662619878786 1:26.01701 2:92.31499 3:-0.1051555 4:115.8746 
0.50176596546116592 1:29.287 2:113.786 3:0.3535003 4:151.6164 
0.50482111484475523 1:204.61 2:464.47 3:-0.1722179 4:178.4399 
0.38668499058980793 1:31.211 2:126.767 3:0.07721712 4:139.4214 
0.40861487845158817 1:93.26605 2:373.811 3:0.137298 4:145.6974 
0.50465989384364984 1:0 2:104.605 3:-0.1261951 4:114.3722 
0.5048213665158191 1:114.3151 2:96.2331 3:0.1227686 4:115.4379 
0.44424976163097862 1:31.68701 2:135.619 3:0.2125349 4:138.9682 
0.28646579600773092 1:26.27499 2:88.561 3:-0.1649176 4:103.1769 
0.46182514394116569 1:20.7345 2:184.9743 3:0.2061463 4:155.5853 
0.34286810105916216 1:44.29698 2:133.897 3:-0.1932742 4:163.1357 
0.49913809565555267 1:23.849 2:126.3329 3:-0.1975251 4:90.86656 
0.217769381511037 1:21.89491 2:59.5499 3:0.1370067 4:116.6656 
0.55172321741326746 1:22.4847 2:53.4739 3:0.2387993 4:145.6782 
0.50474682379048397 1:43.0256 2:137.8676 3:-0.1005575 4:167.6814 
0.49485493138241871 1:18.28899 2:78.745 3:-0.1762584 4:136.3479 
0.50419100830047803 1:57.4365 2:91.86851 3:-0.4489767 4:158.3429 
0.50482303988527288 1:53.87 2:262.302 3:0.2528285 4:172.4852 
0.50449913775383937 1:34.43001 2:108.817 3:-0.2289664 4:95.01671 
0.50476571368916812 1:19.1216 2:96.7625 3:0.1354859 4:74.47471 
0.50442055324280277 1:19.3147 2:102.8737 3:0.1255683 4:144.1648 
0.50467339800287025 1:32.81499 2:174.783 3:0.12879 4:145.7578 
0.44365936153877872 1:23.489 2:111.592 3:-0.1956666 4:103.2181 
0.50480879905332876 1:0 2:110.998 3:-0.2816702 4:121.453 
0.42914233427134141 1:22.507 2:91.89101 3:-0.1593993 4:116.2289 
0.50481738613579064 1:37.40399 2:269.456 3:-0.1693967 4:95.88739 
0.40907678415586624 1:27.9174 2:97.3164 3:-0.1757729 4:136.9165 
0.50499392566866907 1:17.5469 2:148.4407 3:0.2382336 4:104.2756 
0.27119143585642419 1:25.16401 2:119.79 3:-0.1816894 4:100.8396 
0.48231543480176459 1:19.45201 2:67.29399 3:0.1637499 4:107.6567 
0.50508748875472875 1:19.674 2:128.572 3:0.2492047 4:97.86771 
0.50470758713204078 1:25.65991 2:172.72 3:-0.1372497 4:87.03227 
0.45601996549848656 1:28.8472 2:98.3462 3:-0.228439 4:143.2694 
0.50458839175708903 1:71.64999 2:296.258 3:-0.1669045 4:157.247 
0.50482287622200173 1:165.14 2:216.39 3:-0.159619 4:155.0277 
0.085264849623883004 1:21.7664 2:60.8876 3:0.1053005 4:154.4948 
0.50465590773883351 1:26.332 2:296.139 3:0.2284246 4:92.62989 
0.46871837908566233 1:32.79399 2:77.396 3:-0.2555285 4:105.6022 
0.46591754753642811 1:37.82901 2:155.389 3:0.1988939 4:129.7121 
0.50475663136446924 1:35.405 2:221.702 3:-0.169982 4:141.7368 
0.27634110622036412 1:27.35199 2:253.116 3:0.2154405 4:144.9091 
0.50466026109885243 1:52.565 2:160.223 3:-0.1567147 4:134.9664 
0.50487156671140621 1:90.30701 2:291.918 3:0.2008873 4:152.5228 
0.50480612690695159 1:59.63 2:96.01001 3:-0.1520712 4:111.8947 
0.50466485377740322 1:68.78101 2:269.5731 3:0.111115 4:148.7956 
0.40979047846893546 1:25.22 2:79.384 3:-0.1563243 4:104.6381 
0.48996927462387035 1:67.26151 2:58.4721 3:-0.1671654 4:116.8139 
0.50106280448249363 1:22.58997 2:63.22998 3:0.2507879 4:158.3621 
0.50466108038107982 1:30.487 2:211.752 3:-0.1545974 4:118.4207 
0.502438823463073 1:30.024 2:159.836 3:-0.1592907 4:116.4788 
0.50478466086512119 1:98.27502 2:309.268 3:-0.176025 4:170.5077 
0.50234545507420658 1:50.29199 2:188.393 3:0.1484948 4:134.7137 
0.3977771874682815 1:22.08099 2:168.4643 3:0.09296308 4:126.2678 
0.50478747878665986 1:25.035 2:66.53 3:0.2736613 4:176.1987 
0.5046349415525887 1:42.69 2:192.017 3:0.2390815 4:139.7372 
0.50431260043048975 1:292.3199 2:314.22 3:-0.274258 4:178.7695 
0.48798423122150569 1:23.974 2:68.142 3:0.2052769 4:123.2493 
0.50188934548068742 1:30.52899 2:119.018 3:0.2277142 4:116.2344 
0.50478452835650556 1:113.366 2:329.421 3:0.1225213 4:174.8995 
0.50459000936590759 1:61.142 2:283.886 3:-0.08306621 4:128.2124 
0.44698837298659505 1:33.86301 2:158.829 3:-0.0972748 4:162.1881 
0.50466794697504391 1:21.7073 2:107.084 3:0.1985082 4:113.4768 
0.4327103345693355 1:27.0972 2:96.9642 3:-0.2868049 4:162.6606 
0.30457826695119988 1:25.42299 2:70.873 3:0.4094712 4:154.547 
0.45852516014137124 1:17.37901 2:57.848 3:0.3295765 4:129.6791 
0.49078168306165271 1:22.0281 2:62.0861 3:-0.1826665 4:97.90616 
0.50456504682231629 1:60.09599 2:160.85 3:0.07052702 4:130.797 
0.50480621352153343 1:96.63989 2:209.5399 3:-0.1748647 4:160.4385 
0.50474638449295273 1:42.3999 2:81.19995 3:-0.1098231 4:139.0863 
0.48029021757690205 1:25.66 2:47.446 3:0.3460585 4:97.18379 
0.50344550999585147 1:24.9772 2:38.7218 3:-0.3870817 4:138.5974 
0.49809752530481893 1:33.12897 2:220.978 3:-0.2068371 4:154.5113 
0.50486420397945309 1:27.927 2:184.049 3:0.05466191 4:102.7814 
0.49775773864996847 1:29.6255 2:138.2565 3:0.1936998 4:157.7908 
0.48080963740073612 1:27.823 2:179.708 3:-0.2268872 4:92.93752 
0.50478556365832405 1:44.25806 2:61.82806 3:0.1711778 4:132.8377 
0.49155194014953241 1:21.85199 2:143.036 3:0.190562 4:95.13756 
0.50480054088941539 1:140.59 2:280.63 3:-0.1432023 4:153.7121 
0.50015165671925343 1:28.78705 2:198.368 3:0.1865477 4:94.61845 
0.50479040612444281 1:183.893 2:79.036 3:0.3173461 4:160.466 
0.5046400908805837 1:55.72003 2:296.83 3:0.1608764 4:135.0433 
0.44260165322709089 1:26.6758 2:59.8158 3:0.1820751 4:114.4573 
0.50403380584220925 1:46.673 2:141.854 3:-0.1496709 4:120.5493 
0.50478481175537004 1:49.92 2:167.798 3:0.1291856 4:169.225 
0.43694548751587969 1:37.93501 2:216.45 3:0.06702367 4:140.1904 
0.46092292810433788 1:28.90503 2:213.381 3:0.2904218 4:158.3511 
0.50488667447723923 1:61.28003 2:291.61 3:-0.1474847 4:166.7778 
0.50478656535210975 1:156.504 2:433.864 3:-0.1574729 4:157.2717 
0.44957675849185558 1:19.66219 2:54.5321 3:0.3618242 4:118.6239 
0.43408274910292888 1:23.86298 2:147.998 3:0.1300277 4:127.5312 
0.50478706067413426 1:147.3101 2:153.88 3:-0.1464991 4:153.5692 
0.34794140183322247 1:27.6377 2:79.6817 3:-0.1101904 4:135.1751 
0.50393942155366567 1:18.119 2:119.26 3:0.109356 4:145.0657 
0.39531647024421862 1:23.1935 2:104.5207 3:-0.2203965 4:84.85695 
0.43178428305297345 1:31.53099 2:136.774 3:0.1819011 4:132.2692 
0.50467717688091063 1:73.883 2:330.851 3:0.1769896 4:157.0217 
0.50434874532250895 1:30.9646 2:54.5215 3:-0.1349569 4:152.2728 
0.50827592039974445 1:21.2519 2:52.4504 3:0.1424833 4:105.9071 
0.50478585037663826 1:36.23602 2:237.856 3:0.2879654 4:177.4044 
0.50225043196798613 1:31.46002 2:203.518 3:0.1038972 4:101.7404 
0.35744453770051565 1:21.4825 2:92.3335 3:0.4138048 4:121.1591 
0.50203781312410389 1:39.89499 2:261.168 3:0.1531955 4:133.8952 
0.44902563736483203 1:24.839 2:123.19 3:0.3098395 4:142.4921 
0.50464888056953894 1:16.7085 2:81.7726 3:0.2366332 4:46.80522 
0.48794514816186096 1:28.6633 2:72.8815 3:-0.2797121 4:164.5969 
0.48004820319083519 1:39.85999 2:213.979 3:0.1426297 4:143.9808 
0.411169700984158 1:30.07101 2:125.495 3:0.2747368 4:130.3026 
0.48351627329168362 1:54.54301 2:123.456 3:-0.1190399 4:114.9627 
0.50408183390952177 1:43.82898 2:252.926 3:-0.1284927 4:153.6544 
0.50495490141495936 1:28.64101 2:241.661 3:0.2929919 4:142.5827 
0.37139074890730178 1:23.13499 2:166.438 3:0.2010892 4:108.8762 
0.50424120322479549 1:119.593 2:391.181 3:-0.09720333 4:147.1202 
0.50468326845522893 1:91.12599 2:129.824 3:0.2146785 4:161.1582 
0.47916870853702814 1:39.15002 2:125.248 3:-0.103489 4:111.9304 
0.50478312206517162 1:138.049 2:268.369 3:0.1520632 4:130.0883 
0.47790297588376296 1:34.85095 2:171.757 3:-0.1391672 4:93.87686 
0.50248153901067749 1:25.6265 2:42.6395 3:0.2753488 4:158.6972 
0.50477567867893203 1:51.5196 2:71.6316 3:0.2066635 4:119.7968 
0.50273199337993579 1:26.218 2:117.793 3:0.1349615 4:117.6297 
0.50458702319367632 1:102.03 2:240.7301 3:-0.1826909 4:166.948 
0.37795192412251 1:25.5565 2:81.7315 3:-0.1692282 4:125.0373 
0.50478454257165295 1:72.66998 2:180.559 3:-0.2030809 4:156.2417 
0.28868057916421075 1:24.2211 2:71.9763 3:-0.2000659 4:120.7663 
0.50448224516596796 1:26.80499 2:298.77 3:-0.1758182 4:152.314 
0.29115844921113049 1:24.5517 2:60.4127 3:0.1548768 4:122.461 
0.50329054584767341 1:42.61499 2:356.029 3:0.1372019 4:161.3367 
0.50478218226427563 1:240.42 2:282.5601 3:-0.1667603 4:172.7709 
0.50445677664780886 1:21.52002 2:181.29 3:0.229233 4:124.249 
0.4815236580766874 1:26.8008 2:84.7404 3:0.1863746 4:94.85466 
0.50372833173105414 1:24.82001 2:207.836 3:0.1831251 4:141.8631 
0.50478022625791619 1:38.729 2:317.276 3:0.1293597 4:138.8528 
0.46657365171006726 1:32.57079 2:86.7528 3:0.2242103 4:150.526 
0.50442032877279486 1:75.51105 2:241.442 3:-0.1912301 4:142.8492 
0.5048044328617356 1:21.42798 2:84.01898 3:-0.06266184 4:81.83017 
0.37184300552700228 1:24.7968 2:73.8892 3:0.2249815 4:165.7945 
0.37232845827023275 1:17.9255 2:95.8872 3:0.5603259 4:153.4676 
0.50477914994827577 1:122.59 2:263.98 3:-0.1681475 4:168.8267 
0.50477445423071121 1:99.353 2:176.428 3:0.1150006 4:134.3429 
0.50482052655672538 1:39.02197 2:144.097 3:-0.184705 4:94.71458 
0.50477639487718251 1:80.05994 2:132.65 3:-0.1434963 4:134.8592 
0.34786242578686655 1:20.9227 2:69.3467 3:-0.1873425 4:140.5393 
0.48728231259154825 1:24.25101 2:182.054 3:-0.2999628 4:87.4992 
0.4790053741755424 1:32.095 2:101.333 3:0.2599756 4:148.7187 
0.50477584338600123 1:59.60205 2:285.4681 3:0.1358177 4:108.607 
0.19879367731843664 1:38.539 2:155.605 3:0.2456374 4:139.3664 
0.42536013866242939 1:29.118 2:115.796 3:0.2048237 4:130.9316 
0.39865390238421505 1:29.1398 2:86.95151 3:0.0911006 4:149.0126 
0.43777349412477307 1:20.487 2:78.30899 3:0.2306612 4:132.8267 
0.50477358513460202 1:89.99103 2:183.0131 3:-0.2380415 4:154.5251 
0.49703257227721986 1:23.8629 2:48.4837 3:-0.337547 4:162.2596 
0.33625484697424707 1:21.9237 2:107.2204 3:-0.177156 4:121.7771 
0.38756153572576679 1:24.1073 2:74.8956 3:0.3037497 4:100.7352 
0.38821132318202789 1:26.94501 2:229.939 3:0.3270404 4:142.7695 
0.47584063366640755 1:22.4353 2:132.8433 3:-0.1558756 4:107.827 
0.62320033981140899 1:17.2281 2:52.0249 3:0.2610148 4:53.96567 
0.49352795105326752 1:109.531 2:361.185 3:-0.1131063 4:161.5619 
0.50476754910738186 1:85.68103 2:243.429 3:-0.1421576 4:123.0103 
0.29682035796040662 1:21.5279 2:106.4265 3:0.1014843 4:123.3838 
0.40067978218993872 1:56.09406 2:245.35 3:0.266767 4:132.8844 
0.44540075204088392 1:23.14801 2:164.425 3:0.04970033 4:103.946 
0.50475870707858672 1:38.86301 2:323.901 3:0.1086515 4:124.5841 
0.4415674767522908 1:28.52502 2:83.34601 3:0.2784006 4:115.2209 
0.44956182078663476 1:24.2878 2:101.1922 3:0.2672695 4:93.34402 
0.49983400114180493 1:32.354 2:76.737 3:-0.1740538 4:126.9929 
0.47058335257708339 1:28.136 2:69.621 3:0.1198415 4:123.7849 
0.50475859523055144 1:54.957 2:322.861 3:0.1735244 4:154.5251 
0.50474155070363702 1:73.16992 2:225.73 3:-0.1707696 4:157.4585 
0.50416738488760915 1:78.83502 2:306.773 3:0.2629607 4:167.1211 
0.43868565086426548 1:30.59009 2:73.65002 3:0.1899634 4:120.7855 
0.44569343049380339 1:18.5884 2:93.1144 3:-0.1896991 4:139.7922 
0.39099123251317391 1:0 2:102.355 3:-0.3835128 4:84.58503 
0.50466507255733528 1:41.12 2:167.855 3:-0.2111176 4:149.4877 
0.43729924406165627 1:32.46899 2:132.801 3:-0.138816 4:138.2101 
0.50475774461757772 1:118.061 2:155.772 3:-0.1332774 4:158.4143 
0.46215642069819901 1:29.17499 2:81.00201 3:-0.1729877 4:128.726 
0.50457678548173823 1:16.19 2:235.407 3:0.3163855 4:134.0957 
0.50475685112940027 1:71.966 2:88.133 3:0.3281029 4:118.7915 
0.50487665630726153 1:20.30902 2:168.362 3:0.279413 4:118.2477 
0.50458488592211448 1:34.2591 2:115.7921 3:-0.2322596 4:162.2843 
0.41702644537831135 1:25.7407 2:105.8587 3:0.2773348 4:138.7677 
0.50374279369113661 1:30.9777 2:43.50529 3:-0.267287 4:135.1147 
0.50475252184441421 1:63.50598 2:354.0569 3:-0.1710474 4:162.2898 
0.47672213694687432 1:31.0247 2:85.7067 3:-0.1060217 4:114.07 
0.48512237100515054 1:26.45721 2:128.4074 3:0.1294854 4:116.1273 
0.49971448782525257 1:30.13701 2:52.85701 3:-0.1620232 4:119.3243 
0.49526759334821935 1:18.26001 2:157.085 3:0.1545344 4:68.82765 
0.50469666551346881 1:25.26495 2:253.267 3:0.1069324 4:156.9393 
0.49912599831268661 1:37.964 2:114.749 3:0.1767645 4:129.55 
0.50184844478334101 1:30.371 2:159.875 3:0.1697675 4:129.8933 
0.50206600285365255 1:21.0001 2:100.9523 3:-0.2958312 4:132.0055 
0.50426796608233804 1:74.95499 2:313.334 3:-0.1249237 4:158.3291 
0.65191704425144215 1:21.1013 2:34.7748 3:0.2233496 4:64.44129 
0.45540480333425154 1:26.5196 2:89.48389 3:-0.2641241 4:169.1261 
0.3612675349129264 1:25.6977 2:79.3167 3:-0.2001011 4:116.8441 
0.45019815536191943 1:30.53699 2:133.14 3:0.2240771 4:141.3275 
0.50209150805958069 1:25.048 2:47.854 3:0.3641378 4:151.7125 
0.50465734489950842 1:21.65802 2:207.021 3:0.1397804 4:89.69375 
0.50488548240634867 1:95.64001 2:126.89 3:-0.1282135 4:151.762 
0.50482272472987533 1:25.13101 2:147.124 3:-0.158016 4:179.4919 
0.4910433455507105 1:44.49097 2:164.437 3:0.09432443 4:110.0462 
0.4676973954561871 1:26.8104 2:52.35841 3:0.1569905 4:122.3017 
0.49519881720758846 1:27.575 2:105.577 3:0.1716129 4:134.9773 
0.50475324991115544 1:35.72601 2:192.622 3:0.06947663 4:156.4971 
0.43551613014035478 1:17.3071 2:56.2204 3:0.2152567 4:81.78073 
0.50353009091529244 1:19.50699 2:100.569 3:0.2037566 4:138.2293 
0.50474757939979531 1:117.065 2:418.368 3:-0.1101961 4:154.5031 
0.52178120502758518 1:21.4455 2:54.6805 3:0.3003733 4:151.968 
0.50224660269746146 1:42.85098 2:154.484 3:-0.1772452 4:151.6741 
0.49512314941140168 1:49.90201 2:211.896 3:-0.1040598 4:112.26 
0.50473974677873834 1:96.19669 2:34.1658 3:-0.211128 4:150.9627 
0.49869397356442857 1:24.8856 2:89.9644 3:0.2335901 4:158.016 
0.30953377314996267 1:23.239 2:120.784 3:0.293715 4:156.8158 
0.27282112860144142 1:23.4938 2:79.4898 3:0.2759677 4:103.0314 
0.39894429167688628 1:26.2567 2:56.6847 3:0.1312546 4:124.466 
0.4692016482370639 1:30.0655 2:46.2135 3:-0.1930502 4:125.051 
0.48563274096559239 1:25.06299 2:85.66699 3:-0.09466337 4:155.7198 
0.50429333791177644 1:48.513 2:123.108 3:-0.08313463 4:133.3623 
0.49404791170940299 1:34.44904 2:173.108 3:-0.1503671 4:129.8 
0.50482437073103437 1:80.48004 2:254.325 3:-0.2537919 4:128.2234 
0.31460793156413636 1:26.81903 2:143.28 3:-0.08605335 4:98.9691 
0.50470825276541076 1:43.45099 2:170.499 3:-0.192733 4:166.2559 
0.47934322696734721 1:22.399 2:117.327 3:-0.1449638 4:105.3825 
0.49116249375125365 1:38.11603 2:226.316 3:-0.1321103 4:158.4829 
0.50474029182923796 1:81.72198 2:274.1091 3:-0.1660775 4:130.2504 
0.44566772858744541 1:36.67502 2:158.965 3:-0.1675442 4:142.2257 
0.50303642352505373 1:71.22 2:305.207 3:0.1475275 4:166.8766 
0.50470949699800316 1:61.15698 2:152.705 3:-0.1594805 4:136.3232 
0.35126150961442193 1:23.85098 2:89.97498 3:0.4832289 4:128.9293 
0.44810290626480881 1:24.6041 2:61.81621 3:-0.2106462 4:132.6537 
0.38812005047626774 1:23.1689 2:55.4008 3:0.3033913 4:128.0037 
0.50473696298015736 1:40.82501 2:245.426 3:0.1786681 4:145.3294 
0.50251107902461711 1:28.15201 2:190.423 3:-0.1290593 4:113.0071 
0.50310121272647201 1:31.23801 2:136.287 3:0.2185728 4:164.314 
0.48817804543498167 1:31.19299 2:212.558 3:-0.1980584 4:161.0236 
0.49238294047383158 1:26.43402 2:252.468 3:-0.1685023 4:141.528 
0.69708515834055973 1:23.14001 2:16.23999 3:0.2634046 4:90.30076 
0.50328725557103127 1:75.961 2:247.705 3:0.08856772 4:159.9442 
0.50484822476382141 1:55.258 2:176.804 3:0.1983729 4:162.2129 
0.50478777457136004 1:36.58299 2:167.407 3:0.2358115 4:135.4992 
0.50473661117000035 1:113.01 2:151.25 3:-0.1293318 4:130.97 
0.50473683846228967 1:77.40399 2:254.822 3:-0.1439796 4:117.8109 
0.50473117660062483 1:79.62198 2:220.605 3:0.1512711 4:134.4939 
0.29778644999450632 1:22.5624 2:58.0155 3:-0.2412777 4:127.5834 
0.47882966687323664 1:31.2216 2:79.6825 3:-0.2369985 4:146.1122 
0.50473222150717145 1:46.423 2:298.898 3:0.2416353 4:169.5738 
0.27795486102752542 1:22.0125 2:54.2841 3:0.5252262 4:91.66582 
0.30414349604631857 1:24.63449 2:50.1217 3:0.07716985 4:117.2808 
0.50441202015451625 1:22.36499 2:176.582 3:0.1511939 4:110.9004 
0.50471627117614237 1:54.6208 2:70.53281 3:0.1267549 4:153.8164 
0.50404085240676733 1:41.35098 2:160.51 3:-0.1651002 4:154.4784 
0.49859604873448626 1:24.7632 2:35.4125 3:0.1364321 4:113.8503 
