svm_type c_svc
kernel_type rbf
gamma 0.0078125
nr_class 2
total_sv 1366
rho 0.37128847916219471
label 1 2
nr_sv 682 684
SV
0.03125 1:-0.996926 2:-0.961391 3:-0.959876 4:-0.202161 5:0.566688 6:-0.998824 7:0.0605423 8:-0.985749 9:-0.999749 10:0.573064 11:-0.659865 12:-0.999054 13:-0.0911202 14:-0.999107 15:-0.994481 16:-0.989416 17:-1 18:-1 19:-0.977282 20:-0.955104 21:-1 22:-1 23:-0.975679 24:-0.944407 25:-1 26:-1 27:-0.905207 28:-0.8262 29:-1 30:-1 31:-0.962167 32:-0.781836 33:-0.981569 34:-0.922184 35:-0.998266 36:-0.994048 37:-0.994819 38:-0.994334 39:-1 40:-0.996711 41:-0.993151 42:-0.997992 43:-0.997795 44:-0.99455 45:-1 46:-1 47:-0.993399 48:-0.994413 49:-0.99115 50:-0.97037 51:-0.958042 52:-0.960526 53:-0.917526 54:-0.974359 55:-1 56:-0.963636 57:-0.9 58:-1 59:-1 60:0.157235 61:0.209601 
0.03125 1:-0.98551 2:-0.987823 3:-0.992418 4:-0.184292 5:0.541891 6:-0.974377 7:0.0669071 8:-0.997789 9:-0.99946 10:0.573064 11:-0.659865 12:-0.999089 13:-0.0911202 14:-0.99915 15:-0.961369 16:-0.845716 17:-0.9735 18:-0.970301 19:-0.977548 20:-0.921994 21:-0.892366 22:-0.904931 23:-0.994046 24:-0.997066 25:-0.819757 26:-0.938139 27:-1 28:-1 29:-0.950653 30:-0.90418 31:-1 32:-1 33:-0.965029 34:-0.973979 35:-0.993065 36:-0.970238 37:-0.943005 38:-0.971671 39:-1 40:-0.983553 41:-0.996575 42:-0.993976 43:-0.997795 44:-0.99455 45:-0.996748 46:-0.985207 47:-0.993399 48:-1 49:-0.99115 50:-0.955556 51:-1 52:-0.986842 53:-0.896907 54:-0.897436 55:-0.97619 56:-0.854545 57:-0.8 58:-1 59:-1 60:-0.0707683 61:-0.376978 
0.03125 1:-1 2:-0.884374 3:-0.884744 4:-0.198341 5:0.543495 6:-0.999945 7:0.0636693 8:-0.998029 9:-0.99979 10:0.573064 11:-0.659865 12:-0.999332 13:-0.0911202 14:-0.99937 15:-0.833967 16:-0.906005 17:-1 18:-1 19:-1 20:-1 21:-0.951482 22:-0.866723 23:-1 24:-1 25:-1 26:-1 27:-0.964192 28:-0.812368 29:-1 30:-1 31:-1 32:-1 33:-0.951625 34:-0.933035 35:-1 36:-0.997024 37:-0.989637 38:-0.994334 39:-1 40:-0.996711 41:-0.996575 42:-1 43:-0.997795 44:-0.996367 45:-0.998374 46:-1 47:-1 48:-1 49:-1 50:-0.97037 51:-0.986014 52:-1 53:-0.958763 54:-1 55:-1 56:-1 57:-1 58:-0.813953 59:-0.958621 60:0.0463758 61:0.0353005 
0.03125 1:-0.984852 2:-0.987462 3:-0.99244 4:-0.184295 5:0.541144 6:-0.974308 7:0.0659797 8:-0.998328 9:-0.999464 10:0.573064 11:-0.659865 12:-0.999053 13:-0.0911202 14:-0.999105 15:-0.967006 16:-0.8737 17:-0.978912 18:-0.980419 19:-0.975158 20:-0.894316 21:-0.923163 22:-0.884005 23:-1 24:-1 25:-0.836344 26:-0.908912 27:-1 28:-1 29:-0.948642 30:-0.917618 31:-1 32:-1 33:-0.9511 34:-0.942111 35:-0.99003 36:-0.985119 37:-0.963731 38:-0.971671 39:-1 40:-0.983553 41:-0.986301 42:-0.993976 43:-0.997795 44:-0.992734 45:-0.996748 46:-0.988166 47:-1 48:-0.98324 49:-0.973451 50:-0.992593 51:-0.944056 52:-0.986842 53:-1 54:-0.923077 55:-0.928571 56:-0.890909 57:-0.9 58:-0.72093 59:-0.986207 60:-0.0563199 61:-0.374734 
0.03125 1:-0.999122 2:-0.886146 3:-0.879105 4:-0.164026 5:0.586358 6:-0.988019 7:0.0736403 8:-0.984447 9:-0.997963 10:0.57333 11:-0.659865 12:-0.998828 13:-0.090899 14:-0.998394 15:-0.976548 16:-0.964528 17:-1 18:-1 19:-1 20:-1 21:-0.9114 22:-0.908859 23:-1 24:-1 25:-1 26:-1 27:-0.523785 28:-0.786599 29:-1 30:-1 31:-1 32:-1 33:-0.468059 34:-0.848038 35:-1 36:-1 37:-0.989637 38:-0.988669 39:-1 40:-1 41:-1 42:-0.997992 43:-1 44:-0.99455 45:-0.995122 46:-0.994083 47:-0.9967 48:-0.988827 49:-0.99115 50:-0.985185 51:-0.972028 52:-1 53:-0.958763 54:-1 55:-1 56:-0.927273 57:-0.95 58:-0.906977 59:-1 60:-0.153018 61:-0.00556864 
0.03125 1:-0.916356 2:-0.994402 3:-0.993627 4:-0.193928 5:0.532538 6:-0.998831 7:0.0617391 8:-0.993285 9:-0.996233 10:0.571733 11:-0.659727 12:-0.9896 13:-0.0911202 14:-0.989975 15:-0.844417 16:-0.889621 17:-0.851432 18:-0.869049 19:-0.905699 20:-0.87131 21:-0.930263 22:-0.859888 23:-0.948069 24:-0.849548 25:-0.870068 26:-0.837989 27:-0.874422 28:-0.795168 29:-0.887019 30:-0.777439 31:-0.91097 32:-0.822392 33:-0.931361 34:-0.896913 35:-0.992198 36:-0.940476 37:-0.958549 38:-0.932011 39:-0.993661 40:-0.950658 41:-0.934932 42:-0.961847 43:-0.977949 44:-0.978202 45:-0.952846 46:-0.884615 47:-0.910891 48:-0.793296 49:-0.663717 50:-0.718519 51:-0.678322 52:-0.736842 53:-0.793814 54:-0.871795 55:-0.952381 56:-0.963636 57:-0.95 58:-1 59:-1 60:-0.068068 61:0.192518 
0.03125 1:-0.921186 2:-0.99463 3:-0.997684 4:-0.201449 5:0.535713 6:-0.983826 7:0.0703156 8:-0.992603 9:-0.993423 10:0.573064 11:-0.659796 12:-0.992992 13:-0.0911202 14:-0.992748 15:-0.864245 16:-0.748451 17:-0.786907 18:-0.768436 19:-0.798176 20:-0.767198 21:-0.800435 22:-0.756404 23:-0.815306 24:-0.874946 25:-0.851836 26:-0.654975 27:-0.859431 28:-0.833561 29:-0.853558 30:-0.896112 31:-0.905262 32:-0.881474 33:-0.921768 34:-0.909952 35:-0.979627 36:-0.872024 37:-0.901554 38:-0.954674 39:-0.946117 40:-0.934211 41:-0.914384 42:-0.971888 43:-0.971334 44:-0.970936 45:-0.969106 46:-0.964497 47:-0.933993 48:-0.949721 49:-0.920354 50:-0.881481 51:-0.818182 52:-0.75 53:-0.85567 54:-0.641026 55:-0.833333 56:-0.745455 57:-0.65 58:-0.906977 59:-1 60:0.153472 61:-0.071225 
0.03125 1:-0.987267 2:-0.987607 3:-0.992483 4:-0.184113 5:0.544438 6:-0.973403 7:0.0702334 8:-0.9955 9:-0.999407 10:0.573064 11:-0.659865 12:-0.999344 13:-0.0907885 14:-0.999386 15:-0.967909 16:-0.858397 17:-1 18:-1 19:-0.94209 20:-0.843022 21:-1 22:-1 23:-0.897501 24:-0.903333 25:-1 26:-1 27:-1 28:-1 29:-0.781385 30:-0.84748 31:-1 32:-1 33:-0.942063 34:-0.930441 35:-0.990464 36:-0.985119 37:-0.984456 38:-1 39:-0.990491 40:-0.990132 41:-0.993151 42:-0.987952 43:-0.977949 44:-0.992734 45:-0.995122 46:-0.991124 47:-0.990099 48:-0.977654 49:-0.99115 50:-0.985185 51:-0.944056 52:-1 53:-0.979381 54:-1 55:-0.97619 56:-1 57:-1 58:-1 59:-0.972414 60:-0.113158 61:-0.367219 
0.03125 1:-0.99978 2:-0.885785 3:-0.879492 4:-0.163462 5:0.616274 6:-0.98766 7:0.0802819 8:-0.963738 9:-0.998635 10:0.573064 11:-0.659727 12:-0.99911 13:-0.0881345 14:-0.998824 15:-0.912781 16:-0.910409 17:-1 18:-1 19:-1 20:-1 21:-1 22:-1 23:-0.565405 24:-0.80211 25:-1 26:-1 27:-1 28:-1 29:-1 30:-1 31:-1 32:-1 33:-0.49926 34:-0.843324 35:-1 36:-1 37:-0.994819 38:-1 39:-0.99683 40:-0.996711 41:-0.982877 42:-0.997992 43:-0.99559 44:-0.996367 45:-0.998374 46:-0.997041 47:-0.993399 48:-0.988827 49:-0.99115 50:-0.992593 51:-0.986014 52:-1 53:-1 54:-0.974359 55:-0.97619 56:-1 57:-1 58:-0.953488 59:-1 60:-0.220009 61:0.0796859 
0.03125 1:-0.999341 2:-0.895902 3:-0.894674 4:-0.195637 5:0.541291 6:-0.999979 7:0.0637376 8:-0.99808 9:-0.999695 10:0.573064 11:-0.659865 12:-0.999495 13:-0.0911202 14:-0.999497 15:-0.817437 16:-0.949199 17:-1 18:-1 19:-1 20:-1 21:-0.962603 22:-0.800955 23:-1 24:-1 25:-1 26:-1 27:-0.945538 28:-0.778792 29:-1 30:-1 31:-1 32:-1 33:-0.995924 34:-0.957643 35:-1 36:-1 37:-1 38:-0.988669 39:-0.99683 40:-1 41:-0.996575 42:-1 43:-0.988975 44:-0.996367 45:-0.995122 46:-1 47:-0.993399 48:-0.994413 49:-0.982301 50:-0.992593 51:-0.944056 52:-1 53:-0.938144 54:-1 55:-1 56:-1 57:-1 58:-1 59:-1 60:-0.120994 61:0.439958 
0.03125 1:-0.994072 2:-0.959107 3:-0.960133 4:-0.214263 5:0.55166 6:-0.988959 7:0.0593268 8:-0.994828 9:-0.999523 10:0.573064 11:-0.659865 12:-0.998799 13:-0.0911202 14:-0.998876 15:-0.99588 16:-0.976101 17:-0.998323 18:-0.987431 19:-0.975294 20:-0.957967 21:-1 22:-1 23:-0.945376 24:-0.854723 25:-1 26:-1 27:-0.916351 28:-0.883115 29:-0.842809 30:-0.814853 31:-0.960114 32:-0.748223 33:-0.992341 34:-0.96015 35:-0.999567 36:-1 37:-0.984456 38:-0.977337 39:-0.987322 40:-0.990132 41:-0.996575 42:-0.98996 43:-0.997795 44:-0.998183 45:-0.990244 46:-0.985207 47:-0.993399 48:-0.977654 49:-0.982301 50:-0.985185 51:-1 52:-0.960526 53:-1 54:-1 55:-1 56:-0.963636 57:-0.95 58:-0.906977 59:-1 60:0.0480833 61:0.0671983 
0.03125 1:-0.98595 2:-0.970578 3:-0.968642 4:-0.187895 5:0.556922 6:-0.996964 7:0.0674397 8:-0.989938 9:-0.998927 10:0.573064 11:-0.659796 12:-0.997606 13:-0.0910096 14:-0.997736 15:-0.932048 16:-0.944897 17:-0.941089 18:-0.904962 19:-1 20:-1 21:-0.951128 22:-0.809896 23:-0.977524 24:-0.82525 25:-1 26:-1 27:-0.953285 28:-0.764559 29:-1 30:-1 31:-0.969261 32:-0.847234 33:-0.966845 34:-0.941031 35:-0.999133 36:-0.991071 37:-0.974093 38:-1 39:-0.993661 40:-0.996711 41:-0.986301 42:-0.987952 43:-0.993385 44:-0.985468 45:-0.990244 46:-0.994083 47:-0.986799 48:-0.977654 49:-0.964602 50:-0.948148 51:-0.93007 52:-0.973684 53:-0.835052 54:-0.923077 55:-0.928571 56:-0.963636 57:-0.85 58:-0.953488 59:-0.986207 60:0.196443 61:0.390276 
0.03125 1:-0.920966 2:-0.994622 3:-0.997682 4:-0.201527 5:0.53351 6:-0.98331 7:0.0744859 8:-0.985876 9:-0.993559 10:0.572797 11:-0.659935 12:-0.992373 13:-0.0912308 14:-0.992299 15:-0.888789 16:-0.75768 17:-0.85796 18:-0.929924 19:-0.952607 20:-0.754042 21:-0.799058 22:-0.778301 23:-0.788088 24:-0.757168 25:-0.805887 26:-0.879169 27:-0.849602 28:-0.673704 29:-0.831569 30:-0.862479 31:-0.858073 32:-0.884887 33:-0.912388 34:-0.863936 35:-0.986129 36:-0.866071 37:-0.896373 38:-0.954674 39:-0.955626 40:-0.934211 41:-0.890411 42:-0.961847 43:-0.969129 44:-0.983651 45:-0.970732 46:-0.976331 47:-0.914191 48:-0.944134 49:-0.893805 50:-0.903704 51:-0.706294 52:-0.75 53:-0.731959 54:-0.846154 55:-0.785714 56:-0.6 57:-0.9 58:-0.860465 59:-1 60:0.129072 61:-0.0324366 
0.03125 1:-0.986608 2:-0.987583 3:-0.992382 4:-0.184025 5:0.544232 6:-0.973376 7:0.0699313 8:-0.996772 9:-0.999524 10:0.573064 11:-0.659865 12:-0.999353 13:-0.0911202 14:-0.999364 15:-0.962863 16:-0.85772 17:-1 18:-1 19:-0.945349 20:-0.836388 21:-1 22:-1 23:-0.910914 24:-0.917511 25:-1 26:-1 27:-1 28:-1 29:-0.831399 30:-0.875742 31:-1 32:-1 33:-0.946141 34:-0.921408 35:-0.990464 36:-0.979167 37:-0.994819 38:-0.994334 39:-0.993661 40:-0.990132 41:-0.989726 42:-0.985944 43:-0.98677 44:-0.989101 45:-0.995122 46:-0.985207 47:-0.980198 48:-0.988827 49:-0.938053 50:-1 51:-1 52:-1 53:-1 54:-1 55:-1 56:-1 57:-0.9 58:-1 59:-0.972414 60:-0.00442192 61:-0.291997 
0.03125 1:-0.706257 2:-0.998946 3:-0.998436 4:-0.197452 5:0.536955 6:-0.998668 7:0.0652031 8:-0.994341 9:-0.969028 10:0.5712 11:-0.660559 12:-0.982295 13:-0.0911202 14:-0.978303 15:-0.805923 16:-0.897411 17:-0.786802 18:-0.901966 19:-0.833912 20:-0.884017 21:-0.863192 22:-0.873887 23:-0.888408 24:-0.795658 25:-0.871991 26:-0.776933 27:-0.826294 28:-0.620413 29:-0.813054 30:-0.60242 31:-0.837773 32:-0.606622 33:-0.877423 34:-0.646256 35:-0.975726 36:-0.91369 37:-0.849741 38:-0.665722 39:-0.683043 40:-0.707237 41:-0.695205 42:-0.690763 43:-0.662624 44:-0.731153 45:-0.84065 46:-0.819527 47:-0.838284 48:-0.748603 49:-0.584071 50:-0.681481 51:-0.524476 52:-0.723684 53:-0.463918 54:-0.820513 55:-0.571429 56:-0.818182 57:-0.95 58:-0.953488 59:-1 60:0.185578 61:0.363211 
0.03125 1:-0.893524 2:-0.995872 3:-0.995569 4:-0.193039 5:0.534839 6:-0.99678 7:0.0611012 8:-0.995886 9:-0.995281 10:0.572265 11:-0.660212 12:-0.988557 13:-0.0910096 14:-0.98862 15:-0.940202 16:-0.905247 17:-0.957836 18:-0.893416 19:-0.950362 20:-0.854212 21:-0.939443 22:-0.842974 23:-0.877827 24:-0.827157 25:-0.880884 26:-0.770176 27:-0.906664 28:-0.771145 29:-0.915443 30:-0.733858 31:-0.925833 32:-0.806166 33:-0.892158 34:-0.879303 35:-0.991331 36:-0.967262 37:-0.948187 38:-0.903683 39:-0.955626 40:-0.894737 41:-0.907534 42:-0.953815 43:-0.931643 44:-0.891008 45:-0.918699 46:-0.813609 47:-0.838284 48:-0.72067 49:-0.867257 50:-0.881481 51:-0.776224 52:-0.947368 53:-0.979381 54:-1 55:-1 56:-1 57:-1 58:-1 59:-1 60:-0.171162 61:0.175486 
0.03125 1:-0.920088 2:-0.994574 3:-0.997717 4:-0.201561 5:0.534537 6:-0.982967 7:0.072712 8:-0.988834 9:-0.992649 10:0.572265 11:-0.659796 12:-0.993995 13:-0.090899 14:-0.993647 15:-0.872162 16:-0.760403 17:-0.874801 18:-0.768336 19:-0.799756 20:-0.777025 21:-0.803436 22:-0.759338 23:-0.795031 24:-0.855802 25:-0.773597 26:-0.728957 27:-0.826663 28:-0.920778 29:-0.817178 30:-0.915362 31:-0.877635 32:-0.873792 33:-0.917801 34:-0.882993 35:-0.98743 36:-0.877976 37:-0.943005 38:-0.915014 39:-0.952456 40:-0.924342 41:-0.934932 42:-0.961847 43:-0.958104 44:-0.981835 45:-0.970732 46:-0.946746 47:-0.943894 48:-0.932961 49:-0.902655 50:-0.82963 51:-0.804196 52:-0.842105 53:-0.587629 54:-0.589744 55:-0.547619 56:-0.927273 57:-0.85 58:-0.906977 59:-1 60:0.112429 61:0.00753667 
0.03125 1:-0.976509 2:-0.98331 3:-0.999177 4:-0.190055 5:0.519238 6:-0.933376 7:-0.0622532 8:-0.635229 9:-0.997978 10:0.586904 11:-0.65237 12:-0.998002 13:-0.0911202 14:-0.997842 15:-0.973458 16:-0.986073 17:-0.900866 18:-0.923246 19:-1 20:-1 21:-0.901378 22:-0.931279 23:-0.877161 24:-0.930142 25:-1 26:-1 27:-0.755028 28:-0.838194 29:-0.781128 30:-0.914933 31:-0.930073 32:-0.901852 33:-0.724845 34:-0.901774 35:-0.996099 36:-0.997024 37:-0.968912 38:-0.954674 39:-0.974643 40:-0.960526 41:-0.976027 42:-0.983936 43:-0.971334 44:-0.980018 45:-0.988618 46:-0.961538 47:-0.990099 48:-0.949721 49:-0.955752 50:-0.97037 51:-0.986014 52:-0.973684 53:-0.938144 54:-0.974359 55:-1 56:-1 57:-1 58:-1 59:-1 60:0.0868043 61:0.160825 
0.03125 1:-0.986828 2:-0.98745 3:-0.992384 4:-0.184149 5:0.544034 6:-0.973892 7:0.0696238 8:-0.995661 9:-0.999351 10:0.573064 11:-0.659865 12:-0.999261 13:-0.0911202 14:-0.999313 15:-0.965073 16:-0.865711 17:-1 18:-1 19:-0.942048 20:-0.838583 21:-1 22:-1 23:-0.909535 24:-0.909309 25:-1 26:-1 27:-1 28:-1 29:-0.758806 30:-0.872899 31:-1 32:-1 33:-0.899123 34:-0.937034 35:-0.989597 36:-0.994048 37:-0.974093 38:-0.971671 39:-0.99683 40:-0.973684 41:-0.989726 42:-0.995984 43:-0.975744 44:-0.996367 45:-0.995122 46:-0.982249 47:-0.9967 48:-0.994413 49:-1 50:-0.992593 51:-1 52:-0.986842 53:-0.979381 54:-0.948718 55:-1 56:-0.927273 57:-0.95 58:-0.906977 59:-1 60:0.0141819 61:-0.344516 
0.03125 1:-0.994951 2:-0.949323 3:-0.950103 4:-0.218047 5:0.570211 6:-0.98707 7:0.0530557 8:-0.984407 9:-0.999524 10:0.573064 11:-0.659865 12:-0.998468 13:-0.0911202 14:-0.998552 15:-0.991068 16:-0.978226 17:-0.954421 18:-0.958187 19:-1 20:-1 21:-0.941433 22:-0.914786 23:-1 24:-1 25:-0.906265 26:-0.851077 27:-1 28:-1 29:-0.936859 30:-0.745247 31:-1 32:-1 33:-0.966894 34:-0.891743 35:-0.998266 36:-0.991071 37:-0.984456 38:-1 39:-0.980983 40:-0.986842 41:-0.989726 42:-0.997992 43:-0.99559 44:-0.996367 45:-0.996748 46:-0.991124 47:-1 48:-0.994413 49:-1 50:-1 51:-0.972028 52:-0.947368 53:-0.938144 54:-0.974359 55:-0.928571 56:-1 57:-1 58:-1 59:-1 60:0.208657 61:-0.0380714 
0.03125 1:-0.950823 2:-0.989639 3:-0.993905 4:-0.206495 5:0.548729 6:-0.976056 7:0.050966 8:-0.987218 9:-0.995296 10:0.57333 11:-0.659588 12:-0.989812 13:-0.0906779 14:-0.989816 15:-0.772624 16:-0.822858 17:-0.784759 18:-0.855043 19:-0.80555 20:-0.882812 21:-0.821794 22:-0.918107 23:-0.890143 24:-0.981308 25:-0.862057 26:-0.947314 27:-0.782795 28:-0.914635 29:-0.719009 30:-0.887077 31:-0.764982 32:-0.891637 33:-0.94398 34:-0.904634 35:-0.992631 36:-0.979167 37:-1 38:-0.954674 39:-0.980983 40:-0.967105 41:-0.962329 42:-0.973896 43:-0.973539 44:-0.976385 45:-0.954472 46:-0.920118 47:-0.924092 48:-0.916201 49:-0.840708 50:-0.896296 51:-0.86014 52:-0.973684 53:-0.979381 54:-0.794872 55:-0.952381 56:-1 57:-0.9 58:-0.953488 59:-1 60:-0.0531094 61:0.158187 
0.03125 1:-0.987047 2:-0.988378 3:-0.992179 4:-0.183925 5:0.542685 6:-0.973614 7:0.0678931 8:-0.996968 9:-0.999317 10:0.573064 11:-0.659865 12:-0.999218 13:-0.0911202 14:-0.999243 15:-0.960598 16:-0.864142 17:-0.944617 18:-0.967699 19:-0.91572 20:-0.850765 21:-0.931359 22:-0.93843 23:-1 24:-1 25:-0.851412 26:-0.903808 27:-1 28:-1 29:-0.947831 30:-0.907605 31:-1 32:-1 33:-0.99138 34:-0.996735 35:-0.993932 36:-0.970238 37:-0.974093 38:-0.96034 39:-1 40:-0.990132 41:-1 42:-0.993976 43:-0.99559 44:-0.998183 45:-0.996748 46:-0.994083 47:-0.993399 48:-0.988827 49:-1 50:-0.948148 51:-0.902098 52:-0.960526 53:-0.938144 54:-0.923077 55:-0.97619 56:-0.927273 57:-0.9 58:-0.906977 59:-1 60:-0.0776077 61:-0.333687 
0.03125 1:-0.987267 2:-0.974436 3:-0.999699 4:-0.2007 5:0.537851 6:-0.893421 7:0.0846544 8:-0.990307 9:-0.99802 10:0.573064 11:-0.659865 12:-0.998578 13:-0.0912308 14:-0.998362 15:-0.952995 16:-0.969433 17:-0.963582 18:-0.987437 19:-1 20:-1 21:-0.740523 22:-0.788524 23:-0.825997 24:-0.816323 25:-1 26:-1 27:-0.805329 28:-0.893569 29:-1 30:-1 31:-0.889716 32:-0.91726 33:-0.988108 34:-0.995497 35:-0.999567 36:-0.994048 37:-1 38:-0.983003 39:-0.993661 40:-0.996711 41:-0.989726 42:-0.98996 43:-0.997795 44:-0.996367 45:-0.995122 46:-0.988166 47:-0.960396 48:-0.98324 49:-0.929204 50:-0.955556 51:-0.958042 52:-0.986842 53:-0.917526 54:-0.820513 55:-0.809524 56:-0.963636 57:-0.9 58:-1 59:-1 60:-0.389115 61:-0.130145 
0.03125 1:-0.986828 2:-0.981217 3:-0.999274 4:-0.202569 5:0.53806 6:-0.925317 7:0.0726129 8:-0.998267 9:-0.999191 10:0.57333 11:-0.659865 12:-0.999614 13:-0.0911202 14:-0.999443 15:-0.82154 16:-0.912636 17:-1 18:-1 19:-1 20:-1 21:-0.814435 22:-0.912714 23:-1 24:-1 25:-1 26:-1 27:-0.836124 28:-0.910217 29:-1 30:-1 31:-1 32:-1 33:-0.926878 34:-0.954592 35:-0.999567 36:-0.991071 37:-0.984456 38:-0.994334 39:-1 40:-0.996711 41:-0.989726 42:-0.995984 43:-0.98677 44:-0.996367 45:-0.985366 46:-0.988166 47:-0.953795 48:-0.944134 49:-0.911504 50:-0.992593 51:-0.986014 52:-1 53:-0.979381 54:-0.974359 55:-0.97619 56:-0.963636 57:-0.85 58:-0.906977 59:-0.944828 60:-0.17961 61:0.175395 
0.03125 1:-0.988145 2:-0.975489 3:-0.976244 4:-0.186042 5:0.53168 6:-0.994039 7:0.0611153 8:-0.997602 9:-0.999547 10:0.58238 11:-0.659865 12:-0.998036 13:-0.0944377 14:-0.998131 15:-0.959825 16:-0.905413 17:-0.967328 18:-0.901203 19:-1 20:-1 21:-0.974923 22:-0.941847 23:-0.961351 24:-0.862916 25:-0.950797 26:-0.895004 27:-0.960861 28:-0.91846 29:-1 30:-1 31:-0.910731 32:-0.790245 33:-0.898849 34:-0.946887 35:-0.998266 36:-0.970238 37:-0.979275 38:-0.994334 39:-1 40:-0.993421 41:-0.996575 42:-0.997992 43:-0.99559 44:-0.992734 45:-0.998374 46:-0.988166 47:-0.990099 48:-0.932961 49:-0.982301 50:-0.962963 51:-0.93007 52:-0.907895 53:-1 54:-0.897436 55:-0.952381 56:-0.963636 57:-0.95 58:-0.953488 59:-0.986207 60:0.127281 61:0.0889231 
0.03125 1:-0.912843 2:-0.994646 3:-0.997639 4:-0.201507 5:0.534403 6:-0.983705 7:0.0726584 8:-0.987857 9:-0.992142 10:0.573596 11:-0.659935 12:-0.990834 13:-0.0915625 14:-0.990953 15:-0.887468 16:-0.755551 17:-0.746768 18:-0.772108 19:-0.798097 20:-0.770331 21:-0.800897 22:-0.760421 23:-0.809061 24:-0.877571 25:-0.808796 26:-0.664892 27:-0.786325 28:-0.886566 29:-0.781991 30:-0.896249 31:-0.953018 32:-0.86749 33:-0.928017 34:-0.915355 35:-0.979194 36:-0.869048 37:-0.818653 38:-0.96034 39:-0.946117 40:-0.914474 41:-0.890411 42:-0.965863 43:-0.953693 44:-0.983651 45:-0.982114 46:-0.931953 47:-0.943894 48:-0.916201 49:-0.929204 50:-0.82963 51:-0.762238 52:-0.894737 53:-0.731959 54:-0.487179 55:-0.833333 56:-0.963636 57:-1 58:-0.953488 59:-0.986207 60:0.125981 61:-0.0917421 
0.03125 1:-0.986828 2:-0.988794 3:-0.992173 4:-0.183936 5:0.54231 6:-0.973679 7:0.0674188 8:-0.996835 9:-0.99923 10:0.573064 11:-0.659865 12:-0.99919 13:-0.0911202 14:-0.999216 15:-0.892217 16:-0.814213 17:-0.939222 18:-0.915602 19:-0.946116 20:-0.914847 21:-0.925907 22:-0.93722 23:-1 24:-1 25:-0.839958 26:-0.89989 27:-1 28:-1 29:-0.950714 30:-0.899503 31:-1 32:-1 33:-0.99138 34:-0.996735 35:-0.995232 36:-0.964286 37:-0.963731 38:-0.971671 39:-0.990491 40:-0.993421 41:-0.993151 42:-0.995984 43:-0.997795 44:-0.996367 45:-1 46:-0.991124 47:-0.990099 48:-0.988827 49:-0.946903 50:-0.955556 51:-1 52:-0.960526 53:-0.896907 54:-0.948718 55:-0.928571 56:-0.927273 57:-0.9 58:-1 59:-1 60:-0.0751518 61:-0.328228 
0.03125 1:-0.972119 2:-0.986083 3:-0.997249 4:-0.20628 5:0.556706 6:-0.950031 7:0.0132962 8:-0.921836 9:-0.998331 10:0.573064 11:-0.659796 12:-0.998376 13:-0.0911202 14:-0.998152 15:-0.787315 16:-0.908677 17:-0.964274 18:-0.995673 19:-0.882679 20:-0.926983 21:-0.878158 22:-0.890051 23:-0.815317 24:-0.912649 25:-0.905897 26:-0.954591 27:-0.772654 28:-0.917888 29:-1 30:-1 31:-0.794721 32:-0.924025 33:-0.923057 34:-0.942792 35:-0.9987 36:-0.988095 37:-0.989637 38:-0.994334 39:-0.984152 40:-0.976974 41:-0.996575 42:-0.98996 43:-0.975744 44:-0.990917 45:-0.973984 46:-0.967456 47:-0.957096 48:-0.865922 49:-0.858407 50:-0.933333 51:-0.888112 52:-0.960526 53:-1 54:-0.974359 55:-0.928571 56:-1 57:-0.95 58:-0.906977 59:-1 60:-0.179277 61:0.211247 
0.03125 1:-0.988145 2:-0.974436 3:-0.999713 4:-0.200676 5:0.53785 6:-0.893182 7:0.0848309 8:-0.989993 9:-0.998279 10:0.573064 11:-0.659865 12:-0.998834 13:-0.0911202 14:-0.998675 15:-0.95944 16:-0.979654 17:-0.983773 18:-0.991698 19:-1 20:-1 21:-0.752645 22:-0.786133 23:-1 24:-1 25:-0.810032 26:-0.808074 27:-1 28:-1 29:-0.804004 30:-0.863165 31:-1 32:-1 33:-0.902397 34:-0.9325 35:-1 36:-0.997024 37:-0.989637 38:-1 39:-0.99683 40:-0.993421 41:-0.989726 42:-0.991968 43:-0.993385 44:-0.998183 45:-0.998374 46:-0.97929 47:-0.970297 48:-0.972067 49:-0.973451 50:-0.962963 51:-0.93007 52:-0.960526 53:-0.958763 54:-0.974359 55:-0.928571 56:-0.890909 57:-0.45 58:-0.953488 59:-0.972414 60:-0.447765 61:-0.0984828 
0.03125 1:-0.986828 2:-0.981305 3:-0.999263 4:-0.202614 5:0.538051 6:-0.925374 7:0.0726054 8:-0.998142 9:-0.999176 10:0.57333 11:-0.659865 12:-0.999609 13:-0.0911202 14:-0.999443 15:-0.821456 16:-0.920154 17:-1 18:-1 19:-1 20:-1 21:-0.815984 22:-0.897168 23:-1 24:-1 25:-1 26:-1 27:-0.844678 28:-0.85027 29:-1 30:-1 31:-1 32:-1 33:-0.926956 34:-0.952132 35:-0.997833 36:-0.991071 37:-0.989637 38:-0.994334 39:-0.99683 40:-0.996711 41:-0.996575 42:-0.993976 43:-0.988975 44:-0.987284 45:-0.98374 46:-0.988166 47:-0.940594 48:-0.972067 49:-0.964602 50:-0.992593 51:-0.986014 52:-1 53:-1 54:-0.897436 55:-0.97619 56:-0.963636 57:-0.9 58:-0.906977 59:-0.972414 60:-0.183806 61:0.0974745 
0.03125 1:-0.975631 2:-0.981671 3:-0.980935 4:-0.196527 5:0.545572 6:-0.999994 7:0.063658 8:-0.996726 9:-0.998783 10:0.568805 11:-0.659727 12:-0.997122 13:-0.0911202 14:-0.997242 15:-0.81375 16:-0.941764 17:-0.886954 18:-0.89376 19:-1 20:-1 21:-0.921393 22:-0.885805 23:-0.965276 24:-0.867685 25:-0.941554 26:-0.813419 27:-1 28:-1 29:-0.908511 30:-0.754517 31:-0.964055 32:-0.792947 33:-0.972027 34:-0.92021 35:-0.998266 36:-0.991071 37:-0.989637 38:-0.971671 39:-0.980983 40:-0.960526 41:-0.976027 42:-0.987952 43:-0.980154 44:-0.974569 45:-0.990244 46:-0.973373 47:-0.990099 48:-0.927374 49:-0.955752 50:-0.888889 51:-0.944056 52:-1 53:-0.938144 54:-0.974359 55:-0.928571 56:-0.854545 57:-1 58:-0.953488 59:-1 60:0.0574081 61:0.292188 
0.03125 1:-0.979363 2:-0.989 3:-0.988237 4:-0.195832 5:0.537788 6:-0.999962 7:0.0636841 8:-0.997827 9:-0.998552 10:0.57333 11:-0.659796 12:-0.996702 13:-0.0910096 14:-0.996775 15:-0.79372 16:-0.969048 17:-0.901715 18:-0.954183 19:-0.940072 20:-0.947822 21:-0.940766 22:-0.866308 23:-0.970409 24:-0.831442 25:-0.954848 26:-0.812067 27:-0.947301 28:-0.773438 29:-0.939918 30:-0.752585 31:-0.950985 32:-0.780072 33:-0.914833 34:-0.921147 35:-0.995665 36:-0.973214 37:-0.974093 38:-0.966006 39:-0.952456 40:-0.944079 41:-0.965753 42:-0.983936 43:-0.984564 44:-0.990917 45:-0.988618 46:-0.985207 47:-0.976898 48:-1 49:-0.982301 50:-0.992593 51:-0.972028 52:-0.986842 53:-0.979381 54:-1 55:-1 56:-1 57:-1 58:-1 59:-1 60:0.07679 61:-0.032386 
0.03125 1:-0.993633 2:-0.953703 3:-0.957556 4:-0.221953 5:0.55348 6:-0.978876 7:0.056956 8:-0.993607 9:-0.999414 10:0.574927 11:-0.660074 12:-0.998634 13:-0.0911202 14:-0.998723 15:-0.997268 16:-0.98882 17:-0.946817 18:-0.848346 19:-1 20:-1 21:-0.955378 22:-0.859353 23:-1 24:-1 25:-0.939251 26:-0.819075 27:-1 28:-1 29:-0.878357 30:-0.882798 31:-1 32:-1 33:-0.964037 34:-0.917201 35:-0.999133 36:-1 37:-0.994819 38:-1 39:-1 40:-0.960526 41:-0.993151 42:-0.991968 43:-0.997795 44:-0.996367 45:-0.993496 46:-0.994083 47:-0.9967 48:-1 49:-0.982301 50:-0.992593 51:-0.986014 52:-0.973684 53:-0.917526 54:-0.897436 55:-0.857143 56:-1 57:-1 58:-1 59:-0.972414 60:-0.469093 61:-0.262786 
0.03125 1:-0.997805 2:-0.956781 3:-0.962685 4:-0.22538 5:0.541037 6:-0.969128 7:0.0626846 8:-0.997862 9:-0.999717 10:0.573064 11:-0.659865 12:-0.999081 13:-0.0911202 14:-0.999141 15:-0.738998 16:-0.951848 17:-1 18:-1 19:-0.859165 20:-0.958783 21:-1 22:-1 23:-1 24:-1 25:-0.953782 26:-0.952719 27:-1 28:-1 29:-0.934993 30:-0.950203 31:-1 32:-1 33:-0.890865 34:-0.832975 35:-0.9987 36:-0.994048 37:-0.984456 38:-0.988669 39:-0.990491 40:-1 41:-0.989726 42:-0.993976 43:-0.993385 44:-0.998183 45:-0.996748 46:-0.997041 47:-1 48:-0.994413 49:-0.982301 50:-1 51:-0.958042 52:-0.986842 53:-1 54:-1 55:-0.97619 56:-1 57:-1 58:-1 59:-1 60:-0.000107648 61:0.00116203 
0.03125 1:-0.916136 2:-0.994598 3:-0.997647 4:-0.201531 5:0.533981 6:-0.983515 7:0.0734895 8:-0.986813 9:-0.992782 10:0.572797 11:-0.659935 12:-0.991406 13:-0.0911202 14:-0.991511 15:-0.774461 16:-0.748917 17:-0.865395 18:-0.758964 19:-0.794971 20:-0.763004 21:-0.802826 22:-0.761686 23:-0.810599 24:-0.881962 25:-0.8013 26:-0.680104 27:-0.794102 28:-0.881967 29:-0.78375 30:-0.897038 31:-0.936749 32:-0.872496 33:-0.933972 34:-0.923565 35:-0.981361 36:-0.883929 37:-0.875648 38:-0.926346 39:-0.933439 40:-0.9375 41:-0.921233 42:-0.955823 43:-0.964719 44:-0.976385 45:-0.970732 46:-0.973373 47:-0.940594 48:-0.944134 49:-0.823009 50:-0.866667 51:-0.762238 52:-0.802632 53:-0.773196 54:-0.794872 55:-0.666667 56:-0.745455 57:-0.8 58:-0.813953 59:-1 60:0.143369 61:-0.0528747 
0.03125 1:-0.993633 2:-0.970228 3:-0.981514 4:-0.225808 5:0.5504 6:-0.935673 7:0.0497041 8:-0.992123 9:-0.999267 10:0.573064 11:-0.659935 12:-0.998603 13:-0.0911202 14:-0.998657 15:-0.934486 16:-0.837471 17:-1 18:-1 19:-0.732487 20:-0.830904 21:-1 22:-1 23:-0.952112 24:-0.876694 25:-1 26:-1 27:-1 28:-1 29:-0.911502 30:-0.84538 31:-1 32:-1 33:-0.922911 34:-0.948499 35:-0.996966 36:-0.997024 37:-0.979275 38:-0.988669 39:-1 40:-0.983553 41:-0.989726 42:-0.995984 43:-0.988975 44:-0.996367 45:-0.993496 46:-0.994083 47:-0.9967 48:-0.988827 49:-0.99115 50:-0.985185 51:-0.986014 52:-0.947368 53:-0.958763 54:-1 55:-1 56:-0.963636 57:-1 58:-0.953488 59:-0.986207 60:-0.100629 61:-0.242823 
0.03125 1:-0.993414 2:-0.98793 3:-0.992325 4:-0.184541 5:0.53498 6:-0.975761 7:0.0584559 8:-0.99728 9:-0.999649 10:0.573064 11:-0.659865 12:-0.999659 13:-0.0911202 14:-0.999643 15:-0.996075 16:-0.98476 17:-0.990531 18:-0.975958 19:-0.999683 20:-0.991928 21:-0.937481 22:-0.893287 23:-1 24:-1 25:-0.833026 26:-0.935298 27:-1 28:-1 29:-0.944126 30:-0.914167 31:-1 32:-1 33:-0.996187 34:-0.969434 35:-0.995665 36:-0.991071 37:-0.979275 38:-0.983003 39:-1 40:-1 41:-0.986301 42:-0.997992 43:-0.993385 44:-0.998183 45:-0.995122 46:-0.991124 47:-0.983498 48:-0.994413 49:-0.99115 50:-0.977778 51:-0.986014 52:-0.986842 53:-0.979381 54:-0.923077 55:-0.97619 56:-1 57:-0.95 58:-0.953488 59:-1 60:0.0335753 61:-0.199555 
0.03125 1:-0.987267 2:-0.977352 3:-0.999326 4:-0.189853 5:0.519771 6:-0.910995 7:-0.0948909 8:-0.569038 9:-0.998334 10:0.573064 11:-0.660004 12:-0.99866 13:-0.0915625 14:-0.998344 15:-0.700232 16:-0.95603 17:-1 18:-1 19:-0.738767 20:-0.897235 21:-1 22:-1 23:-0.741026 24:-0.898338 25:-1 26:-1 27:-1 28:-1 29:-0.746867 30:-0.911961 31:-1 32:-1 33:-0.7416 34:-0.943606 35:-0.992198 36:-0.967262 37:-0.984456 38:-0.966006 39:-0.987322 40:-0.996711 41:-0.979452 42:-0.997992 43:-0.99559 44:-0.996367 45:-0.998374 46:-0.994083 47:-0.993399 48:-0.994413 49:-0.982301 50:-0.962963 51:-0.986014 52:-0.986842 53:-0.979381 54:-0.897436 55:-0.952381 56:-1 57:-0.85 58:-0.953488 59:-0.972414 60:0.0187751 61:-0.338825 
0.03125 1:-0.975412 2:-0.984392 3:-0.998665 4:-0.188638 5:0.520944 6:-0.93989 7:-0.0209502 8:-0.817046 9:-0.998243 10:0.573064 11:-0.660004 12:-0.998427 13:-0.091452 14:-0.998235 15:-0.974104 16:-0.971644 17:-0.919506 18:-0.887448 19:-1 20:-1 21:-0.877964 22:-0.919445 23:-0.837761 24:-0.904892 25:-0.801136 26:-0.945905 27:-0.794506 28:-0.913909 29:-1 30:-1 31:-0.713041 32:-0.841496 33:-0.904981 34:-0.979075 35:-0.984829 36:-0.985119 37:-0.92228 38:-0.966006 39:-0.968304 40:-0.986842 41:-0.993151 42:-0.993976 43:-0.980154 44:-0.985468 45:-0.990244 46:-0.961538 47:-1 48:-0.994413 49:-0.99115 50:-0.977778 51:-0.986014 52:-0.960526 53:-0.938144 54:-0.948718 55:-0.880952 56:-1 57:-0.95 58:-1 59:-1 60:0.405652 61:-0.0686133 
0.03125 1:-0.986608 2:-0.974401 3:-0.999681 4:-0.200954 5:0.538184 6:-0.892731 7:0.0792166 8:-0.992441 9:-0.997909 10:0.573064 11:-0.659865 12:-0.99869 13:-0.0910096 14:-0.998489 15:-0.967001 16:-0.986624 17:-0.97397 18:-0.993271 19:-1 20:-1 21:-0.740501 22:-0.790334 23:-1 24:-1 25:-0.809585 26:-0.822587 27:-1 28:-1 29:-0.753946 30:-0.864075 31:-1 32:-1 33:-0.869475 34:-0.925591 35:-1 36:-1 37:-0.994819 38:-0.994334 39:-1 40:-0.983553 41:-1 42:-0.991968 43:-0.993385 44:-0.996367 45:-0.996748 46:-0.991124 47:-0.950495 48:-0.977654 49:-0.964602 50:-0.948148 51:-0.972028 52:-0.947368 53:-0.979381 54:-0.948718 55:-0.857143 56:-0.818182 57:-0.55 58:-0.813953 59:-0.986207 60:-0.464054 61:-0.0896434 
0.03125 1:-0.987267 2:-0.981305 3:-0.999248 4:-0.202668 5:0.538094 6:-0.925648 7:0.0722048 8:-0.998472 9:-0.999285 10:0.573064 11:-0.659865 12:-0.999627 13:-0.0911202 14:-0.999477 15:-0.826787 16:-0.929624 17:-1 18:-1 19:-1 20:-1 21:-0.82179 22:-0.910763 23:-1 24:-1 25:-1 26:-1 27:-0.846536 28:-0.906533 29:-1 30:-1 31:-1 32:-1 33:-0.922302 34:-0.984047 35:-0.999567 36:-0.997024 37:-0.994819 38:-0.994334 39:-1 40:-0.996711 41:-0.996575 42:-0.993976 43:-0.98677 44:-0.996367 45:-0.99187 46:-0.970414 47:-0.933993 48:-0.944134 49:-0.99115 50:-0.977778 51:-0.958042 52:-1 53:-0.979381 54:-0.948718 55:-0.952381 56:-0.963636 57:-0.9 58:-0.906977 59:-0.958621 60:-0.294101 61:0.168226 
0.03125 1:-0.920966 2:-0.99463 3:-0.99761 4:-0.201516 5:0.535323 6:-0.983988 7:0.0708585 8:-0.99061 9:-0.993047 10:0.573596 11:-0.659727 12:-0.993411 13:-0.090899 14:-0.993398 15:-0.868643 16:-0.766027 17:-0.788298 18:-0.770352 19:-0.777694 20:-0.770723 21:-0.794291 22:-0.759452 23:-0.819448 24:-0.862756 25:-0.796643 26:-0.673706 27:-0.789748 28:-0.871607 29:-0.787346 30:-0.893831 31:-0.932572 32:-0.878303 33:-0.932353 34:-0.90135 35:-0.986129 36:-0.886905 37:-0.875648 38:-0.932011 39:-0.946117 40:-0.940789 41:-0.910959 42:-0.973896 43:-0.953693 44:-0.978202 45:-0.969106 46:-0.97929 47:-0.950495 48:-0.949721 49:-0.902655 50:-0.851852 51:-0.762238 52:-0.723684 53:-0.835052 54:-0.666667 55:-0.714286 56:-0.418182 57:-0.95 58:-0.953488 59:-0.986207 60:0.16182 61:-0.0063467 
0.03125 1:-0.512843 2:-0.999942 3:-1 4:-0.196184 5:0.539355 6:-0.997871 7:0.0638538 8:-0.998679 9:-0.976507 10:0.57333 11:-0.660212 12:-0.988911 13:-0.0906779 14:-0.985957 15:-0.782611 16:-0.917525 17:-0.756769 18:-0.844124 19:-0.773261 20:-0.836476 21:-0.791314 22:-0.912443 23:-0.787966 24:-0.908231 25:-0.783324 26:-0.879975 27:-0.765154 28:-0.845095 29:-0.721243 30:-0.813209 31:-0.715308 32:-0.828401 33:-0.718708 34:-0.841879 35:-0.977026 36:-0.89881 37:-0.818653 38:-0.529745 39:-0.708399 40:-0.322368 41:-0.369863 42:-0.518072 43:-0.398015 44:-0.518619 45:-0.697561 46:-0.464497 47:-0.617162 48:-0.620112 49:-0.60177 50:-0.644444 51:-0.51049 52:-0.644737 53:-0.649485 54:-0.487179 55:-0.880952 56:-0.309091 57:-0.75 58:-0.813953 59:-0.972414 60:0.0588067 61:0.380134 
0.03125 1:-0.961581 2:-0.988771 3:-0.987599 4:-0.19609 5:0.544915 6:-0.999963 7:0.0637871 8:-0.99569 9:-0.996792 10:0.572797 11:-0.659935 12:-0.996254 13:-0.0911202 14:-0.996081 15:-0.920243 16:-0.848726 17:-0.897442 18:-0.869394 19:-0.902533 20:-0.891012 21:-0.89807 22:-0.845287 23:-0.988965 24:-0.969092 25:-0.908995 26:-0.837227 27:-0.902208 28:-0.65572 29:-0.892759 30:-0.88588 31:-0.929321 32:-0.894543 33:-0.966665 34:-0.912158 35:-0.997833 36:-0.940476 37:-0.896373 38:-0.892351 39:-0.939778 40:-0.957237 41:-0.986301 42:-0.98996 43:-0.984564 44:-0.985468 45:-0.985366 46:-0.97929 47:-0.986799 48:-0.944134 49:-0.929204 50:-0.940741 51:-0.888112 52:-0.934211 53:-0.85567 54:-0.74359 55:-0.97619 56:-0.963636 57:-0.95 58:-1 59:-1 60:0.177932 61:-0.0120857 
0.03125 1:-0.996926 2:-0.97559 3:-0.975953 4:-0.204648 5:0.525538 6:-0.996047 7:0.0675436 8:-0.993769 9:-0.999908 10:0.573064 11:-0.659865 12:-0.999476 13:-0.0911202 14:-0.999524 15:-0.985435 16:-0.949087 17:-0.967178 18:-0.917742 19:-1 20:-1 21:-0.935828 22:-0.933892 23:-1 24:-1 25:-0.955013 26:-0.980788 27:-1 28:-1 29:-0.918875 30:-0.961802 31:-1 32:-1 33:-0.990779 34:-0.991238 35:-0.999567 36:-1 37:-0.989637 38:-0.994334 39:-1 40:-0.996711 41:-1 42:-0.997992 43:-1 44:-0.998183 45:-1 46:-0.991124 47:-0.9967 48:-0.98324 49:-1 50:-0.977778 51:-0.958042 52:-0.960526 53:-0.938144 54:-0.923077 55:-1 56:-0.854545 57:-0.95 58:-0.953488 59:-0.958621 60:-0.393315 61:0.0165162 
0.03125 1:-0.971899 2:-0.982578 3:-0.982731 4:-0.204026 5:0.548913 6:-0.995231 7:0.0603129 8:-0.994975 9:-0.998493 10:0.573064 11:-0.659865 12:-0.99644 13:-0.0910096 14:-0.996495 15:-0.992713 16:-0.97195 17:-0.929011 18:-0.829002 19:-0.923858 20:-0.840414 21:-0.876219 22:-0.855638 23:-0.853433 24:-0.859094 25:-1 26:-1 27:-0.858928 28:-0.830806 29:-0.859764 30:-0.798282 31:-0.931089 32:-0.906418 33:-0.981459 34:-0.949138 35:-0.987863 36:-0.979167 37:-0.984456 38:-0.96034 39:-0.993661 40:-0.986842 41:-0.993151 42:-0.991968 43:-0.982359 44:-0.990917 45:-0.993496 46:-0.991124 47:-0.9967 48:-0.972067 49:-0.920354 50:-0.948148 51:-0.916084 52:-0.868421 53:-0.731959 54:-0.74359 55:-0.904762 56:-0.818182 57:-0.95 58:-0.813953 59:-1 60:0.054219 61:-0.0908924 
0.03125 1:-0.981778 2:-0.97078 3:-0.973301 4:-0.213983 5:0.537935 6:-0.983985 7:0.0644719 8:-0.997667 9:-0.998345 10:0.57333 11:-0.659865 12:-0.997934 13:-0.0911202 14:-0.997844 15:-0.913441 16:-0.950291 17:-0.964082 18:-0.953398 19:-0.893309 20:-0.837176 21:-0.996989 22:-0.978003 23:-0.902816 24:-0.837076 25:-0.837528 26:-0.755128 27:-1 28:-1 29:-0.93608 30:-0.761425 31:-1 32:-1 33:-0.953309 34:-0.911448 35:-0.992631 36:-0.824405 37:-0.989637 38:-0.971671 39:-0.99683 40:-0.973684 41:-0.996575 42:-0.997992 43:-1 44:-1 45:-0.996748 46:-0.994083 47:-1 48:-0.994413 49:-1 50:-0.992593 51:-0.958042 52:-0.986842 53:-0.979381 54:-1 55:-0.97619 56:-0.963636 57:-1 58:-1 59:-1 60:-0.467952 61:-0.770776 
0.03125 1:-0.908452 2:-0.995074 3:-0.993691 4:-0.194749 5:0.533306 6:-0.999477 7:0.062576 8:-0.994744 9:-0.993975 10:0.571733 11:-0.659796 12:-0.989499 13:-0.090899 14:-0.989133 15:-0.936947 16:-0.876643 17:-0.958006 18:-0.855474 19:-0.972411 20:-0.840831 21:-0.876773 22:-0.795142 23:-0.769114 24:-0.784498 25:-0.809059 26:-0.793787 27:-0.833305 28:-0.793631 29:-0.786828 30:-0.773846 31:-0.88465 32:-0.851201 33:-0.915792 34:-0.902825 35:-0.991331 36:-0.967262 37:-0.891192 38:-0.614731 39:-0.736926 40:-0.927632 41:-0.962329 42:-0.975904 43:-0.949283 44:-0.967302 45:-0.965854 46:-0.970414 47:-0.891089 48:-0.916201 49:-0.876106 50:-0.844444 51:-0.832168 52:-0.828947 53:-0.876289 54:-0.948718 55:-1 56:-0.927273 57:-0.9 58:-1 59:-0.986207 60:0.11376 61:0.0128798 
0.03125 1:-0.986389 2:-0.961831 3:-0.960464 4:-0.199185 5:0.525478 6:-0.999652 7:0.0645418 8:-0.995071 9:-0.998444 10:0.573064 11:-0.659865 12:-0.998542 13:-0.0911202 14:-0.998335 15:-0.987809 16:-0.968134 17:-0.860431 18:-0.907003 19:-1 20:-1 21:-0.929689 22:-0.744372 23:-1 24:-1 25:-0.916762 26:-0.671948 27:-1 28:-1 29:-0.935997 30:-0.689209 31:-1 32:-1 33:-0.970847 34:-0.947464 35:-0.9987 36:-0.997024 37:-1 38:-0.966006 39:-0.993661 40:-0.986842 41:-0.993151 42:-0.98996 43:-0.988975 44:-0.992734 45:-0.995122 46:-0.988166 47:-0.947195 48:-0.977654 49:-0.955752 50:-0.992593 51:-0.916084 52:-0.921053 53:-0.917526 54:-1 55:-0.928571 56:-1 57:-0.9 58:-1 59:-1 60:-0.0746255 61:0.499744 
0.03125 1:-0.998024 2:-0.97371 3:-0.971536 4:-0.193417 5:0.523034 6:-0.999593 7:0.0624395 8:-0.992887 9:-0.999643 10:0.573064 11:-0.659865 12:-0.999115 13:-0.0911202 14:-0.999108 15:-0.98307 16:-0.954001 17:-0.985663 18:-0.97299 19:-1 20:-1 21:-0.99878 22:-0.990816 23:-0.945285 24:-0.923945 25:-1 26:-1 27:-0.982625 28:-0.908563 29:-1 30:-1 31:-0.928773 32:-0.942323 33:-0.990369 34:-0.978484 35:-0.999567 36:-1 37:-0.994819 38:-1 39:-0.99683 40:-1 41:-0.986301 42:-1 43:-0.99559 44:-0.996367 45:-1 46:-0.988166 47:-0.990099 48:-0.972067 49:-0.982301 50:-0.985185 51:-1 52:-0.986842 53:-1 54:-0.948718 55:-1 56:-0.927273 57:-1 58:-1 59:-0.986207 60:0.0496067 61:0.283968 
0.03125 1:-0.99539 2:-0.916441 3:-0.908538 4:-0.176924 5:0.531456 6:-0.994196 7:0.0624088 8:-0.994769 9:-0.997233 10:0.572797 11:-0.659865 12:-0.998049 13:-0.090125 14:-0.997579 15:-0.584653 16:-0.715444 17:-1 18:-1 19:-1 20:-1 21:-0.575501 22:-0.672313 23:-1 24:-1 25:-1 26:-1 27:-0.960505 28:-0.848051 29:-1 30:-1 31:-1 32:-1 33:-0.959044 34:-0.801755 35:-0.997833 36:-0.997024 37:-0.989637 38:-1 39:-1 40:-1 41:-1 42:-1 43:-0.997795 44:-0.998183 45:-0.995122 46:-0.991124 47:-0.9967 48:-0.994413 49:-0.99115 50:-0.992593 51:-0.958042 52:-0.921053 53:-0.896907 54:-0.948718 55:-0.904762 56:-0.927273 57:-0.9 58:-1 59:-0.986207 60:0.349258 61:0.507122 
0.03125 1:-0.669813 2:-0.999141 3:-0.998688 4:-0.195516 5:0.539984 6:-0.99939 7:0.0640144 8:-0.99839 9:-0.975743 10:0.572265 11:-0.660212 12:-0.985716 13:-0.090899 14:-0.981914 15:-0.874746 16:-0.846898 17:-0.803142 18:-0.783431 19:-0.839625 20:-0.77456 21:-0.815316 22:-0.788515 23:-0.809231 24:-0.760083 25:-0.797504 26:-0.755626 27:-0.826935 28:-0.760233 29:-0.811606 30:-0.732616 31:-0.817614 32:-0.722816 33:-0.852308 34:-0.711322 35:-0.985262 36:-0.943452 37:-0.943005 38:-0.864023 39:-0.933439 40:-0.934211 41:-0.681507 42:-0.861446 43:-0.828004 44:-0.756585 45:-0.793496 46:-0.292899 47:-0.155116 48:-0.268156 49:-0.221239 50:-0.62963 51:-0.552448 52:-0.565789 53:-0.278351 54:-0.512821 55:-0.666667 56:-1 57:-0.95 58:-1 59:-1 60:-0.190667 61:0.365779 
0.03125 1:-0.945115 2:-0.996957 3:-0.996184 4:-0.195514 5:0.537622 6:-0.999805 7:0.0634605 8:-0.999344 9:-0.998235 10:0.572531 11:-0.659727 12:-0.995174 13:-0.091452 14:-0.995167 15:-0.968764 16:-0.940105 17:-0.882528 18:-0.938643 19:-0.940506 20:-0.925284 21:-0.972229 22:-0.924233 23:-0.9102 24:-0.922321 25:-0.865281 26:-0.810238 27:-0.914314 28:-0.811568 29:-0.923858 30:-0.801902 31:-0.965621 32:-0.855776 33:-0.94952 34:-0.895044 35:-1 36:-1 37:-0.994819 38:-0.937677 39:-0.961965 40:-0.934211 41:-0.880137 42:-0.933735 43:-0.958104 44:-0.980018 45:-0.977236 46:-0.940828 47:-0.927393 48:-0.860335 49:-0.778761 50:-0.940741 51:-0.944056 52:-0.973684 53:-0.958763 54:-0.923077 55:-0.928571 56:-0.890909 57:-0.95 58:-1 59:-1 60:0.0756068 61:0.563343 
0.03125 1:-0.968825 2:-0.986197 3:-0.985822 4:-0.20076 5:0.547024 6:-0.998034 7:0.0617935 8:-0.995084 9:-0.997934 10:0.573064 11:-0.659796 12:-0.996713 13:-0.0911202 14:-0.996691 15:-0.88591 16:-0.880397 17:-0.899569 18:-0.91698 19:-0.913077 20:-0.942367 21:-0.924759 22:-0.852339 23:-0.922685 24:-0.826211 25:-1 26:-1 27:-0.872997 28:-0.679998 29:-0.845456 30:-0.882397 31:-0.941244 32:-0.902615 33:-0.94583 34:-0.960188 35:-0.997399 36:-0.904762 37:-0.937824 38:-0.92068 39:-0.952456 40:-0.950658 41:-0.993151 42:-0.977912 43:-0.988975 44:-0.976385 45:-0.990244 46:-0.970414 47:-0.983498 48:-0.944134 49:-0.964602 50:-0.97037 51:-0.986014 52:-1 53:-0.979381 54:-1 55:-1 56:-1 57:-1 58:-1 59:-1 60:0.0911023 61:-0.0898066 
0.03125 1:-0.917234 2:-0.99463 3:-0.997604 4:-0.201501 5:0.535479 6:-0.984071 7:0.0705652 8:-0.991029 9:-0.992649 10:0.574661 11:-0.659796 12:-0.992551 13:-0.0905673 14:-0.992541 15:-0.779994 16:-0.767011 17:-0.783423 18:-0.770615 19:-0.792344 20:-0.77304 21:-0.796508 22:-0.759567 23:-0.82048 24:-0.874196 25:-0.791596 26:-0.664776 27:-0.793149 28:-0.865937 29:-0.78642 30:-0.891224 31:-0.941947 32:-0.873229 33:-0.925317 34:-0.901209 35:-0.982228 36:-0.869048 37:-0.906736 38:-0.926346 39:-0.958796 40:-0.947368 41:-0.914384 42:-0.955823 43:-0.966924 44:-0.963669 45:-0.977236 46:-0.973373 47:-0.947195 48:-0.938547 49:-0.920354 50:-0.82963 51:-0.748252 52:-0.75 53:-0.690722 54:-0.846154 55:-0.809524 56:-0.272727 57:-0.7 58:-1 59:-1 60:0.178019 61:-0.0163222 
0.03125 1:-0.873106 2:-0.996831 3:-0.99777 4:-0.192756 5:0.537712 6:-0.992336 7:0.061645 8:-0.996889 9:-0.991561 10:0.571999 11:-0.65938 12:-0.987845 13:-0.0912308 14:-0.987618 15:-0.897305 16:-0.761798 17:-0.920128 18:-0.766931 19:-0.940784 20:-0.800528 21:-0.850371 22:-0.874598 23:-0.840827 24:-0.922339 25:-0.836604 26:-0.895453 27:-0.801434 28:-0.862856 29:-0.757249 30:-0.776811 31:-0.813935 32:-0.922896 33:-0.93254 34:-0.888692 35:-0.98743 36:-0.97619 37:-0.948187 38:-0.824363 39:-0.546751 40:-0.927632 41:-0.979452 42:-0.985944 43:-0.977949 44:-0.970936 45:-0.954472 46:-0.949704 47:-0.924092 48:-0.882682 49:-0.699115 50:-0.4 51:-0.328671 52:-0.447368 53:-0.731959 54:-0.820513 55:-0.904762 56:-0.963636 57:-1 58:-1 59:-0.986207 60:0.291808 61:0.336168 
0.03125 1:-0.972997 2:-0.981128 3:-0.979257 4:-0.191483 5:0.532694 6:-0.99848 7:0.0625155 8:-0.997324 9:-0.998054 10:0.571999 11:-0.659796 12:-0.996769 13:-0.0911202 14:-0.996646 15:-0.9243 16:-0.804192 17:-0.945236 18:-0.848784 19:-1 20:-1 21:-0.923078 22:-0.805404 23:-0.872109 24:-0.758471 25:-0.987558 26:-0.983969 27:-0.943555 28:-0.77259 29:-1 30:-1 31:-0.904985 32:-0.815086 33:-0.90283 34:-0.896134 35:-0.997399 36:-0.982143 37:-0.979275 38:-0.983003 39:-0.990491 40:-0.963816 41:-0.965753 42:-0.985944 43:-0.982359 44:-0.972752 45:-0.978862 46:-0.955621 47:-0.983498 48:-0.916201 49:-0.982301 50:-0.925926 51:-0.958042 52:-0.973684 53:-0.896907 54:-0.923077 55:-0.97619 56:-1 57:-1 58:-1 59:-1 60:0.113227 61:0.322786 
0.03125 1:-0.989243 2:-0.973238 3:-0.975975 4:-0.211935 5:0.558889 6:-0.986105 7:0.0536266 8:-0.988804 9:-0.999628 10:0.572797 11:-0.659865 12:-0.998559 13:-0.0911202 14:-0.998594 15:-0.995467 16:-0.971928 17:-0.973488 18:-0.872563 19:-1 20:-1 21:-0.911849 22:-0.878083 23:-0.940607 24:-0.870476 25:-1 26:-1 27:-0.906215 28:-0.842234 29:-1 30:-1 31:-0.927746 32:-0.888566 33:-0.973049 34:-0.95026 35:-0.997833 36:-0.994048 37:-1 38:-0.977337 39:-0.993661 40:-0.996711 41:-0.982877 42:-0.995984 43:-0.997795 44:-0.996367 45:-0.995122 46:-1 47:-0.990099 48:-0.972067 49:-0.973451 50:-0.97037 51:-0.916084 52:-0.907895 53:-0.876289 54:-0.897436 55:-0.904762 56:-0.927273 57:-0.95 58:-0.953488 59:-1 60:-0.161267 61:-0.0383804 
0.03125 1:-0.999341 2:-0.960799 3:-0.966822 4:-0.221223 5:0.533973 6:-0.974542 7:0.066927 8:-0.998554 9:-0.99992 10:0.573064 11:-0.659865 12:-0.999738 13:-0.0911202 14:-0.999762 15:-0.983446 16:-0.913655 17:-1 18:-1 19:-1 20:-1 21:-0.937849 22:-0.900392 23:-1 24:-1 25:-1 26:-1 27:-0.934738 28:-0.891209 29:-1 30:-1 31:-1 32:-1 33:-0.985827 34:-0.952494 35:-1 36:-1 37:-0.968912 38:-1 39:-1 40:-0.963816 41:-1 42:-0.993976 43:-1 44:-1 45:-1 46:-1 47:-0.9967 48:-1 49:-1 50:-0.992593 51:-1 52:-0.960526 53:-1 54:-1 55:-1 56:-1 57:-0.9 58:-1 59:-1 60:-0.820888 61:-0.835524 
0.03125 1:-0.986169 2:-0.986985 3:-0.988478 4:-0.187901 5:0.543509 6:-0.991769 7:0.0661244 8:-0.99866 9:-0.999669 10:0.573064 11:-0.659865 12:-0.998363 13:-0.0911202 14:-0.998449 15:-0.936546 16:-0.973125 17:-0.98766 18:-0.961342 19:-0.939259 20:-0.878678 21:-0.945703 22:-0.894382 23:-1 24:-1 25:-0.93126 26:-0.951943 27:-0.926269 28:-0.925386 29:-0.918709 30:-0.949027 31:-0.967983 32:-0.913457 33:-0.983569 34:-0.897195 35:-1 36:-0.997024 37:-0.984456 38:-0.988669 39:-0.987322 40:-0.990132 41:-0.982877 42:-0.959839 43:-0.975744 44:-0.998183 45:-0.964228 46:-0.997041 47:-0.990099 48:-1 49:-0.982301 50:-0.97037 51:-0.972028 52:-1 53:-0.979381 54:-1 55:-1 56:-0.963636 57:-1 58:-1 59:-0.986207 60:-0.606199 61:-0.473385 
0.03125 1:-0.75258 2:-0.996729 3:-0.99686 4:-0.199259 5:0.542376 6:-0.995998 7:0.0613944 8:-0.996202 9:-0.983453 10:0.565877 11:-0.659657 12:-0.976649 13:-0.0955435 14:-0.97562 15:-0.80291 16:-0.905967 17:-0.836906 18:-0.868603 19:-0.879878 20:-0.875168 21:-0.868542 22:-0.844505 23:-0.882551 24:-0.692576 25:-0.908336 26:-0.689044 27:-0.883568 28:-0.700042 29:-0.853913 30:-0.699859 31:-0.852867 32:-0.741018 33:-0.84826 34:-0.793737 35:-0.976593 36:-0.940476 37:-0.813472 38:-0.592068 39:-0.736926 40:-0.753289 41:-0.609589 42:-0.672691 43:-0.83462 44:-0.903724 45:-0.934959 46:-0.860947 47:-0.848185 48:-0.536313 49:-0.292035 50:-0.6 51:-0.692308 52:-0.802632 53:-0.85567 54:-0.871795 55:-0.904762 56:-0.927273 57:-1 58:-0.953488 59:-1 60:0.176175 61:0.315945 
0.03125 1:-0.927772 2:-0.993871 3:-0.997853 4:-0.190675 5:0.537741 6:-0.979696 7:0.0603165 8:-0.996039 9:-0.9963 10:0.572797 11:-0.660004 12:-0.991922 13:-0.0911202 14:-0.99247 15:-0.911211 16:-0.892892 17:-0.93801 18:-0.850861 19:-0.93934 20:-0.888609 21:-0.915969 22:-0.887764 23:-0.845933 24:-0.902005 25:-0.835286 26:-0.851424 27:-0.780678 28:-0.813235 29:-0.853492 30:-0.844709 31:-0.886474 32:-0.907612 33:-0.906067 34:-0.929441 35:-0.993498 36:-0.952381 37:-0.937824 38:-0.898017 39:-0.952456 40:-0.927632 41:-0.952055 42:-0.929719 43:-0.969129 44:-0.987284 45:-0.988618 46:-0.967456 47:-0.973597 48:-0.893855 49:-0.831858 50:-0.874074 51:-0.818182 52:-0.789474 53:-0.71134 54:-0.410256 55:-0.857143 56:-0.672727 57:-0.65 58:-0.534884 59:-0.917241 60:0.113137 61:0.125643 
0.03125 1:-0.964215 2:-0.980412 3:-0.986432 4:-0.214563 5:0.52114 6:-0.966388 7:0.0831871 8:-0.971383 9:-0.993857 10:0.572797 11:-0.659796 12:-0.99672 13:-0.0910096 14:-0.99692 15:-0.771272 16:-0.635107 17:-1 18:-1 19:-0.74254 20:-0.745926 21:-0.948432 22:-0.93 23:-1 24:-1 25:-0.712811 26:-0.747933 27:-1 28:-1 29:-0.880914 30:-0.851705 31:-1 32:-1 33:-0.764719 34:-0.917154 35:-0.994365 36:-0.97619 37:-0.92228 38:-0.898017 39:-0.974643 40:-0.973684 41:-0.989726 42:-0.981928 43:-0.977949 44:-0.976385 45:-0.973984 46:-0.973373 47:-0.976898 48:-0.910615 49:-0.938053 50:-0.962963 51:-0.944056 52:-0.907895 53:-0.938144 54:-0.897436 55:-1 56:-0.963636 57:-0.85 58:-1 59:-1 60:-0.251669 61:-0.305722 
0.03125 1:-0.986608 2:-0.974436 3:-0.99972 4:-0.20076 5:0.538518 6:-0.892537 7:0.0752678 8:-0.99368 9:-0.997875 10:0.573064 11:-0.659865 12:-0.998998 13:-0.0911202 14:-0.99878 15:-0.960787 16:-0.962536 17:-1 18:-1 19:-0.735701 20:-0.785697 21:-1 22:-1 23:-0.727697 24:-0.803495 25:-1 26:-1 27:-1 28:-1 29:-0.765304 30:-0.862279 31:-1 32:-1 33:-0.85571 34:-0.94197 35:-0.9987 36:-1 37:-0.968912 38:-0.994334 39:-1 40:-0.996711 41:-0.993151 42:-0.995984 43:-0.99118 44:-0.99455 45:-0.995122 46:-0.991124 47:-0.990099 48:-0.916201 49:-0.99115 50:-0.955556 51:-1 52:-0.960526 53:-0.938144 54:-0.897436 55:-0.857143 56:-0.672727 57:-0.75 58:-1 59:-0.972414 60:-0.377903 61:-0.157965 
0.03125 1:-0.985291 2:-0.987966 3:-0.992397 4:-0.184373 5:0.540625 6:-0.974766 7:0.0653092 8:-0.998025 9:-0.999141 10:0.573064 11:-0.659865 12:-0.99902 13:-0.0911202 14:-0.99901 15:-0.944037 16:-0.830944 17:-1 18:-1 19:-0.946972 20:-0.815687 21:-0.97413 22:-0.972466 23:-0.930576 24:-0.848644 25:-0.916028 26:-0.945667 27:-0.942347 28:-0.969781 29:-0.926246 30:-0.955105 31:-0.934558 32:-0.913857 33:-0.940718 34:-0.943989 35:-0.989597 36:-0.97619 37:-0.984456 38:-0.966006 39:-0.987322 40:-0.993421 41:-0.982877 42:-0.997992 43:-0.993385 44:-0.992734 45:-0.995122 46:-0.991124 47:-0.993399 48:-0.972067 49:-0.973451 50:-0.985185 51:-0.93007 52:-1 53:-0.979381 54:-0.974359 55:-0.952381 56:-0.927273 57:-0.9 58:-1 59:-1 60:-0.0441582 61:-0.361695 
0.03125 1:-0.999561 2:-0.957379 3:-0.968821 4:-0.163636 5:0.585489 6:-0.953755 7:0.10189 8:-0.952105 9:-0.999937 10:0.573064 11:-0.659865 12:-0.999796 13:-0.0911202 14:-0.999802 15:-0.985238 16:-0.996735 17:-1 18:-1 19:-1 20:-1 21:-0.932585 22:-0.937378 23:-1 24:-1 25:-1 26:-1 27:-0.922912 28:-0.918098 29:-1 30:-1 31:-1 32:-1 33:-0.940667 34:-0.924561 35:-0.997833 36:-1 37:-1 38:-1 39:-0.99683 40:-0.993421 41:-0.989726 42:-0.997992 43:-0.99118 44:-1 45:-0.996748 46:-1 47:-1 48:-1 49:-0.99115 50:-1 51:-0.986014 52:-0.960526 53:-0.979381 54:-1 55:-1 56:-0.927273 57:-1 58:-1 59:-1 60:0.0291954 61:-0.0846234 
0.03125 1:-0.852909 2:-0.99728 3:-0.997547 4:-0.198995 5:0.543767 6:-0.995747 7:0.0597573 8:-0.993753 9:-0.991327 10:0.572531 11:-0.659796 12:-0.989132 13:-0.0911202 14:-0.988015 15:-0.954995 16:-0.931128 17:-0.930641 18:-0.886437 19:-0.920674 20:-0.874716 21:-0.913293 22:-0.850776 23:-0.893699 24:-0.751269 25:-0.899892 26:-0.746148 27:-0.915465 28:-0.74604 29:-0.904958 30:-0.737939 31:-0.89657 32:-0.75167 33:-0.923841 34:-0.802999 35:-0.992631 36:-0.991071 37:-0.963731 38:-0.864023 39:-0.803487 40:-0.805921 41:-0.869863 42:-0.861446 43:-0.896362 44:-0.940054 45:-0.960976 46:-0.87574 47:-0.864686 48:-0.675978 49:-0.504425 50:-0.57037 51:-0.706294 52:-0.736842 53:-0.793814 54:-0.923077 55:-0.97619 56:-0.963636 57:-1 58:-1 59:-1 60:0.169374 61:0.51361 
0.03125 1:-0.968825 2:-0.988037 3:-0.989519 4:-0.187968 5:0.547151 6:-0.991088 7:0.0686247 8:-0.99537 9:-0.998905 10:0.572531 11:-0.659865 12:-0.997238 13:-0.0928895 14:-0.99727 15:-0.981714 16:-0.957676 17:-0.930729 18:-0.955323 19:-0.909938 20:-0.859357 21:-0.911979 22:-0.840728 23:-0.954871 24:-0.85915 25:-1 26:-1 27:-0.950079 28:-0.805712 29:-0.895169 30:-0.82214 31:-0.947939 32:-0.862659 33:-0.969817 34:-0.917744 35:-0.992198 36:-0.982143 37:-0.984456 38:-0.96034 39:-0.977813 40:-0.950658 41:-0.917808 42:-0.959839 43:-0.940463 44:-0.987284 45:-0.988618 46:-0.982249 47:-0.990099 48:-0.988827 49:-0.973451 50:-0.985185 51:-0.972028 52:-0.986842 53:-1 54:-0.974359 55:-0.97619 56:-0.927273 57:-0.95 58:-1 59:-0.986207 60:-0.495449 61:-0.518208 
0.03125 1:-0.935895 2:-0.993505 3:-0.99769 4:-0.190335 5:0.537075 6:-0.978914 7:0.0590059 8:-0.994735 9:-0.996382 10:0.572797 11:-0.659935 12:-0.993493 13:-0.092226 14:-0.993974 15:-0.90915 16:-0.841394 17:-0.947026 18:-0.85576 19:-0.965364 20:-0.869018 21:-0.929554 22:-0.856882 23:-0.849447 24:-0.911034 25:-0.830736 26:-0.909137 27:-0.823189 28:-0.818474 29:-0.818064 30:-0.79779 31:-0.845752 32:-0.846623 33:-0.899888 34:-0.923804 35:-0.996532 36:-0.973214 37:-0.911917 38:-0.966006 39:-0.946117 40:-0.914474 41:-0.90411 42:-0.971888 43:-0.960309 44:-0.972752 45:-0.980488 46:-0.973373 47:-0.960396 48:-0.877095 49:-0.929204 50:-0.903704 51:-0.748252 52:-0.828947 53:-0.587629 54:-0.666667 55:-0.809524 56:-0.854545 57:-0.85 58:-0.906977 59:-0.986207 60:0.0672004 61:0.151252 
0.03125 1:-0.983974 2:-0.981143 3:-0.999084 4:-0.203497 5:0.535811 6:-0.920446 7:0.0863644 8:-0.984195 9:-0.99719 10:0.574661 11:-0.659865 12:-0.99883 13:-0.0915625 14:-0.99859 15:-0.736103 16:-0.922968 17:-1 18:-1 19:-0.778729 20:-0.877713 21:-1 22:-1 23:-1 24:-1 25:-0.797216 26:-0.915315 27:-1 28:-1 29:-0.833188 30:-0.92955 31:-1 32:-1 33:-0.947899 34:-0.953286 35:-0.999567 36:-0.994048 37:-1 38:-0.994334 39:-0.993661 40:-0.986842 41:-0.996575 42:-0.991968 43:-0.99118 44:-0.99455 45:-0.99187 46:-0.988166 47:-0.970297 48:-0.960894 49:-0.867257 50:-0.911111 51:-0.944056 52:-0.973684 53:-0.917526 54:-0.897436 55:-0.928571 56:-0.890909 57:-0.9 58:-0.953488 59:-1 60:-0.329182 61:0.07191 
0.03125 1:-0.985291 2:-0.987954 3:-0.992391 4:-0.184362 5:0.540852 6:-0.974746 7:0.0655903 8:-0.997823 9:-0.999119 10:0.573064 11:-0.659865 12:-0.999042 13:-0.0911202 14:-0.999033 15:-0.948347 16:-0.841179 17:-1 18:-1 19:-0.946194 20:-0.812887 21:-1 22:-1 23:-0.918394 24:-0.81069 25:-0.966657 26:-0.970456 27:-0.854573 28:-0.913463 29:-0.956286 30:-0.948605 31:-0.93536 32:-0.908461 33:-0.947525 34:-0.955612 35:-0.992631 36:-0.967262 37:-0.979275 38:-0.966006 39:-0.990491 40:-0.986842 41:-0.989726 42:-0.98996 43:-1 44:-0.998183 45:-0.996748 46:-0.985207 47:-1 48:-0.96648 49:-0.982301 50:-0.955556 51:-0.986014 52:-0.986842 53:-0.938144 54:-0.897436 55:-1 56:-0.927273 57:-0.9 58:-0.860465 59:-1 60:-0.0510772 61:-0.352331 
0.03125 1:-0.987706 2:-0.974401 3:-0.999723 4:-0.200744 5:0.538608 6:-0.892413 7:0.0740759 8:-0.994303 9:-0.998126 10:0.573064 11:-0.659865 12:-0.999094 13:-0.0911202 14:-0.998907 15:-0.972348 16:-0.983692 17:-1 18:-1 19:-0.735735 20:-0.790267 21:-1 22:-1 23:-0.75986 24:-0.797646 25:-1 26:-1 27:-1 28:-1 29:-0.764062 30:-0.860344 31:-1 32:-1 33:-0.867753 34:-0.940214 35:-0.999567 36:-1 37:-0.979275 38:-1 39:-0.987322 40:-0.996711 41:-0.996575 42:-0.995984 43:-0.993385 44:-0.99455 45:-0.993496 46:-0.994083 47:-0.990099 48:-0.910615 49:-0.99115 50:-0.977778 51:-1 52:-0.934211 53:-0.958763 54:-0.948718 55:-0.857143 56:-0.709091 57:-0.7 58:-1 59:-0.958621 60:-0.391516 61:-0.138016 
0.03125 1:-0.974314 2:-0.977931 3:-0.977488 4:-0.18786 5:0.548207 6:-0.995707 7:0.0663492 8:-0.996662 9:-0.998021 10:0.572797 11:-0.659865 12:-0.9961 13:-0.0911202 14:-0.995983 15:-0.924536 16:-0.771948 17:-0.894177 18:-0.831465 19:-0.88532 20:-0.833733 21:-1 22:-1 23:-0.869103 24:-0.772725 25:-0.927215 26:-0.781989 27:-1 28:-1 29:-0.885303 30:-0.774971 31:-0.981341 32:-0.898677 33:-0.986612 34:-0.967927 35:-0.997399 36:-1 37:-0.979275 38:-1 39:-0.990491 40:-0.990132 41:-0.94863 42:-0.991968 43:-0.964719 44:-0.990917 45:-0.965854 46:-0.952663 47:-0.980198 48:-0.955307 49:-0.946903 50:-0.955556 51:-0.916084 52:-0.960526 53:-0.979381 54:-0.974359 55:-1 56:-0.854545 57:-0.85 58:-0.953488 59:-0.958621 60:-0.364524 61:-0.171604 
0.03125 1:-0.98112 2:-0.975707 3:-0.976289 4:-0.206287 5:0.527603 6:-0.994226 7:0.0676656 8:-0.994823 9:-0.998989 10:0.573064 11:-0.659865 12:-0.99776 13:-0.0911202 14:-0.997778 15:-0.934565 16:-0.885044 17:-0.97319 18:-0.880954 19:-1 20:-1 21:-0.927493 22:-0.824102 23:-1 24:-1 25:-0.936844 26:-0.822126 27:-0.944103 28:-0.762222 29:-1 30:-1 31:-0.912501 32:-0.846857 33:-0.965826 34:-0.940575 35:-0.998266 36:-0.991071 37:-0.979275 38:-1 39:-0.987322 40:-0.976974 41:-0.993151 42:-1 43:-0.988975 44:-0.983651 45:-1 46:-0.991124 47:-0.937294 48:-0.988827 49:-1 50:-0.896296 51:-0.846154 52:-1 53:-0.793814 54:-0.820513 55:-0.952381 56:-1 57:-0.8 58:-1 59:-1 60:-0.722033 61:-0.663675 
0.03125 1:-0.978046 2:-0.981114 3:-0.999175 4:-0.203135 5:0.535674 6:-0.916956 7:0.0895601 8:-0.977454 9:-0.995156 10:0.573064 11:-0.659727 12:-0.99736 13:-0.0907885 14:-0.997196 15:-0.649187 16:-0.825335 17:-1 18:-1 19:-0.710934 20:-0.642992 21:-1 22:-1 23:-0.764017 24:-0.620703 25:-1 26:-1 27:-0.845489 28:-0.927107 29:-1 30:-1 31:-0.946251 32:-0.950825 33:-1 34:-1 35:-0.996532 36:-0.991071 37:-0.974093 38:-0.988669 39:-0.993661 40:-0.993421 41:-0.989726 42:-0.98996 43:-0.99559 44:-0.969119 45:-0.993496 46:-0.982249 47:-0.933993 48:-0.905028 49:-0.946903 50:-0.955556 51:-0.944056 52:-0.973684 53:-0.938144 54:-0.871795 55:-1 56:-0.927273 57:-1 58:-1 59:-1 60:-0.250651 61:-0.062839 
0.03125 1:-0.988804 2:-0.974333 3:-0.999734 4:-0.200662 5:0.538551 6:-0.892622 7:0.07505 8:-0.99279 9:-0.998236 10:0.573064 11:-0.659865 12:-0.999149 13:-0.0911202 14:-0.999045 15:-0.983257 16:-0.99633 17:-1 18:-1 19:-0.744002 20:-0.792667 21:-1 22:-1 23:-0.714617 24:-0.816664 25:-1 26:-1 27:-1 28:-1 29:-0.789103 30:-0.827752 31:-1 32:-1 33:-0.871379 34:-0.928304 35:-1 36:-1 37:-0.984456 38:-0.983003 39:-0.99683 40:-0.993421 41:-0.989726 42:-0.993976 43:-0.997795 44:-0.996367 45:-0.998374 46:-0.988166 47:-0.976898 48:-0.938547 49:-0.982301 50:-0.962963 51:-1 52:-0.973684 53:-0.876289 54:-0.948718 55:-0.928571 56:-0.890909 57:-0.45 58:-1 59:-1 60:-0.411119 61:-0.153336 
0.03125 1:-0.98595 2:-0.98806 3:-0.992539 4:-0.184705 5:0.542553 6:-0.975724 7:0.0676553 8:-0.997494 9:-0.999132 10:0.573064 11:-0.659865 12:-0.999228 13:-0.0911202 14:-0.999172 15:-0.956559 16:-0.839611 17:-1 18:-1 19:-0.944754 20:-0.811186 21:-1 22:-1 23:-0.896042 24:-0.789099 25:-1 26:-1 27:-0.840062 28:-0.843899 29:-0.947226 30:-0.910889 31:-1 32:-1 33:-0.977602 34:-0.975132 35:-0.991764 36:-0.97619 37:-0.974093 38:-0.971671 39:-0.984152 40:-0.980263 41:-0.996575 42:-0.993976 43:-0.997795 44:-0.987284 45:-0.998374 46:-0.994083 47:-0.983498 48:-0.960894 49:-1 50:-0.955556 51:-1 52:-0.986842 53:-0.979381 54:-0.948718 55:-0.97619 56:-1 57:-1 58:-0.906977 59:-1 60:-0.0715032 61:-0.353878 
0.03125 1:-0.988145 2:-0.97246 3:-0.971809 4:-0.195995 5:0.549668 6:-0.999998 7:0.0638037 8:-0.99581 9:-0.999362 10:0.572797 11:-0.659865 12:-0.998785 13:-0.0911202 14:-0.998818 15:-0.987451 16:-0.963929 17:-0.925391 18:-0.92493 19:-1 20:-1 21:-0.925724 22:-0.856911 23:-1 24:-1 25:-0.88228 26:-0.804485 27:-1 28:-1 29:-0.919985 30:-0.818759 31:-0.990911 32:-0.988175 33:-0.933738 34:-0.9018 35:-0.999133 36:-0.994048 37:-0.958549 38:-0.971671 39:-0.99683 40:-0.980263 41:-0.979452 42:-0.995984 43:-0.99118 44:-0.998183 45:-0.998374 46:-0.994083 47:-0.990099 48:-0.96648 49:-0.964602 50:-0.985185 51:-0.916084 52:-0.973684 53:-0.938144 54:-1 55:-0.928571 56:-0.781818 57:-0.95 58:-0.906977 59:-1 60:-0.0101363 61:-0.0521046 
0.03125 1:-0.91921 2:-0.994614 3:-0.997679 4:-0.201566 5:0.533772 6:-0.98314 7:0.0740294 8:-0.986806 9:-0.993174 10:0.574394 11:-0.660004 12:-0.992885 13:-0.0902355 14:-0.992693 15:-0.888293 16:-0.783343 17:-0.861091 18:-0.764193 19:-0.960479 20:-0.782134 21:-0.787277 22:-0.790833 23:-0.792161 24:-0.757893 25:-0.801235 26:-0.879684 27:-0.827838 28:-0.684361 29:-0.817367 30:-0.88419 31:-0.921058 32:-0.896831 33:-0.93072 34:-0.894703 35:-0.986563 36:-0.860119 37:-0.896373 38:-0.937677 39:-0.958796 40:-0.914474 41:-0.928082 42:-0.961847 43:-0.964719 44:-0.980018 45:-0.980488 46:-0.940828 47:-0.940594 48:-0.921788 49:-0.902655 50:-0.859259 51:-0.692308 52:-0.802632 53:-0.628866 54:-0.615385 55:-0.880952 56:-0.927273 57:-0.95 58:-0.860465 59:-0.972414 60:0.15256 61:-0.00153923 
0.03125 1:-0.98551 2:-0.987966 3:-0.992262 4:-0.184074 5:0.54018 6:-0.973939 7:0.0647662 8:-0.998526 9:-0.999377 10:0.573064 11:-0.659865 12:-0.998946 13:-0.0911202 14:-0.99898 15:-0.957853 16:-0.843222 17:-0.991474 18:-0.989886 19:-0.950878 20:-0.845868 21:-0.970057 22:-0.880661 23:-1 24:-1 25:-0.847971 26:-0.920816 27:-1 28:-1 29:-0.956177 30:-0.904457 31:-1 32:-1 33:-0.924108 34:-0.928237 35:-0.992198 36:-0.970238 37:-0.968912 38:-0.96034 39:-0.993661 40:-0.993421 41:-0.989726 42:-0.991968 43:-0.99559 44:-1 45:-0.998374 46:-0.988166 47:-1 48:-0.994413 49:-0.99115 50:-0.962963 51:-0.958042 52:-0.960526 53:-0.979381 54:-0.846154 55:-1 56:-0.927273 57:-0.9 58:-0.72093 59:-0.986207 60:-0.0475584 61:-0.360518 
0.03125 1:-0.974973 2:-0.981114 3:-0.999147 4:-0.203282 5:0.534193 6:-0.916523 7:0.0993724 8:-0.965744 9:-0.993055 10:0.572531 11:-0.659865 12:-0.997094 13:-0.0912308 14:-0.99653 15:-0.749511 16:-0.877494 17:-0.967922 18:-0.983207 19:-0.739817 20:-0.923667 21:-1 22:-1 23:-0.705337 24:-0.641173 25:-1 26:-1 27:-0.748433 28:-0.585536 29:-1 30:-1 31:-0.816345 32:-0.913716 33:-0.942128 34:-0.967058 35:-0.996099 36:-0.991071 37:-0.974093 38:-0.977337 39:-0.984152 40:-0.996711 41:-0.976027 42:-0.985944 43:-1 44:-0.965486 45:-0.990244 46:-0.994083 47:-0.927393 48:-0.927374 49:-0.911504 50:-0.948148 51:-0.944056 52:-0.973684 53:-0.835052 54:-0.974359 55:-0.97619 56:-0.963636 57:-1 58:-0.953488 59:-1 60:-0.233927 61:-0.088139 
0.03125 1:-0.984413 2:-0.974401 3:-0.999668 4:-0.201014 5:0.538146 6:-0.892908 7:0.0794899 8:-0.991597 9:-0.997442 10:0.573064 11:-0.659865 12:-0.998383 13:-0.0911202 14:-0.998159 15:-0.949668 16:-0.973871 17:-0.973581 18:-0.991625 19:-1 20:-1 21:-0.741038 22:-0.813914 23:-0.974895 24:-0.989542 25:-0.683641 26:-0.790745 27:-1 28:-1 29:-0.754982 30:-0.858991 31:-1 32:-1 33:-0.82475 34:-0.960884 35:-0.9987 36:-1 37:-1 38:-0.994334 39:-0.987322 40:-0.996711 41:-0.989726 42:-0.993976 43:-0.99118 44:-0.996367 45:-0.993496 46:-0.985207 47:-0.980198 48:-0.955307 49:-0.893805 50:-0.992593 51:-0.93007 52:-0.986842 53:-0.85567 54:-0.974359 55:-0.880952 56:-0.818182 57:-0.45 58:-0.953488 59:-0.972414 60:-0.396599 61:-0.151882 
0.03125 1:-0.857519 2:-0.996105 3:-0.996373 4:-0.193181 5:0.543929 6:-0.996393 7:0.0668506 8:-0.994405 9:-0.992314 10:0.57333 11:-0.660004 12:-0.985963 13:-0.0911202 14:-0.985854 15:-0.86212 16:-0.8396 17:-0.917863 18:-0.863462 19:-0.945058 20:-0.841513 21:-0.956417 22:-0.833276 23:-0.954444 24:-0.82924 25:-0.8575 26:-0.802466 27:-0.841214 28:-0.782674 29:-0.81365 30:-0.73912 31:-0.807854 32:-0.768965 33:-0.888648 34:-0.813154 35:-0.989163 36:-0.958333 37:-0.797927 38:-0.790368 39:-0.866878 40:-0.796053 41:-0.613014 42:-0.835341 43:-0.898567 44:-0.921889 45:-0.928455 46:-0.905325 47:-0.927393 48:-0.899441 49:-0.79646 50:-0.925926 51:-0.846154 52:-0.907895 53:-0.979381 54:-0.974359 55:-1 56:-1 57:-0.95 58:-1 59:-1 60:0.40834 61:0.626493 
0.03125 1:-0.965752 2:-0.987715 3:-0.986968 4:-0.193202 5:0.545452 6:-0.999026 7:0.0648636 8:-0.99695 9:-0.998566 10:0.572797 11:-0.659796 12:-0.996296 13:-0.091452 14:-0.996387 15:-0.931561 16:-0.887546 17:-0.918669 18:-0.882053 19:-0.93604 20:-0.883718 21:-0.941564 22:-0.839243 23:-1 24:-1 25:-0.907749 26:-0.805909 27:-0.88436 28:-0.799605 29:-0.876746 30:-0.840768 31:-0.957106 32:-0.890004 33:-0.97004 34:-0.903585 35:-0.997833 36:-0.940476 37:-0.927461 38:-0.898017 39:-0.946117 40:-0.960526 41:-0.958904 42:-0.991968 43:-0.988975 44:-0.985468 45:-0.996748 46:-0.985207 47:-0.973597 48:-0.944134 49:-0.893805 50:-0.962963 51:-0.902098 52:-0.907895 53:-0.917526 54:-0.923077 55:-0.952381 56:-1 57:-1 58:-1 59:-1 60:0.156186 61:0.00139316 
0.03125 1:-0.922503 2:-0.994582 3:-0.997694 4:-0.201607 5:0.534569 6:-0.98287 7:0.0726243 8:-0.98918 9:-0.992495 10:0.573064 11:-0.659796 12:-0.994535 13:-0.0912308 14:-0.994009 15:-0.785666 16:-0.779362 17:-0.789805 18:-0.749412 19:-0.790683 20:-0.773357 21:-0.798442 22:-0.761579 23:-0.814259 24:-0.870458 25:-0.808435 26:-0.71998 27:-0.841692 28:-0.896741 29:-0.851715 30:-0.892847 31:-0.89691 32:-0.853058 33:-0.92791 34:-0.917997 35:-0.979194 36:-0.907738 37:-0.917098 38:-0.926346 39:-0.939778 40:-0.930921 41:-0.931507 42:-0.953815 43:-0.944873 44:-0.974569 45:-0.973984 46:-0.961538 47:-0.940594 48:-0.888268 49:-0.814159 50:-0.777778 51:-0.734266 52:-0.947368 53:-0.876289 54:-1 55:-1 56:-1 57:-1 58:-1 59:-1 60:0.116123 61:0.00531316 
0.03125 1:-0.98573 2:-0.987859 3:-0.992277 4:-0.184039 5:0.541064 6:-0.97375 7:0.0658795 8:-0.998088 9:-0.999371 10:0.573064 11:-0.659865 12:-0.99903 13:-0.0911202 14:-0.999071 15:-0.951824 16:-0.849201 17:-0.989923 18:-0.991873 19:-0.953673 20:-0.830859 21:-0.973808 22:-0.939545 23:-0.977886 24:-0.965977 25:-0.846748 26:-0.912726 27:-1 28:-1 29:-0.951211 30:-0.940539 31:-0.991647 32:-0.97852 33:-0.952227 34:-0.955403 35:-0.988296 36:-0.97619 37:-0.963731 38:-0.971671 39:-0.993661 40:-0.990132 41:-0.982877 42:-0.995984 43:-0.988975 44:-0.983651 45:-0.996748 46:-0.988166 47:-0.973597 48:-0.994413 49:-0.99115 50:-1 51:-1 52:-1 53:-1 54:-1 55:-1 56:-1 57:-1 58:-1 59:-1 60:-0.0163577 61:-0.342257 
0.03125 1:-0.984413 2:-0.981143 3:-0.999119 4:-0.203351 5:0.535898 6:-0.920706 7:0.0861909 8:-0.984077 9:-0.997426 10:0.573064 11:-0.659865 12:-0.998902 13:-0.0911202 14:-0.998734 15:-0.751729 16:-0.925885 17:-1 18:-1 19:-0.776584 20:-0.874612 21:-1 22:-1 23:-1 24:-1 25:-0.811141 26:-0.914494 27:-1 28:-1 29:-0.86287 30:-0.940382 31:-1 32:-1 33:-0.935576 34:-0.961973 35:-1 36:-0.997024 37:-0.989637 38:-1 39:-1 40:-0.990132 41:-0.989726 42:-0.997992 43:-0.99118 44:-0.989101 45:-0.990244 46:-0.982249 47:-0.963696 48:-0.96648 49:-0.867257 50:-0.962963 51:-0.874126 52:-0.934211 53:-0.979381 54:-0.846154 55:-0.928571 56:-0.963636 57:-0.95 58:-1 59:-1 60:-0.372259 61:0.088157 
0.03125 1:-0.987706 2:-0.974436 3:-0.999714 4:-0.200823 5:0.538623 6:-0.892601 7:0.0736656 8:-0.993395 9:-0.998067 10:0.572797 11:-0.659865 12:-0.999061 13:-0.0911202 14:-0.998926 15:-0.973461 16:-0.994024 17:-1 18:-1 19:-0.743047 20:-0.790398 21:-1 22:-1 23:-0.718199 24:-0.787 25:-1 26:-1 27:-1 28:-1 29:-0.767812 30:-0.859625 31:-1 32:-1 33:-0.869438 34:-0.933557 35:-0.999133 36:-0.991071 37:-1 38:-0.994334 39:-0.993661 40:-0.993421 41:-0.989726 42:-0.995984 43:-0.99559 44:-0.998183 45:-0.996748 46:-0.985207 47:-0.990099 48:-0.944134 49:-0.964602 50:-0.962963 51:-0.986014 52:-0.960526 53:-0.958763 54:-0.948718 55:-0.833333 56:-0.854545 57:-0.45 58:-0.906977 59:-0.986207 60:-0.362686 61:-0.129706 
0.03125 1:-0.98112 2:-0.982207 3:-0.98617 4:-0.182453 5:0.543732 6:-0.981255 7:0.0672015 8:-0.99823 9:-0.999236 10:0.573064 11:-0.659865 12:-0.997687 13:-0.0911202 14:-0.997758 15:-0.979819 16:-0.976592 17:-0.915706 18:-0.852283 19:-0.934443 20:-0.857123 21:-1 22:-1 23:-0.887 24:-0.872825 25:-0.876775 26:-0.885774 27:-1 28:-1 29:-0.955511 30:-0.858712 31:-0.960908 32:-0.838867 33:-0.952361 34:-0.914145 35:-0.999567 36:-0.994048 37:-0.937824 38:-0.96034 39:-0.971474 40:-0.986842 41:-0.986301 42:-0.987952 43:-0.984564 44:-0.989101 45:-0.996748 46:-0.985207 47:-0.983498 48:-0.994413 49:-0.973451 50:-0.940741 51:-0.902098 52:-0.934211 53:-0.958763 54:-0.923077 55:-0.904762 56:-0.927273 57:-0.9 58:-0.953488 59:-0.972414 60:-0.0327623 61:-0.060623 
0.03125 1:-0.922942 2:-0.994598 3:-0.997675 4:-0.201511 5:0.534564 6:-0.983533 7:0.0724535 8:-0.989243 9:-0.993641 10:0.57333 11:-0.659865 12:-0.993314 13:-0.0911202 14:-0.993204 15:-0.779137 16:-0.75615 17:-0.780724 18:-0.775656 19:-0.795287 20:-0.769749 21:-0.795645 22:-0.753365 23:-0.81757 24:-0.871008 25:-0.834509 26:-0.697693 27:-0.852232 28:-0.893018 29:-0.82842 30:-0.89372 31:-0.907927 32:-0.884698 33:-0.927198 34:-0.921849 35:-0.974426 36:-0.877976 37:-0.943005 38:-0.88102 39:-0.904913 40:-0.927632 41:-0.941781 42:-0.949799 43:-0.975744 44:-0.960036 45:-0.969106 46:-0.943787 47:-0.914191 48:-0.905028 49:-0.769912 50:-0.97037 51:-0.944056 52:-1 53:-0.979381 54:-1 55:-1 56:-1 57:-1 58:-1 59:-1 60:0.176236 61:-0.0222925 
0.03125 1:-0.985291 2:-0.987643 3:-0.992236 4:-0.184021 5:0.540343 6:-0.97381 7:0.0649706 8:-0.998308 9:-0.999406 10:0.572531 11:-0.659865 12:-0.998963 13:-0.0923366 14:-0.99902 15:-0.952553 16:-0.836508 17:-0.989356 18:-0.992436 19:-0.967792 20:-0.860975 21:-0.973681 22:-0.879541 23:-1 24:-1 25:-0.838836 26:-0.909896 27:-1 28:-1 29:-0.957666 30:-0.912576 31:-1 32:-1 33:-0.918942 34:-0.961203 35:-0.988296 36:-0.970238 37:-0.963731 38:-0.977337 39:-0.987322 40:-0.993421 41:-0.989726 42:-0.995984 43:-0.980154 44:-0.989101 45:-0.998374 46:-0.982249 47:-0.976898 48:-0.98324 49:-1 50:-1 51:-1 52:-1 53:-1 54:-1 55:-1 56:-1 57:-1 58:-1 59:-1 60:-0.0108204 61:-0.348668 
0.03125 1:-0.987047 2:-0.974367 3:-0.999717 4:-0.200775 5:0.538609 6:-0.892602 7:0.0739608 8:-0.993794 9:-0.997894 10:0.573064 11:-0.659865 12:-0.998996 13:-0.0911202 14:-0.998795 15:-0.960626 16:-0.958685 17:-1 18:-1 19:-0.734658 20:-0.787581 21:-1 22:-1 23:-0.71375 24:-0.78412 25:-1 26:-1 27:-1 28:-1 29:-0.778007 30:-0.868926 31:-1 32:-1 33:-0.855795 34:-0.93298 35:-0.999133 36:-1 37:-0.984456 38:-0.994334 39:-0.993661 40:-0.996711 41:-0.989726 42:-0.995984 43:-0.993385 44:-0.992734 45:-0.996748 46:-0.988166 47:-0.986799 48:-0.916201 49:-1 50:-0.977778 51:-1 52:-0.947368 53:-0.876289 54:-0.974359 55:-0.880952 56:-0.818182 57:-0.45 58:-0.953488 59:-0.986207 60:-0.387637 61:-0.140379 
0.03125 1:-0.998024 2:-0.978722 3:-0.998981 4:-0.204239 5:0.54209 6:-0.915519 7:0.0468098 8:-0.993621 9:-0.999761 10:0.573064 11:-0.659865 12:-0.99993 13:-0.0911202 14:-0.999909 15:-0.995599 16:-0.987074 17:-1 18:-1 19:-1 20:-1 21:-0.981132 22:-0.953188 23:-1 24:-1 25:-1 26:-1 27:-0.828364 28:-0.907974 29:-1 30:-1 31:-1 32:-1 33:-0.925123 34:-0.962113 35:-1 36:-1 37:-1 38:-0.983003 39:-1 40:-1 41:-0.996575 42:-0.993976 43:-0.997795 44:-1 45:-1 46:-0.994083 47:-0.9967 48:-1 49:-1 50:-1 51:-0.944056 52:-0.960526 53:-1 54:-0.948718 55:-0.809524 56:-0.963636 57:-1 58:-0.953488 59:-0.958621 60:-0.162343 61:0.120631 
0.03125 1:-0.921844 2:-0.994598 3:-0.997696 4:-0.201489 5:0.535321 6:-0.983538 7:0.0710981 8:-0.991355 9:-0.993127 10:0.574128 11:-0.659796 12:-0.993622 13:-0.0913414 14:-0.993322 15:-0.857983 16:-0.736847 17:-0.790518 18:-0.784275 19:-0.777866 20:-0.775621 21:-0.796262 22:-0.75214 23:-0.816343 24:-0.859291 25:-0.836885 26:-0.693689 27:-0.848044 28:-0.887556 29:-0.857468 30:-0.90684 31:-0.897111 32:-0.838343 33:-0.921381 34:-0.921251 35:-0.980494 36:-0.89881 37:-0.88601 38:-0.937677 39:-0.974643 40:-0.960526 41:-0.910959 42:-0.967871 43:-0.969129 44:-0.972752 45:-0.990244 46:-0.940828 47:-0.960396 48:-0.932961 49:-0.884956 50:-0.925926 51:-0.846154 52:-0.789474 53:-0.587629 54:-0.589744 55:-0.714286 56:-0.672727 57:-0.35 58:-0.767442 59:-0.972414 60:0.160724 61:-0.0378651 
0.03125 1:-0.806806 2:-0.99829 3:-0.999779 4:-0.195108 5:0.538377 6:-0.990932 7:0.0592546 8:-0.995748 9:-0.990401 10:0.575459 11:-0.660004 12:-0.9898 13:-0.0911202 14:-0.988747 15:-0.931253 16:-0.950865 17:-0.914404 18:-0.9346 19:-0.929805 20:-0.958015 21:-0.873507 22:-0.904814 23:-0.805365 24:-0.905753 25:-0.798161 26:-0.878008 27:-0.806018 28:-0.876903 29:-0.632402 30:-0.857687 31:-0.798187 32:-0.850889 33:-0.821867 34:-0.876781 35:-0.938448 36:-0.678571 37:-0.564767 38:-0.705382 39:-0.977813 40:-0.944079 41:-0.914384 42:-0.965863 43:-0.969129 44:-0.972752 45:-0.960976 46:-0.893491 47:-0.907591 48:-0.675978 49:-0.637168 50:-0.674074 51:-0.272727 52:-0.486842 53:-0.0721649 54:-0.384615 55:-0.380952 56:-0.890909 57:-0.85 58:-1 59:-1 60:0.176276 61:-0.107305 
0.03125 1:-0.946872 2:-0.990451 3:-0.990141 4:-0.192952 5:0.532706 6:-0.998486 7:0.0619589 8:-0.996286 9:-0.997764 10:0.529944 11:-0.65931 12:-0.994396 13:-0.0911202 14:-0.994405 15:-0.960049 16:-0.911697 17:-0.918418 18:-0.913353 19:-0.942047 20:-0.871162 21:-0.915018 22:-0.799652 23:-0.93581 24:-0.795676 25:-0.93012 26:-0.794325 27:-0.949058 28:-0.788783 29:-0.941507 30:-0.799401 31:-0.977604 32:-0.909501 33:-0.950115 34:-0.924411 35:-0.995232 36:-0.952381 37:-0.974093 38:-0.971671 39:-0.980983 40:-0.950658 41:-0.976027 42:-0.977912 43:-0.962514 44:-0.967302 45:-0.957724 46:-0.940828 47:-0.927393 48:-0.893855 49:-0.787611 50:-0.82963 51:-0.818182 52:-0.947368 53:-0.917526 54:-1 55:-1 56:-1 57:-1 58:-1 59:-1 60:0.198888 61:0.523696 
0.03125 1:-0.998244 2:-0.962269 3:-0.990433 4:-0.224794 5:0.537197 6:-0.884107 7:0.0688247 8:-0.998321 9:-0.999841 10:0.573064 11:-0.659865 12:-0.999528 13:-0.0911202 14:-0.999565 15:-0.923834 16:-0.944692 17:-1 18:-1 19:-0.894079 20:-0.926555 21:-1 22:-1 23:-1 24:-1 25:-0.938673 26:-0.831318 27:-1 28:-1 29:-0.932251 30:-0.909362 31:-1 32:-1 33:-0.981096 34:-0.980403 35:-0.996966 36:-1 37:-1 38:-1 39:-1 40:-1 41:-1 42:-1 43:-1 44:-1 45:-1 46:-1 47:-0.924092 48:-1 49:-1 50:-1 51:-1 52:-1 53:-1 54:-1 55:-1 56:-1 57:-1 58:-1 59:-0.972414 60:-0.964728 61:-0.967726 
0.03125 1:-0.984852 2:-0.987894 3:-0.992242 4:-0.184025 5:0.540313 6:-0.973806 7:0.0649342 8:-0.99817 9:-0.999324 10:0.573064 11:-0.659796 12:-0.998947 13:-0.0911202 14:-0.998994 15:-0.957039 16:-0.837299 17:-0.987146 18:-0.993702 19:-0.949136 20:-0.824508 21:-0.974164 22:-0.874351 23:-0.983494 24:-0.978931 25:-0.837902 26:-0.905111 27:-1 28:-1 29:-0.956899 30:-0.911755 31:-1 32:-1 33:-0.929268 34:-0.948506 35:-0.986996 36:-0.967262 37:-0.968912 38:-0.977337 39:-0.984152 40:-1 41:-0.986301 42:-0.991968 43:-0.98677 44:-0.990917 45:-0.995122 46:-0.97929 47:-0.986799 48:-0.977654 49:-1 50:-1 51:-1 52:-1 53:-1 54:-1 55:-1 56:-1 57:-1 58:-1 59:-1 60:-0.0157447 61:-0.375531 
0.03125 1:-0.986608 2:-0.974436 3:-0.999726 4:-0.200685 5:0.538671 6:-0.892095 7:0.0733509 8:-0.993681 9:-0.998157 10:0.573064 11:-0.659865 12:-0.998911 13:-0.0911202 14:-0.998823 15:-0.987921 16:-0.974753 17:-1 18:-1 19:-0.741665 20:-0.786837 21:-1 22:-1 23:-0.705558 24:-0.804173 25:-1 26:-1 27:-1 28:-1 29:-0.767977 30:-0.859943 31:-1 32:-1 33:-0.866894 34:-0.923965 35:-0.998266 36:-0.997024 37:-0.994819 38:-0.994334 39:-0.993661 40:-0.993421 41:-0.979452 42:-0.995984 43:-0.99559 44:-0.992734 45:-0.996748 46:-0.988166 47:-0.986799 48:-0.927374 49:-0.973451 50:-0.962963 51:-0.972028 52:-1 53:-0.938144 54:-1 55:-0.857143 56:-0.709091 57:-0.6 58:-0.953488 59:-0.986207 60:-0.365423 61:-0.179724 
0.03125 1:-0.988364 2:-0.990184 3:-0.995612 4:-0.204962 5:0.56574 6:-0.976535 7:0.0222128 8:-0.888436 9:-0.999876 10:0.573064 11:-0.659865 12:-0.999418 13:-0.0911202 14:-0.999452 15:-0.972575 16:-0.972051 17:-1 18:-1 19:-0.944105 20:-0.936875 21:-0.968616 22:-0.970918 23:-0.932248 24:-0.972537 25:-1 26:-1 27:-0.929733 28:-0.934192 29:-0.912591 30:-0.938827 31:-1 32:-1 33:-0.96047 34:-0.972985 35:-0.997833 36:-0.985119 37:-0.974093 38:-0.988669 39:-0.99683 40:-1 41:-0.996575 42:-0.997992 43:-0.984564 44:-0.992734 45:-0.993496 46:-0.991124 47:-0.973597 48:-0.988827 49:-0.938053 50:-0.977778 51:-0.958042 52:-0.973684 53:-1 54:-0.846154 55:-0.952381 56:-0.854545 57:-0.95 58:-1 59:-0.986207 60:-0.0803177 61:-0.0511281 
0.03125 1:-0.994512 2:-0.973571 3:-0.992662 4:-0.217045 5:0.536225 6:-0.919567 7:0.0707764 8:-0.998321 9:-0.999715 10:0.568539 11:-0.659727 12:-0.99912 13:-0.0911202 14:-0.999153 15:-0.908139 16:-0.919755 17:-1 18:-1 19:-0.942555 20:-0.964552 21:-1 22:-1 23:-0.986748 24:-0.89011 25:-1 26:-1 27:-0.948518 28:-0.851425 29:-0.914261 30:-0.926194 31:-0.982575 32:-0.976575 33:-0.94717 34:-0.981192 35:-0.992631 36:-1 37:-1 38:-1 39:-0.961965 40:-1 41:-1 42:-1 43:-0.964719 44:-1 45:-1 46:-1 47:-0.9967 48:-1 49:-1 50:-1 51:-0.958042 52:-1 53:-1 54:-1 55:-1 56:-1 57:-1 58:-1 59:-1 60:-0.916131 61:-0.951766 
0.03125 1:-0.92382 2:-0.993923 3:-0.992838 4:-0.197611 5:0.536828 6:-0.999646 7:0.0641099 8:-0.99675 9:-0.996111 10:0.572797 11:-0.659727 12:-0.99094 13:-0.0907885 14:-0.991427 15:-0.798929 16:-0.900981 17:-0.849922 18:-0.885507 19:-0.895522 20:-0.876617 21:-0.951645 22:-0.863895 23:-0.911981 24:-0.846231 25:-0.936676 26:-0.811183 27:-0.901342 28:-0.749324 29:-0.938848 30:-0.775538 31:-0.94383 32:-0.901023 33:-0.94168 34:-0.917503 35:-0.98873 36:-0.985119 37:-0.943005 38:-0.903683 39:-0.939778 40:-0.917763 41:-0.945205 42:-0.937751 43:-0.931643 44:-0.947321 45:-0.965854 46:-0.926036 47:-0.910891 48:-0.877095 49:-0.814159 50:-0.933333 51:-0.902098 52:-0.947368 53:-0.876289 54:-0.794872 55:-0.880952 56:-0.854545 57:-0.9 58:-1 59:-1 60:0.339114 61:0.441088 
0.03125 1:-0.861251 2:-0.995929 3:-0.998471 4:-0.200095 5:0.540961 6:-0.986066 7:0.0603227 8:-0.998189 9:-0.992518 10:0.57333 11:-0.659865 12:-0.982302 13:-0.0912308 14:-0.982056 15:-0.89868 16:-0.882561 17:-0.886998 18:-0.911883 19:-0.884963 20:-0.908446 21:-0.869695 22:-0.919219 23:-0.861564 24:-0.925709 25:-0.810387 26:-0.879768 27:-0.72799 28:-0.906985 29:-0.669279 30:-0.862196 31:-0.69255 32:-0.951026 33:-0.806952 34:-0.893407 35:-0.985696 36:-0.916667 37:-0.849741 38:-0.909348 39:-0.955626 40:-0.914474 41:-0.89726 42:-0.955823 43:-0.940463 44:-0.901907 45:-0.879675 46:-0.801775 47:-0.79538 48:-0.821229 49:-0.823009 50:-0.822222 51:-0.706294 52:-0.763158 53:-0.752577 54:-0.435897 55:-0.690476 56:-0.854545 57:-0.9 58:-0.860465 59:-0.958621 60:0.0799004 61:0.239802 
0.03125 1:-0.917014 2:-0.993318 3:-0.999208 4:-0.200165 5:0.539795 6:-0.970325 7:0.0617587 8:-0.996933 9:-0.991408 10:0.571733 11:-0.660421 12:-0.988745 13:-0.0926684 14:-0.988173 15:-0.86106 16:-0.913297 17:-0.853588 18:-0.916351 19:-0.827496 20:-0.865079 21:-0.679832 22:-0.856696 23:-0.878691 24:-0.897975 25:-0.883693 26:-0.835454 27:-0.875651 28:-0.80503 29:-0.867204 30:-0.787019 31:-0.857945 32:-0.832502 33:-0.893126 34:-0.961539 35:-0.986129 36:-0.955357 37:-0.958549 38:-0.937677 39:-0.936609 40:-0.927632 41:-0.955479 42:-0.963855 43:-0.940463 44:-0.947321 45:-0.962602 46:-0.949704 47:-0.894389 48:-0.938547 49:-0.79646 50:-0.874074 51:-0.636364 52:-0.828947 53:-0.814433 54:-0.641026 55:-0.714286 56:-0.781818 57:-0.95 58:-1 59:-0.958621 60:0.258838 61:0.314203 
0.03125 1:-0.954775 2:-0.988863 3:-0.99404 4:-0.207423 5:0.544774 6:-0.970986 7:0.0555165 8:-0.995858 9:-0.997324 10:0.572531 11:-0.659796 12:-0.991705 13:-0.0910096 14:-0.991786 15:-0.932733 16:-0.852598 17:-0.941739 18:-0.859317 19:-0.934972 20:-0.794691 21:-0.929732 22:-0.863785 23:-0.949445 24:-0.822667 25:-0.897169 26:-0.852391 27:-0.917967 28:-0.886868 29:-0.881102 30:-0.711066 31:-0.916542 32:-0.742555 33:-0.893447 34:-0.843901 35:-0.997833 36:-0.988095 37:-0.958549 38:-0.903683 39:-0.939778 40:-0.914474 41:-0.886986 42:-0.943775 43:-0.971334 44:-0.985468 45:-0.973984 46:-0.973373 47:-0.953795 48:-0.960894 49:-0.964602 50:-0.955556 51:-0.888112 52:-0.986842 53:-0.958763 54:-1 55:-0.97619 56:-1 57:-1 58:-0.953488 59:-1 60:-0.25838 61:-0.151764 
0.03125 1:-0.978705 2:-0.977336 3:-0.993402 4:-0.177726 5:0.539609 6:-0.928685 7:0.0643121 8:-0.996789 9:-0.99732 10:0.57333 11:-0.659865 12:-0.997217 13:-0.0911202 14:-0.997001 15:-0.918909 16:-0.945928 17:-0.8842 18:-0.930791 19:-0.897349 20:-0.637075 21:-1 22:-1 23:-0.892731 24:-0.704944 25:-0.829485 26:-0.789172 27:-1 28:-1 29:-0.830319 30:-0.83998 31:-0.907865 32:-0.885304 33:-0.973157 34:-0.982215 35:-0.999133 36:-0.967262 37:-0.974093 38:-0.96034 39:-0.974643 40:-0.986842 41:-0.989726 42:-0.977912 43:-0.977949 44:-0.998183 45:-0.99187 46:-0.976331 47:-0.993399 48:-0.977654 49:-0.938053 50:-0.992593 51:-0.916084 52:-0.894737 53:-0.979381 54:-0.871795 55:-0.880952 56:-1 57:-0.8 58:-1 59:-0.958621 60:-0.27685 61:-0.288378 
0.03125 1:-0.98573 2:-0.987799 3:-0.99226 4:-0.184019 5:0.539904 6:-0.973716 7:0.0644253 8:-0.998548 9:-0.999441 10:0.573064 11:-0.659865 12:-0.998967 13:-0.0911202 14:-0.999017 15:-0.953566 16:-0.851454 17:-0.986083 18:-0.988263 19:-0.954404 20:-0.84814 21:-0.968628 22:-0.877925 23:-1 24:-1 25:-0.846681 26:-0.924648 27:-1 28:-1 29:-0.965791 30:-0.906906 31:-1 32:-1 33:-0.924926 34:-0.934314 35:-0.991764 36:-0.964286 37:-0.989637 38:-0.977337 39:-0.990491 40:-0.993421 41:-0.982877 42:-0.993976 43:-0.99559 44:-0.99455 45:-0.996748 46:-0.988166 47:-0.9967 48:-0.988827 49:-1 50:-0.955556 51:-0.972028 52:-1 53:-0.938144 54:-0.871795 55:-0.97619 56:-0.927273 57:-0.9 58:-0.813953 59:-1 60:-0.101901 61:-0.38927 
0.03125 1:-0.980461 2:-0.984979 3:-0.997174 4:-0.206455 5:0.556789 6:-0.949613 7:0.0134884 8:-0.923724 9:-0.999313 10:0.573064 11:-0.659865 12:-0.998743 13:-0.0911202 14:-0.998689 15:-0.873902 16:-0.917629 17:-0.922507 18:-0.959882 19:-0.846146 20:-0.914144 21:-0.950982 22:-0.966305 23:-0.943558 24:-0.960478 25:-0.876685 26:-0.943891 27:-1 28:-1 29:-0.926152 30:-0.981082 31:-0.907434 32:-0.981397 33:-0.91693 34:-0.959548 35:-0.999567 36:-0.991071 37:-0.994819 38:-0.966006 39:-0.980983 40:-0.957237 41:-0.962329 42:-0.985944 43:-0.938258 44:-0.980018 45:-0.98374 46:-0.970414 47:-0.9967 48:-0.988827 49:-0.99115 50:-0.985185 51:-1 52:-1 53:-1 54:-1 55:-1 56:-1 57:-1 58:-1 59:-1 60:-0.161941 61:0.207214 
0.03125 1:-0.986169 2:-0.974453 3:-0.999692 4:-0.200915 5:0.53827 6:-0.892876 7:0.0781749 8:-0.992282 9:-0.997785 10:0.573064 11:-0.659865 12:-0.998772 13:-0.0911202 14:-0.998576 15:-0.976851 16:-0.985656 17:-0.980195 18:-0.987008 19:-1 20:-1 21:-0.739978 22:-0.78786 23:-1 24:-1 25:-0.695415 26:-0.777912 27:-1 28:-1 29:-0.766742 30:-0.85227 31:-1 32:-1 33:-0.857532 34:-0.930472 35:-0.998266 36:-0.997024 37:-0.989637 38:-0.994334 39:-0.99683 40:-0.996711 41:-0.986301 42:-0.995984 43:-0.99118 44:-0.99455 45:-0.998374 46:-0.994083 47:-0.980198 48:-0.921788 49:-1 50:-0.933333 51:-0.986014 52:-0.973684 53:-0.917526 54:-0.948718 55:-0.880952 56:-0.745455 57:-0.75 58:-0.906977 59:-0.944828 60:-0.359264 61:-0.148812 
0.03125 1:-0.997366 2:-0.902109 3:-0.902633 4:-0.186818 5:0.516512 6:-0.998748 7:0.0619788 8:-0.99526 9:-0.999659 10:0.573064 11:-0.659865 12:-0.999016 13:-0.0911202 14:-0.999036 15:-0.966535 16:-0.93348 17:-1 18:-1 19:-1 20:-1 21:-0.928107 22:-0.847971 23:-1 24:-1 25:-1 26:-1 27:-0.906322 28:-0.767913 29:-1 30:-1 31:-1 32:-1 33:-0.970791 34:-0.796334 35:-1 36:-1 37:-0.994819 38:-0.994334 39:-1 40:-1 41:-0.989726 42:-0.995984 43:-0.993385 44:-0.99455 45:-0.995122 46:-0.985207 47:-0.9967 48:-0.994413 49:-0.99115 50:-1 51:-0.958042 52:-0.986842 53:-0.979381 54:-0.948718 55:-0.904762 56:-1 57:-1 58:-1 59:-0.986207 60:-0.0538102 61:0.429686 
0.03125 1:-0.950165 2:-0.990525 3:-0.999897 4:-0.196347 5:0.539411 6:-0.957546 7:0.0470733 8:-0.988899 9:-0.997871 10:0.572265 11:-0.659796 12:-0.992552 13:-0.0910096 14:-0.992853 15:-0.882638 16:-0.898902 17:-0.855127 18:-0.957592 19:-0.957102 20:-0.9795 21:-0.868906 22:-0.974936 23:-0.866085 24:-0.970116 25:-0.85771 26:-0.956682 27:-0.841695 28:-0.866404 29:-0.782613 30:-0.847593 31:-0.801138 32:-0.907916 33:-0.957842 34:-0.980926 35:-0.994798 36:-0.994048 37:-0.984456 38:-0.96034 39:-0.993661 40:-0.963816 41:-0.962329 42:-0.975904 43:-0.962514 44:-0.960036 45:-0.97561 46:-0.943787 47:-0.917492 48:-0.871508 49:-0.858407 50:-0.888889 51:-0.762238 52:-0.802632 53:-0.917526 54:-0.948718 55:-1 56:-1 57:-1 58:-1 59:-0.986207 60:-0.0547872 61:0.320584 
0.03125 1:-0.987267 2:-0.988096 3:-0.992257 4:-0.184019 5:0.541991 6:-0.973748 7:0.0670359 8:-0.997871 9:-0.999455 10:0.573064 11:-0.659865 12:-0.999185 13:-0.0911202 14:-0.999216 15:-0.955932 16:-0.86814 17:-0.983305 18:-0.961893 19:-0.938423 20:-0.851434 21:-0.973478 22:-0.887254 23:-1 24:-1 25:-0.849552 26:-0.920985 27:-1 28:-1 29:-0.938539 30:-0.922401 31:-1 32:-1 33:-0.950209 34:-0.944866 35:-0.994365 36:-0.964286 37:-0.979275 38:-0.966006 39:-0.99683 40:-0.993421 41:-0.993151 42:-0.995984 43:-0.997795 44:-0.998183 45:-1 46:-0.988166 47:-0.990099 48:-0.988827 49:-0.973451 50:-0.985185 51:-0.972028 52:-0.947368 53:-0.917526 54:-1 55:-0.928571 56:-0.890909 57:-0.9 58:-0.813953 59:-0.972414 60:-0.133509 61:-0.372177 
0.03125 1:-0.991877 2:-0.974419 3:-0.999675 4:-0.201108 5:0.539172 6:-0.894517 7:0.0659581 8:-0.999007 9:-0.999301 10:0.573064 11:-0.659865 12:-0.999421 13:-0.0911202 14:-0.999327 15:-0.981279 16:-0.989704 17:-1 18:-1 19:-0.810609 20:-0.927528 21:-1 22:-1 23:-0.809529 24:-0.987327 25:-0.848366 26:-0.957721 27:-1 28:-1 29:-0.775269 30:-0.869273 31:-1 32:-1 33:-0.853354 34:-0.964342 35:-0.999567 36:-0.997024 37:-1 38:-1 39:-1 40:-0.996711 41:-0.996575 42:-0.995984 43:-1 44:-0.990917 45:-0.998374 46:-0.985207 47:-0.976898 48:-0.960894 49:-0.99115 50:-0.992593 51:-0.986014 52:-0.960526 53:-0.938144 54:-0.897436 55:-0.880952 56:-0.672727 57:-0.9 58:-0.953488 59:-1 60:-0.427833 61:-0.0589328 
0.03125 1:-0.987706 2:-0.981128 3:-0.999161 4:-0.203126 5:0.538033 6:-0.922105 7:0.0724194 8:-0.997034 9:-0.999157 10:0.573064 11:-0.659865 12:-0.999298 13:-0.0910096 14:-0.999228 15:-0.81942 16:-0.934269 17:-1 18:-1 19:-1 20:-1 21:-0.823962 22:-0.904281 23:-1 24:-1 25:-1 26:-1 27:-0.846827 28:-0.904279 29:-1 30:-1 31:-1 32:-1 33:-0.906445 34:-0.978065 35:-1 36:-0.994048 37:-0.994819 38:-0.983003 39:-0.99683 40:-0.996711 41:-0.993151 42:-1 43:-0.99559 44:-0.996367 45:-0.996748 46:-0.976331 47:-0.993399 48:-0.949721 49:-0.920354 50:-0.925926 51:-0.874126 52:-0.934211 53:-0.938144 54:-0.948718 55:-0.97619 56:-0.818182 57:-0.95 58:-1 59:-1 60:-0.331602 61:0.0245037 
0.03125 1:-0.999122 2:-0.959668 3:-0.994319 4:-0.220476 5:0.564139 6:-0.859975 7:-0.0198501 8:-0.924328 9:-0.999909 10:0.573064 11:-0.659865 12:-0.999912 13:-0.0911202 14:-0.999895 15:-0.947433 16:-0.972524 17:-1 18:-1 19:-1 20:-1 21:-1 22:-1 23:-0.881144 24:-0.919216 25:-0.971012 26:-0.978845 27:-1 28:-1 29:-1 30:-1 31:-1 32:-1 33:-0.848901 34:-0.942417 35:-0.999567 36:-0.994048 37:-0.994819 38:-1 39:-1 40:-0.996711 41:-1 42:-1 43:-1 44:-0.998183 45:-1 46:-0.994083 47:-0.990099 48:-1 49:-0.982301 50:-0.985185 51:-1 52:-0.947368 53:-0.938144 54:-0.923077 55:-0.928571 56:-1 57:-1 58:-1 59:-1 60:-0.0421566 61:0.27207 
0.03125 1:-0.993633 2:-0.955864 3:-0.958143 4:-0.21624 5:0.527909 6:-0.987054 7:0.0680495 8:-0.995269 9:-0.999486 10:0.573064 11:-0.659865 12:-0.998977 13:-0.0911202 14:-0.999035 15:-0.894918 16:-0.906512 17:-1 18:-1 19:-0.935037 20:-0.856928 21:-1 22:-1 23:-0.957102 24:-0.910199 25:-0.930324 26:-0.839439 27:-1 28:-1 29:-0.921157 30:-0.806676 31:-1 32:-1 33:-0.988736 34:-0.955643 35:-1 36:-1 37:-1 38:-0.994334 39:-1 40:-0.983553 41:-0.996575 42:-0.993976 43:-0.99118 44:-0.99455 45:-0.982114 46:-0.97929 47:-0.986799 48:-1 49:-1 50:-0.977778 51:-0.986014 52:-0.986842 53:-0.896907 54:-0.948718 55:-0.97619 56:-0.963636 57:-1 58:-1 59:-1 60:-0.187477 61:0.148165 
0.03125 1:-0.993194 2:-0.94884 3:-0.948988 4:-0.191389 5:0.527435 6:-0.999358 7:0.0628301 8:-0.997616 9:-0.999499 10:0.573064 11:-0.659865 12:-0.999072 13:-0.0911202 14:-0.999038 15:-0.918966 16:-0.885405 17:-1 18:-1 19:-0.957841 20:-0.821827 21:-1 22:-1 23:-1 24:-1 25:-0.931972 26:-0.786924 27:-1 28:-1 29:-0.964378 30:-0.788721 31:-1 32:-1 33:-0.992069 34:-0.985732 35:-0.999133 36:-0.988095 37:-0.994819 38:-1 39:-0.993661 40:-0.993421 41:-0.996575 42:-0.985944 43:-0.975744 44:-0.990917 45:-0.995122 46:-0.991124 47:-0.9967 48:-0.977654 49:-0.982301 50:-0.992593 51:-0.958042 52:-1 53:-1 54:-1 55:-0.97619 56:-0.963636 57:-1 58:-1 59:-0.986207 60:0.202782 61:0.208173 
0.03125 1:-0.879034 2:-0.995128 3:-0.994401 4:-0.197747 5:0.531468 6:-0.999423 7:0.0654049 8:-0.989797 9:-0.990988 10:0.572797 11:-0.660074 12:-0.988994 13:-0.0911202 14:-0.988492 15:-0.85519 16:-0.889422 17:-0.880987 18:-0.857105 19:-0.895685 20:-0.82849 21:-0.866925 22:-0.760567 23:-0.90169 24:-0.732008 25:-0.878778 26:-0.710415 27:-0.884952 28:-0.703247 29:-0.912093 30:-0.71009 31:-0.945969 32:-0.740129 33:-0.869951 34:-0.896882 35:-0.996966 36:-0.991071 37:-0.984456 38:-0.96034 39:-0.974643 40:-0.930921 41:-0.94863 42:-0.959839 43:-0.944873 44:-0.925522 45:-0.900813 46:-0.766272 47:-0.887789 48:-0.843575 49:-0.60177 50:-0.748148 51:-0.482517 52:-0.671053 53:-0.443299 54:-0.333333 55:-0.452381 56:-0.818182 57:-1 58:-0.953488 59:-1 60:-0.139786 61:0.429007 
0.03125 1:-0.90955 2:-0.994646 3:-0.994793 4:-0.200122 5:0.544433 6:-0.996045 7:0.0606991 8:-0.995737 9:-0.99648 10:0.560554 11:-0.659588 12:-0.989643 13:-0.0863651 14:-0.989858 15:-0.932931 16:-0.880333 17:-0.963944 18:-0.855706 19:-0.957217 20:-0.840181 21:-0.952943 22:-0.85215 23:-0.93274 24:-0.811506 25:-0.929528 26:-0.834126 27:-0.903808 28:-0.790196 29:-0.889617 30:-0.781591 31:-0.877828 32:-0.811215 33:-0.926571 34:-0.90483 35:-0.989163 36:-0.955357 37:-0.953368 38:-0.954674 39:-0.946117 40:-0.930921 41:-0.955479 42:-0.949799 43:-0.936053 44:-0.914623 45:-0.902439 46:-0.887574 47:-0.894389 48:-0.916201 49:-0.858407 50:-0.77037 51:-0.818182 52:-0.842105 53:-0.896907 54:-0.923077 55:-1 56:-0.963636 57:-0.95 58:-1 59:-1 60:0.0439247 61:0.291103 
0.03125 1:-0.915258 2:-0.995058 3:-0.997114 4:-0.201231 5:0.542865 6:-0.988024 7:0.0587947 8:-0.993439 9:-0.995172 10:0.573862 11:-0.659727 12:-0.989309 13:-0.0903461 14:-0.990018 15:-0.81441 16:-0.939907 17:-0.834772 18:-0.945183 19:-0.855377 20:-0.941933 21:-0.854333 22:-0.930559 23:-0.828285 24:-0.906025 25:-0.868319 26:-0.785796 27:-0.871819 28:-0.75933 29:-0.850485 30:-0.760372 31:-0.9223 32:-0.83968 33:-0.918533 34:-0.8762 35:-0.989597 36:-0.97619 37:-0.974093 38:-0.954674 39:-0.942948 40:-0.960526 41:-0.938356 42:-0.961847 43:-0.973539 44:-0.978202 45:-0.980488 46:-0.928994 47:-0.940594 48:-0.815642 49:-0.831858 50:-0.82963 51:-0.594406 52:-0.513158 53:-0.649485 54:-0.0512821 55:-0.547619 56:-0.927273 57:-0.85 58:-0.953488 59:-1 60:0.0496595 61:0.291533 
0.03125 1:-0.869813 2:-0.996748 3:-0.999288 4:-0.198793 5:0.541544 6:-0.986383 7:0.0568673 8:-0.993405 9:-0.993239 10:0.573064 11:-0.659449 12:-0.986361 13:-0.090899 14:-0.986344 15:-0.863383 16:-0.902862 17:-0.874059 18:-0.924631 19:-0.884908 20:-0.887805 21:-0.888006 22:-0.910634 23:-0.775815 24:-0.921913 25:-0.771469 26:-0.924977 27:-0.781915 28:-0.928479 29:-0.747761 30:-0.898749 31:-0.742888 32:-0.893813 33:-0.765289 34:-0.907981 35:-0.988296 36:-0.967262 37:-0.92228 38:-0.909348 39:-0.914422 40:-0.957237 41:-0.917808 42:-0.941767 43:-0.914002 44:-0.936421 45:-0.930081 46:-0.846154 47:-0.858086 48:-0.642458 49:-0.442478 50:-0.614815 51:-0.566434 52:-0.763158 53:-0.896907 54:-0.871795 55:-0.904762 56:-0.963636 57:-1 58:-1 59:-1 60:0.139473 61:0.539449 
0.03125 1:-0.906696 2:-0.994646 3:-0.999935 4:-0.196181 5:0.53928 6:-0.97537 7:0.0502445 8:-0.987372 9:-0.99468 10:0.572265 11:-0.660282 12:-0.990608 13:-0.0912308 14:-0.990454 15:-0.929973 16:-0.785555 17:-0.913553 18:-0.834178 19:-0.889282 20:-0.846346 21:-0.830622 22:-0.891307 23:-0.79291 24:-0.919684 25:-0.775477 26:-0.90703 27:-0.768755 28:-0.835675 29:-0.749485 30:-0.845184 31:-0.765809 32:-0.884144 33:-0.877509 34:-0.915078 35:-0.990897 36:-0.994048 37:-0.974093 38:-0.898017 39:-0.977813 40:-0.953947 41:-0.952055 42:-0.975904 43:-0.944873 44:-0.945504 45:-0.960976 46:-0.926036 47:-0.858086 48:-0.837989 49:-0.725664 50:-0.592593 51:-0.65035 52:-0.776316 53:-0.587629 54:-0.769231 55:-0.761905 56:-0.709091 57:-0.9 58:-0.906977 59:-0.986207 60:0.147371 61:0.548118 
0.03125 1:-0.992755 2:-0.976652 3:-0.994501 4:-0.213511 5:0.539524 6:-0.925909 7:0.0632891 8:-0.999812 9:-0.999631 10:0.573064 11:-0.659865 12:-0.999043 13:-0.0911202 14:-0.99904 15:-0.811289 16:-0.95282 17:-1 18:-1 19:-0.887803 20:-0.924165 21:-1 22:-1 23:-0.933286 24:-0.989001 25:-1 26:-1 27:-0.914579 28:-0.896405 29:-0.92383 30:-0.927131 31:-0.896221 32:-0.892276 33:-0.900554 34:-0.916264 35:-0.999567 36:-1 37:-1 38:-1 39:-1 40:-1 41:-0.876712 42:-1 43:-1 44:-1 45:-1 46:-1 47:-0.940594 48:-1 49:-1 50:-1 51:-1 52:-1 53:-1 54:-1 55:-1 56:-1 57:-1 58:-1 59:-0.972414 60:-0.949437 61:-0.946116 
0.03125 1:-0.964215 2:-0.986399 3:-0.993833 4:-0.209184 5:0.550543 6:-0.962486 7:0.0448646 8:-0.983608 9:-0.993082 10:0.574128 11:-0.659865 12:-0.994276 13:-0.0910096 14:-0.993045 15:-0.908924 16:-0.819255 17:-0.852352 18:-0.819703 19:-0.814023 20:-0.899713 21:-0.816099 22:-0.904862 23:-0.792455 24:-0.882262 25:-0.695028 26:-0.84275 27:-0.92244 28:-0.92302 29:-0.604132 30:-0.83394 31:-0.961405 32:-0.881567 33:-0.665447 34:-0.785367 35:-0.992631 36:-0.988095 37:-0.974093 38:-0.949008 39:-0.974643 40:-0.944079 41:-0.928082 42:-0.957831 43:-0.955899 44:-0.978202 45:-0.98374 46:-0.976331 47:-0.986799 48:-0.96648 49:-0.964602 50:-0.962963 51:-0.902098 52:-0.986842 53:-1 54:-0.923077 55:-1 56:-1 57:-0.9 58:-0.906977 59:-0.986207 60:-0.052602 61:-0.049518 
0.03125 1:-0.985291 2:-0.988725 3:-0.992201 4:-0.183984 5:0.540618 6:-0.973761 7:0.0653123 8:-0.998045 9:-0.99929 10:0.572797 11:-0.659935 12:-0.998949 13:-0.0911202 14:-0.998987 15:-0.947686 16:-0.853792 17:-0.981733 18:-0.979585 19:-0.906642 20:-0.812636 21:-0.974587 22:-0.879665 23:-1 24:-1 25:-0.831258 26:-0.923629 27:-1 28:-1 29:-0.952031 30:-0.902372 31:-1 32:-1 33:-0.947094 34:-0.925869 35:-0.98873 36:-0.967262 37:-0.968912 38:-0.971671 39:-0.990491 40:-0.990132 41:-0.989726 42:-0.991968 43:-0.99118 44:-0.989101 45:-0.993496 46:-0.991124 47:-0.980198 48:-0.96648 49:-0.99115 50:-1 51:-1 52:-1 53:-1 54:-1 55:-1 56:-1 57:-1 58:-1 59:-1 60:-0.0657789 61:-0.393855 
0.03125 1:-0.990121 2:-0.974453 3:-0.999684 4:-0.201042 5:0.538917 6:-0.894025 7:0.0692927 8:-0.99588 9:-0.998813 10:0.572797 11:-0.659865 12:-0.999256 13:-0.0911202 14:-0.999192 15:-0.965276 16:-0.935564 17:-1 18:-1 19:-0.782701 20:-0.788619 21:-1 22:-1 23:-0.762834 24:-0.865853 25:-0.831393 26:-0.95108 27:-1 28:-1 29:-0.772211 30:-0.851895 31:-1 32:-1 33:-0.872662 34:-0.926903 35:-0.999567 36:-0.994048 37:-0.989637 38:-0.971671 39:-0.993661 40:-1 41:-1 42:-0.993976 43:-0.993385 44:-0.992734 45:-0.998374 46:-0.982249 47:-0.970297 48:-0.972067 49:-0.99115 50:-0.992593 51:-0.986014 52:-0.934211 53:-1 54:-0.974359 55:-0.880952 56:-0.672727 57:-1 58:-0.860465 59:-1 60:-0.339616 61:-0.171903 
0.03125 1:-0.978266 2:-0.970541 3:-0.968982 4:-0.188175 5:0.555005 6:-0.997115 7:0.0669599 8:-0.990061 9:-0.997915 10:0.572265 11:-0.659865 12:-0.99648 13:-0.0911202 14:-0.996622 15:-0.758878 16:-0.906077 17:-0.828807 18:-0.873666 19:-1 20:-1 21:-0.910658 22:-0.837074 23:-1 24:-1 25:-0.90969 26:-0.721094 27:-0.957312 28:-0.708495 29:-1 30:-1 31:-0.946226 32:-0.746011 33:-0.980553 34:-0.928334 35:-0.998266 36:-0.979167 37:-0.989637 38:-0.977337 39:-0.99683 40:-0.993421 41:-0.965753 42:-0.993976 43:-0.977949 44:-0.967302 45:-0.980488 46:-0.982249 47:-0.976898 48:-0.972067 49:-0.938053 50:-0.948148 51:-0.944056 52:-0.947368 53:-0.85567 54:-0.923077 55:-1 56:-1 57:-1 58:-1 59:-1 60:0.105335 61:0.346275 
0.03125 1:-0.643908 2:-0.998177 3:-0.998695 4:-0.198325 5:0.53883 6:-0.995422 7:0.0643959 8:-0.998739 9:-0.985247 10:0.571999 11:-0.65931 12:-0.977061 13:-0.0917837 14:-0.976598 15:-0.857246 16:-0.912408 17:-0.839408 18:-0.920546 19:-0.85829 20:-0.927947 21:-0.858347 22:-0.919932 23:-0.868447 24:-0.837429 25:-0.819294 26:-0.809121 27:-0.801352 28:-0.781831 29:-0.775438 30:-0.829708 31:-0.718026 32:-0.884991 33:-0.859351 34:-0.849989 35:-0.94495 36:-0.803571 37:-0.668394 38:-0.529745 39:-0.724247 40:-0.753289 41:-0.80137 42:-0.791165 43:-0.642778 44:-0.60218 45:-0.744715 46:-0.789941 47:-0.894389 48:-0.75419 49:-0.477876 50:-0.585185 51:-0.482517 52:-0.263158 53:-0.113402 54:-0.435897 55:-0.738095 56:-0.709091 57:-0.8 58:-1 59:-0.986207 60:0.26146 61:0.298838 
0.03125 1:-0.791438 2:-0.998401 3:-0.997845 4:-0.197056 5:0.53679 6:-0.999577 7:0.0644897 8:-0.996471 9:-0.989336 10:0.569071 11:-0.660143 12:-0.988522 13:-0.0956541 14:-0.9877 15:-0.824853 16:-0.898219 17:-0.854947 18:-0.876341 19:-0.869536 20:-0.867783 21:-0.907972 22:-0.846984 23:-0.94191 24:-0.836633 25:-0.918355 26:-0.766755 27:-0.910855 28:-0.738831 29:-0.887786 30:-0.720288 31:-0.907836 32:-0.728046 33:-0.938966 34:-0.774592 35:-0.818379 36:-0.901786 37:-0.896373 38:-0.92068 39:-0.949287 40:-0.957237 41:-0.934932 42:-0.959839 43:-0.951488 44:-0.923706 45:-0.943089 46:-0.878698 47:-0.861386 48:-0.631285 49:-0.40708 50:-0.592593 51:-0.636364 52:-0.855263 53:-0.85567 54:-0.923077 55:-0.97619 56:-1 57:-1 58:-0.953488 59:-0.986207 60:0.533973 61:-0.0395596 
0.03125 1:-0.920088 2:-0.996722 3:-0.996973 4:-0.199162 5:0.54283 6:-0.996135 7:0.0610409 8:-0.99675 9:-0.996115 10:0.572797 11:-0.659935 12:-0.993327 13:-0.0911202 14:-0.992984 15:-0.923084 16:-0.875293 17:-0.944607 18:-0.878722 19:-0.954569 20:-0.874892 21:-0.914173 22:-0.850846 23:-0.913419 24:-0.964937 25:-0.928559 26:-0.789505 27:-0.93715 28:-0.749434 29:-0.967547 30:-0.728122 31:-0.909715 32:-0.74836 33:-0.903466 34:-0.833627 35:-0.991331 36:-0.982143 37:-0.968912 38:-0.88102 39:-0.920761 40:-0.953947 41:-0.928082 42:-0.963855 43:-0.887541 44:-0.932788 45:-0.980488 46:-0.952663 47:-0.953795 48:-0.882682 49:-0.769912 50:-0.762963 51:-0.664336 52:-0.907895 53:-0.793814 54:-0.846154 55:-0.97619 56:-1 57:-1 58:-1 59:-1 60:0.223236 61:0.431954 
0.03125 1:-0.985291 2:-0.988529 3:-0.992319 4:-0.184338 5:0.540283 6:-0.974864 7:0.0648777 8:-0.997742 9:-0.998897 10:0.573064 11:-0.659865 12:-0.999004 13:-0.0911202 14:-0.998948 15:-0.93465 16:-0.877083 17:-0.977416 18:-0.961224 19:-0.913947 20:-0.827861 21:-0.966145 22:-0.938841 23:-0.983733 24:-0.933511 25:-0.838967 26:-0.921785 27:-1 28:-1 29:-0.931636 30:-0.901846 31:-1 32:-1 33:-0.917656 34:-0.953485 35:-0.99003 36:-0.979167 37:-0.958549 38:-0.977337 39:-0.980983 40:-1 41:-0.986301 42:-0.997992 43:-0.984564 44:-0.99455 45:-0.996748 46:-0.994083 47:-0.980198 48:-0.988827 49:-0.973451 50:-0.962963 51:-0.986014 52:-0.986842 53:-0.938144 54:-0.974359 55:-0.952381 56:-1 57:-1 58:-1 59:-1 60:-0.0758469 61:-0.371058 
0.03125 1:-0.979363 2:-0.980397 3:-0.986707 4:-0.214232 5:0.527688 6:-0.966926 7:0.0762062 8:-0.989963 9:-0.996902 10:0.572797 11:-0.659865 12:-0.998725 13:-0.0910096 14:-0.998221 15:-0.910602 16:-0.837288 17:-1 18:-1 19:-0.748313 20:-0.762803 21:-1 22:-1 23:-0.998354 24:-0.987996 25:-0.745402 26:-0.783672 27:-1 28:-1 29:-0.810922 30:-0.836976 31:-1 32:-1 33:-0.893214 34:-0.92989 35:-0.997399 36:-0.982143 37:-0.953368 38:-0.949008 39:-0.993661 40:-0.983553 41:-0.993151 42:-0.991968 43:-0.982359 44:-0.985468 45:-0.977236 46:-0.985207 47:-0.986799 48:-0.955307 49:-0.946903 50:-0.962963 51:-0.902098 52:-0.947368 53:-0.896907 54:-1 55:-1 56:-0.963636 57:-1 58:-1 59:-1 60:-0.271594 61:-0.262384 
0.03125 1:-0.988145 2:-0.981128 3:-0.99917 4:-0.20309 5:0.537798 6:-0.922386 7:0.0739948 8:-0.99644 9:-0.99917 10:0.573064 11:-0.659865 12:-0.999377 13:-0.0911202 14:-0.999302 15:-0.817866 16:-0.927454 17:-1 18:-1 19:-1 20:-1 21:-0.825686 22:-0.918464 23:-1 24:-1 25:-1 26:-1 27:-0.848774 28:-0.907285 29:-1 30:-1 31:-1 32:-1 33:-0.944475 34:-0.960392 35:-1 36:-0.997024 37:-1 38:-0.994334 39:-1 40:-0.980263 41:-0.996575 42:-0.997992 43:-0.997795 44:-0.99455 45:-0.996748 46:-0.988166 47:-0.986799 48:-0.955307 49:-0.938053 50:-0.896296 51:-0.888112 52:-1 53:-0.85567 54:-0.948718 55:-0.97619 56:-1 57:-0.75 58:-0.953488 59:-0.986207 60:-0.421539 61:0.0785116 
0.03125 1:-0.986608 2:-0.974401 3:-0.999711 4:-0.200806 5:0.53868 6:-0.893108 7:0.0728822 8:-0.994669 9:-0.997944 10:0.573064 11:-0.659865 12:-0.998961 13:-0.0911202 14:-0.998746 15:-0.966389 16:-0.940698 17:-1 18:-1 19:-0.734165 20:-0.784947 21:-1 22:-1 23:-0.819534 24:-0.83068 25:-0.829293 26:-0.960552 27:-1 28:-1 29:-0.724712 30:-0.838136 31:-1 32:-1 33:-0.844812 34:-0.940663 35:-0.999567 36:-1 37:-0.979275 38:-1 39:-0.99683 40:-0.996711 41:-0.986301 42:-0.991968 43:-0.982359 44:-0.996367 45:-0.996748 46:-0.985207 47:-0.983498 48:-0.932961 49:-0.99115 50:-0.977778 51:-1 52:-0.986842 53:-0.85567 54:-0.948718 55:-0.904762 56:-0.781818 57:-0.6 58:-1 59:-0.944828 60:-0.384737 61:-0.152743 
0.03125 1:-0.901647 2:-0.994886 3:-0.994811 4:-0.200188 5:0.541669 6:-0.995881 7:0.0623157 8:-0.996856 9:-0.994461 10:0.572797 11:-0.660282 12:-0.987702 13:-0.0907885 14:-0.98813 15:-0.778372 16:-0.901508 17:-0.838155 18:-0.890455 19:-0.91267 20:-0.87842 21:-0.926137 22:-0.865238 23:-0.877341 24:-0.850648 25:-0.873164 26:-0.788012 27:-0.951824 28:-0.761374 29:-0.916104 30:-0.745343 31:-0.941308 32:-0.842444 33:-0.934071 34:-0.913175 35:-0.987863 36:-0.967262 37:-0.943005 38:-0.983003 39:-0.958796 40:-0.927632 41:-0.924658 42:-0.949799 43:-0.936053 44:-0.963669 45:-0.941463 46:-0.893491 47:-0.920792 48:-0.865922 49:-0.849558 50:-0.896296 51:-0.804196 52:-0.657895 53:-0.587629 54:-0.025641 55:-0.452381 56:-0.890909 57:-0.7 58:-0.72093 59:-0.986207 60:0.0593717 61:0.227469 
0.03125 1:-0.984632 2:-0.964624 3:-0.963295 4:-0.187079 5:0.556662 6:-0.996869 7:0.0671565 8:-0.988149 9:-0.998358 10:0.573064 11:-0.659865 12:-0.997134 13:-0.0910096 14:-0.997372 15:-0.761816 16:-0.882016 17:-0.844678 18:-0.874268 19:-1 20:-1 21:-0.935706 22:-0.839907 23:-1 24:-1 25:-0.726852 26:-0.794382 27:-0.868758 28:-0.752678 29:-1 30:-1 31:-0.945427 32:-0.839101 33:-0.981858 34:-0.960338 35:-0.999133 36:-0.994048 37:-0.994819 38:-0.988669 39:-0.990491 40:-0.993421 41:-0.993151 42:-0.985944 43:-0.977949 44:-0.981835 45:-0.988618 46:-0.997041 47:-0.993399 48:-0.977654 49:-0.955752 50:-0.948148 51:-0.944056 52:-0.934211 53:-0.917526 54:-0.820513 55:-0.928571 56:-0.890909 57:-1 58:-1 59:-0.986207 60:0.100536 61:0.381468 
0.03125 1:-0.825467 2:-0.998377 3:-0.998968 4:-0.198249 5:0.537696 6:-0.994621 7:0.0663241 8:-0.996489 9:-0.991555 10:0.573064 11:-0.659796 12:-0.989851 13:-0.0910096 14:-0.989502 15:-0.948916 16:-0.878988 17:-0.909447 18:-0.878825 19:-0.925637 20:-0.878401 21:-0.90187 22:-0.939741 23:-0.848575 24:-0.8495 25:-0.852922 26:-0.778092 27:-0.85484 28:-0.826037 29:-0.772224 30:-0.80959 31:-0.776268 32:-0.883725 33:-0.882419 34:-0.855565 35:-0.977893 36:-0.934524 37:-0.751295 38:-0.779037 39:-0.768621 40:-0.835526 41:-0.815068 42:-0.919679 43:-0.854465 44:-0.891008 45:-0.897561 46:-0.914201 47:-0.894389 48:-0.888268 49:-0.814159 50:-0.851852 51:-0.65035 52:-0.671053 53:-0.546392 54:-0.512821 55:-0.52381 56:-0.854545 57:-0.4 58:-0.813953 59:-1 60:0.298945 61:0.237595 
0.03125 1:-0.957849 2:-0.996742 3:-0.99744 4:-0.199887 5:0.534185 6:-0.992812 7:0.0696918 8:-0.992115 9:-0.998719 10:0.57333 11:-0.660004 12:-0.995054 13:-0.0910096 14:-0.995221 15:-0.989922 16:-0.972304 17:-0.982272 18:-0.954036 19:-0.956238 20:-0.914491 21:-0.906823 22:-0.96964 23:-0.888722 24:-0.963597 25:-0.944681 26:-0.988975 27:-0.935507 28:-0.940559 29:-0.956723 30:-0.916082 31:-0.926902 32:-0.904903 33:-0.95959 34:-0.871428 35:-0.970958 36:-0.958333 37:-0.984456 38:-0.943343 39:-0.987322 40:-0.993421 41:-0.962329 42:-0.993976 43:-0.993385 44:-0.987284 45:-0.993496 46:-0.991124 47:-0.990099 48:-0.96648 49:-0.964602 50:-0.911111 51:-0.902098 52:-0.894737 53:-0.690722 54:-0.846154 55:-0.785714 56:-0.672727 57:-0.7 58:-1 59:-1 60:0.216225 61:-0.187423 
0.03125 1:-0.985291 2:-0.988249 3:-0.992329 4:-0.184343 5:0.540264 6:-0.974851 7:0.0648557 8:-0.997835 9:-0.998919 10:0.573064 11:-0.659865 12:-0.999007 13:-0.0911202 14:-0.998951 15:-0.952167 16:-0.848794 17:-0.983834 18:-0.994656 19:-0.928462 20:-0.820038 21:-0.960019 22:-0.917208 23:-0.990122 24:-0.953604 25:-0.841752 26:-0.91538 27:-1 28:-1 29:-0.931989 30:-0.894839 31:-1 32:-1 33:-0.918117 34:-0.961111 35:-0.991331 36:-0.97619 37:-0.937824 38:-0.966006 39:-0.987322 40:-0.996711 41:-0.989726 42:-0.995984 43:-0.98677 44:-0.99455 45:-0.995122 46:-0.988166 47:-0.986799 48:-0.988827 49:-0.955752 50:-0.992593 51:-0.958042 52:-0.973684 53:-0.958763 54:-1 55:-1 56:-1 57:-1 58:-1 59:-1 60:-0.04696 61:-0.362509 
