svm_type c_svc
kernel_type rbf
gamma 0.0078125
nr_class 2
total_sv 469
rho 0.22002273192629218
label 1 0
probA -14.877025357591819
probB 0.43165167430985318
nr_sv 234 235
SV
0.03125 1:-0.973489 2:-0.961736 3:-0.999897 4:0.650059 5:0.562938 6:-0.999803 7:-0.384534 8:-0.980293 9:-0.989747 10:0.468055 11:-0.616948 12:-0.999622 13:-0.193582 14:-0.996781 15:-0.996246 16:-0.188028 17:-0.995204 18:-0.997108 19:-0.379454 20:-0.995251 21:-0.994721 22:0.422748 23:-0.996036 24:-0.284049 25:-0.85928 26:-1 27:-1 28:-1 29:-1 30:-1 31:-0.759722 32:-0.80951 33:-0.766234 34:-0.92096 35:-1 36:-1 37:-1 38:-0.718254 39:-0.308582 40:-0.793491 41:-0.932308 42:-0.938461 43:-0.51206 44:-0.685149 45:-0.745108 46:-0.727692 47:-0.768261 48:-0.7275 49:-0.918765 50:-1 51:-1 52:-1 53:-0.63559 54:-0.325583 55:-0.460314 56:-0.458537 57:-0.56708 58:-0.595947 59:-0.404959 60:-0.76912 61:-0.722944 62:-0.706782 63:-0.601102 64:-0.793306 65:-0.876726 66:-1 67:-0.968528 68:-0.585999 69:-0.656092 70:-0.667031 71:-0.817271 72:-0.718 73:-0.672517 74:-0.0178162 75:-0.417358 76:-0.552797 77:-0.688312 78:-0.753994 79:-0.769387 80:-1 81:-1 82:-0.836238 83:-0.662338 84:-0.450835 85:-0.21429 86:-0.176252 87:-0.01068 88:-0.472766 89:-0.412981 90:-0.946363 91:-0.785819 92:-0.785536 93:-0.73224 94:-1 95:-0.745395 96:-0.730936 97:-0.37329 98:-0.607784 99:-0.437488 100:-0.589382 101:-0.838562 102:-0.876314 103:-1 104:-1 105:-1 106:-1 107:-1 108:-1 109:-0.97071 110:-0.75382 111:-0.63108 112:-0.703361 113:-0.87463 114:-1 115:-1 116:-1 117:-1 118:-1 119:-1 120:-1 121:-1 122:-1 123:-0.448044 124:-0.851002 125:-1 126:-0.918825 127:-0.928676 128:-0.931313 129:-0.933345 130:-1 131:-0.904841 132:-0.281183 133:-0.27272 134:-0.636365 135:-0.798801 136:-0.640189 137:-0.850835 138:-0.605741 139:-0.422098 140:-0.657538 141:-0.883753 142:0.140701 143:-0.328568 144:-0.284412 145:-0.304578 146:-0.64144 147:-1 148:-0.856594 149:-0.766424 150:-1 151:-1 152:-0.839643 153:-0.905187 154:-0.637868 155:0.0501308 156:-1 157:-1 158:-1 159:-1 160:-1 161:-0.749139 162:-0.588062 163:-0.699204 164:-0.97603 165:-1 166:-1 167:-0.933342 168:-0.930254 169:-0.908545 170:-0.942296 171:-0.901711 172:-0.940356 173:-0.897087 174:-0.818064 175:-0.884479 176:-0.824977 177:-0.881545 178:-0.864689 179:-0.878671 180:-0.893188 181:-0.877925 182:-0.843711 183:-0.907869 184:-0.955609 185:-0.919705 186:-0.94712 187:-0.93076 188:-0.276898 189:0.608047 190:0.377053 191:-0.130435 192:-0.514119 193:-0.83766 194:-0.632032 195:-0.948351 196:-0.977917 197:-1 198:-0.923359 199:-1 200:-1 201:-1 202:-1 203:-1 204:-1 205:-1 206:-1 207:-1 208:-1 209:-1 210:-1 211:-1 212:-0.0186875 213:0.0760629 
0.03125 1:-0.981502 2:-0.947258 3:-0.999945 4:0.649938 5:0.564615 6:-0.999836 7:-0.382029 8:-0.982308 9:-0.991057 10:0.469586 11:-0.621421 12:-0.99859 13:-0.189811 14:-0.996423 15:-0.99561 16:-0.184027 17:-0.99469 18:-0.994381 19:-0.382071 20:-0.996518 21:-0.995405 22:0.418641 23:-0.997534 24:-0.820227 25:-0.823353 26:-0.928194 27:-0.908609 28:-0.845311 29:-0.773282 30:-0.78832 31:-0.798905 32:-0.760875 33:-0.779896 34:-0.90078 35:-1 36:-1 37:-1 38:-0.696833 39:-0.5326 40:-0.481532 41:-0.575181 42:-0.536568 43:-0.489518 44:-0.683782 45:-0.466706 46:-0.65815 47:-0.709055 48:-0.743426 49:-0.966012 50:-1 51:-1 52:-0.856516 53:-0.745843 54:-0.153317 55:-0.0966174 56:-0.433521 57:-0.34784 58:-0.565227 59:-0.719867 60:-0.782613 61:-0.768107 62:-0.769926 63:-0.666155 64:-0.956758 65:-1 66:-0.96332 67:-1 68:-1 69:-0.784127 70:-0.749204 71:-0.847069 72:-0.787595 73:-0.42443 74:-0.286134 75:-0.549875 76:-0.625712 77:-0.706528 78:-0.768371 79:-0.83916 80:-0.872819 81:-0.880027 82:-1 83:-0.788048 84:-0.655265 85:-0.0135822 86:0.12034 87:0.159194 88:-0.592681 89:-0.508696 90:-0.831653 91:-0.569797 92:-0.811525 93:-0.813251 94:-0.712234 95:-0.627082 96:-0.746661 97:-0.409917 98:-0.617025 99:-0.679007 100:-1 101:-1 102:-1 103:-1 104:-1 105:-0.926576 106:-0.835447 107:-1 108:-0.814187 109:-0.705892 110:-0.742446 111:-0.79415 112:-1 113:-1 114:-1 115:-1 116:-1 117:-1 118:-1 119:-1 120:-1 121:-1 122:-1 123:-1 124:-1 125:-0.682965 126:-0.490488 127:-0.76124 128:-0.770066 129:-1 130:-1 131:-0.976111 132:-1 133:-1 134:-0.836956 135:-0.711334 136:-0.895761 137:-0.250935 138:-1 139:-1 140:-0.0172907 141:-0.883248 142:-0.353269 143:-0.642396 144:-0.225543 145:-0.529898 146:-0.639882 147:-1 148:-1 149:-0.877816 150:-0.541042 151:0.426455 152:-0.879217 153:-0.642927 154:-0.793352 155:-0.711602 156:-0.533444 157:-0.517834 158:-0.888335 159:-0.795629 160:-0.801777 161:-0.968511 162:-0.935352 163:-1 164:-0.939827 165:-0.917298 166:-0.89239 167:-0.870655 168:-0.930366 169:-0.883804 170:-0.937416 171:-0.892298 172:-0.948159 173:-0.891773 174:-0.80774 175:-0.896353 176:-0.807854 177:-0.888957 178:-0.845143 179:-0.882139 180:-0.88487 181:-0.880841 182:-0.871034 183:-0.900255 184:-0.958758 185:-0.933069 186:-0.937545 187:-0.837012 188:-0.518078 189:-0.0419245 190:0.36208 191:-0.189509 192:0.563104 193:-0.82337 194:-0.856631 195:-0.902738 196:-0.944563 197:-1 198:-1 199:-1 200:-1 201:-1 202:-1 203:-1 204:-1 205:-1 206:-1 207:-1 208:-1 209:-1 210:-1 211:-1 212:0.0576014 213:0.124246 
0.03125 1:-0.984827 2:-0.936227 3:-0.999971 4:0.649925 5:0.564345 6:-0.999781 7:-0.381479 8:-0.985113 9:-0.992112 10:0.470277 11:-0.623536 12:-0.997704 13:-0.189667 14:-0.996064 15:-0.996245 16:-0.187859 17:-0.986307 18:-0.993061 19:-0.371192 20:-0.995395 21:-0.994053 22:0.418667 23:-0.996269 24:-1 25:-1 26:-1 27:-1 28:-1 29:-0.873188 30:-0.881599 31:-0.662597 32:-1 33:-0.835867 34:-0.926011 35:-1 36:-1 37:-1 38:-1 39:-0.925303 40:-0.903328 41:-1 42:-1 43:-0.885783 44:-0.911564 45:-0.642076 46:-1 47:-0.755922 48:-0.617342 49:-0.885928 50:-1 51:-1 52:-0.598786 53:-0.488281 54:-0.0529493 55:-0.621052 56:-0.366354 57:-0.39208 58:-0.756827 59:-0.582206 60:-1 61:-0.675776 62:-0.794124 63:-0.751049 64:-0.951617 65:-1 66:-0.917933 67:-0.911632 68:-0.781978 69:-0.839022 70:-0.719454 71:-0.572357 72:-0.524824 73:-0.632122 74:-0.854819 75:-0.559441 76:-0.686007 77:-0.507592 78:-0.870448 79:-0.856076 80:-0.679931 81:-0.731623 82:-0.540108 83:-0.367783 84:-0.325214 85:-0.172485 86:-0.614417 87:-0.444307 88:-0.373536 89:-0.615314 90:-0.736372 91:-0.3985 92:-0.789182 93:-0.624001 94:-0.935614 95:-0.70205 96:-0.716625 97:-0.339957 98:-0.571624 99:-0.425534 100:-1 101:-0.829966 102:-0.478943 103:0.00354932 104:-0.611853 105:-1 106:-0.963182 107:-1 108:-1 109:-0.958872 110:-1 111:-1 112:-1 113:-1 114:-0.401407 115:-0.797461 116:-0.780413 117:-1 118:-1 119:-1 120:-1 121:-1 122:-0.610473 123:-1 124:-1 125:-0.960593 126:-0.962 127:-0.666171 128:-0.614213 129:-1 130:-1 131:-0.732757 132:-0.963944 133:-1 134:0.02127 135:-0.394584 136:0.78784 137:-0.476331 138:-0.769317 139:-1 140:-0.404603 141:-0.575591 142:-0.121576 143:-0.571426 144:-0.757443 145:-0.624405 146:-0.865733 147:-0.730858 148:-0.776252 149:-0.945333 150:-0.731092 151:-0.784378 152:-0.729794 153:-0.911246 154:-0.815086 155:-0.95391 156:-0.921717 157:-0.730339 158:-1 159:-0.954273 160:-0.822625 161:-0.964767 162:-0.927692 163:-1 164:-1 165:-0.845817 166:-0.927777 167:-0.904071 168:-0.929969 169:-0.900568 170:-0.952039 171:-0.916115 172:-0.933127 173:-0.861416 174:-0.884814 175:-0.820681 176:-0.835691 177:-0.805067 178:-0.900499 179:-0.81649 180:-0.926464 181:-0.814493 182:-0.904766 183:-0.879219 184:-0.909763 185:-0.926157 186:-0.933766 187:-0.750845 188:-0.674065 189:-0.15799 190:0.40635 191:-0.11193 192:0.407247 193:-0.9848 194:-0.518917 195:-0.9456 196:-0.968992 197:-1 198:-1 199:-1 200:-1 201:-1 202:-1 203:-1 204:-1 205:-1 206:-1 207:-1 208:-1 209:-1 210:-1 211:-1 212:0.0823532 213:0.206065 
0.03125 1:-0.987043 2:-0.93278 3:-0.999968 4:0.649877 5:0.564178 6:-0.999747 7:-0.379852 8:-0.989653 9:-0.992753 10:0.470146 11:-0.621168 12:-0.997708 13:-0.192519 14:-0.996276 15:-0.997281 16:-0.187144 17:-0.98322 18:-0.991986 19:-0.373563 20:-0.998875 21:-0.9917 22:0.403599 23:-0.97518 24:-1 25:-1 26:-1 27:-1 28:-1 29:0.101387 30:-0.357286 31:-1 32:-0.515943 33:-0.732673 34:-1 35:-1 36:-1 37:-1 38:-1 39:-1 40:-1 41:-1 42:-1 43:-0.876014 44:-1 45:-0.740909 46:-1 47:-0.823318 48:-0.584515 49:-1 50:-1 51:-1 52:-1 53:-1 54:-1 55:-1 56:-0.862414 57:-0.60396 58:-0.912 59:-0.432931 60:-1 61:-0.647957 62:-0.720566 63:-0.864836 64:-1 65:-1 66:-0.732673 67:-0.904044 68:-0.684383 69:-0.825199 70:-0.593872 71:-0.535665 72:-0.65604 73:-0.600563 74:-1 75:-0.658312 76:-0.659062 77:-0.702964 78:-0.859338 79:-1 80:-0.691081 81:-0.562889 82:-0.167747 83:-0.227721 84:-0.267336 85:-0.101488 86:-0.0579896 87:0.206758 88:-0.876319 89:-0.343627 90:-0.754648 91:-0.0203238 92:-0.607594 93:-0.682471 94:-1 95:-0.935305 96:-0.948723 97:-0.402751 98:-0.468421 99:-0.220303 100:-0.731684 101:-1 102:-0.434229 103:-0.455155 104:-0.578552 105:-1 106:-0.920055 107:-1 108:-1 109:-1 110:-1 111:-1 112:-1 113:-1 114:-1 115:-0.926705 116:-0.205283 117:-0.00660524 118:-0.872262 119:-1 120:-1 121:-1 122:-0.259826 123:-1 124:-1 125:-0.443838 126:-0.711225 127:0.377416 128:-0.0225872 129:-0.949181 130:-1 131:-0.651789 132:-0.569417 133:-0.366336 134:-0.326729 135:-0.605582 136:0.0128253 137:-0.848377 138:-0.699425 139:-0.791305 140:-0.975137 141:-0.893656 142:-0.495049 143:-0.565673 144:-0.96238 145:-0.184344 146:-1 147:-0.890411 148:-0.757054 149:-1 150:-0.973459 151:-0.953181 152:-0.706607 153:-0.66271 154:-0.899604 155:-1 156:-0.886675 157:-0.902402 158:-0.864379 159:-1 160:-1 161:-1 162:-0.960747 163:-1 164:-1 165:-0.966522 166:-0.973864 167:-0.95968 168:-0.898382 169:-0.957077 170:-0.953406 171:-0.961731 172:-0.946157 173:-0.923921 174:-0.931827 175:-0.839304 176:-0.855704 177:-0.795891 178:-0.875614 179:-0.80418 180:-0.920083 181:-0.797459 182:-0.961941 183:-0.908602 184:-0.904219 185:-0.944909 186:-0.912607 187:-0.815245 188:-0.632483 189:-0.231193 190:0.187685 191:0.0245396 192:0.666911 193:-0.950495 194:-0.477636 195:-0.960622 196:-1 197:-1 198:-1 199:-1 200:-1 201:-1 202:-1 203:-1 204:-1 205:-1 206:-1 207:-1 208:-1 209:-1 210:-1 211:-1 212:0.131949 213:0.160123 
0.03125 1:-0.987981 2:-0.919336 3:-0.999976 4:0.649886 5:0.564758 6:-0.999831 7:-0.379895 8:-0.986161 9:-0.992498 10:0.471144 11:-0.628849 12:-0.996426 13:-0.187216 14:-0.995129 15:-0.996207 16:-0.188411 17:-0.987913 18:-0.992044 19:-0.377412 20:-0.996887 21:-0.994166 22:0.416 23:-0.997358 24:-1 25:-1 26:-0.637957 27:-0.42404 28:-1 29:-0.571426 30:-0.3331 31:-0.493136 32:-0.69863 33:-0.537679 34:-1 35:-0.905878 36:-1 37:-1 38:-0.936313 39:-0.495104 40:-0.237658 41:-0.357534 42:-1 43:0.158025 44:-0.40224 45:-0.327917 46:-0.569184 47:-0.450015 48:-1 49:-0.742959 50:-0.949536 51:-1 52:-0.728766 53:-0.551563 54:-0.466456 55:-0.857671 56:-1 57:-0.31508 58:-0.36072 59:-0.1762 60:-0.36072 61:-0.488576 62:-1 63:-0.509122 64:-0.618459 65:-0.707435 66:-0.861301 67:-0.850651 68:-0.754363 69:-0.546567 70:-1 71:-0.518191 72:-0.55385 73:-0.481891 74:-0.591063 75:-0.71635 76:-1 77:-0.753418 78:-0.708077 79:-0.837834 80:-0.83972 81:-0.773211 82:-0.395461 83:-0.465751 84:-1 85:-0.482032 86:-0.456956 87:-0.478252 88:-0.67917 89:-0.690418 90:-1 91:-0.728904 92:-1 93:-1 94:-1 95:-1 96:-0.893577 97:-0.876041 98:-0.724194 99:-1 100:-0.814393 101:-0.936137 102:-0.6086 103:-0.547701 104:-1 105:-0.814935 106:-1 107:-1 108:-1 109:-1 110:-1 111:-1 112:-1 113:-1 114:-1 115:-0.923929 116:-1 117:-1 118:-0.867463 119:-1 120:-1 121:-1 122:-1 123:-0.897265 124:-0.705325 125:-0.955602 126:-0.957187 127:-1 128:-1 129:-1 130:-0.854925 131:-1 132:-0.715668 133:-0.287664 134:-0.671237 135:-1 136:-1 137:-0.921334 138:-1 139:-0.639071 140:-0.638778 141:-0.337898 142:-0.650684 143:-0.291785 144:-0.414383 145:-0.873043 146:-0.848715 147:-0.545129 148:-0.798322 149:-0.507246 150:-1 151:-1 152:-0.898523 153:1 154:0.354246 155:0.349975 156:-0.559008 157:-1 158:-0.577831 159:-1 160:-1 161:-1 162:-1 163:-1 164:-0.96208 165:-1 166:-1 167:-0.924349 168:-0.937776 169:-0.902718 170:-0.920586 171:-0.901725 172:-0.934038 173:-0.88416 174:-0.892125 175:-0.876494 176:-0.932892 177:-0.836712 178:-0.889446 179:-0.843412 180:-0.960102 181:-0.777384 182:-0.876023 183:-0.866419 184:-0.948759 185:-0.94057 186:-0.911375 187:-0.801438 188:-0.788132 189:-0.417841 190:0.232431 191:0.417514 192:0.417398 193:-0.84589 194:-0.478035 195:-0.93871 196:-1 197:-1 198:-1 199:-1 200:-1 201:-1 202:-1 203:-1 204:-1 205:-1 206:-1 207:-1 208:-1 209:-1 210:-1 211:-1 212:0.168174 213:0.134002 
0.03125 1:-0.991049 2:-0.903479 3:-0.999967 4:0.649929 5:0.565086 6:-0.999817 7:-0.381709 8:-0.987437 9:-0.993271 10:0.471489 11:-0.63424 12:-0.995398 13:-0.185169 14:-0.994574 15:-0.995832 16:-0.181186 17:-0.984586 18:-0.990267 19:-0.387088 20:-0.993734 21:-0.993294 22:0.418429 23:-0.998147 24:-1 25:-1 26:-1 27:-1 28:-1 29:-1 30:-1 31:-0.277352 32:-0.656244 33:-0.683587 34:-1 35:-0.892644 36:-1 37:-1 38:-0.491549 39:-0.61607 40:-1 41:-0.389332 42:-0.333788 43:-0.119402 44:-1 45:0.0732607 46:-0.508598 47:-0.477236 48:-1 49:-0.755681 50:-1 51:-1 52:-0.742191 53:-0.634655 54:-0.847871 55:-0.35069 56:-0.185699 57:-0.06248 58:-1 59:-0.194584 60:-0.374987 61:-0.499989 62:-1 63:-0.520077 64:-0.751321 65:-0.81461 66:-1 67:-0.88644 68:-1 69:-1 70:-0.519297 71:-0.450435 72:-1 73:-0.409029 74:-0.533555 75:-0.514696 76:-1 77:-0.648442 78:-0.667019 79:-0.722545 80:-1 81:-0.956889 82:-0.507477 83:-1 84:-0.380588 85:-0.40919 86:-0.876124 87:-0.523897 88:-0.634052 89:-0.646881 90:-0.903207 91:-0.768088 92:-0.883885 93:-0.892627 94:-0.586343 95:-0.617103 96:-0.696519 97:-1 98:-0.764058 99:-0.815441 100:-0.682416 101:-1 102:-0.665171 103:-0.484111 104:-0.72288 105:-1 106:-1 107:-1 108:-0.910968 109:-0.947156 110:-0.925958 111:-1 112:-1 113:-1 114:-0.780222 115:-1 116:-0.717805 117:-0.608067 118:-0.773222 119:-1 120:-1 121:-1 122:-0.812269 123:-1 124:-0.731104 125:-1 126:-0.90235 127:-0.87129 128:-1 129:-1 130:-1 131:-0.72524 132:-0.166065 133:0.187504 134:-0.531257 135:-0.79252 136:-1 137:-0.820535 138:-0.614598 139:-0.56087 140:-0.941144 141:-0.370657 142:-1 143:-0.485933 144:0.157804 145:0.303293 146:0.207883 147:0.167383 148:-1 149:-0.824364 150:-0.93717 151:-1 152:-1 153:-0.942972 154:-1 155:-1 156:-0.966469 157:-1 158:-1 159:-0.764974 160:-1 161:-1 162:-1 163:-1 164:-1 165:-1 166:-1 167:-0.868664 168:-0.835077 169:-0.903481 170:-0.870289 171:-0.896012 172:-0.91093 173:-0.899259 174:-0.925876 175:-0.857821 176:-0.800946 177:-0.816026 178:-0.848854 179:-0.807596 180:-0.903147 181:-0.806274 182:-0.888082 183:-0.929009 184:-0.956248 185:-0.930154 186:-0.957203 187:-0.734467 188:-0.774448 189:-0.262194 190:-0.146518 191:0.402857 192:0.12348 193:-0.570311 194:-0.656517 195:-0.836879 196:-1 197:-1 198:-1 199:-1 200:-1 201:-1 202:-1 203:-1 204:-1 205:-1 206:-1 207:-1 208:-1 209:-1 210:-1 211:-1 212:0.137516 213:0.199077 
0.03125 1:-0.991987 2:-0.900377 3:-0.999986 4:0.649899 5:0.565076 6:-0.999792 7:-0.381 8:-0.988363 9:-0.993599 10:0.471418 11:-0.632126 12:-0.995335 13:-0.187029 14:-0.994622 15:-0.996916 16:-0.18686 17:-0.980057 18:-0.985807 19:-0.364416 20:-0.992801 21:-0.992375 22:0.416232 23:-0.993157 24:-1 25:-1 26:-1 27:-1 28:-1 29:-1 30:-0.523086 31:-1 32:-0.521076 33:-0.448983 34:-0.850963 35:-1 36:-1 37:-1 38:-1 39:-1 40:-0.480801 41:-1 42:-0.651943 43:-0.846634 44:-0.762531 45:-1 46:-0.794618 47:-0.672252 48:-0.486128 49:-1 50:-1 51:-1 52:-0.946118 53:-0.541892 54:-0.205157 55:-1 56:-0.659662 57:-0.0204 58:-0.78232 59:-0.579217 60:-0.346933 61:-0.477547 62:-0.516197 63:-1 64:-0.805115 65:-0.883769 66:-0.834692 67:-0.643999 68:-1 69:-0.567646 70:-0.372148 71:-0.540589 72:-1 73:-0.258979 74:-0.415122 75:-0.577435 76:-1 77:-0.55918 78:-0.536103 79:-0.710092 80:-0.570195 81:-0.774756 82:-1 83:-0.363259 84:-0.0938902 85:-0.259181 86:-1 87:0.243689 88:-0.541137 89:-0.26205 90:-1 91:-0.515357 92:-0.959555 93:-0.719499 94:-1 95:-1 96:-1 97:-1 98:-1 99:-0.903563 100:-1 101:-0.695565 102:-0.650143 103:-0.326191 104:-1 105:-0.669155 106:-1 107:-1 108:-1 109:-1 110:-1 111:-1 112:-1 113:-1 114:-1 115:-0.546726 116:-0.705139 117:-0.726995 118:-1 119:-0.844628 120:-1 121:-1 122:-0.738452 123:-0.0204076 124:-1 125:-1 126:-0.183675 127:-0.372396 128:-0.0934005 129:-0.402965 130:-1 131:-0.856448 132:-0.709536 133:-0.21632 134:-0.265313 135:-0.620614 136:-0.530273 137:-0.34367 138:-0.318493 139:-0.885285 140:-0.876991 141:-0.561606 142:-0.861229 143:-0.884897 144:-0.720815 145:-0.697374 146:-0.95492 147:-0.819285 148:-0.75963 149:-0.889885 150:-1 151:-0.710461 152:-1 153:-0.702043 154:-0.937916 155:-1 156:-1 157:-0.90947 158:-1 159:-1 160:-1 161:-1 162:-0.951446 163:-1 164:-1 165:-1 166:-1 167:-0.936787 168:-0.91368 169:-0.918338 170:-0.936532 171:-0.925716 172:-0.911065 173:-0.915434 174:-0.9467 175:-0.841266 176:-0.870234 177:-0.778899 178:-0.85723 179:-0.770416 180:-0.925382 181:-0.776711 182:-0.952487 183:-0.93478 184:-0.948083 185:-0.92648 186:-0.922074 187:-0.706222 188:-0.898995 189:-0.486045 190:-0.160656 191:0.56522 192:0.173924 193:-0.632656 194:-0.54539 195:-0.780857 196:-0.958364 197:-1 198:-1 199:-1 200:-1 201:-1 202:-1 203:-1 204:-1 205:-1 206:-1 207:-1 208:-1 209:-1 210:-1 211:-1 212:0.185655 213:0.257109 
0.03125 1:-0.939903 2:-0.977593 3:-0.999891 4:0.650257 5:0.562991 6:-0.999212 7:-0.37787 8:-0.971855 9:-0.99447 10:0.470418 11:-0.62262 12:-0.99634 13:-0.193178 14:-0.995913 15:-0.998604 16:-0.189766 17:-0.979375 18:-0.994579 19:-0.375305 20:-0.99622 21:-0.994422 22:0.415716 23:-0.994251 24:-1 25:-1 26:-1 27:-1 28:-1 29:-1 30:-0.545014 31:-0.43808 32:-0.828664 33:-0.747658 34:-0.886248 35:-0.90368 36:-0.804102 37:-0.596208 38:-0.956563 39:-0.942601 40:-0.554195 41:-0.780852 42:-0.800773 43:-0.780546 44:-0.864058 45:-0.724895 46:-0.794241 47:-0.687321 48:-0.669085 49:-0.810021 50:-0.655751 51:-0.75267 52:-0.861215 53:-0.737762 54:-0.363011 55:-0.611619 56:-0.41551 57:-0.39252 58:-0.563867 59:-0.518256 60:-0.62616 61:-0.700928 62:-0.782406 63:-0.521592 64:-0.721113 65:-0.866931 66:-0.984232 67:-0.932071 68:-0.748625 69:-0.845325 70:-0.820302 71:-0.769887 72:-0.512969 73:-0.575812 74:-0.637299 75:-0.709725 76:-0.73852 77:-0.474291 78:-0.800834 79:-0.820219 80:-1 81:-0.806598 82:-0.20459 83:-0.57477 84:-0.518355 85:-0.469932 86:0.0373753 87:-0.466063 88:-0.69356 89:-0.640933 90:-0.782885 91:-0.306439 92:-0.826378 93:-0.775206 94:-1 95:-0.954204 96:-0.963702 97:-0.915454 98:-0.952969 99:-0.8896 100:-0.778377 101:-0.869309 102:-0.833114 103:-0.845712 104:-0.900551 105:-0.763275 106:-0.816069 107:-0.778499 108:-1 109:-1 110:-1 111:-1 112:-1 113:-1 114:-1 115:-0.818362 116:-0.831222 117:-0.609304 118:-0.773938 119:-0.888824 120:-0.876136 121:-1 122:-0.738004 123:-0.421734 124:-0.638122 125:-0.863708 126:-0.883175 127:-0.897353 128:-0.987646 129:-1 130:-1 131:-0.979461 132:-0.861446 133:-0.570096 134:-0.439253 135:-0.410518 136:0.0904674 137:0.153938 138:-0.326166 139:-0.384396 140:-0.947194 141:-0.987455 142:-1 143:-0.791358 144:-0.600465 145:-0.826766 146:-0.458151 147:-0.224176 148:-0.475417 149:-0.810902 150:-0.7839 151:-0.917131 152:-0.619205 153:-0.965894 154:-0.715709 155:-0.964583 156:-1 157:-1 158:-1 159:-0.92971 160:-0.829569 161:-0.972926 162:-0.91663 163:-0.987514 164:-1 165:-1 166:-1 167:-0.907385 168:-0.900362 169:-0.918326 170:-0.898572 171:-0.905411 172:-0.89567 173:-0.890486 174:-0.837587 175:-0.849639 176:-0.843281 177:-0.801907 178:-0.846818 179:-0.78751 180:-0.868699 181:-0.769731 182:-0.912051 183:-0.768611 184:-0.961753 185:-0.792319 186:-0.955546 187:-0.950951 188:-0.335093 189:0.154741 190:0.186149 191:-0.431124 192:-0.0493815 193:-0.84229 194:-0.349421 195:-0.76305 196:-0.761687 197:-1 198:-0.834575 199:-0.951954 200:-0.723567 201:-0.71533 202:-0.383316 203:-1 204:-1 205:-1 206:-1 207:-1 208:-1 209:-1 210:-1 211:-1 212:0.196142 213:0.446803 
0.03125 1:-0.966925 2:-0.954842 3:-0.999948 4:0.649971 5:0.56378 6:-0.999666 7:-0.38192 8:-0.971218 9:-0.999139 10:0.468202 11:-0.630194 12:-0.993523 13:-0.195056 14:-0.995385 15:-0.998067 16:-0.189397 17:-0.984617 18:-0.990001 19:-0.378356 20:-0.998916 21:-0.991647 22:0.41534 23:-0.998141 24:-1 25:-1 26:-1 27:-1 28:-1 29:-1 30:-1 31:-0.931365 32:-0.945587 33:-0.949915 34:-0.8871 35:-0.770529 36:-0.782218 37:-0.541994 38:-1 39:-0.908815 40:-0.823001 41:-0.709971 42:-0.683579 43:-0.51206 44:-0.568233 45:-0.344598 46:-0.486533 47:-0.255132 48:-0.532866 49:-0.814337 50:-0.753969 51:-0.650859 52:-0.853057 53:-0.722367 54:-0.421939 55:-0.383228 56:-0.381197 57:-0.40632 58:-0.604213 59:-0.553719 60:-0.2084 61:-0.683371 62:-0.717247 63:-0.658087 64:-0.763783 65:-0.841501 66:-0.874774 67:-0.892124 68:-0.822574 69:-0.705214 70:-0.600455 71:-0.63457 72:-0.903308 73:-0.49475 74:-0.246752 75:-0.692684 76:-0.74446 77:-0.732844 78:-0.762774 79:-0.824303 80:-0.826346 81:-0.79523 82:-0.625722 83:-0.421161 84:-0.235082 85:-0.551032 86:-1 87:-0.321633 88:-0.721909 89:-0.698102 90:-0.839088 91:-0.706285 92:-0.852942 93:-0.796002 94:-1 95:-1 96:-0.971176 97:-0.932863 98:-1 99:-1 100:-0.849162 101:-0.861627 102:-0.681943 103:-0.632456 104:-0.763077 105:-0.799493 106:-0.820247 107:-0.824114 108:-1 109:-1 110:-1 111:-1 112:-1 113:-1 114:-1 115:-1 116:-1 117:-0.937961 118:-0.820497 119:-0.858751 120:-0.803293 121:-0.780143 122:-0.791957 123:-0.721704 124:-1 125:-1 126:-0.907238 127:-0.979626 128:-1 129:-1 130:-1 131:-0.902124 132:-0.73595 133:-0.940624 134:-1 135:-0.901459 136:-0.264574 137:-0.659046 138:-0.985921 139:-0.973926 140:-0.832269 141:-0.780803 142:-0.0222615 143:-0.633767 144:-0.619298 145:-0.174668 146:0.311283 147:0.170505 148:0.324767 149:-0.866531 150:-0.985081 151:-0.49989 152:-0.285304 153:-0.783306 154:-0.717823 155:-0.831225 156:-0.984076 157:-0.972564 158:-1 159:-1 160:-0.972937 161:-0.698967 162:-1 163:-1 164:-1 165:-1 166:-1 167:-0.929496 168:-0.913337 169:-0.931659 170:-0.902237 171:-0.920629 172:-0.917985 173:-0.918667 174:-0.874446 175:-0.898763 176:-0.893372 177:-0.882323 178:-0.892744 179:-0.866783 180:-0.914028 181:-0.812266 182:-0.904897 183:-0.787675 184:-0.946009 185:-0.794782 186:-0.931794 187:-0.899848 188:-0.227163 189:0.133033 190:-0.105814 191:-0.356297 192:-0.310224 193:-0.97217 194:0.044077 195:-0.712241 196:-0.924306 197:-1 198:-1 199:-1 200:-1 201:-1 202:-1 203:-1 204:-1 205:-1 206:-1 207:-1 208:-1 209:-1 210:-1 211:-1 212:0.176045 213:0.445264 
0.03125 1:-0.966414 2:-0.970354 3:-0.999898 4:0.649987 5:0.563107 6:-0.999696 7:-0.380707 8:-0.970707 9:-0.995143 10:0.470527 11:-0.621435 12:-0.995641 13:-0.194372 14:-0.995578 15:-0.99752 16:-0.188 17:-0.989225 18:-0.991254 19:-0.375196 20:-0.996176 21:-0.992599 22:0.41944 23:-0.99816 24:-1 25:-1 26:-1 27:-0.938277 28:-0.947773 29:-0.923454 30:-0.857062 31:-0.932105 32:-1 33:-1 34:-0.955332 35:-0.798275 36:-0.784616 37:-0.818792 38:-0.795292 39:-0.458984 40:-0.533207 41:-0.598412 42:-0.582758 43:-0.517433 44:-0.626356 45:-0.639918 46:-0.723013 47:-0.656219 48:-0.595751 49:-0.701616 50:-0.75668 51:-0.956834 52:-0.757793 53:-0.725416 54:-0.571225 55:-0.695022 56:-0.464499 57:-0.48624 58:-0.60856 59:-0.495576 60:-0.60856 61:-0.686848 62:-0.596088 63:-0.624281 64:-0.766377 65:-0.965164 66:-0.851378 67:-0.973325 68:-1 69:-1 70:-1 71:-0.896733 72:-0.760966 73:-0.611365 74:-0.693256 75:-0.658063 76:-0.526127 77:-0.735778 78:-0.817527 79:-0.847955 80:-0.849723 81:-0.85824 82:-0.722381 83:-0.85687 84:-0.883608 85:-0.833474 86:-0.534466 87:-0.552722 88:-0.690581 89:-0.46921 90:-0.818123 91:-0.709511 92:-0.854557 93:-0.798242 94:-0.922271 95:-0.784173 96:-0.800424 97:-0.535143 98:-0.741408 99:-0.739912 100:-0.651929 101:-0.760509 102:-0.790314 103:-0.0912753 104:-0.791724 105:-0.801695 106:-0.822221 107:-0.884044 108:-1 109:-1 110:-0.965216 111:-0.861018 112:-0.748546 113:-0.858316 114:-0.741905 115:-0.877731 116:-0.911626 117:-0.87726 118:-0.96449 119:-0.790458 120:-0.844369 121:-1 122:-1 123:-1 124:-1 125:-1 126:-0.908262 127:-0.959692 128:-1 129:-1 130:-1 131:-1 132:-1 133:-1 134:-1 135:-1 136:-1 137:-1 138:-1 139:-1 140:-0.903232 141:-1 142:-1 143:-1 144:-0.83266 145:-0.773259 146:-0.736579 147:-0.979689 148:-1 149:-0.471986 150:-0.365437 151:-0.271102 152:-0.619398 153:0.473391 154:0.730218 155:0.335299 156:-0.0549029 157:-0.403113 158:-0.811516 159:-0.834406 160:-0.196925 161:-0.532156 162:-0.825398 163:-0.980385 164:-0.939052 165:-0.683548 166:-0.680289 167:-0.913482 168:-0.929234 169:-0.906808 170:-0.940778 171:-0.889956 172:-0.920428 173:-0.876582 174:-0.88472 175:-0.871453 176:-0.866988 177:-0.873211 178:-0.711053 179:-0.874212 180:-0.721874 181:-0.830729 182:-0.791711 183:-0.805754 184:-0.876253 185:-0.850161 186:-0.880603 187:-0.95231 188:-0.750271 189:-0.549464 190:0.190917 191:0.128042 192:0.171301 193:-0.403671 194:-0.27934 195:-0.813918 196:-0.737982 197:-0.899015 198:-1 199:-1 200:-1 201:-1 202:-1 203:-1 204:-1 205:-1 206:-1 207:-1 208:-1 209:-1 210:-1 211:-1 212:0.402582 213:0.229867 
0.03125 1:-0.975791 2:-0.94588 3:-0.99992 4:0.649963 5:0.566593 6:-0.999777 7:-0.381924 8:-0.978884 9:-0.999125 10:0.46827 11:-0.63228 12:-0.993782 13:-0.194546 14:-0.995562 15:-0.997878 16:-0.18937 17:-0.988522 18:-0.987825 19:-0.375978 20:-0.999908 21:-0.995821 22:0.423158 23:-0.99261 24:-1 25:-1 26:-0.696231 27:-0.768008 28:-0.869133 29:-0.904098 30:-1 31:-1 32:-1 33:-1 34:-1 35:-1 36:-1 37:-1 38:-1 39:-1 40:-0.926892 41:-0.56874 42:-0.542594 43:-0.654531 44:-0.732509 45:-0.639093 46:-0.942157 47:-0.938465 48:-0.493524 49:-0.7987 50:-0.796772 51:-1 52:-1 53:-1 54:-1 55:-1 56:-1 57:-0.1724 58:-0.81608 59:-0.684026 60:-0.693493 61:-0.607659 62:-0.766438 63:-0.670496 64:-0.707299 65:-1 66:-0.968963 67:-1 68:-1 69:-0.93912 70:-0.858543 71:-1 72:-1 73:-0.58265 74:-0.505875 75:-0.714404 76:-0.683356 77:-0.62758 78:-0.70606 79:-0.72786 80:-0.83862 81:-0.847766 82:-0.826075 83:-0.880452 84:-0.562564 85:-0.513219 86:0.0206936 87:-0.649771 88:-0.655412 89:-0.584361 90:-0.829101 91:-0.636052 92:-0.840556 93:-0.778821 94:-0.269668 95:-0.684523 96:-0.67851 97:-0.16797 98:-0.629729 99:-0.511198 100:-0.314725 101:-0.185575 102:-0.343171 103:-0.544598 104:-0.60859 105:-0.72049 106:-0.693747 107:-1 108:-1 109:-1 110:-1 111:-1 112:-1 113:-1 114:-1 115:-1 116:-0.94464 117:-0.461815 118:-0.688598 119:-0.518696 120:-0.610001 121:-1 122:-1 123:-0.82759 124:-0.683503 125:-1 126:-1 127:-1 128:-1 129:-1 130:-1 131:-1 132:-0.972733 133:-0.632176 134:-0.75172 135:-0.816847 136:-0.911809 137:-0.973594 138:-0.895318 139:-0.903089 140:-1 141:-1 142:-0.882751 143:-0.265287 144:-0.187592 145:-0.630707 146:-0.035284 147:-0.541997 148:-0.492318 149:-0.834616 150:-0.556267 151:-0.673843 152:-0.897812 153:-0.0602251 154:-0.370657 155:0.428996 156:-0.486898 157:-0.558105 158:-0.338764 159:-0.965419 160:-1 161:-1 162:-0.863282 163:-1 164:-0.898198 165:-0.93003 166:-0.963583 167:-0.963781 168:-0.941305 169:-0.888714 170:-0.852326 171:-0.894057 172:-0.869912 173:-0.890211 174:-0.851422 175:-0.872171 176:-0.800257 177:-0.881964 178:-0.864892 179:-0.862487 180:-0.872109 181:-0.832331 182:-0.855633 183:-0.810775 184:-0.84483 185:-0.834695 186:-0.852946 187:-0.926461 188:-0.393201 189:0.331549 190:-0.0249852 191:-0.524237 192:-0.354951 193:-0.91954 194:0.293696 195:-0.739438 196:-0.97655 197:-1 198:-1 199:-1 200:-1 201:-1 202:-1 203:-1 204:-1 205:-1 206:-1 207:-1 208:-1 209:-1 210:-1 211:-1 212:0.213106 213:0.402091 
0.03125 1:-0.979627 2:-0.947603 3:-0.999908 4:0.649915 5:0.562592 6:-0.99976 7:-0.380287 8:-0.986586 9:-0.996279 10:0.469934 11:-0.62945 12:-0.995856 13:-0.190367 14:-0.996164 15:-0.998077 16:-0.184882 17:-0.983736 18:-0.987566 19:-0.371627 20:-0.998766 21:-0.992367 22:0.412281 23:-0.995989 24:-1 25:-1 26:-1 27:-1 28:-1 29:-1 30:-1 31:-1 32:-0.849579 33:-0.653833 34:-0.781539 35:-0.788573 36:-0.914007 37:-1 38:-1 39:-1 40:-1 41:-1 42:-1 43:-1 44:-0.925411 45:-0.295496 46:-0.612912 47:-0.725489 48:-0.596475 49:-0.807544 50:-0.773315 51:-1 52:-1 53:-1 54:-1 55:-1 56:-1 57:-0.58976 58:-0.31624 59:-0.295098 60:-0.452987 61:-0.562389 62:-0.696063 63:-0.369965 64:-0.795948 65:-1 66:-0.792302 67:-0.813627 68:-0.754794 69:-0.728411 70:-0.684474 71:-1 72:-0.599135 73:-0.379316 74:-0.510102 75:-0.309811 76:-0.514385 77:-0.630766 78:-0.745001 79:-0.817875 80:-0.880003 81:-0.858494 82:-0.547371 83:-0.466661 84:-0.268129 85:-0.767318 86:-0.512075 87:-0.374956 88:-0.279346 89:-0.721841 90:-0.745838 91:-0.594059 92:-0.796752 93:-0.718056 94:-1 95:-1 96:-1 97:-1 98:-1 99:-0.818276 100:-0.930516 101:-0.71313 102:-0.0476286 103:-0.57669 104:-0.708947 105:-0.722882 106:-0.875789 107:-0.675894 108:-1 109:-1 110:-1 111:-1 112:-1 113:-1 114:-1 115:-1 116:-0.876517 117:-0.48546 118:-0.603046 119:-0.707167 120:-1 121:-1 122:-1 123:-1 124:-1 125:-0.867052 126:-0.487175 127:-0.746544 128:-1 129:-1 130:-1 131:-1 132:-1 133:-1 134:-0.692309 135:-0.148795 136:1 137:-0.0281343 138:-0.941622 139:-1 140:-1 141:-0.972461 142:-0.782043 143:-0.493848 144:-1 145:-0.778202 146:-0.235447 147:0.532566 148:-0.943377 149:-0.67719 150:-0.793777 151:-0.745348 152:-0.924022 153:-0.962566 154:-0.805002 155:-0.72787 156:-0.669819 157:-0.37442 158:-0.683908 159:-1 160:-0.88778 161:-1 162:-1 163:-1 164:-1 165:-1 166:-0.837535 167:-0.965632 168:-0.974559 169:-0.968293 170:-0.973916 171:-0.96998 172:-0.946674 173:-0.937667 174:-0.793741 175:-0.917835 176:-0.857171 177:-0.865512 178:-0.936411 179:-0.814195 180:-0.873071 181:-0.786268 182:-0.897742 183:-0.803285 184:-0.95421 185:-0.9022 186:-0.910194 187:-0.887218 188:-0.767345 189:-0.531842 190:0.301725 191:0.529545 192:0.151168 193:-0.782051 194:-0.218392 195:-0.90822 196:-0.973847 197:-1 198:-1 199:-1 200:-1 201:-1 202:-1 203:-1 204:-1 205:-1 206:-1 207:-1 208:-1 209:-1 210:-1 211:-1 212:0.28213 213:0.108313 
0.03125 1:-0.978007 2:-0.944845 3:-0.999911 4:0.649933 5:0.566941 6:-0.999796 7:-0.381667 8:-0.980452 9:-0.999116 10:0.468314 11:-0.632884 12:-0.993698 13:-0.194437 14:-0.995477 15:-0.997729 16:-0.187708 17:-0.990305 18:-0.988105 19:-0.38566 20:-0.999144 21:-0.996258 22:0.42536 23:-0.990998 24:-1 25:-1 26:-0.612295 27:-0.753275 28:-0.930411 29:-0.796016 30:-1 31:-1 32:-1 33:-1 34:-1 35:-1 36:-1 37:-1 38:-1 39:-1 40:-1 41:-0.388425 42:-0.305023 43:-0.816276 44:-0.786618 45:-0.808066 46:-0.938484 47:-1 48:-0.846093 49:-0.93883 50:-0.92795 51:-1 52:-1 53:-1 54:-1 55:-1 56:-1 57:-0.1198 58:-0.8044 59:-0.579904 60:-0.8044 61:-0.42624 62:-0.668783 63:-0.549419 64:-0.727607 65:-1 66:-1 67:-1 68:-1 69:-1 70:-1 71:-0.931202 72:-0.936294 73:-0.556114 74:-0.47447 75:-0.645619 76:-0.705325 77:-0.64792 78:-0.722114 79:-0.91317 80:-1 81:-1 82:-0.938343 83:-0.93643 84:-0.689834 85:-0.630195 86:-0.147043 87:-0.850999 88:-0.633509 89:-0.690562 90:-0.787941 91:-0.661304 92:-0.83042 93:-0.630337 94:-0.844648 95:-0.760334 96:-0.810042 97:-0.115092 98:-0.507741 99:-0.422368 100:-0.204889 101:-0.0426157 102:-0.511 103:-0.354189 104:-0.618394 105:-0.702726 106:-0.703884 107:-1 108:-0.331236 109:-0.76845 110:-0.721917 111:-0.953698 112:-1 113:-1 114:-1 115:-1 116:-0.764496 117:-0.427602 118:-0.668802 119:-0.395015 120:-0.429665 121:-1 122:-1 123:-0.779949 124:-0.368848 125:-0.968306 126:-0.816625 127:-0.946293 128:-1 129:-0.943531 130:-0.948214 131:-1 132:-1 133:-0.45232 134:-0.413201 135:-0.383137 136:-0.812416 137:-0.46643 138:-0.628873 139:-0.931285 140:-1 141:-0.947478 142:-0.33496 143:-0.816136 144:-0.219558 145:-0.33531 146:-0.108955 147:-0.188126 148:-0.838014 149:-0.934039 150:-0.705033 151:-0.895935 152:-1 153:-0.535938 154:-0.702507 155:-0.258614 156:-0.496255 157:-0.819235 158:-0.397196 159:-0.742562 160:-1 161:-1 162:-1 163:-1 164:-0.891721 165:-0.900782 166:-0.980635 167:-0.97857 168:-0.956422 169:-0.872194 170:-0.859477 171:-0.885316 172:-0.899555 173:-0.886963 174:-0.884457 175:-0.892167 176:-0.807777 177:-0.887367 178:-0.860934 179:-0.866908 180:-0.861923 181:-0.842123 182:-0.808244 183:-0.827874 184:-0.839521 185:-0.968644 186:-0.865942 187:-0.931563 188:-0.566391 189:0.323837 190:0.146981 191:-0.34517 192:-0.536911 193:-0.767726 194:0.189615 195:-0.781215 196:-0.875305 197:-1 198:-1 199:-1 200:-1 201:-1 202:-1 203:-1 204:-1 205:-1 206:-1 207:-1 208:-1 209:-1 210:-1 211:-1 212:0.236157 213:0.359448 
0.03125 1:-0.988577 2:-0.937262 3:-0.999986 4:0.649847 5:0.5644 6:-0.999945 7:-0.379751 8:-0.987 9:-0.997405 10:0.469128 11:-0.626337 12:-0.996406 13:-0.192846 14:-0.997074 15:-0.997178 16:-0.191221 17:-0.993214 18:-0.989436 19:-0.371455 20:-0.999208 21:-0.988514 22:0.416543 23:-1 24:-1 25:-1 26:-1 27:-1 28:-1 29:-1 30:-1 31:-0.870167 32:-0.485377 33:-0.526312 34:-0.786468 35:-0.951778 36:-0.941157 37:-0.653483 38:-0.804273 39:-0.913778 40:-0.888414 41:-0.890285 42:-0.900259 43:-0.868162 44:-0.693789 45:-0.311392 46:-0.558592 47:-0.530419 48:-0.447824 49:-0.780537 50:-0.741504 51:-0.669842 52:-0.768419 53:-0.671823 54:-0.316703 55:-0.416764 56:-0.414843 57:-0.29824 58:-0.53216 59:-0.397124 60:-0.53216 61:-0.625728 62:-0.702921 63:-0.640764 64:-0.776627 65:-0.833471 66:-0.810527 67:-0.74497 68:-0.664443 69:-0.535418 70:-0.460259 71:-0.605082 72:-0.542881 73:-0.469152 74:-0.581009 75:-0.636736 76:-0.697939 77:-0.684208 78:-0.750755 79:-0.750778 80:-1 81:-1 82:-0.823024 83:-0.726324 84:-0.666175 85:-0.575443 86:-0.443604 87:-0.465423 88:-0.671282 89:-0.746248 90:-0.782625 91:-0.652814 92:-0.930464 93:-0.855324 94:-1 95:-1 96:-1 97:-1 98:-1 99:-1 100:-0.619653 101:-0.738302 102:-0.498743 103:-0.768287 104:-0.751073 105:-0.810395 106:-1 107:-1 108:-1 109:-1 110:-1 111:-1 112:-1 113:-1 114:-1 115:-0.922063 116:-0.746532 117:-0.413254 118:-0.6605 119:-0.933211 120:-1 121:-1 122:-1 123:-1 124:-0.939612 125:-0.954513 126:-0.166662 127:-0.190726 128:-0.257757 129:-0.810914 130:-1 131:-0.568094 132:-0.500614 133:-0.045616 134:-0.536849 135:0.257985 136:-0.641072 137:0.813541 138:-0.520662 139:-0.679513 140:-0.841385 141:-1 142:-0.52281 143:-0.934031 144:-0.919995 145:-0.826568 146:-0.961248 147:-0.961161 148:-0.612558 149:-0.905343 150:-1 151:-1 152:-1 153:-1 154:-1 155:-1 156:-1 157:-0.84435 158:-1 159:-1 160:-1 161:-1 162:-1 163:-1 164:-1 165:-1 166:-0.916633 167:-0.961055 168:-0.955859 169:-0.967484 170:-0.987952 171:-0.96332 172:-0.974335 173:-0.955094 174:-0.919969 175:-0.9277 176:-0.916914 177:-0.907848 178:-0.961378 179:-0.872488 180:-0.936852 181:-0.854303 182:-0.959405 183:-0.880216 184:-0.956116 185:-0.918164 186:-0.896417 187:-0.922834 188:-0.782927 189:-0.558184 190:-0.368648 191:0.729982 192:0.427597 193:-0.614036 194:-0.197822 195:-0.853481 196:-0.856843 197:-1 198:-1 199:-1 200:-1 201:-1 202:-1 203:-1 204:-1 205:-1 206:-1 207:-1 208:-1 209:-1 210:-1 211:-1 212:0.393818 213:0.130182 
0.03125 1:-0.978689 2:-0.942777 3:-0.999928 4:0.649961 5:0.566021 6:-0.999782 7:-0.380853 8:-0.980302 9:-0.999041 10:0.468461 11:-0.634618 12:-0.993297 13:-0.194093 14:-0.995108 15:-0.997529 16:-0.187798 17:-0.987224 18:-0.993554 19:-0.384688 20:-0.996381 21:-0.991813 22:0.42309 23:-0.998177 24:-0.422608 25:-0.405593 26:-1 27:-1 28:-1 29:-1 30:-1 31:-1 32:-1 33:-0.663337 34:-0.787539 35:-0.657292 36:-0.665454 37:-1 38:-0.860894 39:-0.693618 40:-0.28628 41:-0.766094 42:-0.574685 43:-0.344154 44:-0.854895 45:0.0766755 46:-0.309834 47:-0.666256 48:-0.293603 49:-0.750439 50:-0.706054 51:-1 52:-1 53:-0.906695 54:-0.708633 55:-0.170961 56:-0.376152 57:-0.40148 58:-0.534507 59:-0.914297 60:-0.734 61:-0.521195 62:-0.788858 63:-0.693613 64:-0.72218 65:-0.905317 66:-1 67:-1 68:-1 69:-0.801896 70:-0.769847 71:-0.719322 72:-1 73:-0.849073 74:-0.523548 75:-0.845099 76:-0.699454 77:-0.685792 78:-0.752005 79:-0.704788 80:-1 81:-1 82:-0.937108 83:-0.870312 84:-0.446395 85:-0.396515 86:-1 87:-0.544068 88:-0.766371 89:-0.72947 90:-0.845506 91:-0.703891 92:-0.876454 93:-0.965721 94:-0.894357 95:-0.608889 96:-0.728761 97:-0.0974303 98:-0.698746 99:-0.70542 100:-1 101:-0.814005 102:-0.786257 103:-0.176624 104:-0.681548 105:-0.831551 106:-0.818782 107:-1 108:-1 109:-0.932517 110:-0.858191 111:-1 112:-1 113:-0.951852 114:-1 115:-1 116:-1 117:-1 118:-0.903476 119:-0.715199 120:-0.841358 121:-1 122:-0.440716 123:-1 124:-1 125:-1 126:-1 127:-1 128:-0.973621 129:-1 130:-1 131:-0.934225 132:-0.733803 133:-1 134:-1 135:-0.966883 136:-0.936219 137:-0.971355 138:-0.981072 139:-1 140:-1 141:-0.705371 142:-0.957602 143:-0.906235 144:-0.402995 145:0.355897 146:-0.283962 147:0.407714 148:-0.908212 149:-1 150:-0.839548 151:-0.681575 152:0.662691 153:-0.745142 154:-0.203507 155:-0.395065 156:-0.314939 157:-0.815627 158:-0.385176 159:-0.774932 160:-0.417892 161:-0.710974 162:-0.88135 163:-0.94668 164:-1 165:-0.873502 166:-0.94075 167:-0.88316 168:-0.8203 169:-0.898073 170:-0.883897 171:-0.907946 172:-0.920367 173:-0.91155 174:-0.881761 175:-0.892749 176:-0.81628 177:-0.896027 178:-0.868102 179:-0.867148 180:-0.91077 181:-0.831484 182:-0.828269 183:-0.793823 184:-0.886294 185:-0.964799 186:-0.856506 187:-0.925214 188:-0.568024 189:0.397348 190:0.153838 191:-0.483898 192:-0.457698 193:-0.763091 194:0.242584 195:-0.880988 196:-0.847377 197:-1 198:-1 199:-1 200:-1 201:-1 202:-1 203:-1 204:-1 205:-1 206:-1 207:-1 208:-1 209:-1 210:-1 211:-1 212:0.221903 213:0.36081 
0.03125 1:-0.98082 2:-0.935193 3:-0.999961 4:0.649947 5:0.565133 6:-0.999782 7:-0.380658 8:-0.981817 9:-0.999039 10:0.468469 11:-0.63524 12:-0.993326 13:-0.193922 14:-0.995127 15:-0.997329 16:-0.187664 17:-0.985649 18:-0.991485 19:-0.374959 20:-0.997866 21:-0.993784 22:0.418478 23:-0.998929 24:-1 25:-1 26:-1 27:-1 28:-1 29:-1 30:-1 31:-1 32:-1 33:-0.856387 34:-0.805784 35:-0.744158 36:-0.777003 37:-1 38:-0.901095 39:-0.673248 40:-0.492567 41:-0.501079 42:-0.546431 43:-0.200594 44:-0.381033 45:-0.791228 46:-0.598521 47:-0.572897 48:-0.497773 49:-0.767114 50:-0.725694 51:-1 52:-0.859578 53:-0.751249 54:-0.482074 55:-0.44739 56:-0.44557 57:-0.36172 58:-0.361707 59:-0.451659 60:-1 61:-0.602837 62:-0.684752 63:-0.618793 64:-0.703702 65:-0.899023 66:-0.928193 67:-0.961333 68:-1 69:-0.929561 70:-0.836361 71:-0.62582 72:-0.584231 73:-0.436685 74:-1 75:-0.669597 76:-0.725263 77:-0.712774 78:-0.773301 79:-0.748127 80:-0.844411 81:-0.823882 82:-0.463447 83:-0.515958 84:-0.409575 85:-0.436838 86:-0.746951 87:-0.594802 88:-1 89:-0.759573 90:-0.802288 91:-0.68422 92:-0.841894 93:-0.926892 94:-1 95:-0.895723 96:-0.876019 97:-0.518712 98:-0.732268 99:-0.685834 100:-0.639625 101:-0.801643 102:-0.848029 103:-0.473149 104:-0.773591 105:-0.78443 106:-0.806743 107:-1 108:-1 109:-1 110:-1 111:-1 112:-0.947924 113:-1 114:-0.925165 115:-1 116:-1 117:-0.911038 118:-0.691211 119:-0.69628 120:-0.718003 121:-1 122:-0.744379 123:-0.720744 124:-1 125:-1 126:-0.867025 127:-0.970785 128:-0.971865 129:-1 130:-1 131:-0.976612 132:-0.842279 133:-1 134:-1 135:-0.646839 136:-0.863973 137:-0.969448 138:-0.979812 139:-1 140:-1 141:-0.771469 142:-0.864357 143:-0.900003 144:-0.666494 145:0.774693 146:-0.118872 147:0.85456 148:-0.862954 149:-0.712998 150:-0.76471 151:0.358384 152:-0.0542723 153:-0.767027 154:-0.757306 155:-0.556457 156:-0.680361 157:-0.78371 158:-0.781437 159:-1 160:-0.573194 161:-0.907525 162:-0.96836 163:-1 164:-1 165:-1 166:-0.894678 167:-0.925835 168:-0.865613 169:-0.919074 170:-0.893783 171:-0.90814 172:-0.942982 173:-0.899139 174:-0.873782 175:-0.882812 176:-0.778774 177:-0.885519 178:-0.928963 179:-0.856678 180:-0.918197 181:-0.816789 182:-0.889357 183:-0.783797 184:-0.932835 185:-0.943083 186:-0.893687 187:-0.909605 188:-0.484456 189:0.389793 190:-0.0258078 191:-0.643846 192:-0.458954 193:-0.760641 194:0.294024 195:-0.762012 196:-0.86436 197:-1 198:-1 199:-1 200:-1 201:-1 202:-1 203:-1 204:-1 205:-1 206:-1 207:-1 208:-1 209:-1 210:-1 211:-1 212:0.247449 213:0.406984 
0.03125 1:-0.965817 2:-0.961047 3:-0.999954 4:0.64984 5:0.563968 6:-0.999536 7:-0.37468 8:-0.971767 9:-0.995946 10:0.470036 11:-0.620127 12:-0.995893 13:-0.195886 14:-0.996111 15:-0.99758 16:-0.181985 17:-0.986783 18:-0.991501 19:-0.38715 20:-0.996387 21:-0.99329 22:0.416554 23:-0.998296 24:-1 25:-1 26:-1 27:-1 28:-1 29:-1 30:-1 31:-0.530803 32:-0.734299 33:-0.804358 34:-1 35:-1 36:-1 37:-1 38:-0.932632 39:-0.910977 40:-0.596744 41:-0.546853 42:-0.227594 43:0.0209648 44:-0.262196 45:-0.146737 46:-0.680945 47:-0.806054 48:-0.429821 49:-0.84137 50:-0.519534 51:-0.914773 52:-0.856516 53:-0.76279 54:-0.435532 55:-0.397731 56:-0.320242 57:-0.05796 58:-0.516907 59:-0.315201 60:-0.420293 61:-0.497579 62:-0.662552 63:-0.517763 64:-0.509852 65:-0.793652 66:-1 67:-1 68:-0.913379 69:-0.664195 70:-0.665585 71:-0.898056 72:-0.716776 73:-0.616297 74:-0.610623 75:-0.662412 76:-0.719289 77:-0.445653 78:-0.742628 79:-0.806996 80:-0.872819 81:-0.880027 82:-0.223377 83:-0.576096 84:-0.655265 85:-0.671184 86:-0.712732 87:-0.723997 88:-0.830282 89:-0.836232 90:-0.842879 91:-0.605636 92:-0.874353 93:-0.850595 94:-0.884889 95:-0.680367 96:-0.69035 97:-0.934419 98:-0.963518 99:-1 100:-0.950895 101:-0.932445 102:-0.896486 103:-0.88038 104:-0.948594 105:-0.877632 106:-0.692839 107:-0.828254 108:-1 109:-1 110:-1 111:-1 112:-1 113:-1 114:-1 115:-1 116:-1 117:-1 118:-0.894825 119:-0.896552 120:-0.884745 121:-0.928426 122:-1 123:-1 124:-1 125:-0.953035 126:-1 127:-1 128:-0.942514 129:-0.944216 130:-1 131:-0.952214 132:-1 133:-0.652176 134:-0.760864 135:-0.85566 136:-1 137:-0.979188 138:-1 139:-0.987269 140:-0.80892 141:-0.571928 142:0.10869 143:-0.642396 144:-0.277173 145:-0.462737 146:-0.379808 147:-0.458607 148:-0.693275 149:-0.885964 150:-0.79602 151:-0.640176 152:-0.624228 153:-0.206517 154:-0.173408 155:-0.0661562 156:-0.175757 157:-0.290144 158:-0.404469 159:-0.70025 160:-1 161:-1 162:-1 163:-1 164:-1 165:-1 166:-1 167:-0.894857 168:-0.872481 169:-0.905173 170:-0.909273 171:-0.90599 172:-0.9465 173:-0.902826 174:-0.848753 175:-0.876042 176:-0.75686 177:-0.850071 178:-0.924251 179:-0.850335 180:-0.931951 181:-0.798798 182:-0.843201 183:-0.796002 184:-0.901571 185:-0.828454 186:-0.900515 187:-0.902207 188:-0.0212136 189:-0.16739 190:0.0128332 191:-0.338371 192:-0.212092 193:-0.664856 194:-0.309717 195:-0.967577 196:-0.944563 197:-0.925214 198:-0.935855 199:-1 200:-1 201:-1 202:-1 203:-1 204:-1 205:-1 206:-1 207:-1 208:-1 209:-1 210:-1 211:-1 212:0.0881445 213:0.33744 
0.03125 1:-0.973233 2:-0.955187 3:-0.999858 4:0.649838 5:0.564354 6:-0.999714 7:-0.378253 8:-0.976514 9:-0.997182 10:0.469555 11:-0.623947 12:-0.995482 13:-0.19443 14:-0.996233 15:-0.997575 16:-0.186962 17:-0.997674 18:-0.993446 19:-0.392283 20:-0.992713 21:-0.994182 22:0.438041 23:-0.975311 24:-0.288679 25:-1 26:-1 27:-1 28:-0.938779 29:-1 30:-1 31:-1 32:-1 33:-1 34:-1 35:-1 36:-1 37:-1 38:-1 39:-0.471589 40:-0.658054 41:-0.66379 42:-0.816606 43:-1 44:-1 45:-1 46:-1 47:-0.76976 48:-1 49:-1 50:-1 51:-1 52:-1 53:-1 54:-0.0786547 55:-0.642537 56:-0.82068 57:-1 58:-1 59:-1 60:-1 61:-0.724736 62:-0.963576 63:-1 64:-1 65:-1 66:-1 67:-1 68:-1 69:-0.943039 70:-1 71:-0.697431 72:-0.943954 73:-0.73972 74:-0.486411 75:-0.33207 76:-0.2965 77:-0.806446 78:-0.938896 79:-0.974537 80:-1 81:-1 82:-1 83:-0.776348 84:-0.522573 85:0.0408676 86:0.636871 87:0.441626 88:-0.113526 89:-0.300127 90:-0.307211 91:0.65976 92:-0.190298 93:-0.261046 94:-0.954443 95:-1 96:-0.699253 97:-0.0660152 98:-0.437134 99:-0.491944 100:-0.358925 101:-0.839606 102:-1 103:-1 104:-1 105:-1 106:-1 107:-1 108:-0.460795 109:-0.679957 110:-0.592353 111:-0.714916 112:-1 113:-1 114:-1 115:-1 116:-1 117:-1 118:-1 119:-1 120:-1 121:-1 122:-1 123:-1 124:-1 125:-0.972117 126:-0.973113 127:-1 128:-0.545071 129:-0.834441 130:-0.817806 131:-0.943272 132:-0.668416 133:0.204304 134:-0.122586 135:-0.514544 136:-0.0375424 137:-0.209586 138:-0.738853 139:-0.561812 140:-0.351902 141:-0.468742 142:-0.268813 143:-0.858492 144:-0.901937 145:-0.548236 146:-0.643759 147:-0.809578 148:-0.762538 149:-1 150:-1 151:-1 152:-0.936275 153:-0.874411 154:-0.77104 155:-0.608748 156:-0.870767 157:-0.80921 158:-1 159:-1 160:-1 161:-1 162:-1 163:-0.93103 164:-0.761909 165:-0.934545 166:-0.965936 167:-0.779065 168:-0.961844 169:-0.850147 170:-0.945541 171:-0.857399 172:-0.941661 173:-0.849499 174:-0.874488 175:-0.9477 176:-0.768 177:-0.943269 178:-0.86783 179:-0.910826 180:-0.765852 181:-0.866702 182:-0.670251 183:-0.923122 184:-0.769833 185:-0.947442 186:-0.762229 187:-0.914007 188:-0.104175 189:-0.0522247 190:-0.170809 191:-0.319307 192:-0.0948521 193:-0.752691 194:-0.104931 195:-0.935853 196:-0.934189 197:-1 198:-1 199:-1 200:-1 201:-1 202:-1 203:-1 204:-1 205:-1 206:-1 207:-1 208:-1 209:-1 210:-1 211:-1 212:0.136969 213:0.345184 
0.03125 1:-0.97562 2:-0.948982 3:-0.999941 4:0.649764 5:0.566113 6:-0.999712 7:-0.379031 8:-0.978844 9:-0.997714 10:0.469406 11:-0.626471 12:-0.994914 13:-0.194094 14:-0.995946 15:-0.997443 16:-0.19149 17:-0.985189 18:-0.995998 19:-0.376619 20:-0.998287 21:-0.990252 22:0.411947 23:-0.994987 24:-1 25:-1 26:-1 27:-1 28:-1 29:-0.522703 30:-1 31:-1 32:-0.865742 33:-0.691066 34:-0.888597 35:-0.968557 36:-0.846511 37:-1 38:-1 39:-1 40:-1 41:-0.928462 42:-0.869901 43:-0.828036 44:-0.733731 45:-0.730547 46:-0.884842 47:-0.755012 48:-0.783933 49:-0.856869 50:-0.865138 51:-1 52:-0.909382 53:-0.871584 54:-1 55:-0.429438 56:-0.332166 57:-0.7254 58:-0.75592 59:-0.606811 60:-0.816933 61:-0.902357 62:-0.806248 63:-0.812581 64:-0.817895 65:-0.913119 66:-0.598402 67:-0.0353239 68:-0.89057 69:-0.939412 70:-0.859189 71:-0.613664 72:-0.642257 73:-0.446065 74:-0.617453 75:-0.668333 76:-0.763606 77:-0.670474 78:-0.772434 79:-0.837467 80:-1 81:-0.924231 82:-0.192107 83:-0.583532 84:-0.564562 85:-0.446216 86:-0.201687 87:-0.232994 88:-0.485488 89:-0.33804 90:-0.659763 91:-0.683013 92:-0.81861 93:-0.748376 94:-1 95:-1 96:-0.822209 97:-0.254615 98:-0.585355 99:-0.513443 100:-0.565914 101:-0.743989 102:-0.673086 103:-0.546678 104:-0.707783 105:-0.659941 106:-0.66743 107:-0.891533 108:-1 109:-1 110:-1 111:-1 112:-1 113:-0.955829 114:-1 115:-0.949182 116:-0.83469 117:-0.770405 118:-1 119:-0.912883 120:-1 121:-1 122:-0.780054 123:-0.759729 124:-0.960625 125:-0.822019 126:-1 127:-0.924601 128:-1 129:-1 130:-1 131:-1 132:-0.972863 133:-0.414192 134:0.263153 135:-0.483431 136:-0.707397 137:-0.421774 138:-0.913161 139:-1 140:-1 141:-0.803369 142:-0.688781 143:-0.849431 144:0.173912 145:-0.293074 146:0.389913 147:-0.290808 148:-0.241967 149:-0.91769 150:-0.595105 151:-1 152:-1 153:-1 154:-1 155:-0.930607 156:-0.803558 157:-0.763142 158:-0.0126868 159:-0.896739 160:-1 161:-1 162:-1 163:-1 164:-1 165:-1 166:-1 167:-0.970147 168:-0.807156 169:-0.96483 170:-0.859648 171:-0.917183 172:-0.901611 173:-0.90227 174:-0.933126 175:-0.838889 176:-0.862899 177:-0.86391 178:-0.892092 179:-0.801643 180:-0.901486 181:-0.802181 182:-0.897995 183:-0.772167 184:-0.941623 185:-0.839922 186:-0.942536 187:-0.917648 188:-0.141154 189:-0.40931 190:-0.397084 191:0.0586023 192:-0.0208027 193:-0.736841 194:0.0194914 195:-0.890789 196:-0.953314 197:-1 198:-1 199:-1 200:-1 201:-1 202:-1 203:-1 204:-1 205:-1 206:-1 207:-1 208:-1 209:-1 210:-1 211:-1 212:0.207625 213:0.349545 
0.03125 1:-0.996164 2:-0.913821 3:-1 4:0.649745 5:0.565576 6:-0.999908 7:-0.380008 8:-0.994366 9:-0.997694 10:0.469135 11:-0.629601 12:-0.996021 13:-0.191998 14:-0.996824 15:-0.996316 16:-0.189895 17:-0.98951 18:-0.995522 19:-0.369606 20:-0.986868 21:-0.991114 22:0.412888 23:-0.995615 24:-1 25:-1 26:-1 27:-1 28:-1 29:0.064136 30:-0.801289 31:-0.433677 32:-1 33:-0.862246 34:-1 35:-1 36:-1 37:-1 38:-0.90513 39:-1 40:-1 41:-1 42:-1 43:-0.616622 44:-0.109469 45:0.201531 46:-0.101433 47:-0.180643 48:-1 49:-0.808533 50:-1 51:-1 52:-0.663268 53:-0.331937 54:-0.602578 55:-0.151928 56:-0.574567 57:-1 58:-0.0476267 59:0.0519407 60:-0.18368 61:-0.564629 62:-1 63:-0.37318 64:-0.269194 65:-0.854714 66:-1 67:-0.777503 68:-0.268111 69:-0.324471 70:0.255703 71:-1 72:-0.468258 73:-0.228116 74:-0.390762 75:-0.260511 76:-1 77:-0.448983 78:-0.710066 79:-0.879207 80:-1 81:-1 82:-0.87134 83:-0.867348 84:-0.352774 85:-1 86:-0.676387 87:-0.689078 88:-0.713215 89:-0.907756 90:-0.87357 91:-0.697103 92:-1 93:-1 94:-1 95:-1 96:-1 97:-1 98:-1 99:-1 100:-1 101:-0.714603 102:-0.562686 103:-1 104:-0.782827 105:-1 106:-1 107:-1 108:-1 109:-1 110:-1 111:-1 112:-0.600462 113:-1 114:-0.712927 115:-0.660044 116:-0.877143 117:-1 118:-0.901269 119:-1 120:-1 121:-1 122:-1 123:-1 124:-1 125:-0.801589 126:-1 127:-1 128:-1 129:-1 130:-0.837907 131:-1 132:-0.939488 133:-0.918368 134:-0.571433 135:-1 136:-1 137:-1 138:-1 139:-0.749071 140:-0.769366 141:-0.835602 142:-0.739798 143:-0.61633 144:-0.709187 145:-0.810862 146:-1 147:-0.774114 148:-0.774655 149:-0.587074 150:-0.79483 151:-0.565692 152:0.360689 153:-0.0316237 154:0.163978 155:-0.303824 156:-0.518214 157:-0.924559 158:-0.895177 159:-1 160:-1 161:-0.349559 162:-0.393132 163:-0.61823 164:-0.0962053 165:-0.844721 166:-1 167:-0.960581 168:-0.967577 169:-0.966813 170:-0.962019 171:-0.973756 172:-0.971689 173:-0.852116 174:-0.881249 175:-0.854146 176:-0.915124 177:-0.828931 178:-0.958274 179:-0.862494 180:-0.952928 181:-0.833298 182:-0.950561 183:-0.915068 184:-0.935403 185:-0.970309 186:-0.986483 187:-0.918396 188:-0.705402 189:-0.58241 190:-0.54098 191:0.397518 192:0.825308 193:-0.770411 194:0.0168886 195:-0.786947 196:-0.947959 197:-1 198:-1 199:-1 200:-1 201:-1 202:-1 203:-1 204:-1 205:-1 206:-1 207:-1 208:-1 209:-1 210:-1 211:-1 212:0.417519 213:0.155283 
0.03125 1:-0.976899 2:-0.945535 3:-0.999937 4:0.64989 5:0.563133 6:-0.999669 7:-0.382349 8:-0.977721 9:-0.998315 10:0.469162 11:-0.623206 12:-0.994044 13:-0.19546 14:-0.995425 15:-0.996346 16:-0.189283 17:-0.988974 18:-0.993412 19:-0.381235 20:-0.996718 21:-0.992072 22:0.414806 23:-0.996559 24:-0.843248 25:-1 26:-1 27:-0.601473 28:-0.527878 29:-0.30804 30:-0.446243 31:-0.91231 32:-1 33:-1 34:-1 35:-0.934875 36:-0.841044 37:-1 38:-0.647502 39:-0.883556 40:-0.547867 41:-0.629553 42:-0.663227 43:-0.287759 44:-0.448524 45:0.0230988 46:-0.52304 47:-0.746286 48:-0.552506 49:-0.762861 50:-0.720685 51:-0.88852 52:-0.781038 53:-0.645392 54:-0.446243 55:-0.803067 56:-0.802418 57:-0.52608 58:-0.557653 59:-0.592859 60:-0.684053 61:-0.747243 62:-0.799373 63:-0.708868 64:-0.773714 65:-0.820059 66:-0.936023 67:-0.931111 68:-1 69:-1 70:-0.854205 71:-0.599932 72:-0.814771 73:-0.498079 74:-0.60384 75:-0.656531 76:-0.714399 77:-0.744076 78:-0.831677 79:-0.887789 80:-0.972271 81:-1 82:-0.701223 83:-0.630332 84:-0.473923 85:-0.426553 86:-0.473923 87:-0.566769 88:-0.778007 89:-0.828621 90:-0.8532 91:-0.765535 92:-0.859125 93:-1 94:-0.548305 95:-0.674799 96:-0.742248 97:-0.399638 98:-0.666029 99:-0.720091 100:-0.550467 101:-0.779081 102:-0.661486 103:-0.765283 104:-0.899132 105:-0.839941 106:-0.913902 107:-0.925124 108:-1 109:-0.967936 110:-0.955074 111:-0.910256 112:-0.907222 113:-0.862757 114:-0.866676 115:-0.894744 116:-1 117:-0.682982 118:-0.862431 119:-0.95489 120:-0.849247 121:-1 122:-1 123:-1 124:-0.918445 125:-0.938569 126:-0.970375 127:-1 128:-0.89974 129:-0.872295 130:-0.949813 131:-0.749981 132:-0.690844 133:-0.203792 134:-0.488153 135:-0.622407 136:-0.939403 137:-0.863917 138:-0.91008 139:-0.70031 140:-0.660785 141:-0.923644 142:-0.476298 143:-0.220383 144:0.161612 145:-0.73646 146:-0.371934 147:-0.580338 148:-0.720895 149:-0.850829 150:-0.637884 151:-0.663798 152:-1 153:-0.688625 154:-0.423342 155:-0.317379 156:-0.776234 157:-0.789766 158:-0.853942 159:-1 160:-1 161:-1 162:-0.661762 163:-0.924007 164:-0.973761 165:-1 166:-1 167:-0.887156 168:-0.89684 169:-0.907291 170:-0.936039 171:-0.885025 172:-0.916826 173:-0.865427 174:-0.866336 175:-0.862205 176:-0.756322 177:-0.866821 178:-0.897653 179:-0.879593 180:-0.895132 181:-0.838415 182:-0.80348 183:-0.806566 184:-0.876116 185:-0.881738 186:-0.876373 187:-0.891033 188:-0.0519854 189:-0.17944 190:-0.2386 191:-0.120129 192:-0.335078 193:-0.84597 194:0.000164138 195:-0.901044 196:-0.903314 197:-1 198:-1 199:-1 200:-1 201:-1 202:-1 203:-1 204:-1 205:-1 206:-1 207:-1 208:-1 209:-1 210:-1 211:-1 212:0.123891 213:0.388079 
0.03125 1:-0.992839 2:-0.907961 3:-0.999973 4:0.649887 5:0.566159 6:-0.999884 7:-0.379887 8:-0.991811 9:-0.997664 10:0.469636 11:-0.632001 12:-0.994525 13:-0.192004 14:-0.995527 15:-0.996888 16:-0.189063 17:-0.991561 18:-0.990367 19:-0.379653 20:-0.998383 21:-0.997868 22:0.423246 23:-0.993076 24:-1 25:-1 26:-0.437682 27:-1 28:-0.394422 29:-0.467473 30:-0.834278 31:-1 32:-1 33:-1 34:-1 35:-1 36:-1 37:-1 38:-1 39:-1 40:-1 41:-1 42:-0.395213 43:-0.360497 44:-0.381033 45:-1 46:-0.678806 47:-0.886111 48:-0.464285 49:-1 50:-1 51:-1 52:-1 53:-1 54:-1 55:-1 56:-1 57:-0.14892 58:-0.546107 59:-1 60:-0.319147 61:-0.364544 62:-0.567657 63:-1 64:-0.796823 65:-0.838435 66:-1 67:-1 68:-1 69:-0.887324 70:-1 71:-0.401306 72:-0.334749 73:-1 74:-0.491856 75:-0.559441 76:-0.560407 77:-1 78:-0.63727 79:-0.748127 80:-0.800852 81:-0.812139 82:-0.570773 83:-0.446797 84:-1 85:-0.356374 86:-0.19027 87:-1 88:-0.521613 89:-0.538384 90:-0.736372 91:-1 92:-0.789182 93:-0.649071 94:-0.549364 95:-0.582873 96:-0.603272 97:-0.229931 98:-1 99:-0.396806 100:-0.308085 101:-1 102:-0.0273429 103:-0.157012 104:-0.637733 105:-1 106:-0.793857 107:-0.932771 108:-1 109:-1 110:-1 111:-1 112:-1 113:-1 114:-1 115:-1 116:-0.897539 117:-0.430745 118:-0.505922 119:-1 120:-1 121:-1 122:-1 123:-0.680844 124:-1 125:-1 126:-1 127:-0.859791 128:-0.864974 129:-1 130:-1 131:-1 132:-1 133:-0.387232 134:-0.795748 135:-0.943499 136:-1 137:-0.755618 138:-1 139:-1 140:-1 141:-1 142:-0.710643 143:-0.159997 144:-0.660429 145:-0.421576 146:-0.624046 147:-0.717399 148:-0.81205 149:-1 150:-0.657758 151:-0.517014 152:-0.810854 153:0.0561663 154:-0.352801 155:1 156:-0.561635 157:-0.685395 158:0.573702 159:-1 160:-1 161:-1 162:-0.848152 163:-0.590608 164:-0.481757 165:-1 166:-1 167:-0.966259 168:-0.974442 169:-0.890259 170:-0.895696 171:-0.885506 172:-0.929438 173:-0.886314 174:-0.890914 175:-0.882965 176:-0.849211 177:-0.875812 178:-0.829494 179:-0.874544 180:-0.85345 181:-0.83429 182:-0.838266 183:-0.906834 184:-0.945569 185:-0.913295 186:-0.941843 187:-0.880893 188:-0.736743 189:-0.490969 190:-0.617163 191:0.450511 192:1 193:-0.787236 194:-0.301539 195:-0.695377 196:-1 197:-1 198:-1 199:-1 200:-1 201:-1 202:-1 203:-1 204:-1 205:-1 206:-1 207:-1 208:-1 209:-1 210:-1 211:-1 212:0.36809 213:0.157071 
0.03125 1:-0.994885 2:-0.89107 3:-0.999993 4:0.649816 5:0.565157 6:-0.999864 7:-0.380053 8:-0.992243 9:-0.997955 10:0.469618 11:-0.634548 12:-0.993767 13:-0.191839 14:-0.994995 15:-0.996346 16:-0.192895 17:-0.985631 18:-0.991932 19:-0.374345 20:-0.996031 21:-0.993378 22:0.41649 23:-0.997766 24:-1 25:-1 26:-1 27:-0.840596 28:-1 29:-1 30:-0.446243 31:-0.824657 32:-1 33:-0.744067 34:-0.711578 35:-1 36:-1 37:-1 38:-0.735622 39:-0.650642 40:-1 41:-0.259075 42:-0.191723 43:-1 44:-0.172771 45:0.302129 46:-1 47:-0.112042 48:-0.105012 49:-1 50:-1 51:-0.665538 52:-0.687199 53:-0.645392 54:-1 55:-0.212226 56:-0.0120075 57:-1 58:-0.36808 59:-0.185684 60:-1 61:-0.494464 62:-0.59873 63:-1 64:-0.547428 65:-0.730083 66:-0.808057 67:-0.931111 68:-0.773371 69:-1 70:-0.562584 71:-1 72:-0.382561 73:-0.282974 74:-1 75:-0.509333 76:-0.592001 77:-1 78:-0.66334 79:-0.77559 80:-0.833647 81:-0.790771 82:-0.402421 83:-1 84:-0.248466 85:-1 86:-0.398792 87:-0.422368 88:-1 89:-0.57156 90:-0.706388 91:-1 92:-0.90608 93:-0.934864 94:-1 95:-0.907094 96:-0.852711 97:-1 98:-0.904588 99:-1 100:-0.871574 101:-0.73489 102:-1 103:-0.374098 104:-0.731024 105:-1 106:-1 107:-1 108:-1 109:-1 110:-1 111:-1 112:-1 113:-1 114:-0.733324 115:-0.473675 116:-1 117:-0.682982 118:-0.816569 119:-1 120:-1 121:-1 122:-1 123:-0.360188 124:-0.918445 125:-1 126:-1 127:-1 128:-1 129:-0.963516 130:-1 131:-1 132:-1 133:-0.317536 134:-0.886252 135:-0.874131 136:-0.939403 137:-1 138:-1 139:-0.966703 140:-0.785761 141:-0.847288 142:-0.758294 143:-0.866351 144:-0.729855 145:-0.590053 146:-0.476615 147:-0.370512 148:-0.651124 149:-0.616426 150:-0.542594 151:-0.529329 152:0.334168 153:0.591477 154:0.585792 155:0.580791 156:-1 157:-0.894883 158:-0.415769 159:-1 160:-0.930862 161:-0.890141 162:-1 163:-1 164:-1 165:-1 166:-1 167:-0.925132 168:-0.960914 169:-0.917379 170:-0.970868 171:-0.904535 172:-0.902969 173:-0.906524 174:-0.904554 175:-0.85163 176:-0.90066 177:-0.843372 178:-0.936793 179:-0.825473 180:-0.940633 181:-0.800667 182:-0.948965 183:-0.925708 184:-0.955069 185:-0.925146 186:-0.939917 187:-0.89577 188:-0.843625 189:-0.671775 190:-0.45179 191:0.269321 192:0.695546 193:-0.620856 194:0.333552 195:-0.886912 196:-1 197:-1 198:-1 199:-1 200:-1 201:-1 202:-1 203:-1 204:-1 205:-1 206:-1 207:-1 208:-1 209:-1 210:-1 211:-1 212:0.455098 213:0.0893218 
0.03125 1:-0.985935 2:-0.930023 3:-0.999972 4:0.649591 5:0.565171 6:-0.999777 7:-0.380225 8:-0.985422 9:-0.999349 10:0.467977 11:-0.635874 12:-0.993788 13:-0.19449 14:-0.995641 15:-0.998014 16:-0.183518 17:-0.9796 18:-0.989217 19:-0.372223 20:-0.998777 21:-0.986952 22:0.410201 23:-0.986619 24:-1 25:-1 26:-1 27:-1 28:-1 29:-0.339952 30:-0.383732 31:-1 32:-0.6287 33:-0.48735 34:-0.807415 35:-0.86953 36:-1 37:-1 38:-1 39:-1 40:-1 41:-0.802114 42:-1 43:-0.881087 44:-1 45:-0.875773 46:-0.920368 47:-0.915286 48:-0.601605 49:-0.841657 50:-0.860114 51:-1 52:-1 53:-0.88161 54:-0.876731 55:-0.868476 56:-1 57:-0.36708 58:-1 59:-0.456264 60:-0.578053 61:-0.594944 62:-0.732063 63:-0.611217 64:-0.647441 65:-0.969958 66:-0.487337 67:-0.677986 68:-0.697365 69:-0.580992 70:-0.805288 71:-0.732857 72:-1 73:-0.329723 74:-0.470959 75:-0.606858 76:-0.564126 77:-0.601264 78:-0.730254 79:-0.550459 80:-1 81:-0.895214 82:-0.201967 83:-0.424047 84:0.304695 85:0.148739 86:-1 87:0.157122 88:-0.288471 89:-0.370638 90:-0.568695 91:-0.373743 92:-0.686444 93:-0.956498 94:-1 95:-1 96:-1 97:-1 98:-1 99:-0.925227 100:-1 101:-0.940985 102:-0.909571 103:-0.686537 104:-0.775492 105:-0.657996 106:-0.808366 107:-1 108:-1 109:-1 110:-1 111:-1 112:-1 113:-1 114:-1 115:-1 116:-1 117:-1 118:-0.877525 119:-0.879536 120:-0.932883 121:-1 122:-0.34098 123:-0.667719 124:-0.945532 125:-1 126:-0.564875 127:-0.409146 128:-0.83264 129:-0.585838 130:-0.798924 131:-0.860879 132:-0.84987 133:-0.645568 134:-0.278477 135:-0.579782 136:-0.109776 137:-0.12767 138:-0.615721 139:-0.599781 140:-0.952317 141:-0.966006 142:-0.946195 143:-0.76203 144:-0.855699 145:-0.530738 146:-0.895153 147:-0.754811 148:-0.743752 149:-0.914623 150:-0.923642 151:-0.910207 152:-0.578015 153:-0.722789 154:-0.566826 155:-0.616177 156:-0.918498 157:-0.929808 158:-0.934974 159:-1 160:-0.81533 161:-0.779945 162:-1 163:-0.898513 164:-1 165:-1 166:-0.87468 167:-0.948571 168:-0.922387 169:-0.93695 170:-0.942982 171:-0.919113 172:-0.926503 173:-0.960466 174:-0.904738 175:-0.822911 176:-0.876431 177:-0.834862 178:-0.917372 179:-0.811465 180:-0.912044 181:-0.741135 182:-0.916363 183:-0.75992 184:-0.947505 185:-0.885047 186:-0.897048 187:-0.93673 188:-0.464878 189:-0.342517 190:-0.511934 191:-0.190975 192:0.354144 193:-0.746836 194:0.409865 195:-0.79234 196:-0.935444 197:-1 198:-1 199:-1 200:-1 201:-1 202:-1 203:-1 204:-1 205:-1 206:-1 207:-1 208:-1 209:-1 210:-1 211:-1 212:0.389656 213:0.319777 
0.03125 1:-0.984997 2:-0.926231 3:-0.999947 4:0.649726 5:0.565733 6:-0.999695 7:-0.379342 8:-0.984542 9:-0.999417 10:0.46792 11:-0.636606 12:-0.993192 13:-0.194855 14:-0.995153 15:-0.997156 16:-0.187283 17:-0.97787 18:-0.98484 19:-0.356698 20:-0.986079 21:-0.994725 22:0.414926 23:-0.998556 24:-1 25:-1 26:-1 27:-1 28:-1 29:-1 30:-1 31:-1 32:-0.461764 33:-0.587143 34:-1 35:-0.957976 36:-1 37:-1 38:-1 39:-1 40:-1 41:-1 42:-0.913078 43:-0.885107 44:-0.91104 45:-0.879973 46:-1 47:-0.75445 48:-0.229994 49:-0.770467 50:-0.864829 51:-1 52:-1 53:-1 54:-0.642694 55:-0.110414 56:0.275005 57:-0.0214 58:-0.3476 59:-0.579664 60:-0.673813 61:-0.347605 62:-0.482161 63:-0.373815 64:-0.610628 65:-0.970973 66:-0.545873 67:-0.688816 68:-0.122627 69:-0.433122 70:-0.435494 71:-0.56974 72:-0.36255 73:-0.259736 74:-1 75:-0.620068 76:-0.578778 77:-0.614674 78:-0.695874 79:-0.746588 80:-0.749535 81:-0.966249 82:-0.84577 83:-0.920492 84:-1 85:-0.629984 86:-0.418074 87:-0.440895 88:-1 89:-0.612963 90:-0.772651 91:-0.636884 92:-0.818194 93:-0.915938 94:-1 95:-1 96:-1 97:-1 98:-1 99:-0.783264 100:-0.751385 101:-0.828941 102:-1 103:-0.697103 104:-0.78304 105:-0.752116 106:-0.814809 107:-1 108:-1 109:-1 110:-1 111:-1 112:-1 113:-0.763854 114:-0.655873 115:-1 116:-0.631791 117:-0.386331 118:-0.704099 119:-0.825385 120:-1 121:-1 122:-0.755048 123:-1 124:-1 125:-1 126:-1 127:-0.865655 128:-1 129:-1 130:-1 131:-1 132:-0.891192 133:-1 134:-1 135:-1 136:-0.843591 137:-1 138:-1 139:-1 140:-1 141:-1 142:-0.896028 143:-0.712539 144:-0.860556 145:-0.206426 146:-0.898687 147:-1 148:-0.977489 149:-0.917501 150:-0.926216 151:-0.479361 152:-0.501593 153:-0.196327 154:1 155:0.622772 156:-0.0811546 157:-0.502597 158:0.130947 159:-0.494013 160:-0.196925 161:-0.858234 162:-0.708996 163:-0.836545 164:-0.864574 165:-0.410537 166:-0.97578 167:-0.956662 168:-0.773478 169:-0.971562 170:-0.845353 171:-0.961942 172:-0.937808 173:-0.946421 174:-0.883206 175:-0.836754 176:-0.806536 177:-0.780069 178:-0.814254 179:-0.779554 180:-0.880792 181:-0.776995 182:-0.914004 183:-0.766385 184:-0.945308 185:-0.878638 186:-0.941688 187:-0.926631 188:-0.369366 189:-0.422393 190:-0.430089 191:-0.348488 192:0.222783 193:-0.740061 194:0.434145 195:-0.72635 196:-0.937617 197:-1 198:-1 199:-1 200:-1 201:-1 202:-1 203:-1 204:-1 205:-1 206:-1 207:-1 208:-1 209:-1 210:-1 211:-1 212:0.377447 213:0.372433 
0.03125 1:-0.996079 2:-0.887967 3:-0.999994 4:0.649812 5:0.566794 6:-0.999865 7:-0.381061 8:-0.992354 9:-0.99808 10:0.469525 11:-0.634176 12:-0.993744 13:-0.192164 14:-0.995019 15:-0.996514 16:-0.184939 17:-0.984514 18:-0.989038 19:-0.370713 20:-0.997852 21:-0.99066 22:0.408513 23:-0.990089 24:-1 25:-1 26:-1 27:-1 28:-1 29:-0.364772 30:-0.209168 31:-1 32:-0.255493 33:-0.588844 34:-1 35:-0.930244 36:-1 37:-1 38:-1 39:-1 40:-1 41:-1 42:-0.855718 43:-0.618575 44:-0.557004 45:-1 46:-0.616862 47:-0.320655 48:-0.840239 49:-0.809508 50:-1 51:-1 52:-0.932997 53:-1 54:-1 55:-1 56:-0.576735 57:0.01524 58:-0.458533 59:-1 60:-0.323173 61:-0.566827 62:-0.570214 63:-1 64:-0.838426 65:-0.951818 66:-0.58883 67:-0.631047 68:-0.514536 69:-1 70:-0.531511 71:-0.571513 72:-0.338683 73:-1 74:-0.393843 75:-0.474464 76:-0.563007 77:-1 78:-0.567301 79:-0.759633 80:-1 81:-0.831928 82:-0.231951 83:-1 84:-0.034077 85:-0.0786799 86:-0.034077 87:-1 88:-0.429334 89:-0.44934 90:-0.685523 91:-1 92:-0.748519 93:-0.790696 94:-1 95:-1 96:-0.921127 97:-0.816287 98:-1 99:-0.640238 100:-0.449736 101:-1 102:-0.419857 103:0.00559637 104:-0.567854 105:-1 106:-1 107:-1 108:-1 109:-1 110:-1 111:-1 112:-1 113:-1 114:-1 115:-1 116:-1 117:-0.320914 118:-0.803545 119:-1 120:-1 121:-1 122:-1 123:-1 124:-0.737936 125:-0.9342 126:-1 127:-1 128:-1 129:-1 130:-1 131:-1 132:-1 133:-1 134:-0.573605 135:-1 136:-1 137:-1 138:-1 139:-0.964336 140:-1 141:-0.89096 142:-0.827416 143:-0.809133 144:-0.652791 145:-0.560914 146:-0.551534 147:-0.887633 148:-0.887902 149:-0.954353 150:-0.836693 151:-0.567891 152:-0.323115 153:0.482239 154:0.544088 155:0.693136 156:-0.564237 157:-0.812352 158:0.460085 159:-0.618227 160:-0.851891 161:-0.94117 162:-1 163:-0.945739 164:0.3488 165:-0.845512 166:-0.839182 167:-0.966232 168:-0.971309 169:-0.963104 170:-0.962608 171:-0.926268 172:-0.902317 173:-0.872954 174:-0.842603 175:-0.855007 176:-0.923344 177:-0.842828 178:-0.950281 179:-0.804064 180:-0.942565 181:-0.81807 182:-0.952612 183:-0.922652 184:-0.952947 185:-0.954946 186:-0.97055 187:-0.878214 188:-0.769705 189:-0.584532 190:-0.575932 191:0.297729 192:0.816041 193:-0.593911 194:-0.0180259 195:-0.818308 196:-1 197:-1 198:-1 199:-1 200:-1 201:-1 202:-1 203:-1 204:-1 205:-1 206:-1 207:-1 208:-1 209:-1 210:-1 211:-1 212:0.396859 213:0.163879 
0.03125 1:-0.998636 2:-0.888657 3:-0.999988 4:0.649779 5:0.566828 6:-0.999892 7:-0.381225 8:-0.996178 9:-0.99832 10:0.469165 11:-0.632119 12:-0.994491 13:-0.192765 14:-0.995731 15:-0.997541 16:-0.184265 17:-0.985505 18:-0.990704 19:-0.372188 20:-0.997995 21:-0.992507 22:0.411416 23:-0.990911 24:-1 25:-1 26:-1 27:-1 28:-1 29:-1 30:-0.0671262 31:-0.556888 32:-1 33:-0.191619 34:-0.781356 35:-1 36:-0.899586 37:-1 38:-1 39:-1 40:-1 41:-1 42:-0.659589 43:-1 44:-0.651607 45:-0.529938 46:-1 47:-0.519178 48:-0.434605 49:-1 50:-0.735316 51:-1 52:-1 53:-1 54:-1 55:-1 56:-1 57:-1 58:-0.36128 59:-0.176921 60:-1 61:-0.616768 62:-0.594412 63:-1 64:-0.714095 65:-1 66:-0.919162 67:-0.65182 68:-0.713671 69:-1 70:-0.631559 71:-1 72:-0.843979 73:-0.275258 74:-0.713985 75:-0.752027 76:-0.58761 77:-0.892216 78:-0.659717 79:-0.71646 80:-1 81:-0.669551 82:-0.0939856 83:-1 84:-0.240379 85:-0.275455 86:-1 87:-0.270168 88:-0.439021 89:-1 90:-0.629035 91:-0.526003 92:-1 93:-0.506182 94:-1 95:-1 96:-0.906956 97:-1 98:-0.758884 99:-0.434133 100:-0.837726 101:-0.21843 102:0.0265143 103:-1 104:-0.490228 105:-0.595528 106:-1 107:-0.716168 108:-1 109:-1 110:-1 111:-1 112:-0.88277 113:-1 114:-1 115:-1 116:-0.855808 117:-1 118:-0.652372 119:-0.430132 120:-1 121:-1 122:-1 123:-1 124:-1 125:-0.689512 126:-1 127:-1 128:-1 129:-1 130:-1 131:-1 132:-1 133:-0.904192 134:-0.568865 135:-0.920487 136:-1 137:-1 138:-1 139:-0.957928 140:-1 141:-0.871369 142:-0.287428 143:-0.437128 144:0.365261 145:0.257905 146:-0.338715 147:-0.668609 148:-0.735522 149:-0.838455 150:-0.662881 151:-0.915045 152:-0.822559 153:-0.82515 154:-0.0892706 155:0.634143 156:0.0795064 157:-0.734375 158:-0.138816 159:-1 160:-1 161:-1 162:-1 163:-1 164:-1 165:-1 166:-1 167:-1 168:-1 169:-0.966052 170:-0.966697 171:-0.969521 172:-0.969398 173:-0.90197 174:-0.777362 175:-0.873438 176:-0.861803 177:-0.854111 178:-0.920546 179:-0.838766 180:-0.951351 181:-0.80387 182:-0.929616 183:-0.813511 184:-0.962089 185:-0.936481 186:-0.918406 187:-0.892253 188:-0.827124 189:-0.5099 190:-0.730638 191:0.166366 192:0.974255 193:-0.520961 194:0.0530694 195:-0.785671 196:-1 197:-1 198:-1 199:-1 200:-1 201:-1 202:-1 203:-1 204:-1 205:-1 206:-1 207:-1 208:-1 209:-1 210:-1 211:-1 212:0.449766 213:0.118632 
0.03125 1:-0.986872 2:-0.922094 3:-0.999935 4:0.649712 5:0.567074 6:-0.999746 7:-0.379222 8:-0.984713 9:-0.999542 10:0.467766 11:-0.635199 12:-0.992847 13:-0.195499 14:-0.994885 15:-0.996953 16:-0.19112 17:-0.981502 18:-0.991354 19:-0.365919 20:-0.984522 21:-0.990829 22:0.415365 23:-0.99885 24:-1 25:-1 26:-1 27:-1 28:-1 29:-1 30:-1 31:-1 32:-1 33:-0.557389 34:-0.880284 35:-0.954939 36:-1 37:-1 38:-1 39:-1 40:-1 41:-0.897477 42:-0.813621 43:-0.753644 44:-0.904611 45:-1 46:-1 47:-0.648965 48:-0.174443 49:-0.671881 50:-1 51:-1 52:-0.697046 53:-0.57068 54:0.532356 55:0.22623 56:0.366979 57:0.44264 58:0.0491733 59:-0.436676 60:-0.387973 61:-0.230592 62:-0.50033 63:-0.395786 64:-0.843456 65:-0.844396 66:-0.867214 67:-0.714037 68:-0.764835 69:-0.913169 70:-1 71:-0.630969 72:-0.487435 73:-0.404763 74:-1 75:-0.52478 76:-0.661301 77:-0.645904 78:-0.673938 79:-0.72831 80:-0.923282 81:-0.96381 82:-0.751961 83:-1 84:-0.480107 85:-0.404925 86:-0.480107 87:-1 88:-0.63141 89:-0.762882 90:-0.756259 91:-0.545813 92:-0.967511 93:-1 94:-1 95:-1 96:-1 97:-0.881325 98:-0.867986 99:-0.845091 100:-0.822306 101:-1 102:-0.906314 103:-0.458754 104:-0.767404 105:-0.77854 106:-1 107:-1 108:-1 109:-1 110:-1 111:-1 112:-0.807436 113:-0.746807 114:-0.53881 115:-0.927171 116:-0.605254 117:-0.671042 118:-0.936547 119:-1 120:-1 121:-1 122:0.102964 123:-1 124:-1 125:-1 126:-1 127:-1 128:-1 129:-1 130:-1 131:-0.942349 132:-0.49447 133:-0.632784 134:-1 135:-0.782322 136:-0.0776677 137:-0.0585485 138:-0.32814 139:-0.470164 140:-1 141:-0.964781 142:-0.0524535 143:-0.291146 144:0.00918268 145:0.539574 146:-0.529293 147:-0.673391 148:-1 149:-1 150:-0.973628 151:-0.534834 152:-0.708533 153:-1 154:-0.551206 155:-1 156:-1 157:-1 158:-0.797915 159:-0.85205 160:-1 161:-1 162:-1 163:-1 164:-1 165:-1 166:-1 167:-0.929765 168:-0.744763 169:-0.945706 170:-0.845016 171:-0.911062 172:-0.902163 173:-0.856894 174:-0.908007 175:-0.838223 176:-0.875449 177:-0.852655 178:-0.93314 179:-0.796442 180:-0.880472 181:-0.762892 182:-0.900582 183:-0.775218 184:-0.933604 185:-0.944144 186:-0.952642 187:-0.842676 188:-0.391489 189:-0.401371 190:-0.557541 191:-0.341409 192:0.126987 193:-0.540986 194:0.230075 195:-0.784848 196:-0.966554 197:-1 198:-1 199:-1 200:-1 201:-1 202:-1 203:-1 204:-1 205:-1 206:-1 207:-1 208:-1 209:-1 210:-1 211:-1 212:0.313181 213:0.403877 
0.03125 1:-0.997613 2:-0.886588 3:-0.999974 4:0.649769 5:0.566316 6:-0.99985 7:-0.381162 8:-0.996087 9:-0.998143 10:0.469518 11:-0.632847 12:-0.993731 13:-0.192587 14:-0.994996 15:-0.997505 16:-0.189989 17:-0.983907 18:-0.989899 19:-0.373577 20:-0.997637 21:-0.997978 22:0.419232 23:-0.991067 24:-1 25:-1 26:-1 27:-1 28:-1 29:0.16521 30:-0.347238 31:-1 32:-0.508375 33:-1 34:-0.79601 35:-1 36:-1 37:-1 38:-1 39:-0.862719 40:-1 41:0.0480568 42:-1 43:-0.16043 44:-0.674967 45:-1 46:-0.578317 47:-1 48:-0.296687 49:-1 50:-0.753055 51:-1 52:-1 53:-1 54:-1 55:-0.767827 56:-1 57:-0.3296 58:-0.553067 59:-1 60:-0.553067 61:-1 62:-0.621607 63:-0.542437 64:-1 65:-0.946968 66:-0.924575 67:-1 68:-1 69:-0.704128 70:-1 71:-0.685613 72:-0.27219 73:-1 74:-0.332895 75:-1 76:-0.711437 77:-0.597772 78:-1 79:-0.669334 80:-0.607811 81:-0.691702 82:-1 83:-0.56424 84:-1 85:-0.155031 86:0.0630639 87:-1 88:-0.371944 89:-1 90:-0.584678 91:-0.447222 92:-1 93:-0.692862 94:-0.88167 95:-0.561916 96:-1 97:0.0109663 98:-1 99:-0.472075 100:-0.394426 101:-1 102:-0.0422857 103:-1 104:-0.524394 105:-0.698119 106:-1 107:-0.911725 108:-1 109:-1 110:-1 111:-1 112:-1 113:-1 114:-0.528485 115:-1 116:-0.327369 117:-0.813147 118:-0.675671 119:-0.680996 120:-1 121:-1 122:-1 123:-0.916195 124:-0.230863 125:-0.637906 126:-0.7905 127:-1 128:-1 129:-1 130:-1 131:-1 132:-1 133:-0.195536 134:0.0726179 135:-0.554898 136:-0.142779 137:-0.550839 138:-0.8728 139:-0.803741 140:-1 141:-0.759988 142:-1 143:-0.894974 144:0.0826783 145:0.311647 146:0.419001 147:0.236705 148:-0.753248 149:-0.949758 150:-0.775343 151:-1 152:-1 153:-1 154:-1 155:-1 156:-1 157:-1 158:-0.196548 159:-1 160:-1 161:-1 162:-1 163:-1 164:-1 165:-1 166:-1 167:-0.970406 168:-0.953713 169:-0.899026 170:-0.864912 171:-0.905015 172:-0.916913 173:-0.876249 174:-0.844916 175:-0.83742 176:-0.854273 177:-0.910072 178:-0.925276 179:-0.864736 180:-0.936291 181:-0.792579 182:-0.915095 183:-0.827324 184:-0.944843 185:-0.935545 186:-0.907882 187:-0.944153 188:-0.723508 189:-0.507583 190:-0.640992 191:0.0201631 192:0.56758 193:-0.329612 194:0.211715 195:-0.866695 196:-0.943012 197:-1 198:-0.604475 199:-1 200:-1 201:-1 202:-1 203:-1 204:-1 205:-1 206:-1 207:-1 208:-1 209:-1 210:-1 211:-1 212:0.487225 213:0.200184 
0.03125 1:-0.999489 2:-0.883486 3:-0.999983 4:0.649768 5:0.566381 6:-0.999938 7:-0.381434 8:-0.99483 9:-0.999367 10:0.468106 11:-0.635904 12:-0.993769 13:-0.194211 14:-0.99556 15:-0.995753 16:-0.192545 17:-0.994647 18:-0.996248 19:-0.389869 20:-0.987066 21:-0.988488 22:0.42316 23:-0.998402 24:0.264103 25:-0.723956 26:-0.831677 27:-1 28:-0.818728 29:-0.20292 30:-1 31:-0.764347 32:-1 33:-1 34:-0.534852 35:-0.912475 36:-1 37:-1 38:-1 39:-0.530487 40:0.0127359 41:-1 42:-0.275802 43:0.196536 44:-1 45:1 46:0.442302 47:-0.829528 48:-0.198112 49:-1 50:-0.71846 51:-0.700329 52:-1 53:-1 54:-0.751943 55:-1 56:0.0622472 57:0.78344 58:-1 59:0.0943798 60:-0.83016 61:-0.592363 62:-0.245009 63:-1 64:-0.594506 65:-0.576786 66:-1 67:-1 68:-0.847726 69:-1 70:-1 71:-0.462337 72:-1 73:-0.0363702 74:-1 75:-0.472456 76:-0.671011 77:-1 78:-0.728535 79:-0.924605 80:-1 81:-1 82:-1 83:-1 84:0.212026 85:-1 86:-0.798012 87:-0.22367 88:-1 89:-0.30904 90:-0.684321 91:-1 92:-1 93:-1 94:-1 95:-1 96:-1 97:0.152624 98:-0.871771 99:-1 100:-0.827401 101:-1 102:-1 103:-1 104:-0.909632 105:-1 106:-1 107:-1 108:-1 109:-0.827653 110:-1 111:-0.879388 112:-0.875311 113:-1 114:-1 115:-1 116:-1 117:-1 118:-1 119:-1 120:-1 121:-1 122:-0.489832 123:-1 124:-1 125:-1 126:-1 127:-0.930049 128:-1 129:-1 130:-1 131:-0.831996 132:-1 133:-1 134:-0.847132 135:-0.661685 136:-0.755668 137:-0.34158 138:-1 139:-1 140:-0.856039 141:-1 142:-1 143:-0.461145 144:-0.346497 145:0.0232067 146:-0.437278 147:-0.788503 148:-0.765564 149:-1 150:-0.641407 151:0.0843944 152:-0.339398 153:-0.256055 154:-0.612499 155:-0.227457 156:-0.562571 157:-0.764547 158:-0.738271 159:-0.329352 160:-0.535379 161:-0.852358 162:-0.848473 163:-0.795742 164:-1 165:-1 166:-1 167:-0.985235 168:-0.954897 169:-0.885132 170:-0.897296 171:-0.892066 172:-0.939057 173:-0.875687 174:-0.936871 175:-0.907319 176:-0.844183 177:-0.912906 178:-0.858831 179:-0.902476 180:-0.844859 181:-0.857005 182:-0.874931 183:-0.911244 184:-0.968524 185:-0.956924 186:-0.932688 187:-0.83445 188:-0.632224 189:-0.358376 190:-0.222303 191:-0.0695101 192:-0.463829 193:-0.936305 194:-0.738633 195:-0.810016 196:0.754149 197:0.314643 198:-0.549038 199:-0.738009 200:-1 201:-1 202:-1 203:-1 204:-1 205:-1 206:-1 207:-1 208:-1 209:-1 210:-1 211:-1 212:0.56217 213:1 
0.03125 1:-0.998551 2:-0.879349 3:-0.999992 4:0.649774 5:0.565628 6:-0.999874 7:-0.381303 8:-0.995684 9:-0.998227 10:0.46941 11:-0.633845 12:-0.99381 13:-0.192332 14:-0.995112 15:-0.996383 16:-0.189078 17:-0.98474 18:-0.993871 19:-0.374216 20:-0.991371 21:-0.993725 22:0.417413 23:-0.997962 24:-1 25:-1 26:-1 27:-1 28:-1 29:-0.255105 30:-1 31:0.101195 32:-0.650788 33:-1 34:-0.63776 35:-1 36:-1 37:-1 38:-0.778631 39:-0.561226 40:0.514286 41:-1 42:-0.154032 43:-0.105425 44:-1 45:0.168168 46:-0.850247 47:-0.522042 48:-0.063278 49:-1 50:-0.912302 51:-1 52:-0.921434 53:-0.554612 54:-0.768184 55:-1 56:-0.00729623 57:-0.28572 58:-0.523813 59:0.0227316 60:-1 61:-0.365077 62:-0.496029 63:-1 64:-0.431595 65:-0.773994 66:-0.919648 67:-0.913478 68:-0.857696 69:-1 70:-0.816887 71:-1 72:-0.379617 73:-0.279555 74:-1 75:-0.506993 76:-0.590055 77:-1 78:-0.746308 79:-1 80:-1 81:-0.868604 82:-0.249477 83:-1 84:0.132645 85:-1 86:-0.244882 87:-0.274495 88:-1 89:-0.677147 90:-0.704988 91:-1 92:-1 93:-1 94:-1 95:-0.883314 96:-0.815015 97:-1 98:-0.64048 99:-1 100:-0.677376 101:-0.778018 102:-1 103:-0.410417 104:-0.746632 105:-1 106:-1 107:-1 108:-1 109:-1 110:-1 111:-1 112:-1 113:-1 114:-0.497623 115:-0.603385 116:-1 117:-0.601846 118:-1 119:-1 120:-1 121:-1 122:-1 123:-0.732144 124:-0.692693 125:-1 126:-1 127:-1 128:-1 129:-0.908348 130:-1 131:-0.842995 132:-0.0822229 133:0.523808 134:-0.571433 135:-0.446716 136:-1 137:-0.726525 138:-0.683768 139:-0.832709 140:-0.910307 141:-0.936071 142:-1 143:0.119051 144:0.424997 145:0.61819 146:0.446168 147:-0.93412 148:-1 149:-0.625302 150:-1 151:-1 152:-1 153:-1 154:-0.909475 155:-1 156:-1 157:-1 158:-0.633119 159:-1 160:-1 161:-1 162:-1 163:-1 164:-1 165:-1 166:-1 167:-0.905465 168:-0.873951 169:-0.965739 170:-0.878898 171:-0.905931 172:-0.948615 173:-0.89565 174:-0.921873 175:-0.835717 176:-0.89809 177:-0.821273 178:-0.942755 179:-0.820758 180:-0.958937 181:-0.818637 182:-0.936847 183:-0.924956 184:-0.94906 185:-0.986355 186:-0.975522 187:-0.952396 188:-0.828151 189:-0.812621 190:-0.770493 191:-0.42029 192:-0.373667 193:-0.136907 194:0.465519 195:0.029762 196:-0.514285 197:-0.508576 198:-0.789299 199:-1 200:-1 201:-1 202:-1 203:-1 204:-1 205:-1 206:-1 207:-1 208:-1 209:-1 210:-1 211:-1 212:0.846892 213:0.319384 
0.03125 1:-0.998721 2:-0.876247 3:-0.999989 4:0.649806 5:0.5661 6:-0.999918 7:-0.38135 8:-0.993701 9:-0.999339 10:0.468236 11:-0.636699 12:-0.993083 13:-0.194199 14:-0.994958 15:-0.995541 16:-0.188738 17:-0.987196 18:-0.991635 19:-0.375217 20:-0.99821 21:-0.993385 22:0.415048 23:-0.997821 24:-1 25:-1 26:-1 27:-1 28:-0.828547 29:-0.497424 30:-1 31:-0.777112 32:-0.293186 33:-0.837352 34:-0.633403 35:-1 36:-1 37:-1 38:-1 39:-1 40:-0.42531 41:-1 42:-0.315085 43:-0.32101 44:-1 45:-0.290668 46:-0.393743 47:-1 48:-0.241608 49:-1 50:-1 51:-1 52:-0.840966 53:-0.436578 54:-0.0615178 55:-1 56:0.00462789 57:-0.03616 58:-1 59:-0.171973 60:-0.35744 61:-1 62:-0.591974 63:-0.876651 64:-0.808251 65:-0.828459 66:-0.674704 67:-0.912432 68:-0.855975 69:-1 70:-0.258687 71:-0.15248 72:-1 73:-0.270901 74:-0.424532 75:-1 76:-0.585131 77:-1 78:-0.657671 79:-0.714756 80:-1 81:-0.734051 82:-0.392359 83:-1 84:-0.235812 85:-0.271099 86:-1 87:-0.26578 88:-0.88713 89:-0.67326 90:-0.701444 91:-1 92:-0.880625 93:-0.834404 94:-1 95:-0.881902 96:-0.812793 97:-1 98:-0.636151 99:-0.857683 100:-0.83675 101:-0.438379 102:-1 103:-0.204424 104:-0.658109 105:-1 106:-1 107:-1 108:-1 109:-1 110:-1 111:-1 112:-1 113:-1 114:-1 115:-0.866203 116:-1 117:-0.597064 118:-0.650283 119:-1 120:-1 121:-1 122:-0.0349783 123:-1 124:-1 125:-1 126:-1 127:-1 128:-1 129:-1 130:-1 131:-0.89407 132:-1 133:-1 134:-0.783136 135:-1 136:-1 137:-1 138:-0.954281 139:-1 140:-1 141:-0.935298 142:-1 143:-0.263858 144:0.510839 145:0.637689 146:0.796236 147:-0.933323 148:-0.911311 149:-1 150:-0.709296 151:0.281998 152:-0.642985 153:-1 154:-0.633518 155:-0.908668 156:-0.689709 157:-0.688234 158:-0.38117 159:-0.365708 160:-0.560574 161:-1 162:-1 163:-0.935606 164:-1 165:-0.938887 166:-1 167:-0.972438 168:-0.983984 169:-0.93963 170:-0.875677 171:-0.92482 172:-0.929652 173:-0.90017 174:-0.92113 175:-0.89476 176:-0.873432 177:-0.874443 178:-0.964494 179:-0.82258 180:-0.929854 181:-0.807705 182:-0.958828 183:-0.927182 184:-0.923789 185:-0.945387 186:-0.960033 187:-0.843427 188:-0.701855 189:-0.544874 190:-0.264465 191:-0.083291 192:-0.788711 193:-0.638556 194:-0.611549 195:-0.604695 196:0.413254 197:0.57494 198:-0.360249 199:-0.752201 200:-1 201:-1 202:-1 203:-1 204:-1 205:-1 206:-1 207:-1 208:-1 209:-1 210:-1 211:-1 212:0.658726 213:0.970166 
0.03125 1:-0.998636 2:-0.869352 3:-0.999996 4:0.649846 5:0.565588 6:-0.999911 7:-0.380909 8:-0.993892 9:-0.999276 10:0.468314 11:-0.640961 12:-0.992755 13:-0.193496 14:-0.994679 15:-0.997058 16:-0.188304 17:-0.985111 18:-0.989494 19:-0.373247 20:-0.996826 21:-0.99139 22:0.416578 23:-0.997643 24:-1 25:-1 26:-1 27:-1 28:-1 29:-1 30:-1 31:-1 32:-0.824352 33:-1 34:-0.635594 35:-1 36:-1 37:-1 38:-1 39:-1 40:-0.619163 41:-1 42:-0.489383 43:-1 44:-0.651607 45:-0.0598764 46:-0.849341 47:-0.679452 48:-0.246141 49:-1 50:-0.823544 51:-1 52:-1 53:-0.663967 54:0.166092 55:-1 56:0.24828 57:-1 58:-0.2016 59:-0.176921 60:-0.84032 61:-0.616768 62:-0.493015 63:-1 64:-0.618793 65:-0.886323 66:-1 67:-0.65182 68:-0.856835 69:-1 70:-0.631559 71:-1 72:-0.375917 73:-0.0940724 74:-0.713985 75:-0.62804 76:-0.58761 77:-1 78:-0.574646 79:-0.71646 80:-0.92994 81:-0.86782 82:-1 83:-0.377247 84:-0.240379 85:-1 86:-0.0504733 87:-0.270168 88:-1 89:-0.458687 90:-0.629035 91:-1 92:-0.762678 93:-0.588485 94:-1 95:-0.882608 96:-1 97:-0.566558 98:-0.517768 99:-1 100:-0.513177 101:-0.441736 102:-1 103:-0.209179 104:-0.57519 105:-1 106:-1 107:-1 108:-1 109:-1 110:-1 111:-1 112:-1 113:-1 114:-0.831537 115:-1 116:-1 117:-0.599472 118:-0.536497 119:-1 120:-1 121:-1 122:-1 123:-1 124:-0.381703 125:-1 126:-1 127:-1 128:-1 129:-1 130:-1 131:-1 132:-0.715917 133:-0.425152 134:-0.856288 135:-0.920487 136:-1 137:-1 138:-0.954554 139:-0.621351 140:-0.819543 141:-0.356845 142:-0.389224 143:-0.493415 144:-0.522159 145:0.0359222 146:0.124184 147:-0.138384 148:-0.911841 149:-0.838455 150:-1 151:-1 152:-0.467678 153:0.22395 154:-0.0892706 155:0.361786 156:-0.948595 157:-1 158:-1 159:-0.639722 160:-1 161:-0.791801 162:-1 163:-1 164:-1 165:-1 166:-1 167:-1 168:-1 169:-0.944645 170:-0.927625 171:-0.921571 172:-0.978169 173:-0.897524 174:-0.886413 175:-0.882219 176:-0.873069 177:-0.874579 178:-0.954864 179:-0.816222 180:-0.944927 181:-0.77896 182:-0.934055 183:-0.895421 184:-0.953954 185:-0.928895 186:-0.958656 187:-0.844365 188:-0.777731 189:-0.8115 190:-0.230394 191:-0.161673 192:-0.28591 193:-0.640721 194:-0.824489 195:-0.53562 196:0.832342 197:0.318317 198:-0.152097 199:-1 200:-1 201:-1 202:-1 203:-1 204:-1 205:-1 206:-1 207:-1 208:-1 209:-1 210:-1 211:-1 212:0.731207 213:0.888572 
0.03125 1:-0.99642 2:-0.889001 3:-0.999986 4:0.649694 5:0.566203 6:-0.999881 7:-0.380024 8:-0.993597 9:-0.999849 10:0.467009 11:-0.640003 12:-0.992877 13:-0.196297 14:-0.995013 15:-0.997535 16:-0.185195 17:-0.988286 18:-0.989036 19:-0.37373 20:-0.997243 21:-0.997026 22:0.418674 23:-0.987769 24:-1 25:-1 26:-1 27:-1 28:-0.410132 29:-0.135468 30:-0.596386 31:-0.616569 32:-0.848024 33:-1 34:-0.936941 35:-1 36:-1 37:-1 38:-1 39:-1 40:-0.835244 41:-1 42:-0.705438 43:-0.805343 44:-1 45:-0.593249 46:-0.608912 47:-1 48:-0.510772 49:-1 50:-0.923662 51:-1 52:-1 53:-1 54:-0.798212 55:-1 56:-0.351928 57:-0.171 58:-1 59:-0.287813 60:-0.447333 61:-1 62:-0.561307 63:-0.787804 64:-0.835068 65:-1 66:-1 67:-0.924686 68:-1 69:-1 70:-0.681183 71:-0.416838 72:-1 73:-0.372901 74:-0.381281 75:-1 76:-0.553951 77:-0.533674 78:-1 79:-0.815993 80:-0.757514 81:-0.82844 82:-0.477367 83:-1 84:-0.507033 85:-0.373072 86:-1 87:-0.210598 88:-0.611681 89:-1 90:-0.743212 91:-0.487315 92:-1 93:-0.43027 94:-0.890269 95:-0.390533 96:-0.597445 97:-1 98:-0.269786 99:-0.265545 100:-1 101:-0.613559 102:-0.111771 103:-0.828939 104:-0.485389 105:-0.650012 106:-0.937252 107:-0.836264 108:-1 109:-1 110:-0.80356 111:-1 112:-0.898569 113:-0.699914 114:-1 115:-0.769831 116:-0.750458 117:-1 118:-0.598943 119:-0.704141 120:-1 121:-1 122:-1 123:-0.766839 124:-0.82166 125:-1 126:-1 127:-0.943097 128:-1 129:-1 130:-0.945132 131:-1 132:-1 133:-0.170992 134:-0.7513 135:-0.862393 136:-0.80124 137:-0.821466 138:-0.960679 139:-0.817976 140:-0.88289 141:-0.777398 142:-0.119179 143:0.168909 144:0.181345 145:0.152475 146:-0.599463 147:-0.483854 148:-0.733012 149:-0.580653 150:-0.749968 151:-1 152:-1 153:-0.924357 154:-0.684788 155:0.492567 156:-0.377281 157:-1 158:-0.680641 159:-1 160:-1 161:-1 162:-1 163:-1 164:-1 165:-1 166:-1 167:-0.970272 168:-0.952504 169:-0.962167 170:-0.956862 171:-0.89771 172:-0.889718 173:-0.857655 174:-0.883724 175:-0.838419 176:-0.912835 177:-0.83 178:-0.946017 179:-0.836345 180:-0.904915 181:-0.823845 182:-0.912802 183:-0.835095 184:-0.945376 185:-0.945483 186:-0.900849 187:-0.86533 188:-0.380279 189:-0.380192 190:-0.667037 191:-0.148458 192:-0.127682 193:-0.274612 194:0.0326987 195:-0.721816 196:-1 197:-1 198:-1 199:-1 200:-1 201:-1 202:-1 203:-1 204:-1 205:-1 206:-1 207:-1 208:-1 209:-1 210:-1 211:-1 212:0.31627 213:0.383828 
0.03125 1:-0.999403 2:-0.860735 3:-0.999983 4:0.649865 5:0.565808 6:-0.999885 7:-0.379892 8:-0.99468 9:-0.997939 10:0.469926 11:-0.635657 12:-0.992749 13:-0.191934 14:-0.99408 15:-0.996552 16:-0.187976 17:-0.984486 18:-0.988055 19:-0.379751 20:-0.995539 21:-0.993504 22:0.420815 23:-0.995742 24:-1 25:-0.725712 26:-1 27:-0.787114 28:-1 29:-0.735989 30:-0.260501 31:-1 32:-0.257399 33:-1 34:-0.768905 35:-1 36:-1 37:-1 38:-1 39:-0.377947 40:-1 41:-0.208454 42:-1 43:-0.0488428 44:-0.631767 45:-1 46:-0.203784 47:-1 48:-0.20321 49:-1 50:-0.720243 51:-0.851117 52:-1 53:-0.88161 54:-1 55:-0.473986 56:-1 57:0.01264 58:-0.324907 59:-1 60:-0.324907 61:-1 62:-0.571315 63:-1 64:-0.597084 65:-0.759699 66:-1 67:-1 68:-1 69:-1 70:-1 71:-0.643828 72:-0.340377 73:-1 74:-0.546547 75:-1 76:-0.564126 77:-1 78:-0.640339 79:-0.700314 80:-0.92595 81:-0.930147 82:-1 83:-0.341783 84:-1 85:-0.234194 86:-0.19712 87:-1 88:-0.407056 89:-1 90:-0.686328 91:-1 92:-0.749163 93:-0.82602 94:-0.46382 95:-0.503691 96:-1 97:-0.312812 98:-1 99:-0.551432 100:-0.485454 101:-1 102:-0.276686 103:-1 104:-0.640798 105:-1 106:-0.693396 107:-1 108:-1 109:-1 110:-1 111:-1 112:-1 113:-1 114:-0.465832 115:-1 116:-0.54279 117:-1 118:-0.510101 119:-1 120:-0.865787 121:-1 122:-0.493052 123:-0.81013 124:-0.673246 125:-0.179563 126:-0.68355 127:-0.721953 128:-0.799174 129:-1 130:-1 131:-1 132:-1 133:0.11392 134:-0.392405 135:-0.159577 136:-0.190704 137:-0.636522 138:-0.567687 139:-0.555313 140:-1 141:-1 142:-1 143:-1 144:-0.350635 145:0.0949398 146:0.328014 147:-0.229411 148:-0.95341 149:-0.772341 150:-0.949098 151:-1 152:-1 153:-1 154:-1 155:-1 156:-1 157:-1 158:-0.869968 159:-0.619205 160:-1 161:-1 162:-1 163:-1 164:-1 165:-1 166:-1 167:-0.977377 168:-0.995567 169:-0.895858 170:-0.837803 171:-0.900224 172:-0.949795 173:-0.893087 174:-0.914771 175:-0.836671 176:-0.843341 177:-1 178:-1 179:-0.817259 180:-0.905597 181:-0.796539 182:-0.893486 183:-0.846656 184:-0.945395 185:-0.925169 186:-0.967755 187:-0.93673 188:-0.608447 189:-0.641372 190:-0.715292 191:-0.768848 192:-0.689211 193:0.550631 194:0.150157 195:-0.509169 196:-0.548098 197:-0.390378 198:-0.551905 199:-1 200:-1 201:-1 202:-1 203:-1 204:-1 205:-1 206:-1 207:-1 208:-1 209:-1 210:-1 211:-1 212:0.720365 213:0.52712 
0.03125 1:-0.999659 2:-0.852117 3:-0.999994 4:0.649884 5:0.565528 6:-0.999865 7:-0.379992 8:-0.996271 9:-0.99789 10:0.469983 11:-0.638299 12:-0.992653 13:-0.191083 14:-0.993985 15:-0.996463 16:-0.187755 17:-0.981257 18:-0.991901 19:-0.369892 20:-0.989013 21:-0.9945 22:0.414112 23:-0.991288 24:-1 25:-1 26:-1 27:-1 28:-1 29:0.345625 30:-1 31:-0.045177 32:-1 33:-0.825796 34:-1 35:-0.911334 36:-1 37:-1 38:-0.880028 39:-0.682953 40:-1 41:-0.596567 42:-1 43:-0.515216 44:-1 45:-0.24031 46:-1 47:-0.136586 48:-1 49:-0.677185 50:-1 51:-1 52:-0.744514 53:-0.517275 54:-1 55:0.608627 56:-1 57:0.29032 58:-1 59:0.108503 60:-1 61:-0.174187 62:-1 63:-0.207363 64:-1 65:-0.816281 66:-0.738707 67:-0.812435 68:-1 69:-0.487461 70:-1 71:0.0892259 72:-1 73:0.171291 74:-1 75:-0.33207 76:-1 77:-0.419355 78:-1 79:-0.618136 80:-0.773544 81:-0.928789 82:-0.349237 83:0.00646101 84:-1 85:-0.219372 86:-1 87:-0.0170788 88:-1 89:-0.416778 90:-1 91:-0.361632 92:-1 93:-0.733972 94:-1 95:-1 96:-1 97:-1 98:-1 99:-0.847571 100:-1 101:-0.639105 102:-1 103:0.0650598 104:-1 105:-0.825688 106:-1 107:-1 108:-1 109:-1 110:-1 111:-1 112:-1 113:-0.626341 114:-1 115:-0.713416 116:-1 117:-1 118:-1 119:-1 120:-1 121:-1 122:-0.586605 123:-1 124:-1 125:-1 126:-1 127:-1 128:-1 129:-1 130:-1 131:-1 132:-0.77044 133:-0.896768 134:-0.380645 135:-1 136:-0.17504 137:-0.0366797 138:-0.804145 139:-1 140:-0.708355 141:-0.376339 142:-0.122579 143:-0.150964 144:-1 145:0.275576 146:-0.00251792 147:0.21396 148:-0.667555 149:-1 150:-0.948108 151:-0.816938 152:-0.808825 153:-1 154:-0.803755 155:-1 156:-0.889233 157:-0.80921 158:-1 159:-1 160:-0.435253 161:-0.850457 162:-1 163:-1 164:-1 165:-1 166:-1 167:-0.918496 168:-0.924895 169:-0.917235 170:-0.964667 171:-0.907364 172:-0.918208 173:-1 174:-1 175:-0.783568 176:-0.827883 177:-0.799779 178:-0.956508 179:-0.826412 180:-0.951939 181:-0.953675 182:-0.969941 183:-0.816088 184:-0.953144 185:-0.923722 186:-0.956744 187:-0.961303 188:-0.627476 189:-0.878142 190:-0.75124 191:-0.450207 192:-0.6832 193:0.0322574 194:0.81535 195:-0.884537 196:-0.276125 197:0.154064 198:-0.771598 199:-1 200:-1 201:-1 202:-1 203:-1 204:-1 205:-1 206:-1 207:-1 208:-1 209:-1 210:-1 211:-1 212:0.827504 213:0.519238 
0.03125 1:-0.997272 2:-0.886588 3:-0.999981 4:0.649713 5:0.566614 6:-0.999897 7:-0.379867 8:-0.993834 9:-0.999863 10:0.467023 11:-0.638661 12:-0.992937 13:-0.196368 14:-0.995056 15:-0.996677 16:-0.191714 17:-0.98889 18:-0.99682 19:-0.382471 20:-0.988723 21:-0.98936 22:0.417723 23:-0.997279 24:-1 25:-1 26:-0.711163 27:-1 28:-0.844486 29:-1 30:-0.78719 31:-0.797832 32:-0.679417 33:-1 34:-0.800477 35:-1 36:-1 37:-1 38:-0.898399 39:-0.328657 40:-0.478702 41:-1 42:-0.534038 43:0.0265254 44:-0.682065 45:0.2869 46:-0.450051 47:-0.853751 48:0.0319301 49:-0.931649 50:-0.83897 51:-0.871466 52:-0.639349 53:-0.591126 54:-0.361531 55:-1 56:-0.0886804 57:0.09288 58:-1 59:-0.0611158 60:-0.271413 61:-1 62:-0.537347 63:-1 64:-0.47818 65:-0.585044 66:-1 67:-0.920572 68:-0.869364 69:-1 70:-0.8319 71:-0.538732 72:-1 73:-0.338618 74:-0.347488 75:-1 76:-0.529588 77:-1 78:-0.689466 79:-0.805943 80:-1 81:-1 82:-1 83:-1 84:-0.306788 85:-0.504114 86:-0.826713 87:-0.333973 88:-0.692848 89:-0.901211 90:-0.661473 91:-1 92:-0.891713 93:-0.924899 94:-1 95:-1 96:-1 97:-0.604452 98:-0.449918 99:-1 100:-0.703825 101:-0.694334 102:-1 103:-0.278316 104:-0.767404 105:-1 106:-1 107:-1 108:-1 109:-1 110:-1 111:-0.896526 112:-0.679066 113:-1 114:-0.0775918 115:-0.878641 116:-1 117:-0.817261 118:-0.894264 119:-1 120:-1 121:-1 122:-0.299698 123:-1 124:-1 125:-1 126:-1 127:-1 128:-1 129:-1 130:-1 131:-0.711726 132:-0.546324 133:-1 134:-1 135:-0.854877 136:-0.30126 137:0.00422101 138:-0.668217 139:-0.808034 140:-0.91766 141:-0.882615 142:-0.16394 143:0.0786874 144:-0.0655783 145:-0.0546432 146:-0.396528 147:-0.576619 148:-0.718422 149:-1 150:-1 151:-0.0696678 152:-0.43326 153:-0.441534 154:-0.833778 155:-0.834302 156:-1 157:-0.959603 158:-1 159:-0.753422 160:-1 161:-1 162:-1 163:-1 164:-1 165:-1 166:-1 167:-0.986345 168:-0.973037 169:-0.964515 170:-0.94986 171:-0.869103 172:-0.877424 173:-0.857395 174:-0.916239 175:-0.851135 176:-0.925608 177:-0.863306 178:-0.891321 179:-0.839404 180:-0.930182 181:-0.826651 182:-0.901556 183:-0.899483 184:-0.963772 185:-0.931034 186:-0.911571 187:-0.792421 188:-0.54925 189:-0.587151 190:-0.683958 191:-0.135188 192:-0.0800086 193:-0.207652 194:0.18523 195:-0.804409 196:-0.944267 197:-1 198:-1 199:-1 200:-1 201:-1 202:-1 203:-1 204:-1 205:-1 206:-1 207:-1 208:-1 209:-1 210:-1 211:-1 212:0.358971 213:0.397886 
0.03125 1:-0.996846 2:-0.881762 3:-0.999978 4:0.649756 5:0.565791 6:-0.999893 7:-0.380699 8:-0.991228 9:-0.999853 10:0.46709 11:-0.637325 12:-0.992288 13:-0.196393 14:-0.994489 15:-0.994985 16:-0.186206 17:-0.990575 18:-0.99081 19:-0.377497 20:-0.997677 21:-0.992216 22:0.411268 23:-0.992516 24:-1 25:-1 26:-1 27:-1 28:-0.697225 29:-1 30:0.243014 31:-1 32:-1 33:-1 34:-1 35:-1 36:-1 37:-1 38:-1 39:-1 40:-1 41:-1 42:-0.395213 43:-1 44:-0.690531 45:-0.373683 46:-1 47:-0.572897 48:-0.330333 49:-1 50:-1 51:-1 52:-0.929789 53:-0.900503 54:-1 55:-0.115816 56:0.10886 57:-1 58:-0.432613 59:-0.451659 60:-1 61:-0.659584 62:-0.729794 63:-1 64:-0.915346 65:-1 66:-0.640954 67:-1 68:-1 69:-0.577444 70:-0.509083 71:-1 72:-0.584231 73:-0.356198 74:-1 75:-0.559441 76:-0.542088 77:-1 78:-0.697721 79:-0.748127 80:-0.937767 81:-0.941294 82:-1 83:-0.861706 84:-0.493935 85:-1 86:-0.325214 87:-0.351677 88:-1 89:-0.615314 90:-0.736372 91:-1 92:-0.789182 93:-0.707555 94:-0.324057 95:-0.37432 96:-1 97:-0.229931 98:-0.357446 99:-1 100:-0.135107 101:-0.40491 102:-1 103:-0.121882 104:-0.622637 105:-1 106:-0.677894 107:-0.579782 108:-1 109:-1 110:-1 111:-0.697816 112:-0.583449 113:-1 114:-0.551076 115:-0.645585 116:-1 117:-0.64422 118:-0.485332 119:-1 120:-1 121:-1 122:-0.403535 123:-0.920215 124:-1 125:-1 126:-1 127:-1 128:-1 129:-1 130:-1 131:-1 132:-0.621472 133:-0.829792 134:-0.872344 135:-0.717469 136:-0.591906 137:-0.0835875 138:-1 139:-1 140:-1 141:-1 142:-0.276599 143:1 144:0.334036 145:-0.0140624 146:-0.353834 147:-0.175751 148:-0.530126 149:-0.856504 150:-0.957221 151:-0.622669 152:-0.290712 153:-0.922342 154:-1 155:-1 156:-1 157:-0.960675 158:-0.672156 159:-1 160:-1 161:-1 162:-1 163:-1 164:-1 165:-1 166:-1 167:-0.932759 168:-0.761675 169:-0.924818 170:-0.877254 171:-0.915383 172:-0.93175 173:-0.860083 174:-0.782284 175:-0.853025 176:-0.896293 177:-0.861899 178:-0.911498 179:-0.861497 180:-0.935826 181:-0.833249 182:-0.9252 183:-0.902606 184:-0.977441 185:-0.929246 186:-0.914368 187:-0.872384 188:-0.495427 189:-0.497667 190:-0.760725 191:-0.44958 192:-0.440301 193:-0.148937 194:0.18489 195:-0.619221 196:-0.348933 197:-0.780432 198:-0.623414 199:-1 200:-1 201:-1 202:-1 203:-1 204:-1 205:-1 206:-1 207:-1 208:-1 209:-1 210:-1 211:-1 212:0.527313 213:0.640609 
0.03125 1:-0.995738 2:-0.874179 3:-0.999994 4:0.649759 5:0.565497 6:-0.999841 7:-0.380421 8:-0.990986 9:-0.999817 10:0.467149 11:-0.641559 12:-0.991366 13:-0.1962 14:-0.993696 15:-0.995316 16:-0.187346 17:-0.984182 18:-0.992662 19:-0.367789 20:-0.990336 21:-0.991505 22:0.414482 23:-0.99503 24:-1 25:-1 26:-1 27:-0.665316 28:-0.858403 29:-1 30:-0.418707 31:-0.447774 32:-1 33:-0.328347 34:-0.757793 35:-1 36:-1 37:-1 38:-0.814984 39:-0.877757 40:-1 41:-0.533346 42:-0.575765 43:-1 44:-0.131607 45:-0.218919 46:-1 47:-0.334172 48:-0.217059 49:-1 50:-0.780093 51:-1 52:-0.73732 53:-0.627752 54:-1 55:-0.173039 56:-0.170315 57:-1 58:-0.33664 59:-0.145169 60:-1 61:-0.469312 62:-0.578766 63:-1 64:-0.683282 65:-0.716652 66:-0.798512 67:-0.855361 68:-1 69:-0.604772 70:-0.387777 71:-1 72:-0.481494 73:-0.247299 74:-1 75:-0.587953 76:-0.571702 77:-1 78:-0.717283 79:-0.705522 80:-1 81:-0.835272 82:-1 83:-0.353223 84:-0.211075 85:-1 86:-0.211075 87:-0.393635 88:-1 89:-0.550244 90:-0.69178 91:-1 92:-0.753522 93:-0.93162 94:-1 95:-1 96:-1 97:-1 98:-0.599348 99:-1 100:-0.595534 101:-0.721707 102:-1 103:-0.507222 104:-0.717644 105:-1 106:-1 107:-1 108:-1 109:-1 110:-1 111:-1 112:-0.902602 113:-1 114:-0.300155 115:-0.889502 116:-1 117:-0.66723 118:-0.807454 119:-1 120:-1 121:-1 122:-1 123:-1 124:-0.400668 125:-0.742038 126:-0.937813 127:-0.945359 128:-1 129:-1 130:-0.947314 131:-0.868774 132:-0.409928 133:0.114432 134:-0.462689 135:-0.933938 136:-0.936385 137:-0.942858 138:-0.962242 139:-0.615491 140:-1 141:-0.625943 142:-0.577108 143:-0.158211 144:0.0776053 145:0.414001 146:0.153803 147:-0.284123 148:-1 149:-0.865784 150:-0.919975 151:-1 152:-1 153:-0.709459 154:-0.697336 155:-0.396566 156:-0.914583 157:-1 158:-0.591145 159:-0.775503 160:-1 161:-1 162:-1 163:-1 164:-1 165:-1 166:-1 167:-0.940045 168:-0.909636 169:-0.942186 170:-0.910012 171:-0.903347 172:-0.960518 173:-0.870365 174:-0.889224 175:-0.823632 176:-0.872652 177:-0.825774 178:-0.899677 179:-0.805367 180:-0.921354 181:-0.791484 182:-0.890866 183:-0.888837 184:-0.94158 185:-0.929229 186:-0.940356 187:-0.860743 188:-0.569096 189:-0.624127 190:-0.616347 191:-0.545748 192:-0.825497 193:-0.701496 194:0.0790911 195:-0.109622 196:0.217913 197:-0.178515 198:-0.119387 199:-0.590703 200:-1 201:-1 202:-1 203:-1 204:-1 205:-1 206:-1 207:-1 208:-1 209:-1 210:-1 211:-1 212:0.75378 213:0.940736 
0.03125 1:-0.997528 2:-0.867284 3:-0.999971 4:0.649842 5:0.565514 6:-0.999865 7:-0.380172 8:-0.992124 9:-0.999834 10:0.467215 11:-0.638497 12:-0.991617 13:-0.19627 14:-0.993892 15:-0.995151 16:-0.176629 17:-0.98843 18:-0.993285 19:-0.387909 20:-0.988406 21:-0.991584 22:0.416894 23:-0.996876 24:-1 25:-1 26:-1 27:-0.626263 28:-0.367525 29:0.390468 30:-1 31:0.027787 32:-0.837024 33:-0.549991 34:-0.594297 35:-1 36:-1 37:-1 38:-0.58679 39:-0.317452 40:-1 41:-0.478879 42:-0.210426 43:-1 44:-0.353542 45:0.308331 46:-0.301103 47:-1 48:-0.125722 49:-1 50:-1 51:-1 52:-0.779995 53:-0.89607 54:-1 55:-0.307389 56:-0.305107 57:-1 58:-0.259253 59:-0.045446 60:-0.259253 61:-1 62:-0.529625 63:-1 64:-0.734737 65:-1 66:-1 67:-1 68:-1 69:-1 70:-0.316341 71:-1 72:-0.131489 73:-0.327604 74:-0.469287 75:-1 76:-0.521737 77:-1 78:-0.763214 79:-0.802699 80:-1 81:-1 82:-0.5797 83:-1 84:-0.295244 85:-1 86:-0.471417 87:-0.322882 88:-0.375447 89:-1 90:-0.586995 91:-1 92:-0.779819 93:-0.694566 94:-1 95:-0.782174 96:-0.654705 97:-1 98:-0.776299 99:-1 100:-0.698893 101:-1 102:-1 103:-1 104:-0.921167 105:-1 106:-1 107:-0.912215 108:-1 109:-0.849679 110:-0.578762 111:-1 112:-0.782474 113:-1 114:-1 115:-1 116:-1 117:-1 118:-1 119:-1 120:-1 121:-1 122:-0.555014 123:-1 124:-1 125:-0.855969 126:-0.861112 127:-0.816946 128:-0.823713 129:-1 130:-1 131:-0.95115 132:-0.0775143 133:-1 134:-0.600005 135:-0.409841 136:-0.360655 137:-0.298095 138:-1 139:-1 140:-0.958141 141:-0.940324 142:0.227775 143:-0.21667 144:-0.430001 145:-0.382144 146:-0.386467 147:-0.569557 148:-1 149:-1 150:-0.687227 151:-0.290624 152:-0.91768 153:-0.837779 154:-0.746508 155:-0.663086 156:-0.85692 157:-0.671414 158:-0.543438 159:-0.749301 160:-0.8379 161:-0.871226 162:-0.801751 163:-1 164:-1 165:-1 166:-1 167:-0.870943 168:-0.844795 169:-0.979918 170:-0.978282 171:-0.865799 172:-0.876487 173:-0.855666 174:-0.827476 175:-0.87383 176:-0.711968 177:-0.878376 178:-0.786403 179:-0.868242 180:-0.83191 181:-0.828216 182:-0.798137 183:-0.91843 184:-0.954784 185:-0.943422 186:-0.949291 187:-0.833391 188:-0.56465 189:-0.2305 190:-0.607286 191:-0.5942 192:-0.649254 193:-0.555556 194:-0.511496 195:-0.105172 196:0.0766736 197:-0.0826631 198:-0.409986 199:-1 200:-1 201:-1 202:-1 203:-1 204:-1 205:-1 206:-1 207:-1 208:-1 209:-1 210:-1 211:-1 212:0.594494 213:0.953264 
0.03125 1:-0.998551 2:-0.86625 3:-0.999968 4:0.649878 5:0.565939 6:-0.99988 7:-0.380022 8:-0.994171 9:-0.999877 10:0.467201 11:-0.635377 12:-0.991923 13:-0.196481 14:-0.994142 15:-0.996671 16:-0.183481 17:-0.992983 18:-0.993744 19:-0.401449 20:-0.979046 21:-0.991882 22:0.424829 23:-0.996299 24:-0.0155627 25:-0.226107 26:-1 27:0.201298 28:-0.322328 29:-1 30:-0.0726568 31:-1 32:-0.650788 33:-0.839296 34:-0.855102 35:-0.509204 36:-1 37:-1 38:-0.889325 39:-1 40:-1 41:-0.0694431 42:0.0151502 43:-1 44:0.212131 45:-1 46:0.198098 47:0.274564 48:-1 49:-0.404319 50:-1 51:-1 52:-1 53:-1 54:-1 55:-1 56:-0.255493 57:-1 58:0.587307 59:-1 60:0.11112 61:0.142848 62:-1 63:-0.0249401 64:-1 65:-0.717497 66:-1 67:-1 68:-1 69:-1 70:0.281884 71:-1 72:-0.534726 73:-1 74:-0.147067 75:-0.630255 76:-1 77:-0.678574 78:-1 79:-0.647683 80:-1 81:-1 82:-1 83:0.238095 84:-0.811236 85:-0.639875 86:-0.811236 87:-1 88:-1 89:-1 90:-1 91:-1 92:-1 93:-0.918192 94:-1 95:-0.649921 96:-1 97:-0.784582 98:-1 99:-0.859384 100:-1 101:-1 102:-1 103:-1 104:-1 105:-1 106:-1 107:-1 108:-1 109:-0.838937 110:-1 111:-1 112:-1 113:-1 114:-1 115:-1 116:-1 117:-1 118:-1 119:-1 120:-1 121:-1 122:-0.523232 123:-1 124:-1 125:-1 126:-0.702375 127:-0.738494 128:-0.748161 129:-0.862526 130:-1 131:-0.947668 132:-0.576414 133:-0.428576 134:-0.85714 135:-0.762882 136:-0.467208 137:-0.589798 138:-0.593423 139:-1 140:-1 141:-1 142:0.113093 143:0.119051 144:-0.117859 145:-0.558678 146:-0.342647 147:-0.538809 148:-0.605646 149:-1 150:-1 151:-0.746654 152:-0.823611 153:-0.739287 154:-0.547343 155:-0.729265 156:-0.744505 157:-0.911983 158:-0.388525 159:-1 160:-1 161:-1 162:-0.858394 163:-0.936375 164:-1 165:-0.939617 166:-1 167:-0.961398 168:-0.972101 169:-0.821986 170:-0.87213 171:-0.868816 172:-0.898918 173:-0.85261 174:-0.856076 175:-0.877429 176:-0.674836 177:-0.907183 178:-0.807368 179:-1 180:-1 181:-0.887582 182:-0.786055 183:-0.868889 184:-0.81309 185:-0.896731 186:-0.913364 187:-0.892895 188:-0.386256 189:-0.400389 190:-0.387978 191:-0.673915 192:-0.832975 193:-0.613096 194:-0.441708 195:-0.32533 196:0.517865 197:-0.180951 198:0.26428 199:-1 200:-1 201:-1 202:-1 203:-1 204:-1 205:-1 206:-1 207:-1 208:-1 209:-1 210:-1 211:-1 212:0.634176 213:0.98662 
0.03125 1:-0.998977 2:-0.862113 3:-0.999981 4:0.649824 5:0.565974 6:-0.999873 7:-0.379768 8:-0.994553 9:-0.99986 10:0.467224 11:-0.637523 12:-0.991785 13:-0.196336 14:-0.994025 15:-0.996403 16:-0.18602 17:-0.985205 18:-0.993961 19:-0.382221 20:-0.994209 21:-0.99108 22:0.417499 23:-0.99672 24:-1 25:-1 26:-1 27:-1 28:-0.825388 29:-1 30:-0.283169 31:-1 32:-0.640081 33:-0.503065 34:-1 35:-0.662762 36:-1 37:-1 38:-0.657766 39:-1 40:-1 41:-0.232717 42:-0.302464 43:-1 44:-0.464582 45:-1 46:-0.536929 47:-0.507374 48:-1 49:-0.693022 50:-1 51:-1 52:-0.757054 53:-0.770478 54:-1 55:0.0197806 56:0.0231395 57:-1 58:-0.3456 59:-1 60:-0.3456 61:-0.47648 62:-1 63:-0.497512 64:-1 65:-1 66:-1 67:-1 68:-1 69:-0.837539 70:-0.245028 71:-1 72:-0.360596 73:-1 74:-0.413928 75:-0.491878 76:-1 77:-0.55828 78:-1 79:-0.636875 80:-1 81:-1 82:-1 83:-0.84049 84:-0.416298 85:-1 86:-0.221731 87:-1 88:-0.5402 89:-0.556319 90:-1 91:-0.514367 92:-1 93:-0.747029 94:-1 95:-0.759452 96:-1 97:0.110206 98:-0.752965 99:-0.710121 100:-0.334968 101:-1 102:-0.298857 103:-0.189765 104:-0.912952 105:-0.83424 106:-1 107:-0.7092 108:-1 109:-0.833999 110:-1 111:-0.651457 112:-1 113:-0.644681 114:-0.482206 115:-1 116:-0.556805 117:-1 118:-0.88128 119:-0.649685 120:-1 121:-0.757668 122:-0.410328 123:-0.81595 124:-1 125:-1 126:-1 127:-1 128:-0.87022 129:-0.952769 130:-1 131:-1 132:-1 133:-0.5092 134:-1 135:-0.592675 136:-0.529314 137:-0.506745 138:-0.534384 139:-1 140:-1 141:-1 142:-0.58282 143:-0.134965 144:0.188949 145:0.137164 146:-0.119226 147:-0.117232 148:-0.683868 149:-1 150:-0.950658 151:-0.390717 152:-0.363712 153:-0.910429 154:-0.720074 155:-0.813971 156:-0.947333 157:-0.81857 158:-0.62186 159:-1 160:-0.820991 161:-0.928897 162:-0.854052 163:-1 164:-1 165:-1 166:-0.95141 167:-0.972993 168:-0.982648 169:-0.920011 170:-0.83287 171:-0.887765 172:-0.90036 173:-0.870584 174:-0.834709 175:-0.859819 176:-0.760929 177:-0.847834 178:-0.881626 179:-1 180:-1 181:-0.814213 182:-0.830153 183:-0.795211 184:-0.879266 185:-0.91317 186:-0.878743 187:-0.914139 188:-0.569855 189:-0.188871 190:-0.44805 191:-0.439847 192:-1 193:-0.539876 194:-0.424579 195:-0.268037 196:0.501841 197:-0.155825 198:-0.131281 199:-1 200:-1 201:-1 202:-1 203:-1 204:-1 205:-1 206:-1 207:-1 208:-1 209:-1 210:-1 211:-1 212:0.652161 213:0.900097 
