svm_type c_svc
kernel_type rbf
gamma 0.125
nr_class 2
total_sv 110
rho 1.4806308350833923
label 1 0
probA -2.6873388703849792
probB 0.23527500089381648
nr_sv 55 55
SV
2 1:-0.977071 2:0.740443 3:0.635652 4:0.631203 5:0.499338 6:-0.722884 7:-0.141232 8:-0.72944 9:-0.905243 10:0.355705 11:0.343849 12:-0.935736 13:0.289256 14:-0.923924 15:-0.904726 16:-0.912323 17:-1 18:-1 19:-1 20:-1 21:-0.0246156 22:-0.489979 23:-1 24:-1 25:-1 26:-1 27:-0.0348775 28:-0.335563 29:-1 30:-1 31:-1 32:-1 33:0.0887016 34:-0.125147 35:-1 
2 1:-0.829078 2:-0.664556 3:-0.904745 4:0.162819 5:0.022325 6:-0.727947 7:-0.416241 8:-0.994256 9:-0.859961 10:0.402685 11:0.343849 12:-0.511148 13:0.297521 14:-0.632564 15:-0.0680731 16:-0.227339 17:-0.330533 18:-0.539663 19:-0.354283 20:-0.678998 21:-0.441082 22:-0.760102 23:-0.454716 24:-0.832581 25:-0.494703 26:-0.732564 27:-0.385518 28:-0.736442 29:-0.461951 30:-0.537429 31:-0.646613 32:-0.761454 33:-0.816234 34:-0.842789 35:-1 
1.0402018189728577 1:-0.921834 2:-0.559045 3:-0.513946 4:0.126572 5:0.144231 6:-0.970932 7:-0.360526 8:-0.939812 9:-0.955818 10:0.402685 11:0.343849 12:-0.816132 13:0.256198 14:-0.877534 15:-0.345042 16:-0.675496 17:-0.491582 18:-0.715893 19:-0.489517 20:-0.783507 21:-1 22:-1 23:-0.681508 24:-0.686461 25:-0.707115 26:-0.603819 27:-1 28:-1 29:-0.682442 30:-0.406519 31:-0.751781 32:-0.561647 33:-0.806886 34:-0.787822 35:0.245902 
2 1:-0.980198 2:-0.282781 3:-0.987119 4:-0.0655092 5:0.0291574 6:-0.303773 7:-0.384711 8:-0.999336 9:-0.990707 10:0.402685 11:0.340694 12:-0.935343 13:0.289256 14:-0.957299 15:-0.843505 16:-0.957154 17:-0.975792 18:-0.985968 19:-0.762822 20:-0.915618 21:-0.662159 22:-0.825144 23:-1 24:-1 25:-0.607679 26:-0.847042 27:-1 28:-1 29:-0.875486 30:-0.916448 31:-0.659011 32:-0.877403 33:-0.789268 34:-0.881625 35:-0.868852 
0.68119870361464596 1:-0.543512 2:-0.877253 3:-0.931651 4:-0.0516222 5:0.0582712 6:-0.913937 7:-0.439769 8:-0.968405 9:-0.789173 10:0.375839 11:0.359621 12:-0.154959 13:0.355372 14:-0.420329 15:-0.641863 16:-0.414258 17:-0.763808 18:-0.527448 19:-0.428065 20:-0.692668 21:-0.295298 22:-0.65257 23:-0.341661 24:-0.718921 25:-0.376065 26:-0.710169 27:-0.463752 28:-0.73167 29:-0.524693 30:-0.728026 31:-0.754861 32:-0.745464 33:-0.598116 34:-0.656292 35:0.0491803 
2 1:-0.705055 2:-0.681048 3:-0.975765 4:-0.0604662 5:0.0339733 6:-0.670011 7:-0.415824 8:-0.993186 9:-0.698014 10:0.442953 11:0.369085 12:-0.309669 13:0.280992 14:-0.441846 15:-0.254995 16:-0.74823 17:-0.346515 18:-0.549877 19:-0.165355 20:-0.656713 21:-0.238469 22:-0.428281 23:-0.257815 24:-0.659604 25:0.0183914 26:-0.62652 27:-0.1491 28:-0.631883 29:-0.211889 30:-0.550623 31:-0.201602 32:-0.506479 33:-0.25077 34:-0.463136 35:-0.47541 
0.79923811708268389 1:-0.878061 2:-0.479798 3:-0.886369 4:-0.182529 5:0.0428828 6:-0.569524 7:-0.430234 8:-0.993848 9:-0.943663 10:0.402685 11:0.337539 12:-0.696431 13:0.289256 14:-0.787173 15:-0.753274 16:-0.70599 17:-0.651559 18:-0.660138 19:-0.596813 20:-0.669297 21:-1 22:-1 23:-0.375998 24:-0.798132 25:-0.479968 26:-0.622078 27:-1 28:-1 29:-0.308688 30:-0.756971 31:-0.299472 32:-0.816908 33:-0.594314 34:-0.705481 35:-0.47541 
1.3575646757816593 1:-0.946847 2:-0.123949 3:-0.981884 4:0.12664 5:0.0397372 6:-0.122263 7:-0.306754 8:-0.985275 9:-0.963593 10:0.402685 11:0.337539 12:-0.818245 13:0.289256 14:-0.87416 15:-0.796081 16:-0.871437 17:-0.753523 18:-0.675795 19:-1 20:-1 21:-0.586026 22:-0.670227 23:-1 24:-1 25:-0.393132 26:-0.741949 27:-0.263088 28:-0.568348 29:-1 30:-1 31:-0.560749 32:-0.837028 33:-0.86475 34:-0.884808 35:0.92623 
2 1:-0.952058 2:-0.291512 3:-0.676165 4:-0.321589 5:0.110424 6:-0.571095 7:-0.52057 8:-0.956112 9:-0.976477 10:0.395973 11:0.340694 12:-0.849955 13:0.272727 14:-0.901374 15:-0.937978 16:-0.953599 17:-0.714791 18:-0.85436 19:-1 20:-1 21:-0.491769 22:-0.810181 23:-0.590694 24:-0.710105 25:-1 26:-1 27:-0.3915 28:-0.614171 29:-1 30:-1 31:-0.48229 32:-0.802698 33:-0.680015 34:-0.74427 35:-1 
1.4792296633895672 1:-0.727983 2:-0.797575 3:-0.93891 4:-0.0794286 5:0.0443121 6:-0.807891 7:-0.431066 8:-0.989943 9:-0.873647 10:0.738255 11:1 12:-0.338474 13:0.289256 14:-0.528166 15:-0.785869 16:-0.59274 17:-0.810988 18:-0.646631 19:-0.628887 20:-0.831037 21:-0.370317 22:-0.8032 23:-0.261622 24:-0.616548 25:-0.100133 26:-0.712157 27:-0.16934 28:-0.827728 29:-0.421838 30:-0.746721 31:-0.549089 32:-0.695917 33:-0.673511 34:-0.772162 35:-0.47541 
2 1:-0.986451 2:0.354525 3:-0.872298 4:-0.346883 5:0.0212914 6:0.258872 7:-0.359421 8:-0.98761 9:-0.922934 10:0.402685 11:0.340694 12:-0.94123 13:0.289256 14:-0.941376 15:0.0967982 16:-0.559512 17:-1 18:-1 19:-1 20:-1 21:0.103689 22:-0.323111 23:-1 24:-1 25:-1 26:-1 27:-0.491129 28:-0.723824 29:-1 30:-1 31:-1 32:-1 33:-0.509394 34:-0.89604 35:-1 
0.91961397208703288 1:-0.227723 2:-0.996106 3:-0.988037 4:0.0311773 5:0.0268999 6:-0.983067 7:-0.403277 8:-0.992064 9:-0.720497 10:0.42953 11:0.347003 12:-0.627534 13:0.289256 14:-0.709524 15:-0.935545 16:-0.793403 17:-0.919061 18:-0.764194 19:-0.901616 20:-0.717947 21:-0.879094 22:-0.678215 23:-0.766847 24:-0.728706 25:-0.624179 26:-0.608069 27:-0.485804 28:-0.583812 29:-0.466756 30:-0.50134 31:-0.86888 32:-0.752275 33:-0.812772 34:-0.56722 35:0.434426 
2 1:-0.94789 2:-0.775492 3:-0.964619 4:-0.0584812 5:0.0748236 6:-0.791851 7:-0.545157 8:-0.883015 9:-1 10:0.369128 11:0.340694 12:-0.824928 13:0.297521 14:-0.88942 15:-0.817751 16:-0.838313 17:-0.835486 18:-0.876414 19:-0.815994 20:-0.786682 21:-0.879449 22:-0.950026 23:-0.788486 24:-0.848 25:-0.82801 26:-0.881331 27:-0.914952 28:-0.879466 29:-0.843623 30:-0.926276 31:-0.900523 32:-0.939968 33:-0.809636 34:-0.882032 35:0.57377 
1.8843794613371041 1:-0.965607 2:-0.180957 3:-0.619863 4:0.418087 5:0.0994872 6:-0.492302 7:-0.291406 8:-0.965132 9:-0.962312 10:0.402685 11:0.337539 12:-0.889637 13:0.289256 14:-0.927414 15:-1 16:-1 17:-0.958489 18:-0.493377 19:-1 20:-1 21:-0.824997 22:-0.548985 23:-0.108064 24:-0.699833 25:-1 26:-1 27:-0.24851 28:-0.662788 29:-1 30:-1 31:-0.356826 32:-0.751178 33:-0.656971 34:-0.627625 35:-0.114754 
2 1:-0.967692 2:-0.36362 3:-0.343352 4:0.213355 5:0.0834789 6:-0.930157 7:-0.374701 8:-0.985197 9:-0.969131 10:0.395973 11:0.340694 12:-0.922762 13:0.22314 14:-0.947183 15:-0.40337 16:-0.528896 17:-1 18:-1 19:-0.533102 20:-0.471988 21:-1 22:-1 23:-0.669782 24:-0.56895 25:-1 26:-1 27:-1 28:-1 29:-0.889021 30:-0.460094 31:-1 32:-1 33:-0.801611 34:-0.417006 35:-0.47541 
1.9845045335276812 1:-0.964565 2:-0.0873645 3:-0.436526 4:-0.424449 5:0.121197 6:-0.581207 7:-0.502165 8:-0.966199 9:-0.974551 10:0.402685 11:0.340694 12:-0.794343 13:0.289256 14:-0.862922 15:-0.811857 16:-0.61331 17:-0.913834 18:-0.528253 19:-1 20:-1 21:-0.842641 22:-0.36749 23:-0.885177 24:-0.717471 25:-1 26:-1 27:-0.633545 28:-0.555138 29:-1 30:-1 31:-0.554387 32:-0.700838 33:-0.691496 34:-0.759705 35:-1 
0.5974644219372689 1:-0.991662 2:0.0903791 3:-0.911618 4:-0.253286 5:-0.00870252 6:0.0232932 7:-0.218293 8:-0.962636 9:-0.990557 10:0.395973 11:0.340694 12:-0.901056 13:0.289256 14:-0.936231 15:-0.650396 16:-0.848066 17:-1 18:-1 19:-0.689469 20:-0.917211 21:-1 22:-1 23:-0.546832 24:-0.820085 25:-1 26:-1 27:-0.575209 28:-0.841604 29:-0.939672 30:-0.952721 31:-0.660607 32:-0.844269 33:-0.963964 34:-0.988528 35:-1 
0.27215705177151972 1:-0.964565 2:0.00860148 3:-0.0610359 4:-0.360376 5:0.248582 6:-0.816956 7:-0.526042 8:-0.896286 9:-0.965937 10:0.402685 11:0.340694 12:-0.886827 13:0.289256 14:-0.918293 15:-0.9326 16:-0.857698 17:-0.830184 18:-0.529416 19:-1 20:-1 21:-0.680185 22:-0.263606 23:-1 24:-1 25:-0.765434 26:-0.410676 27:-1 28:-1 29:-0.757499 30:-0.318203 31:-1 32:-1 33:-0.774704 34:-0.693908 35:0.0409836 
1.2829684439223854 1:-0.946847 2:0.461244 3:0.483731 4:-0.410409 5:0.30082 6:-0.850557 7:-0.51169 8:-0.893912 9:-0.843966 10:0.409396 11:0.340694 12:-0.803142 13:0.297521 14:-0.816978 15:-0.740962 16:-0.188139 17:-0.318021 18:-0.109898 19:-0.942471 20:-0.787321 21:-0.775525 22:-0.374797 23:-0.880015 24:-0.605138 25:-0.729225 26:-0.424496 27:-0.899246 28:-0.62297 29:-0.755865 30:-0.484487 31:-0.964813 32:-0.880336 33:-0.92803 34:-0.878185 35:-0.47541 
0.93961343417416798 1:-0.93851 2:-0.382077 3:-0.28534 4:0.0298756 5:0.154115 6:-1 7:-0.394701 8:-0.954274 9:-0.96913 10:0.402685 11:0.340694 12:-0.842252 13:0.280992 14:-0.891628 15:-0.708198 16:-0.879489 17:-0.643444 18:-0.759539 19:-1 20:-1 21:-0.633876 22:-0.592338 23:-0.886701 24:-0.667219 25:-0.921918 26:-0.954891 27:-0.754723 28:-0.457575 29:-1 30:-1 31:-0.729369 32:-0.48638 33:-0.817108 34:-0.592423 35:-1 
2 1:-0.795727 2:-0.825374 3:-0.836441 4:0.106552 5:0.082584 6:-0.941745 7:-0.355933 8:-0.962919 9:-0.963629 10:0.127517 11:0.347003 12:-0.462792 13:0.297521 14:-0.64798 15:-0.778408 16:-0.852665 17:-0.85778 18:-0.971216 19:-0.860833 20:-0.911355 21:-0.570254 22:-0.809621 23:-0.556773 24:-0.774716 25:-0.646329 26:-0.734803 27:-0.746781 28:-0.705388 29:-0.783931 30:-0.682353 31:-0.788665 32:-0.840131 33:-0.768146 34:-0.706185 35:-1 
2 1:-0.624805 2:-0.872432 3:-0.936185 4:0.091268 5:0.0213073 6:-0.895401 7:-0.413576 8:-0.989804 9:-0.82137 10:0.422819 11:0.337539 12:-0.136469 13:0.297521 14:-0.403126 15:-0.247117 16:-0.662613 17:-0.594464 18:-0.615513 19:-0.709886 20:-0.646068 21:-0.704867 22:-0.585706 23:-0.58553 24:-0.540187 25:-0.607758 26:-0.55898 27:-0.704792 28:-0.437592 29:-0.797357 30:-0.382574 31:-0.832831 32:-0.808553 33:-0.71924 34:-0.68887 35:-1 
2 1:-0.75925 2:-0.697145 3:-0.621731 4:0.095266 5:0.0590873 6:-0.980724 7:-0.389167 8:-0.98566 9:-0.765556 10:0.402685 11:0.350158 12:-0.470322 13:0.280992 14:-0.59362 15:-0.0161733 16:-0.443094 17:-0.359625 18:-0.503311 19:-0.874417 20:-0.498964 21:-0.591581 22:-0.21247 23:-0.669475 24:-0.224628 25:-0.718617 26:-0.2354 27:-0.718869 28:-0.26506 29:-0.727275 30:-0.204546 31:-0.814738 32:-0.325107 33:-0.684687 34:-0.332339 35:-1 
0.27730769031283947 1:-0.969776 2:-0.602904 3:-0.918237 4:-0.134094 5:0.00455635 6:-0.649473 7:-0.325149 8:-0.979632 9:-0.987772 10:0.395973 11:0.340694 12:-0.817643 13:0.297521 14:-0.882423 15:-0.852266 16:-0.960881 17:-0.889309 18:-0.955957 19:-0.688227 20:-0.821043 21:-0.741721 22:-0.821585 23:-1 24:-1 25:-0.922878 26:-0.762225 27:-0.861184 28:-0.954057 29:-0.782213 30:-0.799929 31:-0.651857 32:-0.861819 33:-0.817917 34:-0.928841 35:0.344262 
0.2567540850718385 1:-0.625847 2:-0.878207 3:-0.926085 4:-0.0521462 5:0.0468094 6:-0.919349 7:-0.420731 8:-0.985416 9:-0.815302 10:0.255034 11:0.343849 12:-0.316384 13:0.0330579 14:-0.517611 15:-0.291635 16:-0.749413 17:-0.454323 18:-0.777752 19:-0.549612 20:-0.791477 21:-0.816921 22:-0.623982 23:-0.753075 24:-0.379574 25:-0.791698 26:-0.446669 27:-0.805456 28:-0.460581 29:-0.921573 30:-0.369648 31:-0.861913 32:-0.591821 33:-0.786723 34:-0.775108 35:-1 
2 1:-0.996873 2:0.0636564 3:-0.661906 4:0.47831 5:0.370452 6:-0.245685 7:0.278603 8:-0.319594 9:-0.987122 10:0.402685 11:0.340694 12:-0.970282 13:0.289256 14:-0.981512 15:-1 16:-1 17:-1 18:-1 19:-0.668122 20:-0.793581 21:-1 22:-1 23:-0.575766 24:-0.780758 25:-0.704033 26:-0.932026 27:-1 28:-1 29:-0.627798 30:-0.677079 31:-1 32:-1 33:-0.609331 34:-0.777159 35:-1 
2 1:-1 2:-0.282781 3:-0.960768 4:0.169593 5:0.0454902 6:-0.276292 7:-0.310634 8:-0.983711 9:-0.989386 10:0.402685 11:0.340694 12:-0.957417 13:0.289256 14:-0.974576 15:-0.761657 16:-0.936743 17:-1 18:-1 19:-0.733619 20:-0.773724 21:-1 22:-1 23:-1 24:-1 25:-0.591451 26:-0.777746 27:-1 28:-1 29:-0.802256 30:-0.741301 31:-1 32:-1 33:-0.709684 34:-0.904008 35:-1 
1.0474244533892016 1:-0.965607 2:-0.114265 3:-0.620513 4:-0.395945 5:0.0178139 6:-0.456296 7:-0.377601 8:-0.996466 9:-0.978921 10:0.409396 11:0.337539 12:-0.876786 13:0.280992 14:-0.91651 15:-0.746377 16:-0.566531 17:-1 18:-1 19:-0.614827 20:-0.76168 21:-1 22:-1 23:-0.672435 24:-0.758859 25:-1 26:-1 27:-0.653859 28:-0.618249 29:-0.572907 30:-0.568918 31:-1 32:-1 33:-0.838569 34:-0.792793 35:-1 
1.5038961039037964 1:-0.841584 2:-0.532739 3:-0.508713 4:0.206078 5:0.167517 6:-0.912947 7:-0.320747 8:-0.914414 9:-0.881189 10:-1 11:0.476341 12:-0.496667 13:0.289256 14:-0.64916 15:-0.227644 16:-0.401683 17:-0.405795 18:-0.446196 19:-0.875366 20:-0.830171 21:-0.696206 22:-0.473831 23:-0.798946 24:-0.453597 25:-0.673572 26:-0.59918 27:-0.60507 28:-0.303574 29:-0.658374 30:-0.168878 31:-0.809458 32:-0.714939 33:-0.884135 34:-0.70157 35:-1 
1.1842223088771826 1:-0.790516 2:-0.846049 3:-0.996789 4:0.00984312 5:0.0319148 6:-0.822991 7:-0.437733 8:-0.987678 9:-0.978756 10:0.221477 11:0.337539 12:-0.357244 13:0.297521 14:-0.579208 15:-0.758837 16:-0.590423 17:-0.768619 18:-0.757162 19:-0.753508 20:-0.898041 21:-0.748366 22:-0.920331 23:-0.73589 24:-0.862944 25:-0.764198 26:-0.898183 27:-0.74002 28:-0.79844 29:-0.692651 30:-0.780675 31:-0.768261 32:-0.876314 33:-0.735328 34:-0.750022 35:-0.47541 
2 1:-0.991662 2:0.716815 3:0.496376 4:0.763056 5:1 6:-0.553692 7:0.306604 8:0.26807 9:-0.923405 10:0.38255 11:0.340694 12:-0.947467 13:0.289256 14:-0.95939 15:-1 16:-1 17:-1 18:-1 19:-0.891498 20:-0.85303 21:-1 22:-1 23:-0.20753 24:-0.350294 25:-0.965346 26:-0.941005 27:-1 28:-1 29:-0.123811 30:0.112183 31:-1 32:-1 33:-0.424175 34:-0.40455 35:-1 
2 1:-0.822824 2:-0.328038 3:-0.26767 4:-0.224823 5:-0.277401 6:-0.902252 7:-0.248351 8:-0.723648 9:-0.629441 10:0.422819 11:0.350158 12:-0.292892 13:0.272727 14:-0.437908 15:-1 16:-1 17:-1 18:-1 19:-0.420516 20:0.532484 21:-1 22:-1 23:0.681789 24:0.420176 25:-0.028608 26:0.454628 27:-1 28:-1 29:0.900552 30:1 31:-1 32:-1 33:0.56909 34:-0.0640086 35:-0.721311 
2 1:-0.986451 2:0.533549 3:-0.951861 4:-0.226248 5:0.026841 6:0.582271 7:-0.369405 8:-0.99035 9:-0.970965 10:0.402685 11:0.347003 12:-0.85162 13:0.371901 14:-0.901939 15:-0.381181 16:-0.523133 17:-1 18:-1 19:-0.354626 20:-0.819745 21:-1 22:-1 23:-0.505564 24:-0.315898 25:-1 26:-1 27:-1 28:-1 29:-0.61476 30:-0.895412 31:-1 32:-1 33:-0.423699 34:-0.863728 35:-1 
2 1:-0.949974 2:0.455038 3:-0.474391 4:-0.642294 5:0.143472 6:0.0004288 7:-0.605736 8:-0.934246 9:-0.915662 10:0.402685 11:0.340694 12:-0.767037 13:-0.115702 14:-0.839648 15:-0.410496 16:-0.169941 17:-1 18:-1 19:-0.425302 20:-0.106669 21:-1 22:-1 23:-1 24:-1 25:-0.371448 26:-0.429587 27:-1 28:-1 29:-0.288405 30:-0.676489 31:-1 32:-1 33:-0.344634 34:-0.460999 35:-1 
0.30578951383480829 1:-0.995831 2:0.231739 3:-0.860059 4:-0.342575 5:-0.0220612 6:0.123593 7:-0.199003 8:-0.953251 9:-0.968339 10:0.409396 11:0.340694 12:-0.94408 13:0.289256 14:-0.959092 15:-0.960473 16:-0.999546 17:-1 18:-1 19:-0.500497 20:-0.547155 21:-1 22:-1 23:-0.462433 24:-0.614905 25:-1 26:-1 27:-1 28:-1 29:-0.493003 30:-0.494608 31:-1 32:-1 33:-0.769004 34:-0.901058 35:0.00819672 
1.865991432817012 1:-0.93851 2:0.339606 3:-0.43932 4:-0.631078 5:0.152181 6:-0.0943643 7:-0.60378 8:-0.934386 9:-0.779318 10:0.402685 11:0.334385 12:-0.80948 13:0.272727 14:-0.801146 15:0.121253 16:-0.171029 17:-1 18:-1 19:0.215649 20:-0.658218 21:-1 22:-1 23:-0.701263 24:-0.719054 25:-0.364488 26:-0.553693 27:-1 28:-1 29:0.462116 30:-0.586595 31:-1 32:-1 33:0.0259712 34:-0.549033 35:-1 
2 1:-0.968734 2:-0.871458 3:-0.917756 4:-0.0543216 5:0.076698 6:-0.924166 7:-0.457148 8:-0.948255 9:-0.997707 10:0.402685 11:0.340694 12:-0.949636 13:0.289256 14:-0.969678 15:-0.991398 16:-0.928906 17:-0.991486 18:-0.960017 19:-0.91336 20:-0.790856 21:-0.927907 22:-0.827592 23:-0.934308 24:-0.825488 25:-0.900825 26:-0.827523 27:-0.891283 28:-0.809919 29:-0.920911 30:-0.78344 31:-0.926485 32:-0.82299 33:-0.865594 34:-0.706737 35:-1 
2 1:-0.976029 2:0.117428 3:-0.615702 4:0.510762 5:0.143496 6:-0.236154 7:-0.185016 8:-0.932356 9:-0.984259 10:0.402685 11:0.343849 12:-0.860694 13:0.289256 14:-0.906424 15:-0.569754 16:-0.826915 17:-0.602015 18:-0.866659 19:-1 20:-1 21:-0.657607 22:-0.876774 23:-0.970958 24:-0.983391 25:-0.609027 26:-0.864552 27:-1 28:-1 29:-0.528938 30:-0.548602 31:-0.755342 32:-0.964669 33:-0.889107 34:-0.869214 35:-1 
2 1:-0.543512 2:-0.754976 3:-0.884347 4:0.155794 5:0.0361984 6:-0.797919 7:-0.387573 8:-0.994757 9:-0.231646 10:0.402685 11:0.337539 12:0.0220291 13:0.305785 14:-0.0167726 15:-0.0269661 16:-0.761667 17:-0.0671927 18:-0.718372 19:-0.00357407 20:-0.624537 21:0.109877 22:-0.64224 23:0.422836 24:-0.717159 25:0.660307 26:-0.675437 27:0.431614 28:-0.737103 29:0.384807 30:-0.6868 31:0.247223 32:-0.688692 33:0.0525174 34:-0.380756 35:-1 
1.0757390367445674 1:-0.760292 2:-0.840722 3:-0.931286 4:0.0984466 5:0.0394067 6:-0.879179 7:-0.381402 8:-0.995954 9:-0.97557 10:0.395973 11:-1 12:-0.00891925 13:0.247934 14:-0.345533 15:-0.772735 16:-0.878743 17:-0.769968 18:-0.874954 19:-0.795712 20:-0.861413 21:-0.756876 22:-0.857107 23:-0.756167 24:-0.756454 25:-0.772751 26:-0.862909 27:-0.780152 28:-0.801476 29:-0.764937 30:-0.65597 31:-0.819724 32:-0.645656 33:-0.711476 34:-0.442232 35:-1 
0.38389135059732726 1:1 2:-0.998977 3:-0.990042 4:0.0284549 5:0.0323228 6:-0.987088 7:-0.394976 8:-0.997089 9:-0.114358 10:0.328859 11:0.343849 12:-0.0791254 13:0.264463 14:-0.0703129 15:-0.594125 16:-0.566051 17:-0.569708 18:-0.565473 19:-0.541691 20:-0.554193 21:-0.523794 22:-0.504338 23:-0.557986 24:-0.551973 25:-0.312912 26:-0.654224 27:-0.247737 28:-0.426438 29:-0.207613 30:-0.282497 31:-0.160755 32:-0.376647 33:-0.492861 34:-0.392409 35:-1 
2 1:-0.92913 2:0.411962 3:-0.987245 4:0.134544 5:0.0282234 6:0.418918 7:-0.430473 8:-0.992534 9:-0.783581 10:0.402685 11:0.343849 12:-0.833329 13:0.280992 14:-0.808044 15:-0.238639 16:-0.893019 17:-1 18:-1 19:-0.149259 20:-0.492409 21:-1 22:-1 23:0.364018 24:-0.643652 25:-1 26:-1 27:-1 28:-1 29:0.517011 30:-0.490873 31:-1 32:-1 33:0.34829 34:-0.310792 35:-1 
0.62528531152374944 1:-0.96248 2:0.730297 3:0.909558 4:0.29245 5:0.547506 6:-0.951804 7:-0.289235 8:-0.715369 9:-0.880137 10:0.395973 11:0.340694 12:-0.876954 13:0.289256 14:-0.878946 15:-0.64596 16:-0.0176025 17:-1 18:-1 19:-0.547581 20:0.0684756 21:-1 22:-1 23:-0.88641 24:-0.685634 25:-0.542489 26:-0.0702281 27:-1 28:-1 29:-0.559389 30:0.0609899 31:-1 32:-1 33:-0.940527 34:-0.793698 35:-1 
1.5537408586868859 1:-0.509119 2:-0.959032 3:-0.980228 4:-0.0148936 5:0.0356372 6:-0.927514 7:-0.411497 8:-0.995927 9:0.0231733 10:0.409396 11:0.334385 12:0.00829983 13:0.231405 14:0.117752 15:-0.693734 16:-0.901026 17:-0.221208 18:-0.0850869 19:-0.213624 20:-0.0309129 21:-0.230305 22:-0.0971599 23:-0.308693 24:-0.281411 25:-0.272828 26:-0.31635 27:-0.320665 28:-0.324995 29:-0.222739 30:0.0317071 31:-0.187069 32:-0.0372093 33:-0.139418 34:0.15057 35:-1 
2 1:-0.976029 2:0.189282 3:-0.881827 4:-0.305863 5:-0.00651126 6:0.0770646 7:-0.248425 8:-0.97498 9:-0.977504 10:0.402685 11:0.340694 12:-0.904908 13:0.289256 14:-0.933035 15:-0.6095 16:-0.655936 17:-1 18:-1 19:-0.636915 20:-0.787917 21:-1 22:-1 23:-0.377487 24:-0.676573 25:-1 26:-1 27:-1 28:-1 29:-0.29931 30:-0.74943 31:-1 32:-1 33:-0.694265 34:-0.79676 35:-1 
2 1:-0.978114 2:0.128339 3:-0.879564 4:0.341758 5:0.0811929 6:0.0620788 7:-0.195734 8:-0.943498 9:-0.963921 10:0.402685 11:0.340694 12:-0.880561 13:0.289256 14:-0.924372 15:-0.944425 16:-0.95712 17:-0.560495 18:-0.539771 19:-1 20:-1 21:-0.506548 22:-0.783822 23:-1 24:-1 25:-0.338908 26:-0.48902 27:-1 28:-1 29:-0.347742 30:-0.634688 31:-1 32:-1 33:-0.721477 34:-0.753817 35:-1 
0.68414968278411237 1:-0.997916 2:0.0850086 3:-0.70808 4:0.467487 5:0.127261 6:-0.166356 7:-0.179788 8:-0.932569 9:-0.988509 10:0.402685 11:0.340694 12:-0.966688 13:0.289256 14:-0.979817 15:-0.936942 16:-0.9801 17:-1 18:-1 19:-0.818439 20:-0.907065 21:-1 22:-1 23:-0.611568 24:-0.882927 25:-1 26:-1 27:-1 28:-1 29:-0.406055 30:-0.558038 31:-1 32:-1 33:-0.546819 34:-0.692067 35:-1 
1.3512694547987747 1:-0.970818 2:0.109279 3:0.258492 4:0.0916793 5:0.212388 6:-0.99483 7:-0.382161 8:-0.934078 9:-0.947498 10:0.402685 11:0.340694 12:-0.875094 13:0.280992 14:-0.915189 15:-0.59701 16:-0.354395 17:-1 18:-1 19:-0.546928 20:-0.548655 21:-1 22:-1 23:-0.4066 24:-0.537884 25:-1 26:-1 27:-1 28:-1 29:-0.365969 30:-0.346157 31:-1 32:-1 33:-0.39894 34:-0.219647 35:-1 
1.6376482199831039 1:-0.993747 2:0.269129 3:-0.298652 4:-0.600241 5:0.105516 6:-0.344408 7:-0.494473 8:-0.974602 9:-0.975996 10:0.409396 11:0.343849 12:-0.912981 13:0.289256 14:-0.9441 15:-0.74839 16:-0.272607 17:-1 18:-1 19:-0.81537 20:-0.48778 21:-1 22:-1 23:-1 24:-1 25:-0.594699 26:-0.666457 27:-1 28:-1 29:-0.244176 30:-0.789408 31:-1 32:-1 33:-0.76386 34:-0.73285 35:0.0737705 
1.0003775374205346 1:-0.952058 2:-0.242844 3:-0.12565 4:-0.0763767 5:0.145081 6:-0.986874 7:-0.415802 8:-0.958999 9:-0.838101 10:0.416107 11:0.340694 12:-0.81044 13:0.297521 14:-0.822563 15:-0.936729 16:-0.848315 17:-0.6 18:-0.522673 19:-1 20:-1 21:0.0737887 22:-0.630654 23:-0.816421 24:-0.665359 25:-0.913559 26:-0.954612 27:0.603305 28:-0.611828 29:-1 30:-1 31:0.65433 32:-0.634197 33:-0.852112 34:-0.696296 35:-1 
0.2415029279030213 1:0.715477 2:-0.999662 3:-0.989804 4:0.0282221 5:0.0310413 6:-0.988059 7:-0.396914 8:-0.997156 9:-0.405836 10:0.38255 11:0.337539 12:-0.232194 13:0.289256 14:-0.307989 15:-0.568684 16:-0.509025 17:-0.64541 18:-0.508887 19:-0.616395 20:-0.520157 21:-0.569695 22:-0.470922 23:-0.587293 24:-0.478333 25:-0.567471 26:-0.508713 27:-0.58507 28:-0.53646 29:-0.572411 30:-0.21255 31:-0.70407 32:-0.103755 33:-0.835737 34:-0.48198 35:-1 
0.58661298392975059 1:-0.996873 2:0.248927 3:-0.618042 4:0.555921 5:0.0769907 6:-0.0854401 7:-0.301684 8:-0.98165 9:-0.986728 10:0.402685 11:0.328076 12:-0.923071 13:0.22314 14:-0.95309 15:-0.3969 16:-0.711042 17:-1 18:-1 19:-0.733471 20:-0.878808 21:-1 22:-1 23:-1 24:-1 25:-0.677098 26:-0.730601 27:-1 28:-1 29:-0.538855 30:-0.504413 31:-1 32:-1 33:-0.711532 34:-0.657358 35:-1 
2 1:-0.953101 2:-0.262945 3:-0.96658 4:0.154739 5:0.0360621 6:-0.278482 7:-0.361802 8:-0.991667 9:-0.975193 10:0.402685 11:0.340694 12:-0.8092 13:0.181818 14:-0.876371 15:-0.856682 16:-0.970631 17:-0.535389 18:-0.694447 19:-1 20:-1 21:-0.735197 22:-0.709749 23:-0.603776 24:-0.864039 25:-1 26:-1 27:-0.526361 28:-0.738829 29:-1 30:-1 31:-0.51343 32:-0.544332 33:-0.680816 34:-0.588358 35:-1 
0.12718269521344852 1:-0.954143 2:-0.162163 3:-0.573185 4:0.42018 5:0.117394 6:-0.542266 7:-0.277612 8:-0.957247 9:-0.966644 10:0.402685 11:0.340694 12:-0.811848 13:0.289256 14:-0.876031 15:-0.834408 16:-0.889515 17:-0.820163 18:-0.551781 19:-1 20:-1 21:-0.614151 22:-0.848454 23:-0.511411 24:-0.73472 25:-1 26:-1 27:-0.276741 28:-0.662142 29:-1 30:-1 31:-0.379292 32:-0.885836 33:-0.711013 34:-0.754563 35:-1 
2 1:-0.951016 2:-0.114265 3:-0.0967137 4:0.280412 5:0.209788 6:-0.908132 7:-0.321589 8:-0.920948 9:-0.938638 10:0.409396 11:0.340694 12:-0.840527 13:0.280992 14:-0.884193 15:-0.0568562 16:-0.51091 17:-1 18:-1 19:-0.496634 20:-0.483317 21:-1 22:-1 23:-0.806143 24:-0.469131 25:-0.824862 26:-0.567325 27:-0.962999 28:-0.938605 29:-0.813174 30:-0.453784 31:-0.95125 32:-0.947646 33:-0.737298 34:-0.737875 35:-1 
-0.42688437290495013 1:-0.890568 2:-0.386142 3:-0.582629 4:-0.351759 5:-0.133097 6:-0.60383 7:-0.18524 8:-0.848692 9:-0.749224 10:0.442953 11:0.350158 12:-0.580176 13:0.396694 14:-0.672835 15:-0.459982 16:-0.521116 17:-1 18:-1 19:0.262846 20:-0.0385034 21:-1 22:-1 23:0.779861 24:0.00682565 25:-1 26:-1 27:-1 28:-1 29:1 30:-0.0186641 31:-1 32:-1 33:0.726685 34:0.486871 35:-1 
-0.43624551909346931 1:-0.707139 2:-0.443625 3:-0.921411 4:0.198874 5:0.0572591 6:-0.485074 7:-0.305327 8:-0.981221 9:-0.545239 10:0.395973 11:0.347003 12:-0.326771 13:0.297521 14:-0.35381 15:-1 16:-1 17:0.0934383 18:-0.872052 19:0.200996 20:-0.854567 21:-1 22:-1 23:0.247548 24:-0.91168 25:0.209731 26:-0.881959 27:-1 28:-1 29:0.150978 30:-0.744536 31:0.458518 32:-0.870075 33:0.541414 34:-0.786903 35:-1 
-0.50947989352599121 1:-0.907243 2:-0.315254 3:-0.563399 4:-0.365767 5:-0.109675 6:-0.592485 7:-0.217331 8:-0.889846 9:-0.770813 10:0.395973 11:0.340694 12:-0.672232 13:0.297521 14:-0.730381 15:-0.711441 16:-0.709531 17:-1 18:-1 19:-0.254668 20:-0.275301 21:-1 22:-1 23:0.257971 24:0.123675 25:-1 26:-1 27:-1 28:-1 29:0.245781 30:0.402954 31:-1 32:-1 33:0.183342 34:0.409238 35:-0.114754 
-2 1:-1 2:-0.453258 3:-0.746616 4:-0.264781 5:-0.151793 6:-0.620634 7:-0.100623 8:-0.72684 9:-0.971289 10:0.402685 11:0.343849 12:-0.961923 13:0.322314 14:-0.976666 15:-0.659548 16:-0.5727 17:-0.507251 18:-0.685265 19:-0.250707 20:-0.26549 21:-1 22:-1 23:-0.501678 24:-0.754512 25:-1 26:-1 27:-1 28:-1 29:-0.618329 30:-0.668784 31:-1 32:-1 33:-0.798552 34:-0.838337 35:-0.245902 
-2 1:-0.706097 2:-0.439748 3:-0.925462 4:0.194858 5:0.0570856 6:-0.480157 7:-0.302946 8:-0.980251 9:-0.540643 10:0.422819 11:0.394322 12:-0.323199 13:0.289256 14:-0.350368 15:-1 16:-1 17:0.0861422 18:-0.92194 19:0.0130624 20:-0.917013 21:-0.866657 22:-0.959164 23:0.209682 24:-0.878775 25:0.235674 26:-0.862693 27:-1 28:-1 29:0.170229 30:-0.75604 31:0.456235 32:-0.747663 33:0.556492 34:-0.727993 35:-1 
-2 1:-0.964565 2:-0.342804 3:-0.535573 4:-0.358354 5:-0.12295 6:-0.632813 7:-0.216015 8:-0.877572 9:-0.915768 10:0.395973 11:0.340694 12:-0.856276 13:0.289256 14:-0.900865 15:-0.817842 16:-0.85751 17:-1 18:-1 19:-0.470512 20:-0.46755 21:-1 22:-1 23:0.232638 24:-0.350246 25:-1 26:-1 27:-1 28:-1 29:0.36391 30:0.451011 31:-1 32:-1 33:0.0392421 34:-0.244846 35:0.00819672 
-1.5694100834118025 1:-0.972903 2:-0.414235 3:-0.288048 4:-0.137701 5:-0.138684 6:-0.959222 7:-0.343739 8:-0.90217 9:-0.94944 10:0.389262 11:0.340694 12:-0.844096 13:0.256198 14:-0.900527 15:-0.944563 16:-0.963812 17:-0.636751 18:-0.359475 19:-0.939356 20:-0.836176 21:0.0229831 22:-0.244866 23:-1 24:-1 25:0.484109 26:-0.584235 27:-1 28:-1 29:0.49484 30:-0.513853 31:-1 32:-1 33:-1 34:-1 35:-0.483607 
-0.42783437746858105 1:-0.789474 2:-0.57107 3:-0.756353 4:0.271387 5:-0.0926245 6:-0.678753 7:-0.586362 8:-0.847292 9:-0.436895 10:0.375839 11:0.350158 12:-0.345039 13:0.239669 14:-0.432901 15:-0.836902 16:-0.520292 17:-0.0431352 18:-0.0171436 19:0.134088 20:0.0523937 21:0.141176 22:0.169762 23:0.386174 24:0.57029 25:-1 26:-1 27:0.826904 28:0.49322 29:-0.311191 30:-0.042484 31:0.110313 32:-0.462367 33:-0.657388 34:-0.723327 35:0.00819672 
-2 1:-0.984367 2:-0.679565 3:-0.754538 4:0.219451 5:-0.135454 6:-0.799722 7:-0.597641 8:-0.77086 9:-0.952469 10:0.402685 11:0.340694 12:-0.915466 13:0.289256 14:-0.93306 15:-0.836801 16:-0.937756 17:-0.890579 18:-0.941233 19:-0.470657 20:-0.323277 21:-0.540164 22:-0.230002 23:-0.295432 24:-0.633065 25:-0.340752 26:-0.437382 27:-0.66955 28:-0.566847 29:-0.150434 30:-0.00248545 31:-1 32:-1 33:-0.828376 34:-0.79223 35:-0.47541 
-0.77885476118928232 1:-0.93851 2:-0.562497 3:-0.923304 4:-0.152425 5:0.158942 6:-0.531221 7:-0.827605 8:-0.545001 9:-0.93668 10:0.402685 11:0.347003 12:-0.742609 13:0.289256 14:-0.832181 15:-0.470901 16:-0.402167 17:-1 18:-1 19:-0.603237 20:-0.809037 21:-0.3296 22:-0.417753 23:-0.508953 24:-0.688436 25:-0.400776 26:-0.226136 27:-1 28:-1 29:-0.329966 30:-0.248626 31:-1 32:-1 33:-0.619817 34:-0.117345 35:-0.47541 
-1.9860096005039793 1:-0.980198 2:-0.684004 3:-1 4:0.0072876 5:0.0417752 6:-0.645867 7:-0.862362 8:-0.31267 9:-0.966682 10:0.402685 11:0.340694 12:-0.989331 13:0.289256 14:-0.989768 15:-0.477838 16:-0.671652 17:-0.833958 18:-0.942757 19:-1 20:-1 21:-0.980031 22:-0.976437 23:-0.648928 24:-0.728015 25:-0.623192 26:-0.801495 27:-0.601093 28:-0.12259 29:-0.624358 30:-0.270443 31:-1 32:-1 33:-1 34:-1 35:-0.47541 
-0.14389741389126742 1:-0.904117 2:-0.666072 3:-0.799218 4:0.202596 5:-0.174919 6:-0.792781 7:-0.677246 8:-0.566455 9:-0.889792 10:0.38255 11:0.340694 12:-0.634018 13:0.297521 14:-0.741459 15:-0.42429 16:-0.156726 17:-0.658463 18:-0.688471 19:-0.305151 20:-0.563718 21:-0.230304 22:-0.0979291 23:-0.379179 24:-0.216581 25:-0.3548 26:-0.428039 27:-0.266853 28:-0.319734 29:-0.845781 30:-0.543324 31:-1 32:-1 33:-0.772761 34:-0.902708 35:-0.188525 
-2 1:-0.750912 2:-0.271793 3:-0.787556 4:-0.294149 5:0.0731351 6:-0.441367 7:-0.490431 8:-0.982404 9:-0.556613 10:0.315436 11:0.347003 12:-0.237203 13:0.380165 14:-0.300311 15:-0.0852823 16:-0.348045 17:-0.130039 18:-0.329662 19:-1 20:-1 21:-0.0814678 22:-0.284254 23:0.061602 24:-0.334762 25:-1 26:-1 27:0.191071 28:-0.206544 29:-1 30:-1 31:0.221886 32:-0.11711 33:-0.265159 34:-0.50896 35:-1 
-0.82131788476637135 1:-0.775925 2:-0.262945 3:-0.997214 4:0.0428248 5:0.0309184 6:-0.265061 7:-0.380822 8:-0.999141 9:-0.626912 10:0.402685 11:0.343849 12:-0.50565 13:0.297521 14:-0.50961 15:-1 16:-1 17:0.0827635 18:-0.836881 19:-1 20:-1 21:0.201313 22:-0.714559 23:0.194089 24:-0.857067 25:-1 26:-1 27:0.191026 28:-0.725926 29:-1 30:-1 31:0.42554 32:-0.757259 33:0.532037 34:-0.755741 35:-0.483607 
-2 1:-0.983325 2:-0.265162 3:-0.956623 4:0.174973 5:0.0424449 6:-0.302041 7:-0.333027 8:-0.992967 9:-0.993268 10:0.409396 11:0.340694 12:-0.941592 13:0.289256 14:-0.962505 15:-1 16:-1 17:-0.974662 18:-0.99448 19:-1 20:-1 21:-0.75398 22:-0.93935 23:-0.637465 24:-0.924663 25:-1 26:-1 27:-0.592115 28:-0.887103 29:-1 30:-1 31:-0.632779 32:-0.860338 33:-0.741956 34:-0.777485 35:-0.47541 
-2 1:-0.935383 2:-0.81746 3:-0.887474 4:-0.0991533 5:0.00396362 6:-0.85468 7:-0.357803 8:-0.977943 9:-0.927146 10:0.402685 11:0.343849 12:-0.963569 13:0.289256 14:-0.964693 15:-0.57424 16:-0.209379 17:-1 18:-1 19:-0.412586 20:-0.420177 21:-1 22:-1 23:-0.619884 24:-0.612893 25:-0.676315 26:-0.459832 27:-1 28:-1 29:-0.351093 30:-0.206069 31:-1 32:-1 33:-0.407511 34:-0.332826 35:-1 
-0.03344792920147209 1:-0.881188 2:-0.83203 3:-0.997909 4:-0.00269861 5:0.0238142 6:-0.773746 7:-0.308992 8:-0.945453 9:-0.804235 10:0.248322 11:0.340694 12:-0.883212 13:0.297521 14:-0.879624 15:0.118071 16:-0.24379 17:0.0100532 18:-0.645206 19:0.0196176 20:-0.57065 21:-0.121405 22:-0.410459 23:-1 24:-1 25:-0.114968 26:-0.0726783 27:-1 28:-1 29:-0.775851 30:-0.0866463 31:-1 32:-1 33:-0.948683 34:-0.863506 35:0.245902 
-2 1:-0.217301 2:-0.965618 3:-0.990703 4:-0.00131276 5:0.00902101 6:-0.951245 7:-0.331157 8:-0.891525 9:-0.594576 10:0.436242 11:0.328076 12:-0.120003 13:-1 14:-0.33385 15:0.190735 16:-0.1822 17:0.155602 18:-0.157443 19:-0.398158 20:-0.590177 21:-0.419222 22:-0.646926 23:-0.394877 24:-0.633219 25:-0.359008 26:-0.638146 27:-0.564501 28:-0.556424 29:-0.380727 30:-0.604491 31:-0.31197 32:-0.550321 33:-0.243084 34:-0.401897 35:-1 
-1.1412978754680678 1:-0.92913 2:-0.14793 3:-0.905683 4:-0.237183 5:0.0843226 6:-0.0972855 7:-0.629118 8:-0.921663 9:-0.791199 10:0.389262 11:0.328076 12:-0.311796 13:0.31405 14:-0.477311 15:1 16:-0.560999 17:-0.826579 18:-0.564537 19:-1 20:-1 21:-0.776862 22:-0.531771 23:-1 24:-1 25:-0.801036 26:-0.595141 27:-1 28:-1 29:-0.798744 30:-0.449927 31:-1 32:-1 33:-0.759618 34:-0.395868 35:-1 
-2 1:-0.367379 2:-0.952051 3:-0.999697 4:0.0210385 5:0.0338429 6:-0.930835 7:-0.310029 8:-0.86761 9:-0.643309 10:0.395973 11:0.353312 12:-0.372637 13:0.247934 14:-0.518477 15:0.331977 16:-0.493708 17:-0.493207 18:-0.535428 19:-0.493012 20:-0.526531 21:-0.547061 22:-0.515924 23:-0.530862 24:-0.77678 25:-0.428969 26:-0.561003 27:-0.760996 28:-0.564051 29:-0.593465 30:-0.698073 31:-0.412123 32:-0.490474 33:-0.5153 34:-0.602098 35:-1 
-2 1:-0.96248 2:-0.744404 3:-0.993701 4:-0.0237995 5:0.0215501 6:-0.695364 7:-0.318601 8:-0.964782 9:-0.959649 10:0.402685 11:0.340694 12:-0.980484 13:0.289256 14:-0.989956 15:-0.711571 16:-0.5602 17:-1 18:-1 19:-0.357973 20:-0.308526 21:-1 22:-1 23:-0.326799 24:-0.393806 25:-1 26:-1 27:-1 28:-1 29:-0.705501 30:-0.453983 31:-1 32:-1 33:-0.969871 34:-0.927095 35:-0.245902 
-2 1:-0.982282 2:-0.963269 3:-0.974194 4:0.0506002 5:0.0794004 6:-0.950206 7:-0.307172 8:-0.815702 9:-0.983991 10:0.402685 11:0.340694 12:-0.981565 13:0.289256 14:-0.985653 15:-0.917099 16:-0.780901 17:-1 18:-1 19:-0.979792 20:-0.984556 21:-0.663141 22:-0.531874 23:-0.736819 24:-0.788909 25:-0.365798 26:-0.26089 27:-0.878334 28:-0.739879 29:-1 30:-1 31:-0.868658 32:-0.827226 33:-0.950818 34:-0.931054 35:-1 
-2 1:-0.987493 2:0.539918 3:-0.125365 4:0.762431 5:0.195573 6:-0.23788 7:-0.192716 8:-0.938547 9:-0.935824 10:0.402685 11:0.340694 12:-0.975708 13:0.289256 14:-0.958342 15:0.0874833 16:-0.683396 17:-1 18:-1 19:-1 20:-1 21:-1 22:-1 23:-0.195492 24:-0.797307 25:-0.920581 26:-0.962121 27:-1 28:-1 29:-1 30:-1 31:-1 32:-1 33:0.326066 34:-0.567127 35:0.00819672 
-2 1:-0.956227 2:-0.81517 3:-0.994046 4:0.0533477 5:0.0460411 6:-0.716873 7:-0.246921 8:-0.90513 9:-0.964656 10:0.422819 11:0.343849 12:-0.917015 13:0.396694 14:-0.940854 15:-0.834531 16:-0.355234 17:-0.704206 18:-0.255004 19:-0.731085 20:-0.828327 21:-0.659457 22:-0.336385 23:-0.612551 24:-0.320205 25:-1 26:-1 27:-0.801485 28:-0.209731 29:-1 30:-1 31:-0.761006 32:-0.499896 33:-0.984413 34:-0.951846 35:0.00819672 
-1.855964727803864 1:-0.984367 2:-0.793968 3:-0.989318 4:0.0651832 5:0.0592365 6:-0.718191 7:-0.189662 8:-0.824767 9:-0.991997 10:0.402685 11:0.340694 12:-0.929626 13:0.289256 14:-0.957877 15:-0.991213 16:-0.885344 17:-0.69316 18:-0.770877 19:-0.705304 20:-0.0724339 21:-0.667908 22:-0.493378 23:-0.974177 24:-0.960158 25:-0.647969 26:-0.637676 27:-1 28:-1 29:-0.726025 30:-0.53274 31:-1 32:-1 33:-0.911373 34:-0.872191 35:-1 
-2 1:-0.923919 2:0.690008 3:0.659693 4:0.647524 5:0.696303 6:-0.711722 7:-0.0280244 8:-0.458206 9:-0.878209 10:0.416107 11:0.337539 12:-0.42199 13:0.289256 14:-0.590662 15:-0.308449 16:-0.372758 17:-0.488299 18:-0.261256 19:-1 20:-1 21:-0.490291 22:-0.179952 23:-1 24:-1 25:-0.38794 26:-0.253001 27:-1 28:-1 29:-0.859391 30:-0.00802684 31:-1 32:-1 33:-0.850555 34:0.170225 35:-1 
-2 1:-0.984367 2:0.257566 3:-0.825458 4:0.412762 5:0.0589052 6:0.0753385 7:-0.303689 8:-0.988375 9:-0.959686 10:0.402685 11:0.37224 12:-0.967238 13:0.454545 14:-0.966408 15:-0.686989 16:-0.92322 17:-1 18:-1 19:-1 20:-1 21:-0.550983 22:-0.85834 23:-1 24:-1 25:-1 26:-1 27:-0.0260021 28:-0.783442 29:-1 30:-1 31:-1 32:-1 33:-0.52564 34:-0.264414 35:-1 
-0.80366945377362875 1:-0.994789 2:0.318856 3:-0.703239 4:0.551494 5:0.275938 6:0.156869 7:0.248102 8:-0.591709 9:-0.948735 10:0.409396 11:0.340694 12:-0.950507 13:0.289256 14:-0.9529 15:-0.92343 16:-0.930865 17:-1 18:-1 19:-1 20:-1 21:-0.241654 22:-0.107116 23:-1 24:-1 25:-1 26:-1 27:0.0524803 28:-0.322769 29:-1 30:-1 31:-1 32:-1 33:-0.806071 34:-0.813717 35:-1 
-1.3297564231304564 1:-0.991662 2:1 3:0.383044 4:1 5:0.882271 6:-0.159122 7:0.486091 8:0.0400336 9:-0.880484 10:0.416107 11:0.340694 12:-0.879512 13:0.289256 14:-0.870939 15:-0.951291 16:-0.921642 17:-1 18:-1 19:-0.893963 20:-0.86436 21:-1 22:-1 23:-0.980031 24:-0.935114 25:-1 26:-1 27:-0.824933 28:-0.971876 29:0.523651 30:-0.786709 31:-1 32:-1 33:1 34:-0.752554 35:-1 
-2 1:-0.99062 2:-0.682528 3:-0.816811 4:0.1927 5:0.272923 6:-0.799578 7:-0.0601092 8:-0.358339 9:-0.978095 10:0.402685 11:0.340694 12:-0.980201 13:0.289256 14:-0.987914 15:-0.862232 16:-0.931823 17:-1 18:-1 19:-0.501796 20:-0.717105 21:-0.750791 22:-0.675598 23:-0.422247 24:0.00944153 25:-0.708684 26:-0.765011 27:-0.512567 28:-0.664802 29:-1 30:-1 31:-0.792647 32:-0.676934 33:-0.816048 34:-0.785741 35:-1 
-1.2253077989207792 1:-0.738405 2:-0.835314 3:-0.834382 4:-0.092809 5:-0.157252 6:-0.910496 7:-0.213838 8:-0.559595 9:-0.671102 10:0.422819 11:0.347003 12:-0.510221 13:1 14:-0.616336 15:-0.627497 16:-0.391003 17:-0.0218598 18:0.245283 19:-0.290445 20:-0.28749 21:-0.847487 22:-0.830862 23:0.282735 24:-0.323497 25:0.0196167 26:-0.549766 27:0.272907 28:-0.486262 29:-0.413987 30:-0.504928 31:-0.672176 32:-0.618657 33:0.0489075 34:-0.240198 35:-0.47541 
-2 1:-0.960396 2:0.220345 3:-0.275385 4:0.606225 5:0.379442 6:-0.421812 7:0.0186651 8:-0.654986 9:-0.953884 10:0.402685 11:0.334385 12:-0.626727 13:0.280992 14:-0.751074 15:-0.391559 16:-0.597218 17:-0.522226 18:-0.473697 19:-1 20:-1 21:-0.359172 22:-0.502699 23:-0.919605 24:-0.593505 25:-1 26:-1 27:-0.906495 28:-0.589675 29:-1 30:-1 31:-0.89221 32:-0.537716 33:-0.867417 34:-0.474811 35:-1 
-0.86117342875136815 1:-0.987493 2:0.974682 3:0.485273 4:-0.899941 5:-0.382394 6:-0.317036 7:-0.0247169 8:-0.759154 9:-0.960703 10:0.402685 11:0.337539 12:-0.790944 13:0.289256 14:-0.861459 15:-0.070094 16:1 17:-1 18:-1 19:-1 20:-1 21:-1 22:-1 23:-1 24:-1 25:-0.489932 26:-0.212081 27:-1 28:-1 29:-1 30:-1 31:-1 32:-1 33:-1 34:-1 35:0.00819672 
-0.3731919662543895 1:-0.943721 2:-0.187951 3:-0.951864 4:0.193951 5:0.0105147 6:-0.230795 7:-0.503371 8:-0.983486 9:-0.928331 10:0.402685 11:0.340694 12:-0.972106 13:0.289256 14:-0.953419 15:-0.0144322 16:-0.636281 17:-1 18:-1 19:-1 20:-1 21:-1 22:-1 23:-0.96736 24:-0.996536 25:-0.0575109 26:-0.815998 27:-1 28:-1 29:-1 30:-1 31:-1 32:-1 33:0.059155 34:-0.744472 35:-0.483607 
-2 1:-0.968734 2:-0.295858 3:-0.329334 4:-0.322655 5:-0.284433 6:-0.792107 7:-0.164451 8:-0.69783 9:-0.936723 10:0.395973 11:0.343849 12:-0.920208 13:0.289256 14:-0.935113 15:-0.401977 16:-0.10112 17:-1 18:-1 19:-0.676278 20:-0.175632 21:-1 22:-1 23:-0.764586 24:-0.635081 25:-0.202181 26:-0.456256 27:-1 28:-1 29:-0.460886 30:-0.536008 31:-1 32:-1 33:-0.828475 34:-0.958145 35:-0.442623 
-0.092255266586372453 1:-0.97186 2:0.427273 3:-0.243196 4:0.801508 5:0.622727 6:-0.0212397 7:0.500075 8:-0.0509927 9:-0.904448 10:0.395973 11:0.340694 12:-0.791773 13:0.289256 14:-0.860093 15:-0.715469 16:-0.142125 17:-0.754844 18:-0.501932 19:-0.859912 20:-0.665763 21:-1 22:-1 23:-0.934402 24:-0.864328 25:-0.0219949 26:0.229194 27:-1 28:-1 29:-1 30:-1 31:-1 32:-1 33:-0.5288 34:-0.401743 35:-1 
-2 1:-0.996873 2:-0.0575684 3:-0.797456 4:0.386344 5:0.00607591 6:-0.189373 7:-0.462797 8:-0.98902 9:-0.950565 10:0.483221 11:0.340694 12:-0.945251 13:0.272727 14:-0.94958 15:-0.689162 16:-0.230291 17:-1 18:-1 19:-0.652567 20:-0.0915649 21:-1 22:-1 23:-0.875973 24:-0.949695 25:-1 26:-1 27:-1 28:-1 29:-0.904811 30:-0.971302 31:-1 32:-1 33:-0.674473 34:-0.692335 35:-1 
-2 1:-0.997916 2:-0.295858 3:-0.940854 4:0.199383 5:0.134892 6:-0.330197 7:0.0701153 8:-0.63233 9:-0.987208 10:0.402685 11:0.340694 12:-0.989256 13:0.289256 14:-0.993425 15:-0.930412 16:-0.655322 17:-1 18:-1 19:-0.857157 20:-0.769181 21:-1 22:-1 23:-0.394238 24:-0.881952 25:-1 26:-1 27:-1 28:-1 29:-0.507293 30:-0.721882 31:-1 32:-1 33:-0.55195 34:-0.758232 35:-1 
-0.83357605901855714 1:-0.979156 2:-0.71566 3:-0.805288 4:0.218652 5:0.217227 6:-0.750431 7:-0.116109 8:-0.635116 9:-0.94803 10:0.395973 11:0.340694 12:-0.946709 13:0.289256 14:-0.956439 15:-0.857555 16:-0.692481 17:-0.227208 18:0.0379302 19:-0.845103 20:-0.811521 21:-0.248975 22:-0.388272 23:-0.843994 24:-0.867961 25:-1 26:-1 27:-0.350418 28:-0.560943 29:-0.629196 30:-0.496673 31:-1 32:-1 33:-0.550251 34:-0.413674 35:-0.0491803 
-2 1:-0.903075 2:-0.330157 3:-0.987926 4:-0.0523898 5:0.0228108 6:-0.302187 7:-0.305624 8:-0.984623 9:-0.912627 10:0.402685 11:0.350158 12:-0.571529 13:0.289256 14:-0.685257 15:-0.00986287 16:-0.860154 17:-0.360906 18:-0.910597 19:-0.62292 20:-0.948757 21:-1 22:-1 23:-0.495814 24:-0.651769 25:-0.680238 26:-0.745964 27:-1 28:-1 29:-0.295114 30:-0.8392 31:-0.244178 32:-0.70796 33:-0.46792 34:-0.723689 35:-1 
-0.74550931113746732 1:-0.969776 2:-0.408269 3:-0.484987 4:-0.300842 5:-0.208218 6:-0.762443 7:-0.181969 8:-0.767741 9:-0.920273 10:0.402685 11:0.340694 12:-0.894036 13:0.289256 14:-0.914677 15:-0.593207 16:-0.914815 17:-1 18:-1 19:-0.490545 20:-0.07802 21:-0.263642 22:-0.693073 23:-1 24:-1 25:-1 26:-1 27:0.0533252 28:-0.106204 29:-1 30:-1 31:-1 32:-1 33:-0.481648 34:-0.49234 35:-1 
-0.46732499657148702 1:-0.778009 2:-0.749716 3:-0.898732 4:-0.119831 5:-0.109696 6:-0.772379 7:-0.117313 8:-0.597508 9:-0.566873 10:0.362416 11:0.347003 12:-0.592655 13:0.297521 14:-0.604263 15:0.664436 16:-0.451427 17:0.400951 18:-0.614305 19:0.368281 20:-0.467947 21:0.32783 22:-0.393604 23:0.17169 24:0.074471 25:0.460593 26:0.208257 27:0.26247 28:-0.091776 29:-0.796143 30:-0.644311 31:-0.00204004 32:-0.190772 33:-0.722125 34:-0.12178 35:-1 
-2 1:-0.992705 2:-0.09474 3:-0.795653 4:-0.342162 5:-0.118558 6:-0.238064 7:-0.0149009 8:-0.78313 9:-0.962049 10:0.402685 11:0.340694 12:-0.983125 13:0.289256 14:-0.977316 15:-1 16:-1 17:-0.950935 18:-0.973176 19:-1 20:-1 21:-0.0499101 22:-0.749836 23:-1 24:-1 25:-0.0851899 26:-0.77435 27:-1 28:-1 29:-0.41678 30:-0.792346 31:-0.797105 32:-0.954167 33:-0.478181 34:-0.84609 35:-1 
-1.0226867930134815 1:-0.939552 2:-0.229297 3:-0.756056 4:-0.320174 5:0.0328857 6:-0.437388 7:-0.402698 8:-1 9:-0.947818 10:0.402685 11:0.340694 12:-0.935824 13:0.289256 14:-0.937687 15:-0.402403 16:-0.540964 17:-1 18:-1 19:-1 20:-1 21:-0.38445 22:-0.476376 23:-1 24:-1 25:-1 26:-1 27:-0.336518 28:-0.642978 29:-1 30:-1 31:-1 32:-1 33:-0.348015 34:-0.478418 35:-1 
-0.4121378158443148 1:-0.973945 2:0.910313 3:1 4:0.611812 5:0.921249 6:-0.786176 7:-0.0106009 8:-0.211732 9:-0.86663 10:0.42953 11:0.33123 12:-0.617918 13:0.272727 14:-0.692378 15:-0.375817 16:0.158385 17:-1 18:-1 19:-0.397453 20:0.000454033 21:-1 22:-1 23:-0.944201 24:-0.894427 25:-1 26:-1 27:-0.972007 28:-0.883224 29:-1 30:-1 31:-1 32:-1 33:0.0261322 34:0.735419 35:-1 
-2 1:-0.921834 2:-0.0450147 3:-0.0658567 4:-0.312705 5:0.324113 6:-0.858921 7:-0.549709 8:-0.815754 9:-0.903445 10:0.402685 11:0.347003 12:-0.695421 13:0.280992 14:-0.761304 15:-0.458234 16:-0.130159 17:-0.786314 18:-0.253998 19:-0.704097 20:-0.463514 21:-0.775028 22:-0.653049 23:-1 24:-1 25:-0.538116 26:-0.674774 27:-1 28:-1 29:-0.568515 30:-0.174585 31:-1 32:-1 33:-0.544671 34:-0.471082 35:-1 
-2 1:-0.992705 2:0.209004 3:-0.630064 4:-0.504005 5:0.295426 6:-0.112176 7:-0.945188 8:-0.621483 9:-0.974753 10:0.402685 11:0.340694 12:-0.923296 13:0.289256 14:-0.943255 15:-0.814508 16:-0.888204 17:-1 18:-1 19:-0.847192 20:-0.915599 21:-1 22:-1 23:-0.72087 24:-0.734142 25:-1 26:-1 27:-1 28:-1 29:-0.176001 30:-0.627657 31:-1 32:-1 33:-0.26128 34:-0.686386 35:-1 
-2 1:-0.974987 2:0.0294054 3:-0.590831 4:-0.456624 5:0.215143 6:-0.339794 7:-0.709799 8:-0.835454 9:-0.960138 10:0.47651 11:0.328076 12:-0.987895 13:0.289256 14:-0.97758 15:-0.472036 16:-0.451444 17:-1 18:-1 19:-1 20:-1 21:-1 22:-1 23:-0.400583 24:-0.435526 25:-1 26:-1 27:-1 28:-1 29:-1 30:-1 31:-1 32:-1 33:-0.434171 34:-0.319869 35:-1 
-0.93497677696726766 1:-0.977071 2:-0.639863 3:-0.983994 4:0.0907428 5:-0.0413281 6:-0.560205 7:-0.923213 8:-0.287377 9:-0.966065 10:0.402685 11:0.205047 12:-0.893748 13:0.289256 14:-0.932626 15:-0.660333 16:-0.635875 17:-0.564665 18:-0.782543 19:-1 20:-1 21:-0.81332 22:-0.917228 23:-0.530418 24:-0.693425 25:-0.980468 26:-0.99653 27:-0.867974 28:-0.581057 29:-0.688909 30:-0.644522 31:-0.749986 32:1 33:-0.872306 34:-0.448321 35:-1 
-2 1:-0.967692 2:0.0504178 3:-0.982597 4:-0.103244 5:0.0510298 6:0.0328839 7:-0.61109 8:-0.950906 9:-0.964728 10:0.402685 11:0.343849 12:-0.948211 13:0.289256 14:-0.953456 15:-0.306141 16:-0.783054 17:-1 18:-1 19:-1 20:-1 21:-0.26286 22:-0.732186 23:-1 24:-1 25:-1 26:-1 27:-0.293129 28:-0.811637 29:-1 30:-1 31:-1 32:-1 33:-0.604173 34:-0.812352 35:-1 
-1.2970055618044396 1:-0.995831 2:-0.620796 3:-0.505873 4:0.0292913 5:-0.272685 6:-0.999887 7:-0.408077 8:-0.629063 9:-0.985221 10:0.402685 11:0.340694 12:-0.955883 13:0.289256 14:-0.9704 15:-0.685258 16:-0.581922 17:-1 18:-1 19:-1 20:-1 21:-0.744783 22:-0.818834 23:-0.922129 24:-0.879794 25:-1 26:-1 27:-0.371543 28:-0.751655 29:-1 30:-1 31:-1 32:-1 33:-0.560706 34:-0.703536 35:-1 
-2 1:-0.966649 2:0.0957628 3:-0.523078 4:0.53289 5:0.0566678 6:-0.331152 7:-0.356416 8:-0.997138 9:-0.962654 10:0.402685 11:0.340694 12:-0.940779 13:0.289256 14:-0.947726 15:-0.321305 16:-0.655137 17:-1 18:-1 19:-1 20:-1 21:-0.336997 22:-0.649942 23:-1 24:-1 25:-1 26:-1 27:-0.330358 28:-0.690001 29:-1 30:-1 31:-1 32:-1 33:-0.513045 34:-0.842797 35:-1 
-2 1:-0.97186 2:0.924526 3:-0.807925 4:-0.509887 5:-0.0084095 6:0.783894 7:-0.238293 8:-0.975656 9:-0.95014 10:0.416107 11:0.343849 12:-0.725411 13:0.297521 14:-0.810315 15:-0.176869 16:-0.711772 17:-0.32305 18:-0.543852 19:-1 20:-1 21:-0.358118 22:-0.583026 23:-1 24:-1 25:-0.198123 26:-0.72807 27:-1 28:-1 29:-0.333363 30:-0.727075 31:-1 32:-1 33:-0.952946 34:-0.80695 35:-1 
-0.41770385438742008 1:-0.932256 2:1 3:-0.916716 4:0.378454 5:0.160818 6:1 7:0.479355 8:-0.570326 9:-0.769095 10:0.375839 11:0.324921 12:-0.548471 13:0.305785 14:-0.600363 15:-0.318968 16:-0.0373068 17:-1 18:-1 19:-0.241697 20:0.084729 21:-1 22:-1 23:-0.209393 24:-0.0209779 25:-1 26:-1 27:-0.866383 28:-0.806337 29:-0.414532 30:-0.0414773 31:-1 32:-1 33:0.220349 34:1 35:-1 
-2 1:-0.824909 2:-0.849206 3:-0.988631 4:-0.0142814 5:0.0297253 6:-0.842385 7:-0.393467 8:-0.998997 9:-0.993035 10:0.234899 11:0.340694 12:-0.337742 13:0.305785 14:-0.56651 15:-0.833297 16:-0.90563 17:-0.856188 18:-0.922106 19:-0.839072 20:-0.880791 21:-0.823589 22:-0.921993 23:-0.781384 24:-0.832461 25:-0.775418 26:-0.817443 27:-0.799359 28:-0.86906 29:-0.815322 30:-0.858605 31:-0.836709 32:-0.92097 33:-0.779496 34:-0.780488 35:-1 
