svm_type c_svc
kernel_type rbf
gamma 0.0078125
nr_class 2
total_sv 576
rho 0.28171146486610782
label 1 2
probA -7.9196672940602566
probB -0.47903708951020418
nr_sv 288 288
SV
0.125 1:-0.984608 2:-0.9916 3:-0.994733 4:-0.01766 5:0.442615 6:-0.975734 7:0.0120171 8:-0.997492 9:-0.999448 10:0.343296 11:0.460152 12:-0.998875 13:-0.32363 14:-0.998918 15:-0.961369 16:-0.842805 17:-0.9735 18:-0.970301 19:-0.977548 20:-0.921994 21:-0.892366 22:-0.904931 23:-0.994046 24:-0.997066 25:-0.819757 26:-0.938139 27:-1 28:-1 29:-0.950653 30:-0.899357 31:-1 32:-1 33:-0.961054 34:-0.973979 35:-0.992633 36:-0.970238 37:-0.943005 38:-0.971671 39:-1 40:-0.983553 41:-0.996575 42:-0.990712 43:-0.997795 44:-0.993902 45:-0.996748 46:-0.984102 47:-0.993399 48:-1 49:-0.99115 50:-0.905512 51:-1 52:-0.986842 53:-0.896907 54:-0.897436 55:-0.97619 56:-0.854545 57:-0.8 58:-1 59:-1 60:-0.0705991 61:-0.376966 62:-0.318841 63:0.51691 64:-0.763002 65:-0.93478 66:-0.478261 67:-0.638627 68:-0.844045 69:-0.800558 70:-0.778171 71:0.636647 72:-0.88707 73:-0.747037 74:-0.582611 75:0.51691 76:-0.763002 77:-0.93478 78:-0.478261 79:-0.638627 80:-0.844045 81:-0.800558 82:-0.778171 83:0.636647 84:-0.88707 85:-0.747037 86:-0.582611 
0.125 1:-0.983909 2:-0.991352 3:-0.994749 4:-0.0176616 5:0.442025 6:-0.975668 7:0.011214 8:-0.998103 9:-0.999453 10:0.343296 11:0.460152 12:-0.99883 13:-0.32363 14:-0.99886 15:-0.967006 16:-0.871317 17:-0.978912 18:-0.980419 19:-0.975158 20:-0.894316 21:-0.923163 22:-0.884005 23:-1 24:-1 25:-0.836344 26:-0.908912 27:-1 28:-1 29:-0.948642 30:-0.913471 31:-1 32:-1 33:-0.945541 34:-0.942111 35:-0.989599 36:-0.985119 37:-0.963731 38:-0.971671 39:-1 40:-0.983553 41:-0.986301 42:-0.990712 43:-0.997795 44:-0.99187 45:-0.996748 46:-0.987281 47:-1 48:-0.98324 49:-0.973451 50:-0.984252 51:-0.944056 52:-0.986842 53:-1 54:-0.923077 55:-0.928571 56:-0.890909 57:-0.9 58:-0.6 59:-0.980198 60:-0.056153 61:-0.374722 62:-0.347826 63:0.469787 64:-0.827863 65:-0.684208 66:-0.550875 67:-0.692673 68:-0.728146 69:-0.768228 70:-0.785176 71:0.621054 72:-0.781273 73:-0.87751 74:-0.528422 75:0.469787 76:-0.827863 77:-0.684208 78:-0.550875 79:-0.692673 80:-0.728146 81:-0.768228 82:-0.785176 83:0.621054 84:-0.781273 85:-0.87751 86:-0.528422 
0.125 1:-0.999067 2:-0.921466 3:-0.916027 4:-0.00385976 5:0.477713 6:-0.988653 7:0.0178478 8:-0.982357 9:-0.99792 10:0.343705 11:0.460152 12:-0.998553 13:-0.323362 14:-0.997955 15:-0.976548 16:-0.963859 17:-1 18:-1 19:-1 20:-1 21:-0.9114 22:-0.908859 23:-1 24:-1 25:-1 26:-1 27:-0.501494 28:-0.786599 29:-1 30:-1 31:-1 32:-1 33:-0.40759 34:-0.848038 35:-0.999567 36:-1 37:-0.989637 38:-0.988669 39:-1 40:-1 41:-1 42:-0.996904 43:-1 44:-0.993902 45:-0.995122 46:-0.993641 47:-0.9967 48:-0.988827 49:-0.99115 50:-0.968504 51:-0.972028 52:-1 53:-0.958763 54:-1 55:-1 56:-0.927273 57:-0.95 58:-0.866667 59:-1 60:-0.152836 61:-0.00555948 62:-0.289855 63:0.111111 64:-0.636599 65:-0.399999 66:-0.466667 67:-0.742044 68:-0.139131 69:0.100917 70:-0.72789 71:-0.285714 72:-0.653678 73:0.357574 74:0.0666688 75:0.111111 76:-0.636599 77:-0.399999 78:-0.466667 79:-0.742044 80:-0.139131 81:0.100917 82:-0.72789 83:-0.285714 84:-0.653678 85:0.357574 86:0.0666688 
0.125 1:-0.986474 2:-0.991452 3:-0.994779 4:-0.0175378 5:0.444625 6:-0.974811 7:0.0148975 8:-0.994896 9:-0.999394 10:0.343296 11:0.460152 12:-0.99919 13:-0.323228 14:-0.999218 15:-0.967909 16:-0.855725 17:-1 18:-1 19:-0.94209 20:-0.843022 21:-1 22:-1 23:-0.897501 24:-0.903333 25:-1 26:-1 27:-1 28:-1 29:-0.781385 30:-0.839803 31:-1 32:-1 33:-0.935477 34:-0.930441 35:-0.990033 36:-0.985119 37:-0.984456 38:-1 39:-0.990491 40:-0.990132 41:-0.993151 42:-0.981424 43:-0.977949 44:-0.99187 45:-0.995122 46:-0.990461 47:-0.990099 48:-0.977654 49:-0.99115 50:-0.968504 51:-0.944056 52:-1 53:-0.979381 54:-1 55:-0.97619 56:-1 57:-1 58:-1 59:-0.960396 60:-0.112982 61:-0.367207 62:-0.217391 63:0.365079 64:-0.870212 65:-0.428571 66:-0.555557 67:-0.74683 68:-0.487579 69:-0.475754 70:-0.902816 71:0.387756 72:-0.505257 73:-0.584413 74:-0.619046 75:0.365079 76:-0.870212 77:-0.428571 78:-0.555557 79:-0.74683 80:-0.487579 81:-0.475754 82:-0.902816 83:0.387756 84:-0.505257 85:-0.584413 86:-0.619046 
0.125 1:-0.999767 2:-0.921217 3:-0.916296 4:-0.00347574 5:0.501327 6:-0.988313 7:0.0235991 8:-0.958867 9:-0.998606 10:0.343296 11:0.460748 12:-0.998901 13:-0.320008 14:-0.998503 15:-0.912781 16:-0.908719 17:-1 18:-1 19:-1 20:-1 21:-1 22:-1 23:-0.565405 24:-0.80211 25:-1 26:-1 27:-1 28:-1 29:-1 30:-1 31:-1 32:-1 33:-0.442338 34:-0.843324 35:-0.999567 36:-1 37:-0.994819 38:-1 39:-0.99683 40:-0.996711 41:-0.982877 42:-0.996904 43:-0.99559 44:-0.995935 45:-0.998374 46:-0.99682 47:-0.993399 48:-0.988827 49:-0.99115 50:-0.984252 51:-0.986014 52:-1 53:-1 54:-0.974359 55:-0.97619 56:-1 57:-1 58:-0.933333 59:-1 60:-0.219816 61:0.0796943 62:-0.188406 63:0.231825 64:-1 65:-0.555556 66:-0.209877 67:-0.637819 68:-0.25604 69:-0.0485908 70:-1 71:-0.142856 72:-0.4228 73:-0.353536 74:-0.0518528 75:0.231825 76:-1 77:-0.555556 78:-0.209877 79:-0.637819 80:-0.25604 81:-0.0485908 82:-1 83:-0.142856 84:-0.4228 85:-0.353536 86:-0.0518528 
0.125 1:-0.985774 2:-0.991435 3:-0.994708 4:-0.0174779 5:0.444462 6:-0.974785 7:0.0146359 8:-0.996338 9:-0.999514 10:0.343296 11:0.460152 12:-0.999201 13:-0.32363 14:-0.99919 15:-0.962863 16:-0.855035 17:-1 18:-1 19:-0.945349 20:-0.836388 21:-1 22:-1 23:-0.910914 24:-0.917511 25:-1 26:-1 27:-1 28:-1 29:-0.831399 30:-0.869488 31:-1 32:-1 33:-0.940018 34:-0.921408 35:-0.990033 36:-0.979167 37:-0.994819 38:-0.994334 39:-0.993661 40:-0.990132 41:-0.989726 42:-0.978328 43:-0.98677 44:-0.987805 45:-0.995122 46:-0.984102 47:-0.980198 48:-0.988827 49:-0.938053 50:-1 51:-1 52:-1 53:-1 54:-1 55:-1 56:-1 57:-0.9 58:-1 59:-0.960396 60:-0.00426324 61:-0.291986 62:-0.115942 63:0.625372 64:-0.874687 65:-0.724138 66:-0.754789 67:-0.848322 68:-0.604198 69:-0.831277 70:-0.906167 71:0.586206 72:-0.820868 73:-0.598743 74:-0.705747 75:0.625372 76:-0.874687 77:-0.724138 78:-0.754789 79:-0.848322 80:-0.604198 81:-0.831277 82:-0.906167 83:0.586206 84:-0.820868 85:-0.598743 86:-0.705747 
0.125 1:-0.986007 2:-0.991343 3:-0.99471 4:-0.0175621 5:0.444306 6:-0.975274 7:0.0143696 8:-0.995079 9:-0.999337 10:0.343296 11:0.460152 12:-0.999088 13:-0.32363 14:-0.999125 15:-0.965073 16:-0.863177 17:-1 18:-1 19:-0.942048 20:-0.838583 21:-1 22:-1 23:-0.909535 24:-0.909309 25:-1 26:-1 27:-1 28:-1 29:-0.758806 30:-0.866501 31:-1 32:-1 33:-0.887655 34:-0.937034 35:-0.989166 36:-0.994048 37:-0.974093 38:-0.971671 39:-0.99683 40:-0.973684 41:-0.989726 42:-0.993808 43:-0.975744 44:-0.995935 45:-0.995122 46:-0.980922 47:-0.9967 48:-0.994413 49:-1 50:-0.984252 51:-1 52:-0.986842 53:-0.979381 54:-0.948718 55:-1 56:-0.927273 57:-0.95 58:-0.866667 59:-1 60:0.0143376 61:-0.344504 62:-0.130435 63:0.414299 64:-0.492933 65:-0.720928 66:-0.751936 67:-0.869815 68:-0.599595 69:-0.530617 70:-0.667776 71:0.581395 72:-0.758379 73:-0.661731 74:-0.702323 75:0.414299 76:-0.492933 77:-0.720928 78:-0.751936 79:-0.869815 80:-0.599595 81:-0.530617 82:-0.667776 83:0.581395 84:-0.758379 85:-0.661731 86:-0.702323 
0.125 1:-0.986241 2:-0.991983 3:-0.994568 4:-0.0174098 5:0.443241 6:-0.97501 7:0.012871 8:-0.996561 9:-0.999302 10:0.343296 11:0.460152 12:-0.999035 13:-0.32363 14:-0.999036 15:-0.960598 16:-0.861578 17:-0.944617 18:-0.967699 19:-0.91572 20:-0.850765 21:-0.931359 22:-0.93843 23:-1 24:-1 25:-0.851412 26:-0.903808 27:-1 28:-1 29:-0.947831 30:-0.902954 31:-1 32:-1 33:-0.990401 34:-0.996735 35:-0.993499 36:-0.970238 37:-0.974093 38:-0.96034 39:-1 40:-0.990132 41:-1 42:-0.990712 43:-0.99559 44:-0.997967 45:-0.996748 46:-0.993641 47:-0.993399 48:-0.988827 49:-1 50:-0.889764 51:-0.902098 52:-0.960526 53:-0.938144 54:-0.923077 55:-0.97619 56:-0.927273 57:-0.9 58:-0.866667 59:-1 60:-0.0774374 61:-0.333674 62:-0.333333 63:0.616557 64:-0.615226 65:-0.92941 66:-0.811765 67:-0.962756 68:-0.864961 69:-0.525094 70:-0.471788 71:0.697479 72:-0.511075 73:-1 74:-0.924704 75:0.616557 76:-0.615226 77:-0.92941 78:-0.811765 79:-0.962756 80:-0.864961 81:-0.525094 82:-0.471788 83:0.697479 84:-0.511075 85:-1 86:-0.924704 
0.125 1:-0.986474 2:-0.982366 3:-0.999791 4:-0.0288326 5:0.439426 6:-0.899062 7:0.0273855 8:-0.989005 9:-0.997978 10:0.343296 11:0.460152 12:-0.998245 13:-0.323764 14:-0.997914 15:-0.952995 16:-0.968857 17:-0.963582 18:-0.987437 19:-1 20:-1 21:-0.740523 22:-0.788524 23:-0.825997 24:-0.816323 25:-1 26:-1 27:-0.796217 28:-0.893569 29:-1 30:-1 31:-0.888143 32:-0.910552 33:-0.986756 34:-0.995497 35:-0.999133 36:-0.994048 37:-1 38:-0.983003 39:-0.993661 40:-0.996711 41:-0.989726 42:-0.98452 43:-0.997795 44:-0.995935 45:-0.995122 46:-0.987281 47:-0.960396 48:-0.98324 49:-0.929204 50:-0.905512 51:-0.958042 52:-0.986842 53:-0.917526 54:-0.820513 55:-0.809524 56:-0.963636 57:-0.9 58:-1 59:-1 60:-0.388895 61:-0.130135 62:-0.391304 63:0.223985 64:0.16807 65:-0.85714 66:-0.936507 67:-0.914334 68:-0.760871 69:0.310617 70:-0.51409 71:0.387756 72:-0.196042 73:-0.722944 74:-0.847616 75:0.223985 76:0.16807 77:-0.85714 78:-0.936507 79:-0.914334 80:-0.760871 81:0.310617 82:-0.51409 83:0.387756 84:-0.196042 85:-0.722944 86:-0.847616 
0.125 1:-0.986007 2:-0.992271 3:-0.994563 4:-0.0174174 5:0.442945 6:-0.975072 7:0.0124602 8:-0.99641 9:-0.999213 10:0.343296 11:0.460152 12:-0.999 13:-0.32363 14:-0.999002 15:-0.892217 16:-0.810707 17:-0.939222 18:-0.915602 19:-0.946116 20:-0.914847 21:-0.925907 22:-0.93722 23:-1 24:-1 25:-0.839958 26:-0.89989 27:-1 28:-1 29:-0.950714 30:-0.894444 31:-1 32:-1 33:-0.990401 34:-0.996735 35:-0.9948 36:-0.964286 37:-0.963731 38:-0.971671 39:-0.990491 40:-0.993421 41:-0.993151 42:-0.993808 43:-0.997795 44:-0.995935 45:-1 46:-0.990461 47:-0.990099 48:-0.988827 49:-0.946903 50:-0.905512 51:-1 52:-0.960526 53:-0.896907 54:-0.948718 55:-0.928571 56:-0.927273 57:-0.9 58:-1 59:-1 60:-0.074982 61:-0.328216 62:-0.304348 63:0.724376 64:-0.68308 65:-0.930232 66:-0.937984 67:-0.963305 68:-0.866531 69:-0.829314 70:-0.477931 71:0.820599 72:-0.818784 73:-0.932346 74:-0.925581 75:0.724376 76:-0.68308 77:-0.930232 78:-0.937984 79:-0.963305 80:-0.866531 81:-0.829314 82:-0.477931 83:0.820599 84:-0.818784 85:-0.932346 86:-0.925581 
0.125 1:-0.987407 2:-0.982366 3:-0.999801 4:-0.0288165 5:0.439425 6:-0.898835 7:0.0275383 8:-0.988649 9:-0.998243 10:0.343296 11:0.460152 12:-0.99856 13:-0.32363 14:-0.998313 15:-0.95944 16:-0.979271 17:-0.983773 18:-0.991698 19:-1 20:-1 21:-0.752645 22:-0.786133 23:-1 24:-1 25:-0.810032 26:-0.808074 27:-1 28:-1 29:-0.804004 30:-0.856278 31:-1 32:-1 33:-0.891301 34:-0.9325 35:-0.999567 36:-0.997024 37:-0.989637 38:-1 39:-0.99683 40:-0.993421 41:-0.989726 42:-0.987616 43:-0.993385 44:-0.997967 45:-0.998374 46:-0.977742 47:-0.970297 48:-0.972067 49:-0.973451 50:-0.92126 51:-0.93007 52:-0.960526 53:-0.958763 54:-0.974359 55:-0.928571 56:-0.890909 57:-0.45 58:-0.933333 59:-0.960396 60:-0.447536 61:-0.0984728 62:-0.449275 63:0.37037 64:-0.0460772 65:-0.85 66:-1 67:-0.984925 68:-0.713044 69:-0.174312 70:-0.438776 71:0.421429 72:-0.480519 73:-0.927273 74:-0.36 75:0.37037 76:-0.0460772 77:-0.85 78:-1 79:-0.984925 80:-0.713044 81:-0.174312 82:-0.438776 83:0.421429 84:-0.480519 85:-0.927273 86:-0.36 
0.125 1:-0.993237 2:-0.968065 3:-0.970518 4:-0.0433054 5:0.451762 6:-0.979994 7:0.0033999 8:-0.992748 9:-0.999402 10:0.346162 11:0.459258 12:-0.998313 13:-0.32363 14:-0.998373 15:-0.997268 16:-0.988609 17:-0.946817 18:-0.848346 19:-1 20:-1 21:-0.955378 22:-0.859353 23:-1 24:-1 25:-0.939251 26:-0.819075 27:-1 28:-1 29:-0.878357 30:-0.876899 31:-1 32:-1 33:-0.959949 34:-0.917201 35:-0.9987 36:-1 37:-0.994819 38:-1 39:-1 40:-0.960526 41:-0.993151 42:-0.987616 43:-0.997795 44:-0.995935 45:-0.993496 46:-0.993641 47:-0.9967 48:-1 49:-0.982301 50:-0.984252 51:-0.986014 52:-0.973684 53:-0.917526 54:-0.897436 55:-0.857143 56:-1 57:-1 58:-1 59:-0.960396 60:-0.468861 61:-0.262774 62:-0.492754 63:-0.07744 64:-0.405346 65:-0.345453 66:-0.321211 67:-0.571493 68:-0.0608692 69:-0.332778 70:-0.851576 71:0.0649363 72:-0.622197 73:0.0578502 74:-0.418182 75:-0.07744 76:-0.405346 77:-0.345453 78:-0.321211 79:-0.571493 80:-0.0608692 81:-0.332778 82:-0.851576 83:0.0649363 84:-0.622197 85:0.0578502 86:-0.418182 
0.125 1:-0.993237 2:-0.979464 3:-0.98716 4:-0.0459302 5:0.449331 6:-0.939077 7:-0.0028799 8:-0.991064 9:-0.999252 10:0.343296 11:0.459854 12:-0.998276 13:-0.32363 14:-0.99829 15:-0.934486 16:-0.834405 17:-1 18:-1 19:-0.732487 20:-0.830904 21:-1 22:-1 23:-0.952112 24:-0.876694 25:-1 26:-1 27:-1 28:-1 29:-0.911502 30:-0.837597 31:-1 32:-1 33:-0.914148 34:-0.948499 35:-0.996533 36:-0.997024 37:-0.979275 38:-0.988669 39:-1 40:-0.983553 41:-0.989726 42:-0.993808 43:-0.988975 44:-0.995935 45:-0.993496 46:-0.993641 47:-0.9967 48:-0.988827 49:-0.99115 50:-0.968504 51:-0.986014 52:-0.947368 53:-0.958763 54:-1 55:-1 56:-0.963636 57:-1 58:-0.933333 59:-0.980198 60:-0.100455 61:-0.242812 62:-0.246377 63:0.245793 64:-1 65:-0.018183 66:-0.709093 67:-0.717678 68:-0.739131 69:-0.0658899 70:-0.628943 71:0.392207 72:-0.338842 73:-0.788428 74:-0.650912 75:0.245793 76:-1 77:-0.018183 78:-0.709093 79:-0.717678 80:-0.739131 81:-0.0658899 82:-0.628943 83:0.392207 84:-0.338842 85:-0.788428 86:-0.650912 
0.125 1:-0.993004 2:-0.991674 3:-0.994669 4:-0.0178295 5:0.43716 6:-0.977044 7:0.00469878 8:-0.996915 9:-0.999642 10:0.343296 11:0.460152 12:-0.999579 13:-0.32363 14:-0.999546 15:-0.996075 16:-0.984472 17:-0.990531 18:-0.975958 19:-0.999683 20:-0.991928 21:-0.937481 22:-0.893287 23:-1 24:-1 25:-0.833026 26:-0.935298 27:-1 28:-1 29:-0.944126 30:-0.909847 31:-1 32:-1 33:-0.995753 34:-0.969434 35:-0.995233 36:-0.991071 37:-0.979275 38:-0.983003 39:-1 40:-1 41:-0.986301 42:-0.996904 43:-0.993385 44:-0.997967 45:-0.995122 46:-0.990461 47:-0.983498 48:-0.994413 49:-0.99115 50:-0.952756 51:-0.986014 52:-0.986842 53:-0.979381 54:-0.923077 55:-0.97619 56:-1 57:-0.95 58:-0.933333 59:-1 60:0.033728 61:-0.199544 62:-0.173913 63:0.94709 64:-1 65:-1 66:-1 67:-0.974157 68:-0.948758 69:-1 70:-1 71:0.954082 72:-1 73:-1 74:-1 75:0.94709 76:-1 77:-1 78:-1 79:-0.974157 80:-0.948758 81:-1 82:-1 83:0.954082 84:-1 85:-1 86:-1 
0.125 1:-0.986474 2:-0.984378 3:-0.999532 4:-0.0214465 5:0.425155 6:-0.915705 7:-0.128092 8:-0.511138 9:-0.998298 10:0.343296 11:0.459556 12:-0.998345 13:-0.324167 14:-0.997891 15:-0.700232 16:-0.9552 17:-1 18:-1 19:-0.738767 20:-0.897235 21:-1 22:-1 23:-0.741026 24:-0.898338 25:-1 26:-1 27:-1 28:-1 29:-0.746867 30:-0.90753 31:-1 32:-1 33:-0.712227 34:-0.943606 35:-0.991766 36:-0.967262 37:-0.984456 38:-0.966006 39:-0.987322 40:-0.996711 41:-0.979452 42:-0.996904 43:-0.99559 44:-0.995935 45:-0.998374 46:-0.993641 47:-0.993399 48:-0.994413 49:-0.982301 50:-0.92126 51:-0.986014 52:-0.986842 53:-0.979381 54:-0.897436 55:-0.952381 56:-1 57:-0.85 58:-0.933333 59:-0.960396 60:0.0189301 61:-0.338812 62:-0.246377 63:0.0123467 64:-0.351071 65:-0.642856 66:-0.238096 67:-0.483608 68:-0.316771 69:-0.0825688 70:-0.902816 71:-0.193878 72:-0.196042 73:0.316015 74:-0.542854 75:0.0123467 76:-0.351071 77:-0.642856 78:-0.238096 79:-0.483608 80:-0.316771 81:-0.0825688 82:-0.902816 83:-0.193878 84:-0.196042 85:0.316015 86:-0.542854 
0.125 1:-0.985774 2:-0.982343 3:-0.999779 4:-0.0290055 5:0.439689 6:-0.898409 7:0.0226766 8:-0.991426 9:-0.997864 10:0.343296 11:0.460152 12:-0.998383 13:-0.323496 14:-0.998076 15:-0.967001 16:-0.986371 17:-0.97397 18:-0.993271 19:-1 20:-1 21:-0.740501 22:-0.790334 23:-1 24:-1 25:-0.809585 26:-0.822587 27:-1 28:-1 29:-0.753946 30:-0.857234 31:-1 32:-1 33:-0.854638 34:-0.925591 35:-0.999567 36:-1 37:-0.994819 38:-0.994334 39:-1 40:-0.983553 41:-1 42:-0.987616 43:-0.993385 44:-0.995935 45:-0.996748 46:-0.990461 47:-0.950495 48:-0.977654 49:-0.964602 50:-0.889764 51:-0.972028 52:-0.947368 53:-0.979381 54:-0.948718 55:-0.857143 56:-0.818182 57:-0.55 58:-0.733333 59:-0.980198 60:-0.463823 61:-0.0896335 62:-0.449275 63:0.489144 64:-0.49876 65:-0.586204 66:-1 67:-0.963841 68:-0.637181 69:-0.409468 70:-0.765424 71:0.586206 72:-0.880577 73:-0.866246 74:-0.337933 75:0.489144 76:-0.49876 77:-0.586204 78:-1 79:-0.963841 80:-0.637181 81:-0.409468 82:-0.765424 83:0.586206 84:-0.880577 85:-0.866246 86:-0.337933 
0.125 1:-0.980644 2:-0.979845 3:-0.981455 4:-0.0378782 5:0.439492 6:-0.984832 7:0.00990834 8:-0.997354 9:-0.99831 10:0.343705 11:0.460152 12:-0.997449 13:-0.32363 14:-0.997254 15:-0.913441 16:-0.949354 17:-0.964082 18:-0.953398 19:-0.893309 20:-0.837176 21:-0.996989 22:-0.978003 23:-0.902816 24:-0.837076 25:-0.837528 26:-0.755128 27:-1 28:-1 29:-0.93608 30:-0.749417 31:-1 32:-1 33:-0.948002 34:-0.911448 35:-0.992199 36:-0.824405 37:-0.989637 38:-0.971671 39:-0.99683 40:-0.973684 41:-0.996575 42:-0.996904 43:-1 44:-1 45:-0.996748 46:-0.993641 47:-1 48:-0.994413 49:-1 50:-0.984252 51:-0.958042 52:-0.986842 53:-0.979381 54:-1 55:-0.97619 56:-0.963636 57:-1 58:-1 59:-1 60:-0.467721 61:-0.77076 62:-0.42029 63:-0.168874 64:0.150207 65:-0.339447 66:-0.657493 67:-0.696557 68:-0.210213 69:0.380356 70:-0.737878 71:0.0563554 72:-0.189803 73:-0.359465 74:-0.412845 75:-0.168874 76:0.150207 77:-0.339447 78:-0.657493 79:-0.696557 80:-0.210213 81:0.380356 82:-0.737878 83:0.0563554 84:-0.189803 85:-0.359465 86:-0.412845 
0.125 1:-0.9993 2:-0.97296 3:-0.976955 4:-0.0428083 5:0.436365 6:-0.975889 7:0.0120344 8:-0.99836 9:-0.999918 10:0.343296 11:0.460152 12:-0.999676 13:-0.32363 14:-0.999697 15:-0.983446 16:-0.912026 17:-1 18:-1 19:-1 20:-1 21:-0.937849 22:-0.900392 23:-1 24:-1 25:-1 26:-1 27:-0.931683 28:-0.891209 29:-1 30:-1 31:-1 32:-1 33:-0.984215 34:-0.952494 35:-0.999567 36:-1 37:-0.968912 38:-1 39:-1 40:-0.963816 41:-1 42:-0.990712 43:-1 44:-1 45:-1 46:-1 47:-0.9967 48:-1 49:-1 50:-0.984252 51:-1 52:-0.960526 53:-1 54:-1 55:-1 56:-1 57:-0.9 58:-1 59:-1 60:-0.8206 61:-0.835507 62:-0.84058 63:-0.0217126 64:-0.436106 65:-1 66:0.103451 67:-0.247618 68:-0.406296 69:-0.620374 70:-0.718506 71:-0.0640388 72:-1 73:0.404387 74:-0.558618 75:-0.0217126 76:-0.436106 77:-1 78:0.103451 79:-0.247618 80:-0.406296 81:-0.620374 82:-0.718506 83:-0.0640388 84:-1 85:0.404387 86:-0.558618 
0.125 1:-0.985308 2:-0.991023 3:-0.991997 4:-0.0201171 5:0.443892 6:-0.992204 7:0.0113393 8:-0.99848 9:-0.999662 10:0.343296 11:0.460152 12:-0.997978 13:-0.32363 14:-0.998024 15:-0.936546 16:-0.972618 17:-0.98766 18:-0.961342 19:-0.939259 20:-0.878678 21:-0.945703 22:-0.894382 23:-1 24:-1 25:-0.93126 26:-0.951943 27:-0.922818 28:-0.925386 29:-0.918709 30:-0.946462 31:-0.967527 32:-0.906441 33:-0.981701 34:-0.897195 35:-0.999567 36:-0.997024 37:-0.984456 38:-0.988669 39:-0.987322 40:-0.990132 41:-0.982877 42:-0.93808 43:-0.975744 44:-0.997967 45:-0.964228 46:-0.99682 47:-0.990099 48:-1 49:-0.982301 50:-0.937008 51:-0.972028 52:-1 53:-0.979381 54:-1 55:-1 56:-0.963636 57:-1 58:-1 59:-0.980198 60:-0.605945 61:-0.473371 62:-0.478261 63:-0.36496 64:-0.0200487 65:0.0786511 66:-0.520597 67:-0.761616 68:-0.0972151 69:0.401916 70:-0.357947 71:0.162118 72:-0.357943 73:-0.411642 74:-0.424717 75:-0.36496 76:-0.0200487 77:0.0786511 78:-0.520597 79:-0.761616 80:-0.0972151 81:0.401916 82:-0.357947 83:0.162118 84:-0.357943 85:-0.411642 86:-0.424717 
0.125 1:-0.961987 2:-0.986489 3:-0.990576 4:-0.0382732 5:0.426235 6:-0.968167 7:0.0261148 8:-0.967538 9:-0.993726 10:0.342886 11:0.46045 12:-0.99595 13:-0.323496 14:-0.996078 15:-0.771272 16:-0.628222 17:-1 18:-1 19:-0.74254 20:-0.745926 21:-0.948432 22:-0.93 23:-1 24:-1 25:-0.712811 26:-0.747933 27:-1 28:-1 29:-0.880914 30:-0.844241 31:-1 32:-1 33:-0.737973 34:-0.917154 35:-0.993933 36:-0.97619 37:-0.92228 38:-0.898017 39:-0.974643 40:-0.973684 41:-0.989726 42:-0.972136 43:-0.977949 44:-0.973577 45:-0.973984 46:-0.971383 47:-0.976898 48:-0.910615 49:-0.938053 50:-0.92126 51:-0.944056 52:-0.907895 53:-0.938144 54:-0.897436 55:-1 56:-0.963636 57:-0.85 58:-1 59:-1 60:-0.251472 61:-0.30571 62:-0.275362 63:0.388596 64:-0.538541 65:-0.365079 66:-0.943563 67:-0.978145 68:-0.711526 69:-0.126257 70:-0.568082 71:0.564626 72:-0.642686 73:-0.507456 74:-0.932275 75:0.388596 76:-0.538541 77:-0.365079 78:-0.943563 79:-0.978145 80:-0.711526 81:-0.126257 82:-0.568082 83:0.564626 84:-0.642686 85:-0.507456 86:-0.932275 
0.125 1:-0.985774 2:-0.982366 3:-0.999805 4:-0.0288734 5:0.439953 6:-0.898225 7:0.0192571 8:-0.992831 9:-0.997829 10:0.343296 11:0.460152 12:-0.998763 13:-0.32363 14:-0.998447 15:-0.960787 16:-0.96183 17:-1 18:-1 19:-0.735701 20:-0.785697 21:-1 22:-1 23:-0.727697 24:-0.803495 25:-1 26:-1 27:-1 28:-1 29:-0.765304 30:-0.855348 31:-1 32:-1 33:-0.839308 34:-0.94197 35:-0.998267 36:-1 37:-0.968912 38:-0.994334 39:-1 40:-0.996711 41:-0.993151 42:-0.993808 43:-0.99118 44:-0.993902 45:-0.995122 46:-0.990461 47:-0.990099 48:-0.916201 49:-0.99115 50:-0.905512 51:-1 52:-0.960526 53:-0.938144 54:-0.897436 55:-0.857143 56:-0.672727 57:-0.75 58:-1 59:-0.960396 60:-0.377685 61:-0.157954 62:-0.449275 63:0.421031 64:-0.937346 65:-0.310341 66:-0.693488 67:-0.917634 68:-0.373313 69:-0.746914 70:-0.953086 71:0.615764 72:-0.940291 73:-0.331241 74:-0.926438 75:0.421031 76:-0.937346 77:-0.310341 78:-0.693488 79:-0.917634 80:-0.373313 81:-0.746914 82:-0.953086 83:0.615764 84:-0.940291 85:-0.331241 86:-0.926438 
0.125 1:-0.984375 2:-0.991699 3:-0.994719 4:-0.0177148 5:0.441615 6:-0.976101 7:0.0106334 8:-0.997759 9:-0.999123 10:0.343296 11:0.460152 12:-0.99879 13:-0.32363 14:-0.998739 15:-0.944037 16:-0.827755 17:-1 18:-1 19:-0.946972 20:-0.815687 21:-0.97413 22:-0.972466 23:-0.930576 24:-0.848644 25:-0.916028 26:-0.945667 27:-0.939648 28:-0.969781 29:-0.926246 30:-0.952845 31:-0.933625 32:-0.906873 33:-0.933979 34:-0.943989 35:-0.989166 36:-0.97619 37:-0.984456 38:-0.966006 39:-0.987322 40:-0.993421 41:-0.982877 42:-0.996904 43:-0.993385 44:-0.99187 45:-0.995122 46:-0.990461 47:-0.993399 48:-0.972067 49:-0.973451 50:-0.968504 51:-0.93007 52:-1 53:-0.979381 54:-0.974359 55:-0.952381 56:-0.927273 57:-0.9 58:-1 59:-1 60:-0.0439932 61:-0.361682 62:-0.217391 63:0.745123 64:-0.941386 65:-0.677422 66:-0.942651 67:-0.966824 68:-0.814867 69:-0.605406 70:-0.210008 71:0.585254 72:-0.720712 73:-0.812317 74:-0.587098 75:0.745123 76:-0.941386 77:-0.677422 78:-0.942651 79:-0.966824 80:-0.814867 81:-0.605406 82:-0.210008 83:0.585254 84:-0.720712 85:-0.812317 86:-0.587098 
0.125 1:-0.966884 2:-0.991748 3:-0.99272 4:-0.020163 5:0.446767 6:-0.99156 7:0.0135045 8:-0.994748 9:-0.998882 10:0.342477 11:0.460152 12:-0.99659 13:-0.325776 14:-0.996523 15:-0.981714 16:-0.956877 17:-0.930729 18:-0.955323 19:-0.909938 20:-0.859357 21:-0.911979 22:-0.840728 23:-0.954871 24:-0.85915 25:-1 26:-1 27:-0.947742 28:-0.805712 29:-0.895169 30:-0.813188 31:-0.947196 32:-0.851524 33:-0.966386 34:-0.917744 35:-0.991766 36:-0.982143 37:-0.984456 38:-0.96034 39:-0.977813 40:-0.950658 41:-0.917808 42:-0.93808 43:-0.940463 44:-0.985772 45:-0.988618 46:-0.980922 47:-0.990099 48:-0.988827 49:-0.973451 50:-0.968504 51:-0.972028 52:-0.986842 53:-1 54:-0.974359 55:-0.97619 56:-0.927273 57:-0.95 58:-1 59:-0.980198 60:-0.495212 61:-0.518194 62:-0.405797 63:-0.428572 64:0.330303 65:-0.035715 66:-0.619045 67:-0.698971 68:-0.316771 69:0.529053 70:-0.246841 71:-0.0714291 72:0.0513299 73:-0.480518 74:-0.238093 75:-0.428572 76:0.330303 77:-0.035715 78:-0.619045 79:-0.698971 80:-0.316771 81:0.529053 82:-0.246841 83:-0.0714291 84:0.0513299 85:-0.480518 86:-0.238093 
0.125 1:-0.982976 2:-0.986993 3:-0.999364 4:-0.0307375 5:0.437816 6:-0.924657 7:0.0288662 8:-0.982071 9:-0.99713 10:0.345752 11:0.460152 12:-0.998556 13:-0.324167 14:-0.998204 15:-0.736103 16:-0.921515 17:-1 18:-1 19:-0.778729 20:-0.877713 21:-1 22:-1 23:-1 24:-1 25:-0.797216 26:-0.915315 27:-1 28:-1 29:-0.833188 30:-0.926004 31:-1 32:-1 33:-0.941977 34:-0.953286 35:-0.999133 36:-0.994048 37:-1 38:-0.994334 39:-0.993661 40:-0.986842 41:-0.996575 42:-0.987616 43:-0.99118 44:-0.993902 45:-0.99187 46:-0.987281 47:-0.970297 48:-0.960894 49:-0.867257 50:-0.811024 51:-0.944056 52:-0.973684 53:-0.917526 54:-0.897436 55:-0.928571 56:-0.890909 57:-0.9 58:-0.933333 59:-1 60:-0.328972 61:0.0719185 62:-0.26087 63:0.640853 64:-0.834819 65:-0.818182 66:-0.73064 67:-0.827319 68:-0.797102 69:-0.851728 70:-0.917543 71:0.792208 72:-1 73:-0.882461 74:-0.676768 75:0.640853 76:-0.834819 77:-0.818182 78:-0.73064 79:-0.827319 80:-0.797102 81:-0.851728 82:-0.917543 83:0.792208 84:-1 85:-0.882461 86:-0.676768 
0.125 1:-0.984375 2:-0.991691 3:-0.994715 4:-0.0177077 5:0.441794 6:-0.976082 7:0.0108769 8:-0.99753 9:-0.9991 10:0.343296 11:0.460152 12:-0.998817 13:-0.32363 14:-0.998769 15:-0.948347 16:-0.838182 17:-1 18:-1 19:-0.946194 20:-0.812887 21:-1 22:-1 23:-0.918394 24:-0.81069 25:-0.966657 26:-0.970456 27:-0.847765 28:-0.913463 29:-0.956286 30:-0.946018 31:-0.934438 32:-0.901039 33:-0.94156 34:-0.955612 35:-0.992199 36:-0.967262 37:-0.979275 38:-0.966006 39:-0.990491 40:-0.986842 41:-0.989726 42:-0.98452 43:-1 44:-0.997967 45:-0.996748 46:-0.984102 47:-1 48:-0.96648 49:-0.982301 50:-0.905512 51:-0.986014 52:-0.986842 53:-0.938144 54:-0.897436 55:-1 56:-0.927273 57:-0.9 58:-0.8 59:-1 60:-0.0509112 61:-0.352319 62:-0.289855 63:0.745123 64:-1 65:-0.677422 66:-0.885307 67:-0.94521 68:-0.722301 69:-0.723783 70:-0.473339 71:0.640553 72:-0.720712 73:-0.812317 74:-0.72473 75:0.745123 76:-1 77:-0.677422 78:-0.885307 79:-0.94521 80:-0.722301 81:-0.723783 82:-0.473339 83:0.640553 84:-0.720712 85:-0.812317 86:-0.72473 
0.125 1:-0.98694 2:-0.982343 3:-0.999808 4:-0.0288626 5:0.440023 6:-0.898107 7:0.018225 8:-0.993537 9:-0.998086 10:0.343296 11:0.460152 12:-0.998881 13:-0.32363 14:-0.998608 15:-0.972348 16:-0.983385 17:-1 18:-1 19:-0.735735 20:-0.790267 21:-1 22:-1 23:-0.75986 24:-0.797646 25:-1 26:-1 27:-1 28:-1 29:-0.764062 30:-0.853315 31:-1 32:-1 33:-0.85272 34:-0.940214 35:-0.999133 36:-1 37:-0.979275 38:-1 39:-0.987322 40:-0.996711 41:-0.996575 42:-0.993808 43:-0.993385 44:-0.993902 45:-0.993496 46:-0.993641 47:-0.990099 48:-0.910615 49:-0.99115 50:-0.952756 51:-1 52:-0.934211 53:-0.958763 54:-0.948718 55:-0.857143 56:-0.709091 57:-0.7 58:-1 59:-0.940594 60:-0.391296 61:-0.138006 62:-0.449275 63:0.566397 64:-1 65:-0.268293 66:-0.93496 67:-0.961025 68:-0.510074 69:-0.597226 70:-1 71:0.592334 72:-1 73:-0.645231 74:-0.453658 75:0.566397 76:-1 77:-0.268293 78:-0.93496 79:-0.961025 80:-0.510074 81:-0.597226 82:-1 83:0.592334 84:-1 85:-0.645231 86:-0.453658 
0.125 1:-0.972715 2:-0.984777 3:-0.984364 4:-0.0200891 5:0.4476 6:-0.995934 7:0.011534 8:-0.996213 9:-0.997978 10:0.342886 11:0.460152 12:-0.995184 13:-0.32363 14:-0.994884 15:-0.924536 16:-0.767645 17:-0.894177 18:-0.831465 19:-0.88532 20:-0.833733 21:-1 22:-1 23:-0.869103 24:-0.772725 25:-0.927215 26:-0.781989 27:-1 28:-1 29:-0.885303 30:-0.763644 31:-0.981075 32:-0.890463 33:-0.98509 34:-0.967927 35:-0.996966 36:-1 37:-0.979275 38:-1 39:-0.990491 40:-0.990132 41:-0.94863 42:-0.987616 43:-0.964719 44:-0.989837 45:-0.965854 46:-0.949126 47:-0.980198 48:-0.955307 49:-0.946903 50:-0.905512 51:-0.916084 52:-0.960526 53:-0.979381 54:-0.974359 55:-1 56:-0.854545 57:-0.85 58:-0.933333 59:-0.940594 60:-0.364309 61:-0.171594 62:-0.318841 63:-0.36752 64:-0.00891236 65:-0.034965 66:-0.403264 67:-0.461855 68:0.103677 69:-0.127479 70:-0.857286 71:-0.384616 72:0.271455 73:0.220596 74:-0.507693 75:-0.36752 76:-0.00891236 77:-0.034965 78:-0.403264 79:-0.461855 80:0.103677 81:-0.127479 82:-0.857286 83:-0.384616 84:0.271455 85:0.220596 86:-0.507693 
0.125 1:-0.979944 2:-0.983243 3:-0.983531 4:-0.0326375 5:0.431337 6:-0.994532 7:0.0126739 8:-0.994128 9:-0.998968 10:0.343296 11:0.460152 12:-0.997235 13:-0.32363 14:-0.99717 15:-0.934565 16:-0.882875 17:-0.97319 18:-0.880954 19:-1 20:-1 21:-0.927493 22:-0.824102 23:-1 24:-1 25:-0.936844 26:-0.822126 27:-0.941487 28:-0.762222 29:-1 30:-1 31:-0.911253 32:-0.834441 33:-0.961941 34:-0.940575 35:-0.997833 36:-0.991071 37:-0.979275 38:-1 39:-0.987322 40:-0.976974 41:-0.993151 42:-1 43:-0.988975 44:-0.981707 45:-1 46:-0.990461 47:-0.937294 48:-0.988827 49:-1 50:-0.779528 51:-0.846154 52:-1 53:-0.793814 54:-0.820513 55:-0.952381 56:-1 57:-0.8 58:-1 59:-1 60:-0.721761 61:-0.66366 62:-0.73913 63:-0.296296 64:0.362747 65:-0.196425 66:-0.761904 67:-0.866474 68:0.204192 69:0.572738 70:-0.890669 71:-0.354592 72:0.205938 73:0.0389585 74:-0.314285 75:-0.296296 76:0.362747 77:-0.196425 78:-0.761904 79:-0.866474 80:0.204192 81:0.572738 82:-0.890669 83:-0.354592 84:0.205938 85:0.0389585 86:-0.314285 
0.125 1:-0.976679 2:-0.986973 3:-0.999427 4:-0.0304908 5:0.437707 6:-0.921352 7:0.0316336 8:-0.974425 9:-0.995053 10:0.343296 11:0.460748 12:-0.99674 13:-0.323228 14:-0.996429 15:-0.649187 16:-0.822039 17:-1 18:-1 19:-0.710934 20:-0.642992 21:-1 22:-1 23:-0.764017 24:-0.620703 25:-1 26:-1 27:-0.838256 28:-0.927107 29:-1 30:-1 31:-0.945485 32:-0.946838 33:-1 34:-1 35:-0.9961 36:-0.991071 37:-0.974093 38:-0.988669 39:-0.993661 40:-0.993421 41:-0.989726 42:-0.98452 43:-0.99559 44:-0.965447 45:-0.993496 46:-0.980922 47:-0.933993 48:-0.905028 49:-0.946903 50:-0.905512 51:-0.944056 52:-0.973684 53:-0.938144 54:-0.871795 55:-1 56:-0.927273 57:-1 58:-1 59:-1 60:-0.250454 61:-0.0628293 62:-0.202899 63:0.647265 64:-0.913476 65:-0.619048 66:-0.830688 67:-0.914334 68:-0.703933 69:-0.592253 70:-0.676061 71:0.632654 72:-0.587714 73:-0.769117 74:-0.898413 75:0.647265 76:-0.913476 77:-0.619048 78:-0.830688 79:-0.914334 80:-0.703933 81:-0.592253 82:-0.676061 83:0.632654 84:-0.587714 85:-0.769117 86:-0.898413 
0.125 1:-0.988106 2:-0.982295 3:-0.999815 4:-0.0288072 5:0.439978 6:-0.898305 7:0.0190685 8:-0.991821 9:-0.998198 10:0.343296 11:0.460152 12:-0.99895 13:-0.32363 14:-0.998784 15:-0.983257 16:-0.996261 17:-1 18:-1 19:-0.744002 20:-0.792667 21:-1 22:-1 23:-0.714617 24:-0.816664 25:-1 26:-1 27:-1 28:-1 29:-0.789103 30:-0.819082 31:-1 32:-1 33:-0.856758 34:-0.928304 35:-0.999567 36:-1 37:-0.984456 38:-0.983003 39:-0.99683 40:-0.993421 41:-0.989726 42:-0.990712 43:-0.997795 44:-0.995935 45:-0.998374 46:-0.987281 47:-0.976898 48:-0.938547 49:-0.982301 50:-0.92126 51:-1 52:-0.973684 53:-0.876289 54:-0.948718 55:-0.928571 56:-0.890909 57:-0.45 58:-1 59:-1 60:-0.410896 61:-0.153326 62:-0.449275 63:0.46128 64:-1 65:-0.688312 66:-0.445888 67:-0.514064 68:-0.813665 69:-0.761706 70:-0.840976 71:0.465678 72:-0.662675 73:-0.924439 74:-0.251949 75:0.46128 76:-1 77:-0.688312 78:-0.445888 79:-0.514064 80:-0.813665 81:-0.761706 82:-0.840976 83:0.465678 84:-0.662675 85:-0.924439 86:-0.251949 
0.125 1:-0.985075 2:-0.991764 3:-0.994817 4:-0.0179412 5:0.443137 6:-0.977009 7:0.012665 8:-0.997157 9:-0.999113 10:0.343296 11:0.460152 12:-0.999047 13:-0.32363 14:-0.998946 15:-0.956559 16:-0.836585 17:-1 18:-1 19:-0.944754 20:-0.811186 21:-1 22:-1 23:-0.896042 24:-0.789099 25:-1 26:-1 27:-0.832576 28:-0.843899 29:-0.947226 30:-0.906404 31:-1 32:-1 33:-0.975056 34:-0.975132 35:-0.991333 36:-0.97619 37:-0.974093 38:-0.971671 39:-0.984152 40:-0.980263 41:-0.996575 42:-0.990712 43:-0.997795 44:-0.985772 45:-0.998374 46:-0.993641 47:-0.983498 48:-0.960894 49:-1 50:-0.905512 51:-1 52:-0.986842 53:-0.979381 54:-0.948718 55:-0.97619 56:-1 57:-1 58:-0.866667 59:-1 60:-0.0713339 61:-0.353866 62:-0.188406 63:0.769547 64:-0.939434 65:-0.866668 66:-0.822224 67:-0.920716 68:-0.840579 69:-0.551479 70:-0.319727 71:0.514286 72:-0.711397 73:-0.612119 74:-0.644442 75:0.769547 76:-0.939434 77:-0.866668 78:-0.822224 79:-0.920716 80:-0.840579 81:-0.551479 82:-0.319727 83:0.514286 84:-0.711397 85:-0.612119 86:-0.644442 
0.125 1:-0.984608 2:-0.991699 3:-0.994625 4:-0.0175111 5:0.441264 6:-0.975319 7:0.0101632 8:-0.998328 9:-0.999364 10:0.343296 11:0.460152 12:-0.998698 13:-0.32363 14:-0.998701 15:-0.957853 16:-0.840264 17:-0.991474 18:-0.989886 19:-0.950878 20:-0.845868 21:-0.970057 22:-0.880661 23:-1 24:-1 25:-0.847971 26:-0.920816 27:-1 28:-1 29:-0.956177 30:-0.899648 31:-1 32:-1 33:-0.915481 34:-0.928237 35:-0.991766 36:-0.970238 37:-0.968912 38:-0.96034 39:-0.993661 40:-0.993421 41:-0.989726 42:-0.987616 43:-0.99559 44:-1 45:-0.998374 46:-0.987281 47:-1 48:-0.994413 49:-0.99115 50:-0.92126 51:-0.958042 52:-0.960526 53:-0.979381 54:-0.846154 55:-1 56:-0.927273 57:-0.9 58:-0.6 59:-0.980198 60:-0.0473929 61:-0.360505 62:-0.347826 63:0.774557 64:-1 65:-0.93478 66:-0.710144 67:-0.878961 68:-0.719282 69:-0.920224 70:-0.733808 71:0.664596 72:-0.830603 73:-0.936756 74:-0.513043 75:0.774557 76:-1 77:-0.93478 78:-0.710144 79:-0.878961 80:-0.719282 81:-0.920224 82:-0.733808 83:0.664596 84:-0.830603 85:-0.936756 86:-0.513043 
0.125 1:-0.973414 2:-0.986973 3:-0.999408 4:-0.030591 5:0.436538 6:-0.920941 7:0.0401306 8:-0.961141 9:-0.992907 10:0.342477 11:0.460152 12:-0.996411 13:-0.323764 14:-0.99558 15:-0.749511 16:-0.875182 17:-0.967922 18:-0.983207 19:-0.739817 20:-0.923667 21:-1 22:-1 23:-0.705337 24:-0.641173 25:-1 26:-1 27:-0.736657 28:-0.585536 29:-1 30:-1 31:-0.813725 32:-0.90672 33:-0.935549 34:-0.967058 35:-0.995666 36:-0.991071 37:-0.974093 38:-0.977337 39:-0.984152 40:-0.996711 41:-0.976027 42:-0.978328 43:-1 44:-0.961382 45:-0.990244 46:-0.993641 47:-0.927393 48:-0.927374 49:-0.911504 50:-0.889764 51:-0.944056 52:-0.973684 53:-0.835052 54:-0.974359 55:-0.97619 56:-0.963636 57:-1 58:-0.933333 59:-1 60:-0.233732 61:-0.088129 62:-0.202899 63:0.470901 64:-0.766387 65:-0.657142 66:-0.657141 67:-0.837761 68:-0.651552 69:-0.344694 70:-0.883384 71:0.467347 72:-0.443413 73:-0.75065 74:-0.68 75:0.470901 76:-0.766387 77:-0.657142 78:-0.657141 79:-0.837761 80:-0.651552 81:-0.344694 82:-0.883384 83:0.467347 84:-0.443413 85:-0.75065 86:-0.68 
0.125 1:-0.983442 2:-0.982343 3:-0.99977 4:-0.0290467 5:0.439659 6:-0.898576 7:0.0229133 8:-0.990468 9:-0.997388 10:0.343296 11:0.460152 12:-0.998003 13:-0.32363 14:-0.997656 15:-0.949668 16:-0.973378 17:-0.973581 18:-0.991625 19:-1 20:-1 21:-0.741038 22:-0.813914 23:-0.974895 24:-0.989542 25:-0.683641 26:-0.790745 27:-1 28:-1 29:-0.754982 30:-0.851894 31:-1 32:-1 33:-0.804828 34:-0.960884 35:-0.998267 36:-1 37:-1 38:-0.994334 39:-0.987322 40:-0.996711 41:-0.989726 42:-0.990712 43:-0.99118 44:-0.995935 45:-0.993496 46:-0.984102 47:-0.980198 48:-0.955307 49:-0.893805 50:-0.984252 51:-0.93007 52:-0.986842 53:-0.85567 54:-0.974359 55:-0.880952 56:-0.818182 57:-0.45 58:-0.933333 59:-0.960396 60:-0.396379 61:-0.151871 62:-0.449275 63:0.358533 64:-0.269453 65:-0.690724 66:-0.890032 67:-0.927162 68:-0.704168 69:-0.0163633 70:-0.537135 71:0.469808 72:-0.143127 73:-0.820055 74:-1 75:0.358533 76:-0.269453 77:-0.690724 78:-0.890032 79:-0.927162 80:-0.704168 81:-0.0163633 82:-0.537135 83:0.469808 84:-0.143127 85:-0.820055 86:-1 
0.125 1:-0.984841 2:-0.991625 3:-0.994636 4:-0.0174873 5:0.441962 6:-0.975139 7:0.0111273 8:-0.997832 9:-0.999358 10:0.343296 11:0.460152 12:-0.998803 13:-0.32363 14:-0.998816 15:-0.951824 16:-0.846356 17:-0.989923 18:-0.991873 19:-0.953673 20:-0.830859 21:-0.973808 22:-0.939545 23:-0.977886 24:-0.965977 25:-0.846748 26:-0.912726 27:-1 28:-1 29:-0.951211 30:-0.937546 31:-0.991528 32:-0.976778 33:-0.946796 34:-0.955403 35:-0.987866 36:-0.97619 37:-0.963731 38:-0.971671 39:-0.993661 40:-0.990132 41:-0.982877 42:-0.993808 43:-0.988975 44:-0.981707 45:-0.996748 46:-0.987281 47:-0.973597 48:-0.994413 49:-0.99115 50:-1 51:-1 52:-1 53:-1 54:-1 55:-1 56:-1 57:-1 58:-1 59:-1 60:-0.0161971 61:-0.342245 62:0.130435 63:0.6744 64:-0.820297 65:-0.934066 66:-0.70696 67:-0.899608 68:-0.65313 69:-0.75804 70:-0.820588 71:0.632654 72:-0.885829 73:-0.872128 74:-0.578022 75:0.6744 76:-0.820297 77:-0.934066 78:-0.70696 79:-0.899608 80:-0.65313 81:-0.75804 82:-0.820588 83:0.632654 84:-0.885829 85:-0.872128 86:-0.578022 
0.125 1:-0.983442 2:-0.986993 3:-0.999388 4:-0.030638 5:0.437884 6:-0.924903 7:0.028716 8:-0.981938 9:-0.997371 10:0.343296 11:0.460152 12:-0.998645 13:-0.32363 14:-0.998387 15:-0.751729 16:-0.924487 17:-1 18:-1 19:-0.776584 20:-0.874612 21:-1 22:-1 23:-1 24:-1 25:-0.811141 26:-0.914494 27:-1 28:-1 29:-0.86287 30:-0.937381 31:-1 32:-1 33:-0.928253 34:-0.961973 35:-0.999567 36:-0.997024 37:-0.989637 38:-1 39:-1 40:-0.990132 41:-0.989726 42:-0.996904 43:-0.99118 44:-0.987805 45:-0.990244 46:-0.980922 47:-0.963696 48:-0.96648 49:-0.867257 50:-0.92126 51:-0.874126 52:-0.934211 53:-0.979381 54:-0.846154 55:-0.928571 56:-0.963636 57:-0.95 58:-1 59:-1 60:-0.372042 61:0.0881654 62:-0.231884 63:0.602901 64:-0.606629 65:-0.752578 66:-0.945019 67:-0.90644 68:-0.8225 69:-0.659508 70:-0.957922 71:0.787924 72:-0.946447 73:-0.760076 74:-0.868038 75:0.602901 76:-0.606629 77:-0.752578 78:-0.945019 79:-0.90644 80:-0.8225 81:-0.659508 82:-0.957922 83:0.787924 84:-0.946447 85:-0.760076 86:-0.868038 
0.125 1:-0.98694 2:-0.982366 3:-0.999801 4:-0.0289164 5:0.440035 6:-0.898286 7:0.0178697 8:-0.992508 9:-0.998026 10:0.342886 11:0.460152 12:-0.998841 13:-0.32363 14:-0.998632 15:-0.973461 16:-0.993912 17:-1 18:-1 19:-0.743047 20:-0.790398 21:-1 22:-1 23:-0.718199 24:-0.787 25:-1 26:-1 27:-1 28:-1 29:-0.767812 30:-0.85256 31:-1 32:-1 33:-0.854597 34:-0.933557 35:-0.9987 36:-0.991071 37:-1 38:-0.994334 39:-0.993661 40:-0.993421 41:-0.989726 42:-0.993808 43:-0.99559 44:-0.997967 45:-0.996748 46:-0.984102 47:-0.990099 48:-0.944134 49:-0.964602 50:-0.92126 51:-0.986014 52:-0.960526 53:-0.958763 54:-0.948718 55:-0.833333 56:-0.854545 57:-0.45 58:-0.866667 59:-0.980198 60:-0.362471 61:-0.129695 62:-0.449275 63:0.421861 64:-1 65:-0.121953 66:-0.80488 67:-0.887485 68:-0.26511 69:-0.731483 70:-0.950224 71:0.498258 72:-0.809948 73:-0.716189 74:-0.37561 75:0.421861 76:-1 77:-0.121953 78:-0.80488 79:-0.887485 80:-0.26511 81:-0.731483 82:-0.950224 83:0.498258 84:-0.809948 85:-0.716189 86:-0.37561 
0.125 1:-0.984375 2:-0.991476 3:-0.994607 4:-0.0174751 5:0.441393 6:-0.975196 7:0.0103402 8:-0.998081 9:-0.999394 10:0.342477 11:0.460152 12:-0.99872 13:-0.325106 14:-0.998752 15:-0.952553 16:-0.833423 17:-0.989356 18:-0.992436 19:-0.967792 20:-0.860975 21:-0.973681 22:-0.879541 23:-1 24:-1 25:-0.838836 26:-0.909896 27:-1 28:-1 29:-0.957666 30:-0.908176 31:-1 32:-1 33:-0.909728 34:-0.961203 35:-0.987866 36:-0.970238 37:-0.963731 38:-0.977337 39:-0.987322 40:-0.993421 41:-0.989726 42:-0.993808 43:-0.980154 44:-0.987805 45:-0.998374 46:-0.980922 47:-0.976898 48:-0.98324 49:-1 50:-1 51:-1 52:-1 53:-1 54:-1 55:-1 56:-1 57:-1 58:-1 59:-1 60:-0.0106607 61:-0.348655 62:0.130435 63:0.776981 64:-0.941386 65:-0.87097 66:-0.827957 67:-0.923596 68:-0.784011 69:-0.684323 70:-0.736669 71:0.612902 72:-0.832426 73:-0.812317 74:-0.518278 75:0.776981 76:-0.941386 77:-0.87097 78:-0.827957 79:-0.923596 80:-0.784011 81:-0.684323 82:-0.736669 83:0.612902 84:-0.832426 85:-0.812317 86:-0.518278 
0.125 1:-0.986241 2:-0.982319 3:-0.999803 4:-0.0288841 5:0.440024 6:-0.898286 7:0.0181253 8:-0.99296 9:-0.997849 10:0.343296 11:0.460152 12:-0.99876 13:-0.32363 14:-0.998466 15:-0.960626 16:-0.957905 17:-1 18:-1 19:-0.734658 20:-0.787581 21:-1 22:-1 23:-0.71375 24:-0.78412 25:-1 26:-1 27:-1 28:-1 29:-0.778007 30:-0.862329 31:-1 32:-1 33:-0.839402 34:-0.93298 35:-0.9987 36:-1 37:-0.984456 38:-0.994334 39:-0.993661 40:-0.996711 41:-0.989726 42:-0.993808 43:-0.993385 44:-0.99187 45:-0.996748 46:-0.987281 47:-0.986799 48:-0.916201 49:-1 50:-0.952756 51:-1 52:-0.947368 53:-0.876289 54:-0.974359 55:-0.880952 56:-0.818182 57:-0.45 58:-0.933333 59:-0.980198 60:-0.387418 61:-0.140369 62:-0.449275 63:0.442267 64:-0.807613 65:-0.294117 66:-0.874512 67:-0.891811 68:-0.324809 69:-0.697787 70:-0.759902 71:0.515967 72:-0.877771 73:-0.383959 74:-0.698822 75:0.442267 76:-0.807613 77:-0.294117 78:-0.874512 79:-0.891811 80:-0.324809 81:-0.697787 82:-0.759902 83:0.515967 84:-0.877771 85:-0.383959 86:-0.698822 
0.125 1:-0.997901 2:-0.985323 3:-0.999292 4:-0.0312426 5:0.442772 6:-0.919991 7:-0.00538622 8:-0.992764 9:-0.999756 10:0.343296 11:0.460152 12:-0.999914 13:-0.32363 14:-0.999884 15:-0.995599 16:-0.986831 17:-1 18:-1 19:-1 20:-1 21:-0.981132 22:-0.953188 23:-1 24:-1 25:-1 26:-1 27:-0.82033 28:-0.907974 29:-1 30:-1 31:-1 32:-1 33:-0.916611 34:-0.962113 35:-0.999567 36:-1 37:-1 38:-0.983003 39:-1 40:-1 41:-0.996575 42:-0.990712 43:-0.997795 44:-1 45:-1 46:-0.993641 47:-0.9967 48:-1 49:-1 50:-1 51:-0.944056 52:-0.960526 53:-1 54:-0.948718 55:-0.809524 56:-0.963636 57:-1 58:-0.933333 59:-0.940594 60:-0.16216 61:0.120639 62:-0.318841 63:0.830687 64:-1 65:-1 66:-1 67:-0.89519 68:-0.836025 69:-0.895152 70:-1 71:0.779593 72:-1 73:-0.833769 74:-0.817146 75:0.830687 76:-1 77:-1 78:-1 79:-0.89519 80:-0.836025 81:-0.895152 82:-1 83:0.779593 84:-1 85:-0.833769 86:-0.817146 
0.125 1:-0.998134 2:-0.973974 3:-0.993355 4:-0.0452397 5:0.438909 6:-0.890241 7:0.0136777 8:-0.998096 9:-0.999838 10:0.343296 11:0.460152 12:-0.999417 13:-0.32363 14:-0.999446 15:-0.923834 16:-0.943649 17:-1 18:-1 19:-0.894079 20:-0.926555 21:-1 22:-1 23:-1 24:-1 25:-0.938673 26:-0.831318 27:-1 28:-1 29:-0.932251 30:-0.9048 31:-1 32:-1 33:-0.978948 34:-0.980403 35:-0.996533 36:-1 37:-1 38:-1 39:-1 40:-1 41:-1 42:-1 43:-1 44:-1 45:-1 46:-1 47:-0.924092 48:-1 49:-1 50:-1 51:-1 52:-1 53:-1 54:-1 55:-1 56:-1 57:-1 58:-1 59:-0.960396 60:-0.964417 61:-0.967708 62:-0.971014 63:-0.307188 64:0.603234 65:-0.647056 66:-0.686272 67:-0.773574 68:-0.240409 69:0.618994 70:-0.759902 71:0.168069 72:-0.541636 73:-0.144384 74:-0.623526 75:-0.307188 76:0.603234 77:-0.647056 78:-0.686272 79:-0.773574 80:-0.240409 81:0.618994 82:-0.759902 83:0.168069 84:-0.541636 85:-0.144384 86:-0.623526 
0.125 1:-0.983909 2:-0.99165 3:-0.994611 4:-0.0174779 5:0.441369 6:-0.975193 7:0.0103087 8:-0.997925 9:-0.99931 10:0.343296 11:0.46045 12:-0.9987 13:-0.32363 14:-0.998719 15:-0.957039 16:-0.834229 17:-0.987146 18:-0.993702 19:-0.949136 20:-0.824508 21:-0.974164 22:-0.874351 23:-0.983494 24:-0.978931 25:-0.837902 26:-0.905111 27:-1 28:-1 29:-0.956899 30:-0.907313 31:-1 32:-1 33:-0.921227 34:-0.948506 35:-0.986566 36:-0.967262 37:-0.968912 38:-0.977337 39:-0.984152 40:-1 41:-0.986301 42:-0.987616 43:-0.98677 44:-0.989837 45:-0.995122 46:-0.977742 47:-0.986799 48:-0.977654 49:-1 50:-1 51:-1 52:-1 53:-1 54:-1 55:-1 56:-1 57:-1 58:-1 59:-1 60:-0.0155842 61:-0.375519 62:0.130435 63:0.719298 64:-0.88524 65:-0.873682 66:-0.77544 67:-0.904257 68:-0.758351 69:-0.690969 70:-0.785176 71:0.621054 72:-0.835953 73:-0.693777 74:-0.663155 75:0.719298 76:-0.88524 77:-0.873682 78:-0.77544 79:-0.904257 80:-0.758351 81:-0.690969 82:-0.785176 83:0.621054 84:-0.835953 85:-0.693777 86:-0.663155 
0.125 1:-0.985774 2:-0.982366 3:-0.99981 4:-0.0288224 5:0.440073 6:-0.897806 7:0.0175971 8:-0.992832 9:-0.998117 10:0.343296 11:0.460152 12:-0.998655 13:-0.32363 14:-0.998501 15:-0.987921 16:-0.974277 17:-1 18:-1 19:-0.741665 20:-0.786837 21:-1 22:-1 23:-0.705558 24:-0.804173 25:-1 26:-1 27:-1 28:-1 29:-0.767977 30:-0.852894 31:-1 32:-1 33:-0.851764 34:-0.923965 35:-0.997833 36:-0.997024 37:-0.994819 38:-0.994334 39:-0.993661 40:-0.993421 41:-0.979452 42:-0.993808 43:-0.99559 44:-0.99187 45:-0.996748 46:-0.987281 47:-0.986799 48:-0.927374 49:-0.973451 50:-0.92126 51:-0.972028 52:-1 53:-0.938144 54:-1 55:-0.857143 56:-0.709091 57:-0.6 58:-0.933333 59:-0.980198 60:-0.365207 61:-0.179713 62:-0.449275 63:0.5232 64:-0.49876 65:-0.655174 66:-1 67:-0.986947 68:-0.736132 69:-0.198565 70:-0.765424 71:0.527094 72:-0.880577 73:-0.799372 74:-0.337933 75:0.5232 76:-0.49876 77:-0.655174 78:-1 79:-0.986947 80:-0.736132 81:-0.198565 82:-0.765424 83:0.527094 84:-0.880577 85:-0.799372 86:-0.337933 
0.125 1:-0.98764 2:-0.993229 3:-0.996952 4:-0.0317351 5:0.461439 6:-0.977777 7:-0.0266861 8:-0.873447 9:-0.999873 10:0.343296 11:0.460152 12:-0.999281 13:-0.32363 14:-0.999302 15:-0.972575 16:-0.971524 17:-1 18:-1 19:-0.944105 20:-0.936875 21:-0.968616 22:-0.970918 23:-0.932248 24:-0.972537 25:-1 26:-1 27:-0.926443 28:-0.934192 29:-0.912591 30:-0.935748 31:-1 32:-1 33:-0.955976 34:-0.972985 35:-0.9974 36:-0.985119 37:-0.974093 38:-0.988669 39:-0.99683 40:-1 41:-0.996575 42:-0.996904 43:-0.984564 44:-0.99187 45:-0.993496 46:-0.990461 47:-0.973597 48:-0.988827 49:-0.938053 50:-0.952756 51:-0.958042 52:-0.973684 53:-1 54:-0.846154 55:-0.952381 56:-0.854545 57:-0.95 58:-1 59:-0.980198 60:-0.0801471 61:-0.0511185 62:-0.217391 63:0.962495 64:-1 65:-1 66:-1 67:-0.984607 68:-1 69:-0.860642 70:-1 71:0.90235 72:-1 73:-1 74:-1 75:0.962495 76:-1 77:-1 78:-1 79:-0.984607 80:-1 81:-0.860642 82:-1 83:0.90235 84:-1 85:-1 86:-1 
0.125 1:-0.99417 2:-0.98177 3:-0.994903 4:-0.039963 5:0.438142 6:-0.923825 7:0.0153678 8:-0.998095 9:-0.999709 10:0.336336 11:0.460748 12:-0.998913 13:-0.32363 14:-0.998921 15:-0.908139 16:-0.918241 17:-1 18:-1 19:-0.942555 20:-0.964552 21:-1 22:-1 23:-0.986748 24:-0.89011 25:-1 26:-1 27:-0.946108 28:-0.851425 29:-0.914261 30:-0.922479 31:-0.982327 32:-0.974676 33:-0.941165 34:-0.981192 35:-0.992199 36:-1 37:-1 38:-1 39:-0.961965 40:-1 41:-1 42:-1 43:-0.964719 44:-1 45:-1 46:-1 47:-0.9967 48:-1 49:-1 50:-1 51:-0.958042 52:-1 53:-1 54:-1 55:-1 56:-1 57:-1 58:-1 59:-1 60:-0.915828 61:-0.951748 62:-0.913043 63:0.0123467 64:-0.465591 65:0.294117 66:-1 67:-0.970637 68:0.462915 69:-0.208492 70:-0.839935 71:-0.058824 72:-0.185127 73:-0.543674 74:0.0039232 75:0.0123467 76:-0.465591 77:0.294117 78:-1 79:-0.970637 80:0.462915 81:-0.208492 82:-0.839935 83:-0.058824 84:-0.185127 85:-0.543674 86:0.0039232 
0.125 1:-0.951959 2:-0.992318 3:-0.99586 4:-0.0334112 5:0.44489 6:-0.972522 7:0.00215336 8:-0.995302 9:-0.997267 10:0.342477 11:0.46045 12:-0.989758 13:-0.323496 14:-0.989539 15:-0.932733 16:-0.849817 17:-0.941739 18:-0.859317 19:-0.934972 20:-0.794691 21:-0.929732 22:-0.863785 23:-0.949445 24:-0.822667 25:-0.897169 26:-0.852391 27:-0.914127 28:-0.886868 29:-0.881102 30:-0.696523 31:-0.915352 32:-0.721683 33:-0.881335 34:-0.843901 35:-0.9974 36:-0.988095 37:-0.958549 38:-0.903683 39:-0.939778 40:-0.914474 41:-0.886986 42:-0.913313 43:-0.971334 44:-0.98374 45:-0.973984 46:-0.971383 47:-0.953795 48:-0.960894 49:-0.964602 50:-0.905512 51:-0.888112 52:-0.986842 53:-0.958763 54:-1 55:-0.97619 56:-1 57:-1 58:-0.933333 59:-1 60:-0.258181 61:-0.151753 62:-0.0289855 63:-0.259259 64:-0.236862 65:0.0500011 66:-0.44 67:-0.758794 68:0.0904343 69:-0.00917431 70:-0.612245 71:0.151429 72:-0.454545 73:-0.214545 74:-0.456 75:-0.259259 76:-0.236862 77:0.0500011 78:-0.44 79:-0.758794 80:0.0904343 81:-0.00917431 82:-0.612245 83:0.151429 84:-0.454545 85:-0.214545 86:-0.456 
0.125 1:-0.977379 2:-0.984367 3:-0.995417 4:-0.0131886 5:0.440813 6:-0.93246 7:0.00976993 8:-0.996358 9:-0.997262 10:0.343705 11:0.460152 12:-0.996564 13:-0.32363 14:-0.996181 15:-0.918909 16:-0.944908 17:-0.8842 18:-0.930791 19:-0.897349 20:-0.637075 21:-1 22:-1 23:-0.892731 24:-0.704944 25:-0.829485 26:-0.789172 27:-1 28:-1 29:-0.830319 30:-0.831926 31:-0.906551 32:-0.876005 33:-0.970106 34:-0.982215 35:-0.9987 36:-0.967262 37:-0.974093 38:-0.96034 39:-0.974643 40:-0.986842 41:-0.989726 42:-0.965944 43:-0.977949 44:-0.997967 45:-0.99187 46:-0.974563 47:-0.993399 48:-0.977654 49:-0.938053 50:-0.984252 51:-0.916084 52:-0.894737 53:-0.979381 54:-0.871795 55:-0.880952 56:-1 57:-0.8 58:-1 59:-0.940594 60:-0.276648 61:-0.288366 62:-0.376812 63:-0.180367 64:-0.29093 65:-0.0731671 66:-0.479675 67:-0.143932 68:-0.393426 69:-0.731483 70:-0.734527 71:-0.170733 72:-0.028613 73:-0.526976 74:0.144717 75:-0.180367 76:-0.29093 77:-0.0731671 78:-0.479675 79:-0.143932 80:-0.393426 81:-0.731483 82:-0.734527 83:-0.170733 84:-0.028613 85:-0.526976 86:0.144717 
0.125 1:-0.984841 2:-0.991584 3:-0.994624 4:-0.0174738 5:0.441047 6:-0.975107 7:0.009868 8:-0.998353 9:-0.999429 10:0.343296 11:0.460152 12:-0.998724 13:-0.32363 14:-0.998749 15:-0.953566 16:-0.848651 17:-0.986083 18:-0.988263 19:-0.954404 20:-0.84814 21:-0.968628 22:-0.877925 23:-1 24:-1 25:-0.846681 26:-0.924648 27:-1 28:-1 29:-0.965791 30:-0.902221 31:-1 32:-1 33:-0.916391 34:-0.934314 35:-0.991333 36:-0.964286 37:-0.989637 38:-0.977337 39:-0.990491 40:-0.993421 41:-0.982877 42:-0.990712 43:-0.99559 44:-0.993902 45:-0.996748 46:-0.987281 47:-0.9967 48:-0.988827 49:-1 50:-0.905512 51:-0.972028 52:-1 53:-0.938144 54:-0.871795 55:-0.97619 56:-0.927273 57:-0.9 58:-0.733333 59:-1 60:-0.101727 61:-0.389257 62:-0.347826 63:0.77208 64:-0.940099 65:-0.868132 66:-0.824176 67:-0.921696 68:-0.747731 69:-0.677387 70:-0.775735 71:0.632654 72:-0.885829 73:-0.68032 74:-0.648352 75:0.77208 76:-0.940099 77:-0.868132 78:-0.824176 79:-0.921696 80:-0.747731 81:-0.677387 82:-0.775735 83:0.632654 84:-0.885829 85:-0.68032 86:-0.648352 
0.125 1:-0.985308 2:-0.982378 3:-0.999786 4:-0.028979 5:0.439757 6:-0.898546 7:0.0217745 8:-0.991246 9:-0.997737 10:0.343296 11:0.460152 12:-0.998483 13:-0.32363 14:-0.998186 15:-0.976851 16:-0.985386 17:-0.980195 18:-0.987008 19:-1 20:-1 21:-0.739978 22:-0.78786 23:-1 24:-1 25:-0.695415 26:-0.777912 27:-1 28:-1 29:-0.766742 30:-0.844834 31:-1 32:-1 33:-0.841337 34:-0.930472 35:-0.997833 36:-0.997024 37:-0.989637 38:-0.994334 39:-0.99683 40:-0.996711 41:-0.986301 42:-0.993808 43:-0.99118 44:-0.993902 45:-0.998374 46:-0.993641 47:-0.980198 48:-0.921788 49:-1 50:-0.858268 51:-0.986014 52:-0.973684 53:-0.917526 54:-0.948718 55:-0.880952 56:-0.745455 57:-0.75 58:-0.866667 59:-0.920792 60:-0.359049 61:-0.148801 62:-0.449275 63:0.334166 64:-0.265038 65:-0.865168 66:-0.700373 67:-0.851956 68:-0.806545 69:0.154521 70:-0.816555 71:0.277688 72:-0.766525 73:-0.0194095 74:-0.640448 75:0.334166 76:-0.265038 77:-0.865168 78:-0.700373 79:-0.851956 80:-0.806545 81:0.154521 82:-0.816555 83:0.277688 84:-0.766525 85:-0.0194095 86:-0.640448 
0.125 1:-0.986474 2:-0.991789 3:-0.994621 4:-0.0174738 5:0.442693 6:-0.975137 7:0.0121286 8:-0.997585 9:-0.999443 10:0.343296 11:0.460152 12:-0.998994 13:-0.32363 14:-0.999002 15:-0.955932 16:-0.865652 17:-0.983305 18:-0.961893 19:-0.938423 20:-0.851434 21:-0.973478 22:-0.887254 23:-1 24:-1 25:-0.849552 26:-0.920985 27:-1 28:-1 29:-0.938539 30:-0.918495 31:-1 32:-1 33:-0.944549 34:-0.944866 35:-0.993933 36:-0.964286 37:-0.979275 38:-0.966006 39:-0.99683 40:-0.993421 41:-0.993151 42:-0.993808 43:-0.997795 44:-0.997967 45:-1 46:-0.987281 47:-0.990099 48:-0.988827 49:-0.973451 50:-0.968504 51:-0.972028 52:-0.947368 53:-0.917526 54:-1 55:-0.928571 56:-0.890909 57:-0.9 58:-0.733333 59:-0.960396 60:-0.13333 61:-0.372165 62:-0.405797 63:0.823633 64:-1 65:-0.785716 66:-0.936507 67:-0.962191 68:-0.829192 69:-0.694191 70:-0.659865 71:0.663266 72:-0.814473 73:-0.584413 74:-0.923808 75:0.823633 76:-1 77:-0.785716 78:-0.936507 79:-0.962191 80:-0.829192 81:-0.694191 82:-0.659865 83:0.663266 84:-0.814473 85:-0.584413 86:-0.923808 
0.125 1:-0.991371 2:-0.982355 3:-0.999774 4:-0.0291108 5:0.440469 6:-0.9001 7:0.0111953 8:-0.998874 9:-0.999286 10:0.343296 11:0.460152 12:-0.999285 13:-0.32363 14:-0.999143 15:-0.981279 16:-0.989509 17:-1 18:-1 19:-0.810609 20:-0.927528 21:-1 22:-1 23:-0.809529 24:-0.987327 25:-0.848366 26:-0.957721 27:-1 28:-1 29:-0.775269 30:-0.862693 31:-1 32:-1 33:-0.836684 34:-0.964342 35:-0.999133 36:-0.997024 37:-1 38:-1 39:-1 40:-0.996711 41:-0.996575 42:-0.993808 43:-1 44:-0.989837 45:-0.998374 46:-0.984102 47:-0.976898 48:-0.960894 49:-0.99115 50:-0.984252 51:-0.986014 52:-0.960526 53:-0.938144 54:-0.897436 55:-0.880952 56:-0.672727 57:-0.9 58:-0.933333 59:-1 60:-0.427608 61:-0.0589232 62:-0.42029 63:0.341564 64:-0.480859 65:-0.52381 66:-0.830688 67:-0.882428 68:-0.498966 69:-0.126257 70:-0.805637 71:0.34694 72:-0.257886 73:-0.445888 74:-1 75:0.341564 76:-0.480859 77:-0.52381 78:-0.830688 79:-0.882428 80:-0.498966 81:-0.126257 82:-0.805637 83:0.34694 84:-0.257886 85:-0.445888 86:-1 
0.125 1:-0.98694 2:-0.986983 3:-0.999417 4:-0.030485 5:0.43957 6:-0.926228 7:0.0167905 8:-0.996635 9:-0.999139 10:0.343296 11:0.460152 12:-0.999133 13:-0.323496 14:-0.999017 15:-0.81942 16:-0.933029 17:-1 18:-1 19:-1 20:-1 21:-0.823962 22:-0.904281 23:-1 24:-1 25:-1 26:-1 27:-0.839657 28:-0.904279 29:-1 30:-1 31:-1 32:-1 33:-0.89581 34:-0.978065 35:-0.999567 36:-0.994048 37:-0.994819 38:-0.983003 39:-0.99683 40:-0.996711 41:-0.993151 42:-1 43:-0.99559 44:-0.995935 45:-0.996748 46:-0.974563 47:-0.993399 48:-0.949721 49:-0.920354 50:-0.84252 51:-0.874126 52:-0.934211 53:-0.938144 54:-0.948718 55:-0.97619 56:-0.818182 57:-0.95 58:-1 59:-1 60:-0.331392 61:0.0245126 62:-0.289855 63:1 64:-1 65:-1 66:-1 67:1 68:-1 69:-1 70:-1 71:1 72:-1 73:-1 74:-1 75:1 76:-1 77:-1 78:-1 79:1 80:-1 81:-1 82:-1 83:1 84:-1 85:-1 86:-1 
0.125 1:-0.992304 2:-0.983895 3:-0.99618 4:-0.0375567 5:0.440746 6:-0.929831 7:0.00888413 8:-0.999787 9:-0.999623 10:0.343296 11:0.460152 12:-0.998818 13:-0.32363 14:-0.998777 15:-0.811289 16:-0.95193 17:-1 18:-1 19:-0.887803 20:-0.924165 21:-1 22:-1 23:-0.933286 24:-0.989001 25:-1 26:-1 27:-0.910581 28:-0.896405 29:-0.92383 30:-0.923463 31:-0.894741 32:-0.883543 33:-0.889249 34:-0.916264 35:-0.999133 36:-1 37:-1 38:-1 39:-1 40:-1 41:-0.876712 42:-1 43:-1 44:-1 45:-1 46:-1 47:-0.940594 48:-1 49:-1 50:-1 51:-1 52:-1 53:-1 54:-1 55:-1 56:-1 57:-1 58:-1 59:-0.960396 60:-0.949129 61:-0.946098 62:-0.942029 63:-0.406151 64:0.201065 65:0.016953 66:-0.638416 67:-0.533089 68:0.264554 69:-0.0670202 70:-0.792461 71:-0.133172 72:-0.119522 73:-0.211095 74:-0.240678 75:-0.406151 76:0.201065 77:0.016953 78:-0.638416 79:-0.533089 80:0.264554 81:-0.0670202 82:-0.792461 83:-0.133172 84:-0.119522 85:-0.211095 86:-0.240678 
0.125 1:-0.984375 2:-0.992223 3:-0.994583 4:-0.0174498 5:0.44161 6:-0.97515 7:0.0106361 8:-0.997782 9:-0.999275 10:0.342886 11:0.459854 12:-0.998702 13:-0.32363 14:-0.99871 15:-0.947686 16:-0.851033 17:-0.981733 18:-0.979585 19:-0.906642 20:-0.812636 21:-0.974587 22:-0.879665 23:-1 24:-1 25:-0.831258 26:-0.923629 27:-1 28:-1 29:-0.952031 30:-0.897458 31:-1 32:-1 33:-0.94108 34:-0.925869 35:-0.988299 36:-0.967262 37:-0.968912 38:-0.971671 39:-0.990491 40:-0.990132 41:-0.989726 42:-0.987616 43:-0.99118 44:-0.987805 45:-0.993496 46:-0.990461 47:-0.980198 48:-0.96648 49:-0.99115 50:-1 51:-1 52:-1 53:-1 54:-1 55:-1 56:-1 57:-1 58:-1 59:-1 60:-0.0656105 61:-0.393842 62:0.0289855 63:0.808841 64:-0.941386 65:-0.935482 66:-0.827957 67:-0.94521 68:-0.876577 69:-0.684323 70:-1 71:0.751153 72:-1 73:-0.812317 74:-0.72473 75:0.808841 76:-0.941386 77:-0.935482 78:-0.827957 79:-0.94521 80:-0.876577 81:-0.684323 82:-1 83:0.751153 84:-1 85:-0.812317 86:-0.72473 
0.125 1:-0.989506 2:-0.982378 3:-0.999781 4:-0.029066 5:0.440267 6:-0.899634 7:0.0140829 8:-0.995327 9:-0.998788 10:0.342886 11:0.460152 12:-0.999081 13:-0.32363 14:-0.998971 15:-0.965276 16:-0.934348 17:-1 18:-1 19:-0.782701 20:-0.788619 21:-1 22:-1 23:-0.762834 24:-0.865853 25:-0.831393 26:-0.95108 27:-1 28:-1 29:-0.772211 30:-0.84444 31:-1 32:-1 33:-0.858187 34:-0.926903 35:-0.999133 36:-0.994048 37:-0.989637 38:-0.971671 39:-0.993661 40:-1 41:-1 42:-0.990712 43:-0.993385 44:-0.99187 45:-0.998374 46:-0.980922 47:-0.970297 48:-0.972067 49:-0.99115 50:-0.984252 51:-0.986014 52:-0.934211 53:-1 54:-0.974359 55:-0.880952 56:-0.672727 57:-1 58:-0.8 59:-1 60:-0.339404 61:-0.171892 62:-0.42029 63:0.248827 64:-0.0787068 65:-0.661972 66:-0.92488 67:-0.896808 68:-0.838335 69:0.498903 70:-0.655073 71:0.239436 72:-0.195169 73:-0.262481 74:-1 75:0.248827 76:-0.0787068 77:-0.661972 78:-0.92488 79:-0.896808 80:-0.838335 81:0.498903 82:-0.655073 83:0.239436 84:-0.195169 85:-0.262481 86:-1 
0.125 1:-0.984375 2:-0.992088 3:-0.994665 4:-0.0176913 5:0.441346 6:-0.976194 7:0.0102597 8:-0.997439 9:-0.998874 10:0.343296 11:0.460152 12:-0.998771 13:-0.32363 14:-0.998661 15:-0.93465 16:-0.874763 17:-0.977416 18:-0.961224 19:-0.913947 20:-0.827861 21:-0.966145 22:-0.938841 23:-0.983733 24:-0.933511 25:-0.838967 26:-0.921785 27:-1 28:-1 29:-0.931636 30:-0.896906 31:-1 32:-1 33:-0.908295 34:-0.953485 35:-0.989599 36:-0.979167 37:-0.958549 38:-0.977337 39:-0.980983 40:-1 41:-0.986301 42:-0.996904 43:-0.984564 44:-0.993902 45:-0.996748 46:-0.993641 47:-0.980198 48:-0.988827 49:-0.973451 50:-0.92126 51:-0.986014 52:-0.986842 53:-0.938144 54:-0.974359 55:-0.952381 56:-1 57:-1 58:-1 59:-1 60:-0.075677 61:-0.371045 62:-0.173913 63:0.745123 64:-0.824162 65:-0.741934 66:-1 67:-0.988436 68:-0.814867 69:-0.644866 70:-0.210008 71:0.751153 72:-0.94414 73:-0.937437 74:-0.655917 75:0.745123 76:-0.824162 77:-0.741934 78:-1 79:-0.988436 80:-0.814867 81:-0.644866 82:-0.210008 83:0.751153 84:-0.94414 85:-0.937437 86:-0.655917 
0.125 1:-0.978078 2:-0.986478 3:-0.990767 4:-0.0380472 5:0.431404 6:-0.968677 7:0.0200697 8:-0.988614 9:-0.996836 10:0.342886 11:0.460152 12:-0.998426 13:-0.323496 14:-0.997734 15:-0.910602 16:-0.834218 17:-1 18:-1 19:-0.748313 20:-0.762803 21:-1 22:-1 23:-0.998354 24:-0.987996 25:-0.745402 26:-0.783672 27:-1 28:-1 29:-0.810922 30:-0.82877 31:-1 32:-1 33:-0.881075 34:-0.92989 35:-0.996966 36:-0.982143 37:-0.953368 38:-0.949008 39:-0.993661 40:-0.983553 41:-0.993151 42:-0.987616 43:-0.982359 44:-0.98374 45:-0.977236 46:-0.984102 47:-0.986799 48:-0.955307 49:-0.946903 50:-0.92126 51:-0.902098 52:-0.947368 53:-0.896907 54:-1 55:-1 56:-0.963636 57:-1 58:-1 59:-1 60:-0.271393 61:-0.262372 62:-0.26087 63:0.382717 64:-0.545753 65:-0.7 66:-0.688891 67:-0.792295 68:-0.569565 69:-0.327218 70:-0.795918 71:0.357143 72:-0.307361 73:-0.563636 74:-0.786669 75:0.382717 76:-0.545753 77:-0.7 78:-0.688891 79:-0.792295 80:-0.569565 81:-0.327218 82:-0.795918 83:0.357143 84:-0.307361 85:-0.563636 86:-0.786669 
0.125 1:-0.987407 2:-0.986983 3:-0.999424 4:-0.0304605 5:0.439384 6:-0.926493 7:0.0181547 8:-0.995962 9:-0.999152 10:0.343296 11:0.460152 12:-0.999231 13:-0.32363 14:-0.999111 15:-0.817866 16:-0.926085 17:-1 18:-1 19:-1 20:-1 21:-0.825686 22:-0.918464 23:-1 24:-1 25:-1 26:-1 27:-0.841695 28:-0.907285 29:-1 30:-1 31:-1 32:-1 33:-0.938163 34:-0.960392 35:-0.999567 36:-0.997024 37:-1 38:-0.994334 39:-1 40:-0.980263 41:-0.996575 42:-0.996904 43:-0.997795 44:-0.993902 45:-0.996748 46:-0.987281 47:-0.986799 48:-0.955307 49:-0.938053 50:-0.779528 51:-0.888112 52:-1 53:-0.85567 54:-0.948718 55:-0.97619 56:-1 57:-0.75 58:-0.933333 59:-0.980198 60:-0.421314 61:0.0785199 62:-0.318841 63:1 64:-1 65:-1 66:-1 67:1 68:-1 69:-1 70:-1 71:1 72:-1 73:-1 74:-1 75:1 76:-1 77:-1 78:-1 79:1 80:-1 81:-1 82:-1 83:1 84:-1 85:-1 86:-1 
0.125 1:-0.985774 2:-0.982343 3:-0.999799 4:-0.028905 5:0.44008 6:-0.898766 7:0.0171913 8:-0.993953 9:-0.9979 10:0.343296 11:0.460152 12:-0.998717 13:-0.32363 14:-0.998404 15:-0.966389 16:-0.939579 17:-1 18:-1 19:-0.734165 20:-0.784947 21:-1 22:-1 23:-0.819534 24:-0.83068 25:-0.829293 26:-0.960552 27:-1 28:-1 29:-0.724712 30:-0.829989 31:-1 32:-1 33:-0.827171 34:-0.940663 35:-0.999133 36:-1 37:-0.979275 38:-1 39:-0.99683 40:-0.996711 41:-0.986301 42:-0.987616 43:-0.982359 44:-0.995935 45:-0.996748 46:-0.984102 47:-0.983498 48:-0.932961 49:-0.99115 50:-0.952756 51:-1 52:-0.986842 53:-0.85567 54:-0.948718 55:-0.904762 56:-0.781818 57:-0.6 58:-1 59:-0.920792 60:-0.384518 61:-0.152732 62:-0.449275 63:0.352916 64:-0.373447 65:-0.51724 66:-0.938699 67:-0.963841 68:-0.505247 69:-0.0298422 70:-0.718506 71:0.320197 72:-0.582026 73:-0.0637382 74:-0.926438 75:0.352916 76:-0.373447 77:-0.51724 78:-0.938699 79:-0.963841 80:-0.505247 81:-0.0298422 82:-0.718506 83:0.320197 84:-0.582026 85:-0.0637382 86:-0.926438 
0.125 1:-0.984375 2:-0.991894 3:-0.994672 4:-0.0176942 5:0.441331 6:-0.976182 7:0.0102407 8:-0.997544 9:-0.998896 10:0.343296 11:0.460152 12:-0.998774 13:-0.32363 14:-0.998664 15:-0.952167 16:-0.845941 17:-0.983834 18:-0.994656 19:-0.928462 20:-0.820038 21:-0.960019 22:-0.917208 23:-0.990122 24:-0.953604 25:-0.841752 26:-0.91538 27:-1 28:-1 29:-0.931989 30:-0.889546 31:-1 32:-1 33:-0.908809 34:-0.961111 35:-0.990899 36:-0.97619 37:-0.937824 38:-0.966006 39:-0.987322 40:-0.996711 41:-0.989726 42:-0.993808 43:-0.98677 44:-0.993902 45:-0.995122 46:-0.987281 47:-0.986799 48:-0.988827 49:-0.955752 50:-0.984252 51:-0.958042 52:-0.973684 53:-0.958763 54:-1 55:-1 56:-1 57:-1 58:-1 59:-1 60:-0.0467946 61:-0.362496 62:-0.0869565 63:0.776981 64:-1 65:-0.935482 66:-0.713264 67:-0.88037 68:-0.753154 69:-0.921083 70:-0.912224 71:0.751153 72:-0.94414 73:-0.937437 74:-0.655917 75:0.776981 76:-1 77:-0.935482 78:-0.713264 79:-0.88037 80:-0.753154 81:-0.921083 82:-0.912224 83:0.751153 84:-0.94414 85:-0.937437 86:-0.655917 
0.125 1:-0.987407 2:-0.986983 3:-0.999427 4:-0.0304473 5:0.43943 6:-0.926333 7:0.0178647 8:-0.996112 9:-0.999135 10:0.343296 11:0.46045 12:-0.999195 13:-0.323093 14:-0.999071 15:-0.814695 16:-0.925167 17:-1 18:-1 19:-1 20:-1 21:-0.822608 22:-0.904221 23:-1 24:-1 25:-1 26:-1 27:-0.850021 28:-0.913392 29:-1 30:-1 31:-1 32:-1 33:-0.906875 34:-0.961195 35:-0.999567 36:-0.997024 37:-0.994819 38:-0.983003 39:-1 40:-0.986842 41:-0.993151 42:-0.993808 43:-1 44:-0.997967 45:-0.998374 46:-0.980922 47:-0.986799 48:-0.96648 49:-0.973451 50:-0.889764 51:-0.804196 52:-0.934211 53:-0.835052 54:-1 55:-0.97619 56:-0.854545 57:-0.95 58:-0.733333 59:-1 60:-0.350383 61:0.0515452 62:-0.318841 63:1 64:-1 65:-1 66:-1 67:1 68:-1 69:-1 70:-1 71:1 72:-1 73:-1 74:-1 75:1 76:-1 77:-1 78:-1 79:1 80:-1 81:-1 82:-1 83:1 84:-1 85:-1 86:-1 
0.125 1:-0.985308 2:-0.982283 3:-0.999787 4:-0.0289403 5:0.43981 6:-0.899088 7:0.0210671 8:-0.992859 9:-0.997776 10:0.332651 11:0.465813 12:-0.998457 13:-0.32363 14:-0.998078 15:-0.950171 16:-0.982844 17:-0.979966 18:-0.985348 19:-1 20:-1 21:-0.73923 22:-0.810702 23:-0.983047 24:-0.99816 25:-0.719665 26:-0.795082 27:-1 28:-1 29:-0.714517 30:-0.819728 31:-1 32:-1 33:-0.837255 34:-0.94613 35:-0.997833 36:-1 37:-1 38:-0.994334 39:-0.993661 40:-0.993421 41:-0.982877 42:-0.98452 43:-0.99559 44:-0.993902 45:-0.99187 46:-0.984102 47:-0.963696 48:-0.955307 49:-0.982301 50:-0.937008 51:-0.972028 52:-0.934211 53:-0.958763 54:-0.948718 55:-0.952381 56:-0.6 57:-1 58:-0.733333 59:-1 60:-0.385209 61:-0.161563 62:-0.42029 63:0.334166 64:-0.32628 65:-0.730336 66:-0.760299 67:-0.897126 68:-0.774303 69:0.154521 70:-0.403808 71:0.191011 72:-0.533049 73:-0.411642 74:-0.280896 75:0.334166 76:-0.32628 77:-0.730336 78:-0.760299 79:-0.897126 80:-0.774303 81:0.154521 82:-0.403808 83:0.191011 84:-0.533049 85:-0.411642 86:-0.280896 
0.125 1:-0.986007 2:-0.991919 3:-0.994712 4:-0.0176925 5:0.442693 6:-0.976007 7:0.0121004 8:-0.99681 9:-0.998952 10:0.343296 11:0.460152 12:-0.999025 13:-0.32363 14:-0.998912 15:-0.957251 16:-0.849831 17:-0.972425 18:-0.944184 19:-0.927495 20:-0.803479 21:-0.963376 22:-0.95023 23:-0.987272 24:-0.938501 25:-0.863201 26:-0.920641 27:-0.964981 28:-0.9623 29:-0.953824 30:-0.906383 31:-1 32:-1 33:-0.983633 34:-0.968493 35:-0.990466 36:-0.979167 37:-0.958549 38:-0.988669 39:-0.980983 40:-0.990132 41:-0.996575 42:-0.978328 43:-0.993385 44:-0.99187 45:-0.998374 46:-0.987281 47:-0.993399 48:-0.972067 49:-0.982301 50:-0.968504 51:-0.986014 52:-0.986842 53:-0.958763 54:-0.948718 55:-1 56:-1 57:-1 58:-1 59:-1 60:-0.0207071 61:-0.342743 62:-0.0724638 63:0.689923 64:-1 65:-0.860464 66:-0.627909 67:-0.706205 68:-0.866531 69:-0.957328 70:-0.905078 71:0.730898 72:-0.939595 73:-0.864692 74:-0.702323 75:0.689923 76:-1 77:-0.860464 78:-0.627909 79:-0.706205 80:-0.866531 81:-0.957328 82:-0.905078 83:0.730898 84:-0.939595 85:-0.864692 86:-0.702323 
0.125 1:-0.987174 2:-0.982283 3:-0.999798 4:-0.0288505 5:0.439431 6:-0.898042 7:0.0273868 8:-0.990688 9:-0.998499 10:0.343296 11:0.461046 12:-0.998597 13:-0.321752 14:-0.998314 15:-0.959634 16:-0.988467 17:-1 18:-1 19:-0.983453 20:-0.999082 21:-0.697719 22:-0.772555 23:-1 24:-1 25:-0.715316 26:-0.848413 27:-1 28:-1 29:-0.795392 30:-0.896506 31:-1 32:-1 33:-0.924233 34:-0.96784 35:-0.999567 36:-0.991071 37:-0.974093 38:-0.994334 39:-0.990491 40:-1 41:-1 42:-0.996904 43:-1 44:-1 45:-0.985366 46:-0.984102 47:-0.976898 48:-0.944134 49:-0.973451 50:-0.968504 51:-0.93007 52:-0.973684 53:-0.85567 54:-0.74359 55:-1 56:-0.818182 57:-1 58:-0.933333 59:-1 60:-0.348568 61:-0.149332 62:-0.391304 63:0.561043 64:-0.932702 65:-0.629632 66:-0.670784 67:-0.861158 68:-0.610307 69:-0.546947 70:-0.949608 71:0.52381 72:-0.743465 73:-0.425367 74:-0.920986 75:0.561043 76:-0.932702 77:-0.629632 78:-0.670784 79:-0.861158 80:-0.610307 81:-0.546947 82:-0.949608 83:0.52381 84:-0.743465 85:-0.425367 86:-0.920986 
0.125 1:-0.993004 2:-0.984356 3:-0.997009 4:-0.0153244 5:0.436462 6:-0.928376 7:-0.00377172 8:-0.994741 9:-0.999887 10:0.343296 11:0.460152 12:-0.998737 13:-0.32363 14:-0.99879 15:-0.970163 16:-0.968545 17:-0.964467 18:-0.959415 19:-1 20:-1 21:-0.929186 22:-0.969149 23:-0.954406 24:-0.92296 25:-1 26:-1 27:-0.877214 28:-0.95174 29:-1 30:-1 31:-0.980033 32:-0.940315 33:-0.943012 34:-0.988155 35:-0.996533 36:-0.946429 37:-1 38:-0.966006 39:-1 40:-0.973684 41:-1 42:-0.987616 43:-0.997795 44:-1 45:-0.990244 46:-1 47:-1 48:-1 49:-0.982301 50:-1 51:-0.986014 52:-1 53:-1 54:-1 55:-1 56:-1 57:-1 58:-1 59:-0.980198 60:-0.798955 61:-0.851267 62:-0.782609 63:-0.64021 64:-0.12395 65:0.500002 66:-0.333333 67:-0.328068 68:0.38354 69:-0.606815 70:-0.781343 71:-0.469388 72:0.113174 73:0.14286 74:-0.0857152 75:-0.64021 76:-0.12395 77:0.500002 78:-0.333333 79:-0.328068 80:0.38354 81:-0.606815 82:-0.781343 83:-0.469388 84:0.113174 85:0.14286 86:-0.0857152 
0.125 1:-0.986007 2:-0.991813 3:-0.994842 4:-0.0179751 5:0.443524 6:-0.977104 7:0.0131851 8:-0.996694 9:-0.999072 10:0.343296 11:0.460152 12:-0.999165 13:-0.32363 14:-0.999041 15:-0.959174 16:-0.85083 17:-1 18:-1 19:-0.927865 20:-0.80446 21:-1 22:-1 23:-1 24:-1 25:-0.89237 26:-0.804384 27:-1 28:-1 29:-0.815188 30:-0.843074 31:-1 32:-1 33:-0.922789 34:-0.893616 35:-0.992633 36:-0.979167 37:-0.958549 38:-0.988669 39:-0.987322 40:-0.980263 41:-0.993151 42:-0.98452 43:-0.98677 44:-0.993902 45:-0.993496 46:-0.990461 47:-0.980198 48:-0.972067 49:-0.99115 50:-1 51:-0.986014 52:-0.986842 53:-0.979381 54:-0.974359 55:-1 56:-0.963636 57:-0.95 58:-1 59:-1 60:-0.0915 61:-0.335699 62:-0.130435 63:0.689923 64:-0.936616 65:-0.790696 66:-0.751936 67:-0.893186 68:-0.766432 69:-0.445273 70:-0.667776 71:0.521594 72:-0.697974 73:-0.391121 74:-0.925581 75:0.689923 76:-0.936616 77:-0.790696 78:-0.751936 79:-0.893186 80:-0.766432 81:-0.445273 82:-0.667776 83:0.521594 84:-0.697974 85:-0.391121 86:-0.925581 
0.125 1:-0.988106 2:-0.982331 3:-0.999781 4:-0.0290851 5:0.44025 6:-0.898375 7:0.0143591 8:-0.995741 9:-0.998749 10:0.342886 11:0.460152 12:-0.999013 13:-0.32363 14:-0.998885 15:-1 16:-1 17:-1 18:-1 19:-0.760766 20:-0.872889 21:-1 22:-1 23:-0.747601 24:-0.78432 25:-1 26:-1 27:-1 28:-1 29:-0.775564 30:-0.860151 31:-1 32:-1 33:-0.854634 34:-0.919613 35:-0.997833 36:-0.997024 37:-0.994819 38:-0.994334 39:-0.99683 40:-1 41:-0.989726 42:-0.996904 43:-1 44:-1 45:-0.98374 46:-1 47:-0.970297 48:-0.972067 49:-0.973451 50:-0.968504 51:-0.944056 52:-0.986842 53:-0.814433 54:-0.794872 55:-0.833333 56:-1 57:-0.8 58:-1 59:-0.980198 60:-0.381484 61:-0.124808 62:-0.434783 63:0.34584 64:-0.858416 65:-0.298701 66:-0.65368 67:-0.670691 68:-0.515529 69:-0.904683 70:-1 71:0.632654 72:-1 73:-0.924439 74:-0.251949 75:0.34584 76:-0.858416 77:-0.298701 78:-0.65368 79:-0.670691 80:-0.515529 81:-0.904683 82:-1 83:0.632654 84:-1 85:-0.924439 86:-0.251949 
0.125 1:-0.986474 2:-0.991862 3:-0.994843 4:-0.0179766 5:0.443692 6:-0.97711 7:0.0134115 8:-0.996466 9:-0.999139 10:0.343296 11:0.460152 12:-0.999175 13:-0.32363 14:-0.999076 15:-0.933453 16:-0.848403 17:-1 18:-1 19:-0.927671 20:-0.799038 21:-1 22:-1 23:-1 24:-1 25:-0.906545 26:-0.803942 27:-1 28:-1 29:-0.820589 30:-0.843092 31:-1 32:-1 33:-0.928569 34:-0.905623 35:-0.991766 36:-0.988095 37:-0.974093 38:-0.971671 39:-0.993661 40:-0.986842 41:-0.989726 42:-0.987616 43:-0.98677 44:-0.989837 45:-0.996748 46:-0.990461 47:-0.976898 48:-0.988827 49:-0.99115 50:-0.92126 51:-0.986014 52:-0.986842 53:-0.979381 54:-1 55:-1 56:-1 57:-1 58:-0.866667 59:-0.980198 60:-0.092976 61:-0.333404 62:-0.188406 63:0.753087 64:-0.935106 65:-0.785716 66:-0.873013 67:-0.938263 68:-0.863354 69:-0.432066 70:-0.659865 71:0.540818 72:-0.690784 73:-0.653679 74:-0.695238 75:0.753087 76:-0.935106 77:-0.785716 78:-0.873013 79:-0.938263 80:-0.863354 81:-0.432066 82:-0.659865 83:0.540818 84:-0.690784 85:-0.653679 86:-0.695238 
0.125 1:-0.987873 2:-0.982343 3:-0.999778 4:-0.0290814 5:0.440133 6:-0.898691 7:0.0160129 8:-0.996043 9:-0.998769 10:0.343296 11:0.460152 12:-0.998937 13:-0.32363 14:-0.998775 15:-0.983985 16:-0.991905 17:-1 18:-1 19:-0.752394 20:-0.879068 21:-1 22:-1 23:-0.749081 24:-0.800989 25:-1 26:-1 27:-1 28:-1 29:-0.774845 30:-0.857645 31:-1 32:-1 33:-0.856387 34:-0.915671 35:-0.9974 36:-0.997024 37:-0.989637 38:-1 39:-0.990491 40:-0.993421 41:-1 42:-0.996904 43:-1 44:-0.997967 45:-0.990244 46:-0.977742 47:-0.983498 48:-0.949721 49:-0.99115 50:-1 51:-0.944056 52:-0.934211 53:-0.917526 54:-0.871795 55:-0.809524 56:-0.890909 57:-0.9 58:-0.933333 59:-0.980198 60:-0.350109 61:-0.141853 62:-0.42029 63:0.430199 64:-0.930113 65:-0.384615 66:-0.658117 67:-0.700812 68:-0.521738 69:-0.95295 70:-1 71:0.637362 72:-1 73:-0.850816 74:-0.34359 75:0.430199 76:-0.930113 77:-0.384615 78:-0.658117 79:-0.700812 80:-0.521738 81:-0.95295 82:-1 83:0.637362 84:-1 85:-0.850816 86:-0.34359 
0.125 1:-0.986241 2:-0.99174 3:-0.994765 4:-0.0180184 5:0.444285 6:-0.977646 7:0.014119 8:-0.996908 9:-0.999284 10:0.343296 11:0.460152 12:-0.998827 13:-0.32363 14:-0.99872 15:-0.961152 16:-0.845828 17:-1 18:-1 19:-0.924694 20:-0.808766 21:-1 22:-1 23:-1 24:-1 25:-0.920001 26:-0.849166 27:-1 28:-1 29:-0.898597 30:-0.782582 31:-1 32:-1 33:-0.925799 34:-0.924447 35:-0.994366 36:-0.955357 37:-0.989637 38:-0.96034 39:-0.987322 40:-0.986842 41:-0.982877 42:-0.987616 43:-0.993385 44:-0.99187 45:-0.998374 46:-0.987281 47:-1 48:-0.994413 49:-0.982301 50:-0.968504 51:-0.958042 52:-0.973684 53:-0.979381 54:-0.974359 55:-1 56:-0.890909 57:-0.95 58:-0.866667 59:-1 60:-0.198103 61:-0.464178 62:-0.347826 63:0.895425 64:-1 65:-1 66:-0.937253 67:-0.939108 68:-0.898722 69:-0.784132 70:-0.567829 71:0.727732 72:-0.877771 73:-0.726202 74:-0.849414 75:0.895425 76:-1 77:-1 78:-0.937253 79:-0.939108 80:-0.898722 81:-0.784132 82:-0.567829 83:0.727732 84:-0.877771 85:-0.726202 86:-0.849414 
0.125 1:-0.987174 2:-0.986561 3:-0.999306 4:-0.0309839 5:0.43941 6:-0.92457 7:0.0172875 8:-0.99651 9:-0.999118 10:0.343296 11:0.460152 12:-0.999194 13:-0.32363 14:-0.999061 15:-0.814755 16:-0.952397 17:-1 18:-1 19:-1 20:-1 21:-0.817542 22:-0.816734 23:-1 24:-1 25:-1 26:-1 27:-0.825507 28:-0.929617 29:-1 30:-1 31:-1 32:-1 33:-0.927822 34:-0.962679 35:-0.999133 36:-1 37:-1 38:-1 39:-0.99683 40:-1 41:-0.993151 42:-0.996904 43:-0.997795 44:-0.995935 45:-0.995122 46:-0.974563 47:-0.986799 48:-0.955307 49:-0.893805 50:-0.84252 51:-0.93007 52:-0.921053 53:-0.938144 54:-0.923077 55:-0.809524 56:-0.963636 57:-1 58:-1 59:-1 60:-0.474263 61:0.101195 62:-0.289855 63:1 64:-1 65:-1 66:-1 67:1 68:-1 69:-1 70:-1 71:1 72:-1 73:-1 74:-1 75:1 76:-1 77:-1 78:-1 79:1 80:-1 81:-1 82:-1 83:1 84:-1 85:-1 86:-1 
0.125 1:-0.987407 2:-0.982378 3:-0.999778 4:-0.0290929 5:0.440169 6:-0.898834 7:0.0154679 8:-0.995868 9:-0.998745 10:0.343296 11:0.460152 12:-0.998957 13:-0.32363 14:-0.998814 15:-0.991519 16:-0.996717 17:-1 18:-1 19:-0.753654 20:-0.870973 21:-1 22:-1 23:-0.757058 24:-0.812532 25:-1 26:-1 27:-1 28:-1 29:-0.764026 30:-0.857755 31:-1 32:-1 33:-0.856572 34:-0.919293 35:-0.998267 36:-0.997024 37:-1 38:-0.988669 39:-1 40:-0.996711 41:-0.996575 42:-0.98452 43:-0.997795 44:-1 45:-0.98374 46:-0.99682 47:-0.963696 48:-0.977654 49:-0.964602 50:-1 51:-0.902098 52:-0.921053 53:-0.896907 54:-0.923077 55:-0.785714 56:-0.963636 57:-0.85 58:-1 59:-1 60:-0.409122 61:-0.148163 62:-0.42029 63:0.444444 64:-1 65:-0.625 66:-0.4 67:-0.683417 68:-0.497826 69:-1 70:-1 71:0.614286 72:-1 73:-0.854545 74:-0.28 75:0.444444 76:-1 77:-0.625 78:-0.4 79:-0.683417 80:-0.497826 81:-1 82:-1 83:0.614286 84:-1 85:-0.854545 86:-0.28 
0.125 1:-0.98694 2:-0.991838 3:-0.994772 4:-0.0180535 5:0.443659 6:-0.977825 7:0.0132774 8:-0.997469 9:-0.999195 10:0.343296 11:0.460152 12:-0.998978 13:-0.32363 14:-0.998838 15:-0.940308 16:-0.856435 17:-1 18:-1 19:-0.91938 20:-0.803104 21:-1 22:-1 23:-1 24:-1 25:-0.920878 26:-0.853168 27:-1 28:-1 29:-0.883169 30:-0.783257 31:-1 32:-1 33:-0.923303 34:-0.919557 35:-0.994366 36:-0.967262 37:-0.968912 38:-0.96034 39:-0.971474 40:-0.993421 41:-0.993151 42:-0.996904 43:-0.997795 44:-0.99187 45:-0.996748 46:-0.990461 47:-0.990099 48:-0.994413 49:-0.99115 50:-0.952756 51:-0.958042 52:-0.973684 53:-1 54:-1 55:-0.928571 56:-1 57:-0.8 58:-1 59:-1 60:-0.160126 61:-0.444575 62:-0.318841 63:0.783197 64:-0.86705 65:-1 66:-0.80488 67:-0.887485 68:-0.965006 69:-0.597226 70:-0.701343 71:0.686412 72:-0.873299 73:-0.574278 74:-0.921952 75:0.783197 76:-0.86705 77:-1 78:-0.80488 79:-0.887485 80:-0.965006 81:-0.597226 82:-0.701343 83:0.686412 84:-0.873299 85:-0.574278 86:-0.921952 
0.125 1:-0.98694 2:-0.982402 3:-0.999779 4:-0.0291083 5:0.440097 6:-0.898688 7:0.0164752 8:-0.995592 9:-0.998579 10:0.343296 11:0.460152 12:-0.998993 13:-0.32363 14:-0.998792 15:-0.992537 16:-0.989368 17:-1 18:-1 19:-0.75119 20:-0.867904 21:-1 22:-1 23:-0.737419 24:-0.803789 25:-1 26:-1 27:-1 28:-1 29:-0.766447 30:-0.853087 31:-1 32:-1 33:-0.855121 34:-0.935255 35:-0.997833 36:-0.988095 37:-0.984456 38:-0.994334 39:-1 40:-0.996711 41:-0.989726 42:-1 43:-0.997795 44:-0.995935 45:-0.988618 46:-0.968203 47:-0.983498 48:-0.988827 49:-0.982301 50:-0.968504 51:-0.874126 52:-0.934211 53:-0.896907 54:-0.871795 55:-0.904762 56:-0.854545 57:-1 58:-0.933333 59:-1 60:-0.330616 61:-0.156012 62:-0.391304 63:0.385727 64:-0.933525 65:0.024393 66:-0.93496 67:-0.764923 68:-0.370096 69:-0.955248 70:-0.850673 71:0.623695 72:-1 73:-0.858095 74:-0.297562 75:0.385727 76:-0.933525 77:0.024393 78:-0.93496 79:-0.764923 80:-0.370096 81:-0.955248 82:-0.850673 83:0.623695 84:-1 85:-0.858095 86:-0.297562 
0.125 1:-1 2:-0.973441 3:-0.999893 4:-0.0283816 5:0.441079 6:-0.847827 7:-0.00353743 8:-0.996151 9:-0.999793 10:0.343296 11:0.460152 12:-0.999691 13:-0.32363 14:-0.999674 15:-0.975813 16:-0.841735 17:-1 18:-1 19:-1 20:-1 21:-0.945456 22:-0.792001 23:-1 24:-1 25:-1 26:-1 27:-0.897809 28:-0.922043 29:-1 30:-1 31:-1 32:-1 33:-0.910055 34:-0.966277 35:-0.999133 36:-0.997024 37:-0.994819 38:-0.994334 39:-0.99683 40:-0.996711 41:-0.989726 42:-0.993808 43:-1 44:-1 45:-1 46:-1 47:-1 48:-0.994413 49:-0.99115 50:-1 51:-0.958042 52:-0.986842 53:-0.979381 54:-0.974359 55:-0.952381 56:-1 57:-0.95 58:-0.933333 59:-0.980198 60:0.0856184 61:-0.0243921 62:-0.246377 63:0.658119 64:-1 65:-0.538462 66:-1 67:-0.93274 68:-0.44816 69:-0.576569 70:-1 71:0.406594 72:-1 73:-0.552448 74:-0.507693 75:0.658119 76:-1 77:-0.538462 78:-1 79:-0.93274 80:-0.44816 81:-0.576569 82:-1 83:0.406594 84:-1 85:-0.552448 86:-0.507693 
0.125 1:-0.986474 2:-0.99183 3:-0.994741 4:-0.0181128 5:0.443734 6:-0.978266 7:0.0133264 8:-0.997187 9:-0.99921 10:0.343296 11:0.460152 12:-0.998678 13:-0.32363 14:-0.998578 15:-0.954535 16:-0.845479 17:-1 18:-1 19:-0.916664 20:-0.804644 21:-1 22:-1 23:-1 24:-1 25:-0.904122 26:-0.849714 27:-1 28:-1 29:-0.886 30:-0.817357 31:-1 32:-1 33:-0.922137 34:-0.931195 35:-0.995666 36:-0.952381 37:-0.979275 38:-0.971671 39:-0.984152 40:-0.983553 41:-0.986301 42:-0.990712 43:-0.988975 44:-0.99187 45:-0.993496 46:-0.984102 47:-0.9967 48:-1 49:-0.99115 50:-0.968504 51:-0.986014 52:-0.986842 53:-1 54:-0.974359 55:-1 56:-1 57:-0.9 58:-0.866667 59:-0.960396 60:-0.224974 61:-0.47718 62:-0.347826 63:0.858907 64:-0.935106 65:-1 66:-0.873013 67:-0.914334 68:-0.931676 69:-0.781563 70:-0.757045 71:0.785715 72:-0.938156 73:-0.722944 74:-0.923808 75:0.858907 76:-0.935106 77:-1 78:-0.873013 79:-0.914334 80:-0.931676 81:-0.781563 82:-0.757045 83:0.785715 84:-0.938156 85:-0.722944 86:-0.923808 
0.125 1:-0.987174 2:-0.982355 3:-0.99978 4:-0.0290764 5:0.440112 6:-0.898606 7:0.0163362 8:-0.995247 9:-0.998713 10:0.343296 11:0.460152 12:-0.998892 13:-0.32363 14:-0.998771 15:-0.983325 16:-0.990144 17:-1 18:-1 19:-0.760704 20:-0.867729 21:-1 22:-1 23:-0.749476 24:-0.781175 25:-1 26:-1 27:-1 28:-1 29:-0.775667 30:-0.851218 31:-1 32:-1 33:-0.855968 34:-0.925159 35:-0.996533 36:-0.997024 37:-0.994819 38:-1 39:-1 40:-0.990132 41:-1 42:-0.993808 43:-1 44:-0.995935 45:-0.988618 46:-0.977742 47:-0.983498 48:-0.972067 49:-0.973451 50:-0.937008 51:-0.944056 52:-0.894737 53:-0.958763 54:-0.923077 55:-0.809524 56:-1 57:-0.75 58:-0.933333 59:-0.980198 60:-0.344999 61:-0.148397 62:-0.42029 63:0.378142 64:-0.730814 65:-0.111111 66:-1 67:-0.96042 68:-0.36232 69:-0.682862 70:-0.596878 71:0.650795 72:-1 73:-0.784512 74:-0.446912 75:0.378142 76:-0.730814 77:-0.111111 78:-1 79:-0.96042 80:-0.36232 81:-0.682862 82:-0.596878 83:0.650795 84:-1 85:-0.784512 86:-0.446912 
0.125 1:-0.9993 2:-0.973412 3:-0.999897 4:-0.0283032 5:0.440871 6:-0.846761 7:0.00185156 8:-0.997823 9:-0.999646 10:0.344115 11:0.460152 12:-0.999633 13:-0.322557 14:-0.999567 15:-0.912598 16:-0.838166 17:-1 18:-1 19:-1 20:-1 21:-0.945348 22:-0.789171 23:-1 24:-1 25:-1 26:-1 27:-0.898305 28:-0.925638 29:-1 30:-1 31:-1 32:-1 33:-0.909323 34:-0.967173 35:-0.998267 36:-0.994048 37:-0.984456 38:-0.994334 39:-0.993661 40:-0.993421 41:-0.996575 42:-0.996904 43:-1 44:-1 45:-1 46:-1 47:-1 48:-0.98324 49:-1 50:-0.952756 51:-1 52:-0.986842 53:-1 54:-0.923077 55:-1 56:-1 57:-0.9 58:-1 59:-1 60:0.114475 61:-0.0952906 62:-0.173913 63:0.591316 64:-1 65:-0.586204 66:-0.816091 67:-0.871425 68:-0.505247 69:-0.493831 70:-1 71:0.379311 72:-1 73:-0.598743 74:-0.337933 75:0.591316 76:-1 77:-0.586204 78:-0.816091 79:-0.871425 80:-0.505247 81:-0.493831 82:-1 83:0.379311 84:-1 85:-0.598743 86:-0.337933 
0.125 1:-0.986474 2:-0.991927 3:-0.994756 4:-0.0179575 5:0.442666 6:-0.977369 7:0.0119945 8:-0.996992 9:-0.999193 10:0.343296 11:0.460152 12:-0.999024 13:-0.32363 14:-0.998981 15:-0.970472 16:-0.870665 17:-1 18:-1 19:-0.924883 20:-0.810105 21:-1 22:-1 23:-0.903636 24:-0.833315 25:-1 26:-1 27:-0.826028 28:-0.917448 29:-1 30:-1 31:-0.91529 32:-0.885521 33:-0.975303 34:-0.98678 35:-0.989599 36:-0.985119 37:-0.974093 38:-0.966006 39:-0.990491 40:-0.986842 41:-0.986301 42:-0.996904 43:-0.99559 44:-0.99187 45:-0.996748 46:-0.99682 47:-0.993399 48:-0.988827 49:-0.973451 50:-0.968504 51:-0.93007 52:-0.960526 53:-1 54:-0.974359 55:-0.97619 56:-0.963636 57:-0.95 58:-0.933333 59:-1 60:-0.0207452 61:-0.374869 62:-0.202899 63:0.717813 64:-0.870212 65:-0.85714 66:-0.809525 67:-0.962191 68:-0.658384 69:-0.825251 70:-0.659865 71:0.72449 72:-0.938156 73:-0.792209 74:-0.695238 75:0.717813 76:-0.870212 77:-0.85714 78:-0.809525 79:-0.962191 80:-0.658384 81:-0.825251 82:-0.659865 83:0.72449 84:-0.938156 85:-0.792209 86:-0.695238 
0.125 1:-0.985308 2:-0.991991 3:-0.994709 4:-0.0179666 5:0.442533 6:-0.977602 7:0.0117945 8:-0.997304 9:-0.999115 10:0.343296 11:0.459854 12:-0.998822 13:-0.32363 14:-0.998757 15:-0.968884 16:-0.854264 17:-1 18:-1 19:-0.921516 20:-0.807696 21:-1 22:-1 23:-0.917761 24:-0.870528 25:-1 26:-1 27:-0.826109 28:-0.878487 29:-0.939345 30:-0.917775 31:-1 32:-1 33:-0.966126 34:-0.966696 35:-0.988299 36:-0.982143 37:-0.974093 38:-0.977337 39:-0.984152 40:-0.990132 41:-0.993151 42:-0.990712 43:-0.99559 44:-0.989837 45:-0.998374 46:-0.993641 47:-0.990099 48:-0.994413 49:-0.99115 50:-0.968504 51:-0.986014 52:-0.934211 53:-1 54:-0.974359 55:-0.904762 56:-0.963636 57:-0.95 58:-1 59:-0.940594 60:-0.0032195 61:-0.382339 62:-0.246377 63:0.800249 64:-0.877505 65:-1 66:-0.820224 67:-0.919711 68:-0.806545 69:-0.752602 70:-0.724833 71:0.711074 72:-0.941631 73:-0.738508 74:-0.712358 75:0.800249 76:-0.877505 77:-1 78:-0.820224 79:-0.919711 80:-0.806545 81:-0.752602 82:-0.724833 83:0.711074 84:-0.941631 85:-0.738508 86:-0.712358 
0.125 1:-0.995103 2:-0.986592 3:-0.999389 4:-0.0306454 5:0.438407 6:-0.925684 7:0.0248133 8:-0.990935 9:-0.999673 10:0.343296 11:0.460152 12:-0.999687 13:-0.32363 14:-0.999683 15:-0.856765 16:-0.950637 17:-1 18:-1 19:-1 20:-1 21:-0.897296 22:-0.842233 23:-1 24:-1 25:-1 26:-1 27:-0.967149 28:-0.943512 29:-1 30:-1 31:-1 32:-1 33:-0.983507 34:-0.972794 35:-0.999567 36:-1 37:-1 38:-0.994334 39:-0.99683 40:-1 41:-1 42:-1 43:-1 44:-0.997967 45:-0.998374 46:-0.99682 47:-0.9967 48:-0.988827 49:-0.99115 50:-0.889764 51:-0.986014 52:-0.960526 53:-0.690722 54:-0.948718 55:-0.809524 56:-1 57:-1 58:-1 59:-1 60:-0.567279 61:0.056036 62:-0.42029 63:1 64:-1 65:-1 66:-1 67:1 68:-1 69:-1 70:-1 71:1 72:-1 73:-1 74:-1 75:1 76:-1 77:-1 78:-1 79:1 80:-1 81:-1 82:-1 83:1 84:-1 85:-1 86:-1 
0.125 1:-0.995569 2:-0.982307 3:-0.999644 4:-0.0300475 5:0.438425 6:-0.89791 7:0.0334264 8:-0.983289 9:-0.999217 10:0.343296 11:0.460152 12:-0.999427 13:-0.32363 14:-0.999354 15:-0.901376 16:-0.947741 17:-1 18:-1 19:-0.756278 20:-0.841703 21:-1 22:-1 23:-0.870322 24:-0.812516 25:-1 26:-1 27:-1 28:-1 29:-0.897101 30:-0.951882 31:-1 32:-1 33:-0.988231 34:-0.997477 35:-0.997833 36:-0.997024 37:-0.994819 38:-0.994334 39:-1 40:-1 41:-0.986301 42:-0.990712 43:-0.997795 44:-0.997967 45:-1 46:-0.993641 47:-0.990099 48:-1 49:-0.973451 50:-0.905512 51:-0.986014 52:-0.973684 53:-0.958763 54:-0.974359 55:-0.97619 56:-0.890909 57:-1 58:-0.866667 59:-0.980198 60:-0.36731 61:-0.298339 62:-0.492754 63:0.868314 64:-0.878868 65:-1 66:-1 67:-0.965383 68:-0.936233 69:-0.836903 70:-1 71:0.885715 72:-0.884561 73:-1 74:-1 75:0.868314 76:-0.878868 77:-1 78:-1 79:-0.965383 80:-0.936233 81:-0.836903 82:-1 83:0.885715 84:-0.884561 85:-1 86:-1 
0.125 1:-0.992771 2:-0.981721 3:-0.995694 4:-0.0392371 5:0.459372 6:-0.919253 7:-0.0426244 8:-0.926763 9:-0.999593 10:0.343296 11:0.453597 12:-0.999465 13:-0.322557 14:-0.999394 15:-0.902299 16:-0.944031 17:-1 18:-1 19:-1 20:-1 21:-0.817819 22:-0.941317 23:-1 24:-1 25:-1 26:-1 27:-0.807863 28:-0.95482 29:-1 30:-1 31:-1 32:-1 33:-0.931145 34:-0.946906 35:-0.999567 36:-1 37:-0.989637 38:-0.988669 39:-0.990491 40:-0.976974 41:-0.989726 42:-0.987616 43:-0.997795 44:-0.997967 45:-0.990244 46:-0.984102 47:-0.976898 48:-0.988827 49:-0.973451 50:-0.984252 51:-0.986014 52:-1 53:-0.958763 54:-0.974359 55:-0.928571 56:-0.963636 57:-1 58:-1 59:-1 60:-0.196162 61:-0.0581641 62:-0.173913 63:0.428201 64:-0.904368 65:-0.789472 66:-0.438597 67:-0.692673 68:-0.446226 69:-0.935618 70:-0.928392 71:0.503761 72:-0.908862 73:-0.897926 74:-0.101754 75:0.428201 76:-0.904368 77:-0.789472 78:-0.438597 79:-0.692673 80:-0.446226 81:-0.935618 82:-0.928392 83:0.503761 84:-0.908862 85:-0.897926 86:-0.101754 
0.125 1:-0.984841 2:-0.991846 3:-0.994756 4:-0.0179529 5:0.442195 6:-0.977326 7:0.011372 8:-0.997224 9:-0.999071 10:0.343296 11:0.460152 12:-0.998822 13:-0.32363 14:-0.998767 15:-0.96765 16:-0.856748 17:-1 18:-1 19:-0.930597 20:-0.826205 21:-1 22:-1 23:-0.881514 24:-0.79469 25:-1 26:-1 27:-0.820822 28:-0.922037 29:-0.959517 30:-0.971762 31:-0.936183 32:-0.897542 33:-0.96266 34:-0.951278 35:-0.987432 36:-0.982143 37:-0.958549 38:-0.977337 39:-0.993661 40:-0.986842 41:-0.986301 42:-0.978328 43:-0.99559 44:-0.993902 45:-1 46:-0.984102 47:-0.993399 48:-0.98324 49:-1 50:-0.968504 51:-0.986014 52:-0.934211 53:-1 54:-1 55:-0.97619 56:-0.927273 57:-1 58:-1 59:-1 60:-0.0248437 61:-0.409227 62:-0.115942 63:0.77208 64:-0.940099 65:-0.802198 66:-0.882784 67:-0.87752 68:-0.810798 69:-0.87902 70:-0.596322 71:0.745683 72:-0.942914 73:-0.872128 74:-0.789011 75:0.77208 76:-0.940099 77:-0.802198 78:-0.882784 79:-0.87752 80:-0.810798 81:-0.87902 82:-0.596322 83:0.745683 84:-0.942914 85:-0.872128 86:-0.789011 
0.125 1:-0.993937 2:-0.982331 3:-0.999628 4:-0.030108 5:0.439824 6:-0.89785 7:0.0178294 8:-0.996652 9:-0.999486 10:0.343296 11:0.460152 12:-0.999236 13:-0.32363 14:-0.999189 15:-0.901979 16:-0.948596 17:-1 18:-1 19:-0.874498 20:-0.96642 21:-1 22:-1 23:-0.833178 24:-0.823896 25:-1 26:-1 27:-1 28:-1 29:-0.885916 30:-0.93238 31:-1 32:-1 33:-0.876749 34:-0.939328 35:-0.9987 36:-1 37:-0.979275 38:-1 39:-1 40:-0.993421 41:-0.989726 42:-0.996904 43:-1 44:-0.997967 45:-1 46:-0.993641 47:-0.993399 48:-0.972067 49:-0.973451 50:-0.968504 51:-0.944056 52:-0.960526 53:-0.958763 54:-0.846154 55:-0.928571 56:-1 57:-0.8 58:-0.933333 59:-1 60:-0.403614 61:-0.250092 62:-0.492754 63:0.54416 64:-1 65:-0.423075 66:-0.794869 67:-0.894086 68:-0.503344 69:-0.647141 70:-0.921506 71:0.505494 72:-0.700301 73:-0.664337 74:-0.630771 75:0.54416 76:-1 77:-0.423075 78:-0.794869 79:-0.894086 80:-0.503344 81:-0.647141 82:-0.921506 83:0.505494 84:-0.700301 85:-0.664337 86:-0.630771 
0.125 1:-0.985075 2:-0.991886 3:-0.994765 4:-0.0179822 5:0.442265 6:-0.977461 7:0.0114606 8:-0.997282 9:-0.999118 10:0.343705 11:0.459854 12:-0.998865 13:-0.32363 14:-0.998815 15:-0.961478 16:-0.859032 17:-1 18:-1 19:-0.922627 20:-0.81665 21:-1 22:-1 23:-0.886896 24:-0.79671 25:-1 26:-1 27:-0.844067 28:-0.861208 29:-1 30:-1 31:-0.948421 32:-0.86962 33:-0.969968 34:-0.977273 35:-0.987432 36:-0.988095 37:-0.984456 38:-0.949008 39:-0.990491 40:-0.983553 41:-0.982877 42:-0.990712 43:-1 44:-0.989837 45:-1 46:-0.987281 47:-0.993399 48:-0.98324 49:-0.973451 50:-0.952756 51:-1 52:-0.986842 53:-0.979381 54:-0.974359 55:-0.952381 56:-1 57:-0.95 58:-0.933333 59:-0.980198 60:-0.0389725 61:-0.416124 62:-0.188406 63:0.769547 64:-0.939434 65:-0.800002 66:-0.881483 67:-0.920716 68:-0.713044 69:-0.877677 70:-0.637188 71:0.714286 72:-0.826842 73:-0.870708 74:-0.715558 75:0.769547 76:-0.939434 77:-0.800002 78:-0.881483 79:-0.920716 80:-0.713044 81:-0.877677 82:-0.637188 83:0.714286 84:-0.826842 85:-0.870708 86:-0.715558 
0.125 1:-0.993703 2:-0.982355 3:-0.999626 4:-0.0301198 5:0.439758 6:-0.897907 7:0.0185161 8:-0.996462 9:-0.999499 10:0.343296 11:0.460152 12:-0.999239 13:-0.32363 14:-0.999195 15:-0.902481 16:-0.948565 17:-1 18:-1 19:-0.867035 20:-0.972165 21:-1 22:-1 23:-0.845645 24:-0.823412 25:-1 26:-1 27:-1 28:-1 29:-0.858696 30:-0.924226 31:-1 32:-1 33:-0.896899 34:-0.955216 35:-0.998267 36:-0.997024 37:-0.994819 38:-1 39:-0.993661 40:-0.996711 41:-0.996575 42:-1 43:-0.997795 44:-0.997967 45:-0.998374 46:-0.984102 47:-0.993399 48:-0.96648 49:-0.982301 50:-0.968504 51:-0.944056 52:-0.960526 53:-0.979381 54:-0.820513 55:-1 56:-0.890909 57:-0.8 58:-1 59:-1 60:-0.410968 61:-0.21281 62:-0.478261 63:0.385046 64:-0.588603 65:-0.320751 66:-1 67:-0.934199 68:-0.512716 69:-0.23836 70:-0.845976 71:0.41779 72:-0.411906 73:-0.451113 74:-1 75:0.385046 76:-0.588603 77:-0.320751 78:-1 79:-0.934199 80:-0.512716 81:-0.23836 82:-0.845976 83:0.41779 84:-0.411906 85:-0.451113 86:-1 
0.125 1:-0.99347 2:-0.981854 3:-0.995371 4:-0.039612 5:0.459517 6:-0.920665 7:-0.0407198 8:-0.929253 9:-0.999567 10:0.343296 11:0.460152 12:-0.999457 13:-0.32363 14:-0.999448 15:-0.887458 16:-0.952184 17:-1 18:-1 19:-1 20:-1 21:-0.832247 22:-0.968163 23:-1 24:-1 25:-1 26:-1 27:-0.85294 28:-0.820516 29:-1 30:-1 31:-1 32:-1 33:-0.930018 34:-0.951786 35:-0.999133 36:-1 37:-0.994819 38:-0.977337 39:-0.993661 40:-0.980263 41:-0.993151 42:-0.975232 43:-0.99118 44:-0.997967 45:-0.996748 46:-0.993641 47:-0.9967 48:-0.98324 49:-0.964602 50:-0.984252 51:-0.958042 52:-0.960526 53:-1 54:-1 55:-0.97619 56:-0.927273 57:-0.95 58:-1 59:-1 60:-0.29565 61:-0.279269 62:-0.333333 63:0.0123467 64:-0.495277 65:-0.222219 66:-0.604939 67:-0.526149 68:-0.4686 69:-0.524294 70:-0.697657 71:0.380952 72:-0.903797 73:-0.676765 74:-0.0518528 75:0.0123467 76:-0.495277 77:-0.222219 78:-0.604939 79:-0.526149 80:-0.4686 81:-0.524294 82:-0.697657 83:0.380952 84:-0.903797 85:-0.676765 86:-0.0518528 
0.125 1:-0.986241 2:-0.9822 3:-0.999732 4:-0.0294484 5:0.439451 6:-0.897643 7:0.0242065 8:-0.99105 9:-0.998094 10:0.343296 11:0.460152 12:-0.998747 13:-0.32363 14:-0.998458 15:-0.976879 16:-0.983855 17:-0.990083 18:-0.993185 19:-1 20:-1 21:-0.753039 22:-0.819227 23:-1 24:-1 25:-0.713806 26:-0.814434 27:-1 28:-1 29:-0.785399 30:-0.88083 31:-1 32:-1 33:-0.896187 34:-0.957738 35:-0.9987 36:-1 37:-0.984456 38:-0.983003 39:-0.99683 40:-0.990132 41:-0.996575 42:-0.98452 43:-0.993385 44:-0.993902 45:-0.99187 46:-0.993641 47:-0.990099 48:-0.994413 49:-0.973451 50:-0.84252 51:-0.972028 52:-0.947368 53:-0.896907 54:-0.974359 55:-0.809524 56:-0.709091 57:-0.75 58:-1 59:-0.960396 60:-0.388288 61:-0.216533 62:-0.478261 63:0.302833 64:-0.615226 65:-0.364707 66:-0.811765 67:-0.891811 68:-0.358569 69:-0.222881 70:-0.903963 71:0.304202 72:-0.877771 73:-0.247057 74:-0.322355 75:0.302833 76:-0.615226 77:-0.364707 78:-0.811765 79:-0.891811 80:-0.358569 81:-0.222881 82:-0.903963 83:0.304202 84:-0.877771 85:-0.247057 86:-0.322355 
0.125 1:-0.991604 2:-0.981601 3:-0.995297 4:-0.0398129 5:0.46036 6:-0.919619 7:-0.0428571 8:-0.924817 9:-0.999161 10:0.34043 11:0.454491 12:-0.999416 13:-0.32363 14:-0.999244 15:-0.868391 16:-0.940363 17:-1 18:-1 19:-1 20:-1 21:-0.769463 22:-0.895095 23:-1 24:-1 25:-1 26:-1 27:-0.799696 28:-0.923591 29:-1 30:-1 31:-1 32:-1 33:-0.904342 34:-0.941656 35:-0.999133 36:-0.991071 37:-1 38:-1 39:-0.99683 40:-0.996711 41:-0.989726 42:-0.990712 43:-0.993385 44:-0.997967 45:-0.990244 46:-0.990461 47:-0.993399 48:-0.98324 49:-0.929204 50:-0.984252 51:-0.93007 52:-0.907895 53:-0.979381 54:-0.948718 55:-0.952381 56:-0.963636 57:-0.95 58:-0.933333 59:-0.980198 60:-0.352509 61:-0.054736 62:-0.347826 63:0.283156 64:-1 65:0.258063 66:-0.913979 67:-0.97763 68:-0.768584 69:0.538917 70:-0.868335 71:0.29493 72:0.173018 73:-0.812317 74:-1 75:0.283156 76:-1 77:0.258063 78:-0.913979 79:-0.97763 80:-0.768584 81:0.538917 82:-0.868335 83:0.29493 84:0.173018 85:-0.812317 86:-1 
0.125 1:-0.990205 2:-0.986561 3:-0.999298 4:-0.0309993 5:0.439565 6:-0.924239 7:0.0162585 8:-0.996708 9:-0.999401 10:0.343296 11:0.460152 12:-0.999147 13:-0.32202 14:-0.999112 15:-0.848756 16:-0.955451 17:-1 18:-1 19:-1 20:-1 21:-0.883895 22:-0.774284 23:-1 24:-1 25:-1 26:-1 27:-0.857158 28:-0.920416 29:-1 30:-1 31:-1 32:-1 33:-0.914886 34:-0.971434 35:-0.999567 36:-0.994048 37:-0.989637 38:-0.994334 39:-1 40:-0.996711 41:-0.993151 42:-1 43:-1 44:-0.997967 45:-0.995122 46:-0.99682 47:-0.990099 48:-0.994413 49:-0.99115 50:-0.826772 51:-0.916084 52:-0.842105 53:-0.814433 54:-1 55:-0.952381 56:-0.818182 57:-0.95 58:-1 59:-0.960396 60:-0.335123 61:0.0305555 62:-0.347826 63:1 64:-1 65:-1 66:-1 67:1 68:-1 69:-1 70:-1 71:1 72:-1 73:-1 74:-1 75:1 76:-1 77:-1 78:-1 79:1 80:-1 81:-1 82:-1 83:1 84:-1 85:-1 86:-1 
0.125 1:-0.996968 2:-0.973499 3:-0.999891 4:-0.0282833 5:0.440452 6:-0.846964 7:0.0136902 8:-0.997014 9:-0.999354 10:0.343296 11:0.460152 12:-0.999306 13:-0.32363 14:-0.999212 15:-0.980906 16:-0.970645 17:-1 18:-1 19:-0.913106 20:-0.818252 21:-1 22:-1 23:-1 24:-1 25:-0.917975 26:-0.768152 27:-1 28:-1 29:-0.807444 30:-0.810192 31:-1 32:-1 33:-0.924213 34:-0.979817 35:-0.999567 36:-1 37:-0.994819 38:-0.994334 39:-0.993661 40:-0.983553 41:-0.982877 42:-0.993808 43:-0.99118 44:-0.995935 45:-1 46:-0.99682 47:-1 48:-0.994413 49:-0.99115 50:-0.984252 51:-0.972028 52:-1 53:-0.979381 54:-1 55:-0.952381 56:-0.963636 57:-1 58:-0.866667 59:-0.940594 60:0.0339357 61:-0.001094 62:-0.202899 63:0.696107 64:-1 65:-1 66:-0.589744 67:-0.803891 68:-0.484951 69:-0.811809 70:-1 71:0.406594 72:-0.8668 73:-1 74:0.148717 75:0.696107 76:-1 77:-1 78:-0.589744 79:-0.803891 80:-0.484951 81:-0.811809 82:-1 83:0.406594 84:-0.8668 85:-1 86:0.148717 
0.125 1:-0.986241 2:-0.982366 3:-0.999812 4:-0.0288083 5:0.439871 6:-0.899877 7:0.0205676 8:-0.994741 9:-0.998695 10:0.343296 11:0.460152 12:-0.998949 13:-0.32363 14:-0.998743 15:-0.813332 16:-0.966749 17:-1 18:-1 19:-0.80764 20:-0.832678 21:-1 22:-1 23:-0.738177 24:-0.838443 25:-0.982491 26:-0.991572 27:-1 28:-1 29:-0.765263 30:-0.946537 31:-1 32:-1 33:-0.891686 34:-0.937661 35:-0.999133 36:-0.994048 37:-0.974093 38:-1 39:-0.99683 40:-0.990132 41:-0.996575 42:-0.978328 43:-0.984564 44:-0.985772 45:-0.99187 46:-0.993641 47:-0.993399 48:-0.955307 49:-0.893805 50:-0.905512 51:-0.972028 52:-0.907895 53:-0.938144 54:-0.974359 55:-1 56:-1 57:-1 58:-0.933333 59:-1 60:-0.323519 61:-0.0708855 62:-0.26087 63:0.0588237 64:0.154328 65:-0.576472 66:-0.874512 67:-0.939108 68:-0.426087 69:0.165677 70:-0.27971 71:0.334453 72:-0.449964 73:-0.589306 74:-0.548237 75:0.0588237 76:0.154328 77:-0.576472 78:-0.874512 79:-0.939108 80:-0.426087 81:0.165677 82:-0.27971 83:0.334453 84:-0.449964 85:-0.589306 86:-0.548237 
0.125 1:-0.987174 2:-0.98239 3:-0.999824 4:-0.0286505 5:0.439965 6:-0.900557 7:0.0195933 8:-0.995844 9:-0.998909 10:0.343296 11:0.460152 12:-0.998889 13:-0.32363 14:-0.998708 15:-1 16:-1 17:-0.973633 18:-0.992317 19:-0.991621 20:-0.998214 21:-0.917489 22:-0.897213 23:-0.85563 24:-0.98709 25:-0.779854 26:-0.927953 27:-1 28:-1 29:-0.923694 30:-0.985892 31:-0.728689 32:-0.977139 33:-0.891844 34:-0.963346 35:-0.998267 36:-1 37:-0.989637 38:-0.994334 39:-1 40:-0.996711 41:-0.996575 42:-0.987616 43:-0.99559 44:-0.987805 45:-0.995122 46:-0.987281 47:-0.980198 48:-0.988827 49:-0.982301 50:-0.984252 51:-0.986014 52:-0.973684 53:-0.917526 54:-0.769231 55:-0.666667 56:-0.854545 57:-0.75 58:-0.933333 59:-0.980198 60:-0.358703 61:-0.0680041 62:-0.42029 63:0.487881 64:-0.596224 65:-0.555556 66:-0.934155 67:-0.96042 68:-0.752012 69:-0.0938936 70:-0.244143 71:0.365078 72:-0.294535 73:-0.497193 74:-0.920986 75:0.487881 76:-0.596224 77:-0.555556 78:-0.934155 79:-0.96042 80:-0.752012 81:-0.0938936 82:-0.244143 83:0.365078 84:-0.294535 85:-0.497193 86:-0.920986 
0.125 1:-0.997201 2:-0.969416 3:-0.992636 4:-0.0480838 5:0.463249 6:-0.870367 7:-0.0513313 8:-0.937604 9:-0.999655 10:0.343296 11:0.460152 12:-0.999782 13:-0.32363 14:-0.999702 15:-0.840145 16:-0.893464 17:-1 18:-1 19:-1 20:-1 21:-1 22:-1 23:-0.801223 24:-0.932926 25:-1 26:-1 27:-1 28:-1 29:-1 30:-1 31:-1 32:-1 33:-0.924825 34:-0.933852 35:-0.9987 36:-0.994048 37:-0.989637 38:-0.994334 39:-1 40:-1 41:-0.996575 42:-0.996904 43:-0.997795 44:-0.995935 45:-1 46:-0.980922 47:-1 48:-0.994413 49:-1 50:-1 51:-1 52:-1 53:-0.938144 54:-0.948718 55:-1 56:-0.890909 57:-0.8 58:-0.8 59:-0.960396 60:0.273494 61:0.316113 62:-0.115942 63:1 64:-1 65:-1 66:-1 67:1 68:-1 69:-1 70:-1 71:1 72:-1 73:-1 74:-1 75:1 76:-1 77:-1 78:-1 79:1 80:-1 81:-1 82:-1 83:1 84:-1 85:-1 86:-1 
0.125 1:-0.988106 2:-0.991559 3:-0.994628 4:-0.0174474 5:0.443914 6:-0.974976 7:0.0138212 8:-0.996751 9:-0.99961 10:0.343296 11:0.460152 12:-0.999227 13:-0.32363 14:-0.999254 15:-0.950526 16:-0.869349 17:-1 18:-1 19:-0.972329 20:-0.85842 21:-1 22:-1 23:-0.9732 24:-0.878041 25:-1 26:-1 27:-1 28:-1 29:-0.812742 30:-0.912664 31:-1 32:-1 33:-0.92011 34:-0.93383 35:-0.993933 36:-0.979167 37:-0.968912 38:-0.988669 39:-0.993661 40:-0.986842 41:-0.986301 42:-0.990712 43:-0.993385 44:-0.995935 45:-0.998374 46:-0.987281 47:-0.973597 48:-0.96648 49:-0.99115 50:-0.968504 51:-0.958042 52:-0.986842 53:-1 54:-0.974359 55:-1 56:-1 57:-1 58:-0.933333 59:-0.980198 60:-0.0905518 61:-0.307714 62:-0.188406 63:0.92304 64:-0.929208 65:-1 66:-1 67:-0.983946 68:-0.962733 69:-0.809365 70:-0.734959 71:0.766234 72:-0.797605 73:-0.773318 74:-1 75:0.92304 76:-0.929208 77:-1 78:-1 79:-0.983946 80:-0.962733 81:-0.809365 82:-0.734959 83:0.766234 84:-0.797605 85:-0.773318 86:-1 
0.125 1:-0.987873 2:-0.982366 3:-0.999782 4:-0.0291372 5:0.440037 6:-0.895688 7:0.0174865 8:-0.994872 9:-0.998643 10:0.343296 11:0.460152 12:-0.99905 13:-0.32363 14:-0.998886 15:-1 16:-1 17:-1 18:-1 19:-0.703854 20:-0.76827 21:-1 22:-1 23:-0.748006 24:-0.837855 25:-1 26:-1 27:-1 28:-1 29:-0.791495 30:-0.915581 31:-1 32:-1 33:-0.879532 34:-0.91704 35:-0.997833 36:-0.991071 37:-1 38:-0.977337 39:-0.99683 40:-0.996711 41:-1 42:-0.987616 43:-0.99559 44:-0.995935 45:-0.985366 46:-0.993641 47:-0.976898 48:-0.994413 49:-0.964602 50:-0.968504 51:-0.944056 52:-0.921053 53:-0.979381 54:-0.794872 55:-0.880952 56:-0.963636 57:-0.75 58:-1 59:-1 60:-0.329105 61:-0.196701 62:-0.42029 63:0.658119 64:-0.790344 65:-0.769228 66:-0.863248 67:-0.8812 68:-0.705686 69:-0.811809 70:-0.947669 71:0.736264 72:-0.933397 73:-0.627037 74:-0.917946 75:0.658119 76:-0.790344 77:-0.769228 78:-0.863248 79:-0.8812 80:-0.705686 81:-0.811809 82:-0.947669 83:0.736264 84:-0.933397 85:-0.627037 86:-0.917946 
0.125 1:-0.999534 2:-0.973383 3:-0.999892 4:-0.0283275 5:0.440609 6:-0.845086 7:0.00923462 8:-0.998748 9:-0.999636 10:0.343296 11:0.460152 12:-0.999597 13:-0.32363 14:-0.999525 15:-0.911961 16:-0.818656 17:-1 18:-1 19:-1 20:-1 21:-0.934802 22:-0.784072 23:-1 24:-1 25:-1 26:-1 27:-0.911733 28:-0.896602 29:-1 30:-1 31:-1 32:-1 33:-0.925225 34:-0.980825 35:-0.999133 36:-0.991071 37:-1 38:-0.988669 39:-0.993661 40:-0.990132 41:-0.996575 42:-0.996904 43:-1 44:-1 45:-0.996748 46:-1 47:-0.9967 48:-0.994413 49:-1 50:-0.984252 51:-0.972028 52:-0.986842 53:-0.979381 54:-0.897436 55:-1 56:-1 57:-1 58:-1 59:-1 60:-0.091962 61:-0.149515 62:-0.26087 63:0.788359 64:-1 65:-1 66:-0.809525 67:-0.866474 68:-1 69:-0.606815 70:-0.271139 71:0.448979 72:-0.443413 73:-0.792209 74:-1 75:0.788359 76:-1 77:-1 78:-0.809525 79:-0.866474 80:-1 81:-0.606815 82:-0.271139 83:0.448979 84:-0.443413 85:-0.792209 86:-1 
0.125 1:-0.988106 2:-0.991534 3:-0.994646 4:-0.0174467 5:0.44457 6:-0.974888 7:0.0147438 8:-0.996266 9:-0.99963 10:0.343296 11:0.460152 12:-0.999245 13:-0.32363 14:-0.999257 15:-0.948342 16:-0.84086 17:-1 18:-1 19:-0.967089 20:-0.8557 21:-1 22:-1 23:-0.980546 24:-0.868834 25:-1 26:-1 27:-1 28:-1 29:-0.834198 30:-0.9294 31:-1 32:-1 33:-0.924738 34:-0.935222 35:-0.993499 36:-0.979167 37:-0.974093 38:-0.983003 39:-0.990491 40:-0.986842 41:-0.996575 42:-0.993808 43:-0.99118 44:-0.995935 45:-0.993496 46:-0.993641 47:-0.966997 48:-0.977654 49:-0.99115 50:-0.92126 51:-0.986014 52:-1 53:-0.979381 54:-1 55:-0.97619 56:-1 57:-1 58:-1 59:-0.980198 60:-0.106604 61:-0.321972 62:-0.188406 63:0.88456 64:-1 65:-1 66:-0.930736 67:-0.931737 68:-0.962733 69:-0.666389 70:-0.787967 71:0.666049 72:-0.86507 73:-0.697757 74:-0.75065 75:0.88456 76:-1 77:-1 78:-0.930736 79:-0.931737 80:-0.962733 81:-0.666389 82:-0.787967 83:0.666049 84:-0.86507 85:-0.697757 86:-0.75065 
0.125 1:-0.987407 2:-0.98239 3:-0.99978 4:-0.0291382 5:0.439971 6:-0.895795 7:0.0184235 8:-0.994677 9:-0.998579 10:0.343296 11:0.460152 12:-0.998992 13:-0.32363 14:-0.998804 15:-0.991631 16:-0.9941 17:-1 18:-1 19:-0.703314 20:-0.76486 21:-1 22:-1 23:-0.737553 24:-0.85968 25:-1 26:-1 27:-1 28:-1 29:-0.791745 30:-0.919929 31:-1 32:-1 33:-0.866267 34:-0.90919 35:-0.996966 36:-0.997024 37:-0.984456 38:-0.983003 39:-0.99683 40:-0.996711 41:-0.996575 42:-0.993808 43:-0.99559 44:-0.993902 45:-0.993496 46:-0.987281 47:-0.986799 48:-0.972067 49:-0.973451 50:-0.984252 51:-0.944056 52:-0.947368 53:-0.896907 54:-0.974359 55:-0.880952 56:-0.745455 57:-0.95 58:-0.6 59:-0.980198 60:-0.289263 61:-0.204952 62:-0.449275 63:0.666667 64:-0.795588 65:-0.7 66:-0.933333 67:-0.934673 68:-0.748913 69:-0.678899 70:-0.94898 71:0.742857 72:-0.935065 73:-0.563636 74:-1 75:0.666667 76:-0.795588 77:-0.7 78:-0.933333 79:-0.934673 80:-0.748913 81:-0.678899 82:-0.94898 83:0.742857 84:-0.935065 85:-0.563636 86:-1 
0.125 1:-0.997668 2:-0.973397 3:-0.999902 4:-0.0281933 5:0.440378 6:-0.844214 7:0.0161453 8:-0.997705 9:-0.999467 10:0.343296 11:0.460152 12:-0.999453 13:-0.32363 14:-0.99935 15:-0.911933 16:-0.80089 17:-1 18:-1 19:-1 20:-1 21:-0.919367 22:-0.780324 23:-1 24:-1 25:-1 26:-1 27:-0.909216 28:-0.917846 29:-1 30:-1 31:-1 32:-1 33:-0.923356 34:-0.977707 35:-0.997833 36:-1 37:-0.989637 38:-0.988669 39:-1 40:-0.990132 41:-0.993151 42:-0.993808 43:-0.997795 44:-0.997967 45:-0.998374 46:-0.993641 47:-0.9967 48:-1 49:-0.982301 50:-1 51:-0.93007 52:-1 53:-0.958763 54:-0.948718 55:-1 56:-1 57:-1 58:-0.933333 59:-0.980198 60:0.00852288 61:-0.109252 62:-0.217391 63:0.83539 64:-1 65:-0.833332 66:-1 67:-0.954215 68:-0.68116 69:-0.796125 70:-1 71:0.642857 72:-1 73:-0.838383 74:-0.822221 75:0.83539 76:-1 77:-0.833332 78:-1 79:-0.954215 80:-0.68116 81:-0.796125 82:-1 83:0.642857 84:-1 85:-0.838383 86:-0.822221 
0.125 1:-0.982743 2:-0.982105 3:-0.99453 4:-0.0110884 5:0.447914 6:-0.923592 7:0.02669 8:-0.99017 9:-0.997202 10:0.343296 11:0.460152 12:-0.99878 13:-0.32363 14:-0.997956 15:-0.692657 16:-0.941226 17:-1 18:-1 19:-0.700114 20:-0.922067 21:-1 22:-1 23:-1 24:-1 25:-0.714829 26:-0.886593 27:-1 28:-1 29:-0.811214 30:-0.846075 31:-1 32:-1 33:-0.87965 34:-0.953091 35:-0.997833 36:-0.973214 37:-0.901554 38:-0.943343 39:-0.977813 40:-0.993421 41:-0.976027 42:-0.981424 43:-0.988975 44:-0.981707 45:-0.996748 46:-0.980922 47:-0.993399 48:-0.988827 49:-0.973451 50:-0.984252 51:-0.958042 52:-0.986842 53:-1 54:-1 55:-1 56:-1 57:-1 58:-1 59:-1 60:-0.241509 61:-0.395007 62:-0.115942 63:0.2 64:-0.672941 65:-0.219999 66:-0.626667 67:-0.969849 68:-0.54087 69:0.137615 70:-0.714286 71:0.357143 72:-0.0649351 73:-0.767273 74:-0.872 75:0.2 76:-0.672941 77:-0.219999 78:-0.626667 79:-0.969849 80:-0.54087 81:0.137615 82:-0.714286 83:0.357143 84:-0.0649351 85:-0.767273 86:-0.872 
