svm_type c_svc
kernel_type rbf
gamma 0.0078125
nr_class 2
total_sv 517
rho -0.14174115285277367
label 1 2
probA -19.07050061085522
probB 12.982306276369853
nr_sv 259 258
SV
0.03125 1:-0.984068 2:-0.991461 3:-0.994286 4:-0.0687548 5:0.545726 6:-0.966745 7:0.0872848 8:-0.99681 9:-0.998952 10:0.514774 11:-0.266994 12:-0.998799 13:-0.454707 14:-0.998664 15:-0.951283 16:-0.845408 17:-0.972425 18:-0.942765 19:-0.917424 20:-0.793066 21:-0.958392 22:-0.949586 23:-0.985646 24:-0.934244 25:-0.861412 26:-0.917465 27:-0.96417 28:-0.958682 29:-0.95278 30:-0.897483 31:-1 32:-1 33:-0.98281 34:-0.968493 35:-0.987692 36:-0.971831 37:-0.95122 38:-0.987013 39:-0.976331 40:-0.989399 41:-0.995556 42:-0.978328 43:-0.993385 44:-0.990326 45:-0.998082 46:-0.96875 47:-0.973684 48:-0.934641 49:-0.971631 50:-0.966667 51:-0.986014 52:-0.986842 53:-0.958763 54:-0.948718 55:-1 56:-1 57:-1 58:-1 59:-1 60:-0.0207071 61:-0.32433 62:0.267327 63:0.681064 64:-1 65:-0.84496 66:-0.627909 67:-0.706205 68:-0.866531 69:-0.957328 70:-0.905078 71:0.730898 72:-0.939595 73:-0.864692 74:-0.702323 75:0.681064 76:-1 77:-0.84496 78:-0.627909 79:-0.706205 80:-0.866531 81:-0.957328 82:-0.905078 83:0.730898 84:-0.939595 85:-0.864692 86:-0.702323 
0.03125 1:-0.985396 2:-0.981279 3:-0.999792 4:-0.0874626 5:0.541626 6:-0.858683 7:0.105273 8:-0.990688 9:-0.998499 10:0.514774 11:-0.262789 12:-0.998271 13:-0.452213 14:-0.99793 15:-0.953998 16:-0.988127 17:-1 18:-1 19:-0.981155 20:-0.999034 21:-0.656583 22:-0.769609 23:-1 24:-1 25:-0.711593 26:-0.842347 27:-1 28:-1 29:-0.790767 30:-0.886667 31:-1 32:-1 33:-0.920424 34:-0.96784 35:-0.999441 36:-0.987928 37:-0.969512 38:-0.993506 39:-0.988166 40:-1 41:-1 42:-0.996904 43:-1 44:-1 45:-0.982742 46:-0.960938 47:-0.907895 48:-0.869281 49:-0.957447 50:-0.966667 51:-0.93007 52:-0.973684 53:-0.85567 54:-0.74359 55:-1 56:-0.818182 57:-1 58:-0.909091 59:-1 60:-0.348568 61:-0.1255 62:-0.168317 63:0.548501 64:-0.932702 65:-0.58848 66:-0.670784 67:-0.861158 68:-0.610307 69:-0.546947 70:-0.949608 71:0.52381 72:-0.743465 73:-0.425367 74:-0.920986 75:0.548501 76:-0.932702 77:-0.58848 78:-0.670784 79:-0.861158 80:-0.610307 81:-0.546947 82:-0.949608 83:0.52381 84:-0.743465 85:-0.425367 86:-0.920986 
0.03125 1:-0.992034 2:-0.983469 3:-0.996773 4:-0.0647843 5:0.537895 6:-0.900727 7:0.0686073 8:-0.994741 9:-0.999887 10:0.514774 11:-0.266994 12:-0.998444 13:-0.454707 14:-0.998515 15:-0.965997 16:-0.967619 17:-0.964467 18:-0.958383 19:-1 20:-1 21:-0.919549 22:-0.968749 23:-0.94858 24:-0.917629 25:-1 26:-1 27:-0.874373 28:-0.947107 29:-1 30:-1 31:-0.978763 32:-0.93439 33:-0.940147 34:-0.988155 35:-0.995524 36:-0.927565 37:-1 38:-0.961039 39:-1 40:-0.971731 41:-1 42:-0.987616 43:-0.997795 44:-1 45:-0.988495 46:-1 47:-1 48:-1 49:-0.971631 50:-1 51:-0.986014 52:-1 53:-1 54:-1 55:-1 56:-1 57:-1 58:-1 59:-0.966102 60:-0.798955 61:-0.8471 62:-0.70297 63:-0.687074 64:-0.12395 65:0.666667 66:-0.333333 67:-0.328068 68:0.38354 69:-0.606815 70:-0.781343 71:-0.469388 72:0.113174 73:0.14286 74:-0.0857152 75:-0.687074 76:-0.12395 77:0.666667 78:-0.333333 79:-0.328068 80:0.38354 81:-0.606815 82:-0.781343 83:-0.469388 84:0.113174 85:0.14286 86:-0.0857152 
0.03125 1:-0.984068 2:-0.991349 3:-0.994426 4:-0.0692286 5:0.546769 6:-0.968265 7:0.0885612 8:-0.996694 9:-0.999072 10:0.514774 11:-0.266994 12:-0.99897 13:-0.454707 14:-0.998823 15:-0.953474 16:-0.846436 17:-1 18:-1 19:-0.917846 20:-0.794099 21:-1 22:-1 23:-1 24:-1 25:-0.890962 26:-0.796556 27:-1 28:-1 29:-0.81101 30:-0.828155 31:-1 32:-1 33:-0.918907 34:-0.893616 35:-0.99049 36:-0.971831 37:-0.95122 38:-0.987013 39:-0.984221 40:-0.978799 41:-0.991111 42:-0.98452 43:-0.98677 44:-0.992745 45:-0.99233 46:-0.976562 47:-0.921053 48:-0.934641 49:-0.985816 50:-1 51:-0.986014 52:-0.986842 53:-0.979381 54:-0.974359 55:-1 56:-0.963636 57:-0.923077 58:-1 59:-1 60:-0.0915 61:-0.317089 62:0.188119 63:0.681064 64:-0.936616 65:-0.76744 66:-0.751936 67:-0.893186 68:-0.766432 69:-0.445273 70:-0.667776 71:0.521594 72:-0.697974 73:-0.391121 74:-0.925581 75:0.681064 76:-0.936616 77:-0.76744 78:-0.751936 79:-0.893186 80:-0.766432 81:-0.445273 82:-0.667776 83:0.521594 84:-0.697974 85:-0.391121 86:-0.925581 
0.03125 1:-0.986458 2:-0.98133 3:-0.999774 4:-0.087856 5:0.542656 6:-0.859144 7:0.0899427 8:-0.995741 9:-0.998749 10:0.514312 11:-0.266994 12:-0.998784 13:-0.454707 14:-0.998632 15:-1 16:-1 17:-1 18:-1 19:-0.727539 20:-0.866154 21:-1 22:-1 23:-0.715348 24:-0.769392 25:-1 26:-1 27:-1 28:-1 29:-0.770491 30:-0.846856 31:-1 32:-1 33:-0.847327 34:-0.919613 35:-0.997203 36:-0.995976 37:-0.993902 38:-0.993506 39:-0.996055 40:-1 41:-0.986667 42:-0.996904 43:-1 44:-1 45:-0.980825 46:-1 47:-0.881579 48:-0.934641 49:-0.957447 50:-0.966667 51:-0.944056 52:-0.986842 53:-0.814433 54:-0.794872 55:-0.833333 56:-1 57:-0.692308 58:-1 59:-0.966102 60:-0.381484 61:-0.10029 62:-0.227723 63:0.32715 64:-0.858416 65:-0.22078 66:-0.65368 67:-0.670691 68:-0.515529 69:-0.904683 70:-1 71:0.632654 72:-1 73:-0.924439 74:-0.251949 75:0.32715 76:-0.858416 77:-0.22078 78:-0.65368 79:-0.670691 80:-0.515529 81:-0.904683 82:-1 83:0.632654 84:-1 85:-0.924439 86:-0.251949 
0.03125 1:-0.984599 2:-0.991401 3:-0.994427 4:-0.0692311 5:0.546981 6:-0.968274 7:0.0888276 8:-0.996466 9:-0.999139 10:0.514774 11:-0.266994 12:-0.998984 13:-0.454707 14:-0.998866 15:-0.924162 16:-0.843937 17:-1 18:-1 19:-0.917626 20:-0.78839 21:-1 22:-1 23:-1 24:-1 25:-0.905323 26:-0.796096 27:-1 28:-1 29:-0.816534 30:-0.828175 31:-1 32:-1 33:-0.924978 34:-0.905623 35:-0.989371 36:-0.983903 37:-0.969512 38:-0.967532 39:-0.99211 40:-0.985866 41:-0.986667 42:-0.987616 43:-0.98677 44:-0.987908 45:-0.996165 46:-0.976562 47:-0.907895 48:-0.973856 49:-0.985816 50:-0.916667 51:-0.986014 52:-0.986842 53:-0.979381 54:-1 55:-1 56:-1 57:-1 58:-0.818182 59:-0.966102 60:-0.092976 61:-0.314729 62:0.108911 63:0.746033 64:-0.935106 65:-0.761907 66:-0.873013 67:-0.938263 68:-0.863354 69:-0.432066 70:-0.659865 71:0.540818 72:-0.690784 73:-0.653679 74:-0.695238 75:0.746033 76:-0.935106 77:-0.761907 78:-0.873013 79:-0.938263 80:-0.863354 81:-0.432066 82:-0.659865 83:0.540818 84:-0.690784 85:-0.653679 86:-0.695238 
0.03125 1:-0.986192 2:-0.981342 3:-0.999771 4:-0.0878497 5:0.542509 6:-0.859582 7:0.0918888 8:-0.996043 9:-0.998769 10:0.514774 11:-0.266994 12:-0.99869 13:-0.454707 14:-0.998497 15:-0.981749 16:-0.991667 17:-1 18:-1 19:-0.718004 20:-0.87266 21:-1 22:-1 23:-0.717017 24:-0.787215 25:-1 26:-1 27:-1 28:-1 29:-0.769755 30:-0.844111 31:-1 32:-1 33:-0.849168 34:-0.915671 35:-0.996643 36:-0.995976 37:-0.987805 38:-1 39:-0.988166 40:-0.992933 41:-1 42:-0.996904 43:-1 44:-0.997582 45:-0.988495 46:-0.945312 47:-0.934211 48:-0.882353 49:-0.985816 50:-1 51:-0.944056 52:-0.934211 53:-0.917526 54:-0.871795 55:-0.809524 56:-0.890909 57:-0.846154 58:-0.909091 59:-0.966102 60:-0.350109 61:-0.117812 62:-0.207921 63:0.413918 64:-0.930113 65:-0.31624 66:-0.658117 67:-0.700812 68:-0.521738 69:-0.95295 70:-1 71:0.637362 72:-1 73:-0.850816 74:-0.34359 75:0.413918 76:-0.930113 77:-0.31624 78:-0.658117 79:-0.700812 80:-0.521738 81:-0.95295 82:-1 83:0.637362 84:-1 85:-0.850816 86:-0.34359 
0.03125 1:-0.984334 2:-0.991272 3:-0.994344 4:-0.0693012 5:0.547725 6:-0.969017 7:0.0896602 8:-0.996908 9:-0.999284 10:0.514774 11:-0.266994 12:-0.998554 13:-0.454707 14:-0.998429 15:-0.955728 16:-0.841287 17:-1 18:-1 19:-0.914235 20:-0.798634 21:-1 22:-1 23:-1 24:-1 25:-0.918955 26:-0.84313 27:-1 28:-1 29:-0.896305 30:-0.761911 31:-1 32:-1 33:-0.922069 34:-0.924447 35:-0.992727 36:-0.939638 37:-0.987805 38:-0.954545 39:-0.984221 40:-0.985866 41:-0.977778 42:-0.987616 43:-0.993385 44:-0.990326 45:-0.998082 46:-0.96875 47:-1 48:-0.986928 49:-0.971631 50:-0.966667 51:-0.958042 52:-0.973684 53:-0.979381 54:-0.974359 55:-1 56:-0.890909 57:-0.923077 58:-0.818182 59:-1 60:-0.198103 61:-0.449167 62:-0.108911 63:0.892437 64:-1 65:-1 66:-0.937253 67:-0.939108 68:-0.898722 69:-0.784132 70:-0.567829 71:0.727732 72:-0.877771 73:-0.726202 74:-0.849414 75:0.892437 76:-1 77:-1 78:-0.937253 79:-0.939108 80:-0.898722 81:-0.784132 82:-0.567829 83:0.727732 84:-0.877771 85:-0.726202 86:-0.849414 
0.03125 1:-0.985396 2:-0.9858 3:-0.99926 4:-0.0910395 5:0.5416 6:-0.895451 7:0.0933887 8:-0.99651 9:-0.999118 10:0.514774 11:-0.266994 12:-0.999007 13:-0.454707 14:-0.998848 15:-0.788891 16:-0.950995 17:-1 18:-1 19:-1 20:-1 21:-0.792711 22:-0.814361 23:-1 24:-1 25:-1 26:-1 27:-0.821469 28:-0.922861 29:-1 30:-1 31:-1 32:-1 33:-0.924193 34:-0.962679 35:-0.998881 36:-1 37:-1 38:-1 39:-0.996055 40:-1 41:-0.991111 42:-0.996904 43:-0.997795 44:-0.995163 45:-0.994247 46:-0.9375 47:-0.947368 48:-0.895425 49:-0.829787 50:-0.833333 51:-0.93007 52:-0.921053 53:-0.938144 54:-0.923077 55:-0.809524 56:-0.963636 57:-1 58:-1 59:-1 60:-0.474263 61:0.132045 62:-0.029703 63:1 64:-1 65:-1 66:-1 67:1 68:-1 69:-1 70:-1 71:1 72:-1 73:-1 74:-1 75:1 76:-1 77:-1 78:-1 79:1 80:-1 81:-1 82:-1 83:1 84:-1 85:-1 86:-1 
0.03125 1:-0.985661 2:-0.98138 3:-0.999771 4:-0.0878691 5:0.542554 6:-0.85978 7:0.0912475 8:-0.995868 9:-0.998745 10:0.514774 11:-0.266994 12:-0.998714 13:-0.454707 14:-0.998544 15:-0.990335 16:-0.996621 17:-1 18:-1 19:-0.719439 20:-0.864137 21:-1 22:-1 23:-0.726014 24:-0.799558 25:-1 26:-1 27:-1 28:-1 29:-0.758692 30:-0.844232 31:-1 32:-1 33:-0.849362 34:-0.919293 35:-0.997762 36:-0.995976 37:-1 38:-0.987013 39:-1 40:-0.996466 41:-0.995556 42:-0.98452 43:-0.997795 44:-1 45:-0.980825 46:-0.992188 47:-0.855263 48:-0.947712 49:-0.943262 50:-1 51:-0.902098 52:-0.921053 53:-0.896907 54:-0.923077 55:-0.785714 56:-0.963636 57:-0.769231 58:-1 59:-1 60:-0.409122 61:-0.124299 62:-0.207921 63:0.428571 64:-1 65:-0.583333 66:-0.4 67:-0.683417 68:-0.497826 69:-1 70:-1 71:0.614286 72:-1 73:-0.854545 74:-0.28 75:0.428571 76:-1 77:-0.583333 78:-0.4 79:-0.683417 80:-0.497826 81:-1 82:-1 83:0.614286 84:-1 85:-0.854545 86:-0.28 
0.03125 1:-0.98513 2:-0.991375 3:-0.994351 4:-0.06936 5:0.546939 6:-0.969264 7:0.0886699 8:-0.997469 9:-0.999195 10:0.514774 11:-0.266994 12:-0.99874 13:-0.454707 14:-0.998574 15:-0.931974 16:-0.852206 17:-1 18:-1 19:-0.908183 20:-0.792671 21:-1 22:-1 23:-1 24:-1 25:-0.919844 26:-0.847292 27:-1 28:-1 29:-0.880528 30:-0.762651 31:-1 32:-1 33:-0.919448 34:-0.919557 35:-0.992727 36:-0.955734 37:-0.963415 38:-0.954545 39:-0.964497 40:-0.992933 41:-0.991111 42:-0.996904 43:-0.997795 44:-0.990326 45:-0.996165 46:-0.976562 47:-0.960526 48:-0.986928 49:-0.985816 50:-0.95 51:-0.958042 52:-0.973684 53:-1 54:-1 55:-0.928571 56:-1 57:-0.692308 58:-1 59:-1 60:-0.160126 61:-0.429014 62:-0.0693069 63:0.777003 64:-0.86705 65:-1 66:-0.80488 67:-0.887485 68:-0.965006 69:-0.597226 70:-0.701343 71:0.686412 72:-0.873299 73:-0.574278 74:-0.921952 75:0.777003 76:-0.86705 77:-1 78:-0.80488 79:-0.887485 80:-0.965006 81:-0.597226 82:-0.701343 83:0.686412 84:-0.873299 85:-0.574278 86:-0.921952 
0.03125 1:-0.98513 2:-0.981405 3:-0.999771 4:-0.0878949 5:0.542462 6:-0.859578 7:0.0924329 8:-0.995592 9:-0.998579 10:0.514774 11:-0.266994 12:-0.998759 13:-0.454707 14:-0.998518 15:-0.991495 16:-0.989055 17:-1 18:-1 19:-0.716633 20:-0.860904 21:-1 22:-1 23:-0.703865 24:-0.79021 25:-1 26:-1 27:-1 28:-1 29:-0.761168 30:-0.83912 31:-1 32:-1 33:-0.847838 34:-0.935255 35:-0.997203 36:-0.983903 37:-0.981707 38:-0.993506 39:-1 40:-0.996466 41:-0.986667 42:-1 43:-0.997795 44:-0.995163 45:-0.986577 46:-0.921875 47:-0.934211 48:-0.973856 49:-0.971631 50:-0.966667 51:-0.874126 52:-0.934211 53:-0.896907 54:-0.871795 55:-0.904762 56:-0.854545 57:-1 58:-0.909091 59:-1 60:-0.330616 61:-0.132367 62:-0.168317 63:0.368177 64:-0.933525 65:0.138213 66:-0.93496 67:-0.764923 68:-0.370096 69:-0.955248 70:-0.850673 71:0.623695 72:-1 73:-0.858095 74:-0.297562 75:0.368177 76:-0.933525 77:0.138213 78:-0.93496 79:-0.764923 80:-0.370096 81:-0.955248 82:-0.850673 83:0.623695 84:-1 85:-0.858095 86:-0.297562 
0.03125 1:-0.896973 2:-0.99611 3:-0.997047 4:-0.0882681 5:0.549306 6:-0.987588 7:0.0771719 8:-0.988053 9:-0.994326 10:0.516159 11:-0.266994 12:-0.981723 13:-0.447582 14:-0.982144 15:-0.747428 16:-0.915008 17:-0.813609 18:-0.926905 19:-0.82533 20:-0.930182 21:-0.923851 22:-0.943782 23:-0.860306 24:-0.857657 25:-0.917444 26:-0.852251 27:-0.814 28:-0.680455 29:-0.848109 30:-0.607356 31:-0.914475 32:-0.735121 33:-0.888832 34:-0.902533 35:-0.884196 36:-0.987928 37:-0.969512 38:-0.967532 39:-0.984221 40:-0.975265 41:-0.924444 42:-0.981424 43:-0.98677 44:-0.992745 45:-0.986577 46:-0.90625 47:-0.881579 48:-0.764706 49:-0.77305 50:-0.766667 51:-0.902098 52:-0.934211 53:-0.608247 54:-0.589744 55:-0.857143 56:-0.381818 57:-0.769231 58:-0.909091 59:-1 60:0.397926 61:-0.224043 62:0.386139 63:0.0704762 64:0.144707 65:-0.466667 66:-0.946667 67:-0.859296 68:-0.483478 69:0.486239 70:-0.22449 71:0.241429 72:-0.220779 73:-0.534545 74:-0.616 75:0.0704762 76:0.144707 77:-0.466667 78:-0.946667 79:-0.859296 80:-0.483478 81:0.486239 82:-0.22449 83:0.241429 84:-0.220779 85:-0.534545 86:-0.616 
0.03125 1:-0.984599 2:-0.991367 3:-0.994317 4:-0.0694595 5:0.547033 6:-0.969876 7:0.0887275 8:-0.997187 9:-0.99921 10:0.514774 11:-0.266994 12:-0.998371 13:-0.454707 14:-0.998254 15:-0.948187 16:-0.840927 17:-1 18:-1 19:-0.905089 20:-0.794292 21:-1 22:-1 23:-1 24:-1 25:-0.902868 26:-0.8437 27:-1 28:-1 29:-0.883423 30:-0.799993 31:-1 32:-1 33:-0.918223 34:-0.931195 35:-0.994406 36:-0.935614 37:-0.97561 38:-0.967532 39:-0.980276 40:-0.982332 41:-0.982222 42:-0.990712 43:-0.988975 44:-0.990326 45:-0.99233 46:-0.960938 47:-0.986842 48:-1 49:-0.985816 50:-0.966667 51:-0.986014 52:-0.986842 53:-1 54:-0.974359 55:-1 56:-1 57:-0.846154 58:-0.818182 59:-0.932203 60:-0.224974 61:-0.462532 62:-0.108911 63:0.854875 64:-0.935106 65:-1 66:-0.873013 67:-0.914334 68:-0.931676 69:-0.781563 70:-0.757045 71:0.785715 72:-0.938156 73:-0.722944 74:-0.923808 75:0.854875 76:-0.935106 77:-1 78:-0.873013 79:-0.914334 80:-0.931676 81:-0.781563 82:-0.757045 83:0.785715 84:-0.938156 85:-0.722944 86:-0.923808 
0.03125 1:-0.985396 2:-0.981355 3:-0.999773 4:-0.0878414 5:0.542481 6:-0.859465 7:0.0922693 8:-0.995247 9:-0.998713 10:0.514774 11:-0.266994 12:-0.998635 13:-0.454707 14:-0.998491 15:-0.980997 16:-0.989854 17:-1 18:-1 19:-0.727469 20:-0.86072 21:-1 22:-1 23:-0.717463 24:-0.76603 25:-1 26:-1 27:-1 28:-1 29:-0.770597 30:-0.837073 31:-1 32:-1 33:-0.848727 34:-0.925159 35:-0.995524 36:-0.995976 37:-0.993902 38:-1 39:-1 40:-0.989399 41:-1 42:-0.993808 43:-1 44:-0.995163 45:-0.986577 46:-0.945312 47:-0.934211 48:-0.934641 49:-0.957447 50:-0.933333 51:-0.944056 52:-0.894737 53:-0.958763 54:-0.923077 55:-0.809524 56:-1 57:-0.615385 58:-0.909091 59:-0.966102 60:-0.344999 61:-0.124539 62:-0.207921 63:0.360375 64:-0.730814 65:-0.0123467 66:-1 67:-0.96042 68:-0.36232 69:-0.682862 70:-0.596878 71:0.650795 72:-1 73:-0.784512 74:-0.446912 75:0.360375 76:-0.730814 77:-0.0123467 78:-1 79:-0.96042 80:-0.36232 81:-0.682862 82:-0.596878 83:0.650795 84:-1 85:-0.784512 86:-0.446912 
0.03125 1:-0.984599 2:-0.991469 3:-0.994333 4:-0.0691991 5:0.545691 6:-0.968633 7:0.0871602 8:-0.996992 9:-0.999193 10:0.514774 11:-0.266994 12:-0.998797 13:-0.454707 14:-0.99875 15:-0.966349 16:-0.866855 17:-1 18:-1 19:-0.91445 20:-0.800044 21:-1 22:-1 23:-0.891322 24:-0.821779 25:-1 26:-1 27:-0.822001 28:-0.909524 29:-1 30:-1 31:-0.909903 32:-0.874157 33:-0.974061 34:-0.98678 35:-0.986573 36:-0.979879 37:-0.969512 38:-0.961039 39:-0.988166 40:-0.985866 41:-0.982222 42:-0.996904 43:-0.99559 44:-0.990326 45:-0.996165 46:-0.992188 47:-0.973684 48:-0.973856 49:-0.957447 50:-0.966667 51:-0.93007 52:-0.960526 53:-1 54:-0.974359 55:-0.97619 56:-0.963636 57:-0.923077 58:-0.909091 59:-1 60:-0.0207452 61:-0.357356 62:0.0891089 63:0.709751 64:-0.870212 65:-0.841267 66:-0.809525 67:-0.962191 68:-0.658384 69:-0.825251 70:-0.659865 71:0.72449 72:-0.938156 73:-0.792209 74:-0.695238 75:0.709751 76:-0.870212 77:-0.841267 78:-0.809525 79:-0.962191 80:-0.658384 81:-0.825251 82:-0.659865 83:0.72449 84:-0.938156 85:-0.792209 86:-0.695238 
0.03125 1:-0.983271 2:-0.991537 3:-0.994283 4:-0.0692143 5:0.545524 6:-0.968956 7:0.0869248 8:-0.997304 9:-0.999115 10:0.514774 11:-0.268395 12:-0.998549 13:-0.454707 14:-0.998475 15:-0.96454 16:-0.849971 17:-1 18:-1 19:-0.910616 20:-0.797507 21:-1 22:-1 23:-0.907252 24:-0.861567 25:-1 26:-1 27:-0.822084 28:-0.866823 29:-0.937974 30:-0.909958 31:-1 32:-1 33:-0.964423 34:-0.966696 35:-0.984895 36:-0.975855 37:-0.969512 38:-0.974026 39:-0.980276 40:-0.989399 41:-0.991111 42:-0.990712 43:-0.99559 44:-0.987908 45:-0.998082 46:-0.984375 47:-0.960526 48:-0.986928 49:-0.985816 50:-0.966667 51:-0.986014 52:-0.934211 53:-1 54:-0.974359 55:-0.904762 56:-0.963636 57:-0.923077 58:-1 59:-0.898305 60:-0.0032195 61:-0.365034 62:0.029703 63:0.794542 64:-0.877505 65:-1 66:-0.820224 67:-0.919711 68:-0.806545 69:-0.752602 70:-0.724833 71:0.711074 72:-0.941631 73:-0.738508 74:-0.712358 75:0.794542 76:-0.877505 77:-1 78:-0.820224 79:-0.919711 80:-0.806545 81:-0.752602 82:-0.724833 83:0.711074 84:-0.941631 85:-0.738508 86:-0.712358 
0.03125 1:-0.994424 2:-0.985833 3:-0.99935 4:-0.090472 5:0.540339 6:-0.896996 7:0.102245 8:-0.990935 9:-0.999673 10:0.514774 11:-0.266994 12:-0.999614 13:-0.454707 14:-0.999611 15:-0.836766 16:-0.949182 17:-1 18:-1 19:-1 20:-1 21:-0.883319 22:-0.84019 23:-1 24:-1 25:-1 26:-1 27:-0.966389 28:-0.93809 29:-1 30:-1 31:-1 32:-1 33:-0.982678 34:-0.972794 35:-0.999441 36:-1 37:-1 38:-0.993506 39:-0.996055 40:-1 41:-1 42:-1 43:-1 44:-0.997582 45:-0.998082 46:-0.992188 47:-0.986842 48:-0.973856 49:-0.985816 50:-0.883333 51:-0.986014 52:-0.960526 53:-0.690722 54:-0.948718 55:-0.809524 56:-1 57:-1 58:-1 59:-1 60:-0.567279 61:0.0856214 62:-0.207921 63:1 64:-1 65:-1 66:-1 67:1 68:-1 69:-1 70:-1 71:1 72:-1 73:-1 74:-1 75:1 76:-1 77:-1 78:-1 79:1 80:-1 81:-1 82:-1 83:1 84:-1 85:-1 86:-1 
0.03125 1:-0.994955 2:-0.981305 3:-0.999625 4:-0.0894695 5:0.540361 6:-0.8585 7:0.11238 8:-0.983289 9:-0.999217 10:0.514774 11:-0.266994 12:-0.999294 13:-0.454707 14:-0.999207 15:-0.887607 16:-0.946202 17:-1 18:-1 19:-0.722428 20:-0.833315 21:-1 22:-1 23:-0.853751 24:-0.79954 25:-1 26:-1 27:-1 28:-1 29:-0.894775 30:-0.947308 31:-1 32:-1 33:-0.98764 34:-0.997477 35:-0.997203 36:-0.995976 37:-0.993902 38:-0.993506 39:-1 40:-1 41:-0.982222 42:-0.990712 43:-0.997795 44:-0.997582 45:-1 46:-0.984375 47:-0.960526 48:-1 49:-0.957447 50:-0.9 51:-0.986014 52:-0.973684 53:-0.958763 54:-0.974359 55:-0.97619 56:-0.890909 57:-1 58:-0.818182 59:-0.966102 60:-0.36731 61:-0.278682 62:-0.306931 63:0.864552 64:-0.878868 65:-1 66:-1 67:-0.965383 68:-0.936233 69:-0.836903 70:-1 71:0.885715 72:-0.884561 73:-1 74:-1 75:0.864552 76:-0.878868 77:-1 78:-1 79:-0.965383 80:-0.936233 81:-0.836903 82:-1 83:0.885715 84:-0.884561 85:-1 86:-1 
0.03125 1:-0.991768 2:-0.980686 3:-0.995349 4:-0.104877 5:0.566683 6:-0.888082 7:0.0228875 8:-0.926763 9:-0.999593 10:0.514774 11:-0.297828 12:-0.99934 13:-0.453282 14:-0.999257 15:-0.888658 16:-0.942382 17:-1 18:-1 19:-1 20:-1 21:-0.793026 22:-0.940557 23:-1 24:-1 25:-1 26:-1 27:-0.803416 28:-0.950483 29:-1 30:-1 31:-1 32:-1 33:-0.927683 34:-0.946906 35:-0.999441 36:-1 37:-0.987805 38:-0.987013 39:-0.988166 40:-0.975265 41:-0.986667 42:-0.987616 43:-0.997795 44:-0.997582 45:-0.988495 46:-0.960938 47:-0.907895 48:-0.973856 49:-0.957447 50:-0.983333 51:-0.986014 52:-1 53:-0.958763 54:-0.974359 55:-0.928571 56:-0.963636 57:-1 58:-1 59:-1 60:-0.196162 61:-0.0317781 62:0.128713 63:0.411864 64:-0.904368 65:-0.76608 66:-0.438597 67:-0.692673 68:-0.446226 69:-0.935618 70:-0.928392 71:0.503761 72:-0.908862 73:-0.897926 74:-0.101754 75:0.411864 76:-0.904368 77:-0.76608 78:-0.438597 79:-0.692673 80:-0.446226 81:-0.935618 82:-0.928392 83:0.503761 84:-0.908862 85:-0.897926 86:-0.101754 
0.03125 1:-0.98274 2:-0.991384 3:-0.994334 4:-0.0691914 5:0.545099 6:-0.968573 7:0.0864277 8:-0.997224 9:-0.999071 10:0.514774 11:-0.266994 12:-0.998548 13:-0.454707 14:-0.998486 15:-0.963133 16:-0.852529 17:-1 18:-1 19:-0.920957 20:-0.816996 21:-1 22:-1 23:-0.866373 24:-0.780481 25:-1 26:-1 27:-0.816676 28:-0.914553 29:-0.958602 30:-0.969077 31:-0.932125 32:-0.887371 33:-0.960783 34:-0.951278 35:-0.983776 36:-0.975855 37:-0.95122 38:-0.974026 39:-0.99211 40:-0.985866 41:-0.982222 42:-0.978328 43:-0.99559 44:-0.992745 45:-1 46:-0.960938 47:-0.973684 48:-0.960784 49:-1 50:-0.966667 51:-0.986014 52:-0.934211 53:-1 54:-1 55:-0.97619 56:-0.927273 57:-1 58:-1 59:-1 60:-0.0248437 61:-0.392676 62:0.207921 63:0.765568 64:-0.940099 65:-0.78022 66:-0.882784 67:-0.87752 68:-0.810798 69:-0.87902 70:-0.596322 71:0.745683 72:-0.942914 73:-0.872128 74:-0.789011 75:0.765568 76:-0.940099 77:-0.78022 78:-0.882784 79:-0.87752 80:-0.810798 81:-0.87902 82:-0.596322 83:0.745683 84:-0.942914 85:-0.872128 86:-0.789011 
0.03125 1:-0.993096 2:-0.98133 3:-0.999608 4:-0.089571 5:0.542119 6:-0.858417 7:0.0940264 8:-0.996652 9:-0.999486 10:0.514774 11:-0.266994 12:-0.999058 13:-0.454707 14:-0.999005 15:-0.888293 16:-0.947082 17:-1 18:-1 19:-0.857067 20:-0.964641 21:-1 22:-1 23:-0.811861 24:-0.811708 25:-1 26:-1 27:-1 28:-1 29:-0.883337 30:-0.925952 31:-1 32:-1 33:-0.870554 34:-0.939328 35:-0.998322 36:-1 37:-0.97561 38:-1 39:-1 40:-0.992933 41:-0.986667 42:-0.996904 43:-1 44:-0.997582 45:-1 46:-0.984375 47:-0.973684 48:-0.934641 49:-0.957447 50:-0.966667 51:-0.944056 52:-0.960526 53:-0.958763 54:-0.846154 55:-0.928571 56:-1 57:-0.692308 58:-0.909091 59:-1 60:-0.403614 61:-0.229083 62:-0.306931 63:0.531136 64:-1 65:-0.358973 66:-0.794869 67:-0.894086 68:-0.503344 69:-0.647141 70:-0.921506 71:0.505494 72:-0.700301 73:-0.664337 74:-0.630771 75:0.531136 76:-1 77:-0.358973 78:-0.794869 79:-0.894086 80:-0.503344 81:-0.647141 82:-0.921506 83:0.505494 84:-0.700301 85:-0.664337 86:-0.630771 
0.03125 1:-0.983006 2:-0.991427 3:-0.994343 4:-0.0692405 5:0.545187 6:-0.96876 7:0.086532 8:-0.997282 9:-0.999118 10:0.515235 11:-0.268395 12:-0.998601 13:-0.454707 14:-0.998546 15:-0.9561 16:-0.854879 17:-1 18:-1 19:-0.91188 20:-0.806935 21:-1 22:-1 23:-0.872443 24:-0.78264 25:-1 26:-1 27:-0.840458 28:-0.847886 29:-1 30:-1 31:-0.945141 32:-0.856677 33:-0.968458 34:-0.977273 35:-0.983776 36:-0.983903 37:-0.981707 38:-0.941558 39:-0.988166 40:-0.982332 41:-0.977778 42:-0.990712 43:-1 44:-0.987908 45:-1 46:-0.96875 47:-0.973684 48:-0.960784 49:-0.957447 50:-0.95 51:-1 52:-0.986842 53:-0.979381 54:-0.974359 55:-0.952381 56:-1 57:-0.923077 58:-0.909091 59:-0.966102 60:-0.0389725 61:-0.399766 62:0.108911 63:0.762962 64:-0.939434 65:-0.77778 66:-0.881483 67:-0.920716 68:-0.713044 69:-0.877677 70:-0.637188 71:0.714286 72:-0.826842 73:-0.870708 74:-0.715558 75:0.762962 76:-0.939434 77:-0.77778 78:-0.881483 79:-0.920716 80:-0.713044 81:-0.877677 82:-0.637188 83:0.714286 84:-0.826842 85:-0.870708 86:-0.715558 
0.03125 1:-0.992831 2:-0.981355 3:-0.999607 4:-0.0895908 5:0.542037 6:-0.858496 7:0.0948344 8:-0.996462 9:-0.999499 10:0.514774 11:-0.266994 12:-0.999062 13:-0.454707 14:-0.999012 15:-0.888865 16:-0.94705 17:-1 18:-1 19:-0.848568 20:-0.97069 21:-1 22:-1 23:-0.82592 24:-0.81119 25:-1 26:-1 27:-1 28:-1 29:-0.855502 30:-0.917022 31:-1 32:-1 33:-0.891716 34:-0.955216 35:-0.997762 36:-0.995976 37:-0.993902 38:-1 39:-0.99211 40:-0.996466 41:-0.995556 42:-1 43:-0.997795 44:-0.997582 45:-0.998082 46:-0.960938 47:-0.973684 48:-0.921569 49:-0.971631 50:-0.966667 51:-0.944056 52:-0.960526 53:-0.979381 54:-0.820513 55:-1 56:-0.890909 57:-0.692308 58:-1 59:-1 60:-0.410968 61:-0.190756 62:-0.287129 63:0.367476 64:-0.588603 65:-0.24528 66:-1 67:-0.934199 68:-0.512716 69:-0.23836 70:-0.845976 71:0.41779 72:-0.411906 73:-0.451113 74:-1 75:0.367476 76:-0.588603 77:-0.24528 78:-1 79:-0.934199 80:-0.512716 81:-0.23836 82:-0.845976 83:0.41779 84:-0.411906 85:-0.451113 86:-1 
0.03125 1:-0.992565 2:-0.980825 3:-0.994999 4:-0.105506 5:0.566866 6:-0.890039 7:0.0251288 8:-0.929253 9:-0.999567 10:0.514774 11:-0.266994 12:-0.999331 13:-0.454707 14:-0.999322 15:-0.871745 16:-0.950776 17:-1 18:-1 19:-1 20:-1 21:-0.809417 22:-0.967751 23:-1 24:-1 25:-1 26:-1 27:-0.849537 28:-0.803287 29:-1 30:-1 31:-1 32:-1 33:-0.9265 34:-0.951786 35:-0.998881 36:-1 37:-0.993902 38:-0.974026 39:-0.99211 40:-0.978799 41:-0.991111 42:-0.975232 43:-0.99118 44:-0.997582 45:-0.996165 46:-0.984375 47:-0.986842 48:-0.960784 49:-0.943262 50:-0.983333 51:-0.958042 52:-0.960526 53:-1 54:-1 55:-0.97619 56:-0.927273 57:-0.923077 58:-1 59:-1 60:-0.29565 61:-0.259077 62:-0.0891089 63:-0.015872 64:-0.495277 65:-0.1358 66:-0.604939 67:-0.526149 68:-0.4686 69:-0.524294 70:-0.697657 71:0.380952 72:-0.903797 73:-0.676765 74:-0.0518528 75:-0.015872 76:-0.495277 77:-0.1358 78:-0.604939 79:-0.526149 80:-0.4686 81:-0.524294 82:-0.697657 83:0.380952 84:-0.903797 85:-0.676765 86:-0.0518528 
0.03125 1:-0.984334 2:-0.981192 3:-0.999721 4:-0.0884651 5:0.541651 6:-0.858131 7:0.101531 8:-0.99105 9:-0.998094 10:0.514774 11:-0.266994 12:-0.998456 13:-0.454707 14:-0.998107 15:-0.973651 16:-0.983379 17:-0.990083 18:-0.993011 19:-1 20:-1 21:-0.71943 22:-0.816885 23:-1 24:-1 25:-0.710063 26:-0.807008 27:-1 28:-1 29:-0.780548 30:-0.8695 31:-1 32:-1 33:-0.890968 34:-0.957738 35:-0.998322 36:-1 37:-0.981707 38:-0.980519 39:-0.996055 40:-0.989399 41:-0.995556 42:-0.98452 43:-0.993385 44:-0.992745 45:-0.990412 46:-0.984375 47:-0.960526 48:-0.986928 49:-0.957447 50:-0.833333 51:-0.972028 52:-0.947368 53:-0.896907 54:-0.974359 55:-0.809524 56:-0.709091 57:-0.615385 58:-1 59:-0.932203 60:-0.388288 61:-0.194584 62:-0.287129 63:0.282914 64:-0.615226 65:-0.29412 66:-0.811765 67:-0.891811 68:-0.358569 69:-0.222881 70:-0.903963 71:0.304202 72:-0.877771 73:-0.247057 74:-0.322355 75:0.282914 76:-0.615226 77:-0.29412 78:-0.811765 79:-0.891811 80:-0.358569 81:-0.222881 82:-0.903963 83:0.304202 84:-0.877771 85:-0.247057 86:-0.322355 
0.03125 1:-0.990441 2:-0.980558 3:-0.994919 4:-0.105843 5:0.567925 6:-0.88859 7:0.0226137 8:-0.924817 9:-0.999161 10:0.511542 11:-0.293623 12:-0.99928 13:-0.454707 14:-0.999073 15:-0.850016 16:-0.938607 17:-1 18:-1 19:-1 20:-1 21:-0.73809 22:-0.893736 23:-1 24:-1 25:-1 26:-1 27:-0.79506 28:-0.916256 29:-1 30:-1 31:-1 32:-1 33:-0.899534 34:-0.941656 35:-0.998881 36:-0.987928 37:-1 38:-1 39:-0.996055 40:-0.996466 41:-0.986667 42:-0.990712 43:-0.993385 44:-0.997582 45:-0.988495 46:-0.976562 47:-0.973684 48:-0.960784 49:-0.886525 50:-0.983333 51:-0.93007 52:-0.907895 53:-0.979381 54:-0.948718 55:-0.952381 56:-0.963636 57:-0.923077 58:-0.909091 59:-0.966102 60:-0.352509 61:-0.028254 62:-0.108911 63:0.262674 64:-1 65:0.397847 66:-0.913979 67:-0.97763 68:-0.768584 69:0.538917 70:-0.868335 71:0.29493 72:0.173018 73:-0.812317 74:-1 75:0.262674 76:-1 77:0.397847 78:-0.913979 79:-0.97763 80:-0.768584 81:0.538917 82:-0.868335 83:0.29493 84:0.173018 85:-0.812317 86:-1 
0.03125 1:-0.988848 2:-0.9858 3:-0.999251 4:-0.0910654 5:0.541795 6:-0.894993 7:0.0921779 8:-0.996708 9:-0.999401 10:0.514774 11:-0.266994 12:-0.998949 13:-0.45257 14:-0.99891 15:-0.827639 16:-0.954139 17:-1 18:-1 19:-1 20:-1 21:-0.868094 22:-0.771361 23:-1 24:-1 25:-1 26:-1 27:-0.853852 28:-0.912777 29:-1 30:-1 31:-1 32:-1 33:-0.910607 34:-0.971434 35:-0.999441 36:-0.991952 37:-0.987805 38:-0.993506 39:-1 40:-0.996466 41:-0.991111 42:-1 43:-1 44:-0.997582 45:-0.994247 46:-0.992188 47:-0.960526 48:-0.986928 49:-0.985816 50:-0.816667 51:-0.916084 52:-0.842105 53:-0.814433 54:-1 55:-0.952381 56:-0.818182 57:-0.923077 58:-1 59:-0.932203 60:-0.335123 61:0.059427 62:-0.108911 63:1 64:-1 65:-1 66:-1 67:1 68:-1 69:-1 70:-1 71:1 72:-1 73:-1 74:-1 75:1 76:-1 77:-1 78:-1 79:1 80:-1 81:-1 82:-1 83:1 84:-1 85:-1 86:-1 
0.03125 1:-0.996548 2:-0.971997 3:-0.999893 4:-0.0865117 5:0.542909 6:-0.787887 7:0.0891556 8:-0.997014 9:-0.999354 10:0.514774 11:-0.266994 12:-0.999145 13:-0.454707 14:-0.999033 15:-0.978241 16:-0.96978 17:-1 18:-1 19:-0.901037 20:-0.808622 21:-1 22:-1 23:-1 24:-1 25:-0.916902 26:-0.758874 27:-1 28:-1 29:-0.803091 30:-0.792147 31:-1 32:-1 33:-0.920403 34:-0.979817 35:-0.999441 36:-1 37:-0.993902 38:-0.993506 39:-0.99211 40:-0.982332 41:-0.977778 42:-0.993808 43:-0.99118 44:-0.995163 45:-1 46:-0.992188 47:-1 48:-0.986928 49:-0.985816 50:-0.983333 51:-0.972028 52:-1 53:-0.979381 54:-1 55:-0.952381 56:-0.963636 57:-1 58:-0.818182 59:-0.898305 60:0.0339357 61:0.0268909 62:0.0891089 63:0.687424 64:-1 65:-1 66:-0.589744 67:-0.803891 68:-0.484951 69:-0.811809 70:-1 71:0.406594 72:-0.8668 73:-1 74:0.148717 75:0.687424 76:-1 77:-1 78:-0.589744 79:-0.803891 80:-0.484951 81:-0.811809 82:-1 83:0.406594 84:-0.8668 85:-1 86:0.148717 
0.03125 1:-0.984334 2:-0.981367 3:-0.999807 4:-0.0873919 5:0.542178 6:-0.861226 7:0.0972485 8:-0.994741 9:-0.998695 10:0.514774 11:-0.266994 12:-0.998705 13:-0.454707 14:-0.998457 15:-0.78727 16:-0.96577 17:-1 18:-1 19:-0.780924 20:-0.823812 21:-1 22:-1 23:-0.70472 24:-0.827261 25:-0.982262 26:-0.991234 27:-1 28:-1 29:-0.759957 30:-0.941454 31:-1 32:-1 33:-0.886241 34:-0.937661 35:-0.998881 36:-0.991952 37:-0.969512 38:-1 39:-0.996055 40:-0.989399 41:-0.995556 42:-0.978328 43:-0.984564 44:-0.983071 45:-0.990412 46:-0.984375 47:-0.973684 48:-0.895425 49:-0.829787 50:-0.9 51:-0.972028 52:-0.907895 53:-0.938144 54:-0.974359 55:-1 56:-1 57:-1 58:-0.909091 59:-1 60:-0.323519 61:-0.0448559 62:0.00990099 63:0.031933 64:0.154328 65:-0.529413 66:-0.874512 67:-0.939108 68:-0.426087 69:0.165677 70:-0.27971 71:0.334453 72:-0.449964 73:-0.589306 74:-0.548237 75:0.031933 76:0.154328 77:-0.529413 78:-0.874512 79:-0.939108 80:-0.426087 81:0.165677 82:-0.27971 83:0.334453 84:-0.449964 85:-0.589306 86:-0.548237 
0.03125 1:-0.985396 2:-0.981392 3:-0.999821 4:-0.0871273 5:0.542297 6:-0.862169 7:0.0961021 8:-0.995844 9:-0.998909 10:0.514774 11:-0.266994 12:-0.998631 13:-0.454707 14:-0.998415 15:-1 16:-1 17:-0.973633 18:-0.992121 19:-0.990458 20:-0.998119 21:-0.90626 22:-0.895882 23:-0.837182 24:-0.986196 25:-0.776975 26:-0.92507 27:-1 28:-1 29:-0.921969 30:-0.984551 31:-0.711435 32:-0.97487 33:-0.886407 34:-0.963346 35:-0.997762 36:-1 37:-0.987805 38:-0.993506 39:-1 40:-0.996466 41:-0.995556 42:-0.987616 43:-0.99559 44:-0.98549 45:-0.994247 46:-0.96875 47:-0.921053 48:-0.973856 49:-0.971631 50:-0.983333 51:-0.986014 52:-0.973684 53:-0.917526 54:-0.769231 55:-0.666667 56:-0.854545 57:-0.615385 58:-0.909091 59:-0.966102 60:-0.358703 61:-0.0418937 62:-0.207921 63:0.47325 64:-0.596224 65:-0.506173 66:-0.934155 67:-0.96042 68:-0.752012 69:-0.0938936 70:-0.244143 71:0.365078 72:-0.294535 73:-0.497193 74:-0.920986 75:0.47325 76:-0.596224 77:-0.506173 78:-0.934155 79:-0.96042 80:-0.752012 81:-0.0938936 82:-0.244143 83:0.365078 84:-0.294535 85:-0.497193 86:-0.920986 
0.03125 1:-0.996814 2:-0.967683 3:-0.992038 4:-0.11971 5:0.571555 6:-0.820324 7:0.0126417 8:-0.937604 9:-0.999655 10:0.514774 11:-0.266994 12:-0.999731 13:-0.454707 14:-0.999635 15:-0.817826 16:-0.890326 17:-1 18:-1 19:-1 20:-1 21:-1 22:-1 23:-0.775822 24:-0.928284 25:-1 26:-1 27:-1 28:-1 29:-1 30:-1 31:-1 32:-1 33:-0.921045 34:-0.933852 35:-0.998322 36:-0.991952 37:-0.987805 38:-0.993506 39:-1 40:-1 41:-0.995556 42:-0.996904 43:-0.997795 44:-0.995163 45:-1 46:-0.953125 47:-1 48:-0.986928 49:-1 50:-1 51:-1 52:-1 53:-0.938144 54:-0.948718 55:-1 56:-0.890909 57:-0.692308 58:-0.727273 59:-0.932203 60:0.273494 61:0.352984 62:0.207921 63:1 64:-1 65:-1 66:-1 67:1 68:-1 69:-1 70:-1 71:1 72:-1 73:-1 74:-1 75:1 76:-1 77:-1 78:-1 79:1 80:-1 81:-1 82:-1 83:1 84:-1 85:-1 86:-1 
0.03125 1:-0.798194 2:-0.997764 3:-0.997172 4:-0.0837069 5:0.548589 6:-0.999294 7:0.0825296 8:-0.991673 9:-0.989045 10:0.50831 11:-0.259986 12:-0.974966 13:-0.45738 14:-0.973372 15:-0.818676 16:-0.881335 17:-0.83691 18:-0.870923 19:-0.87245 20:-0.856339 21:-0.883985 22:-0.835761 23:-0.923873 24:-0.813744 25:-0.937911 26:-0.771974 27:-0.866941 28:-0.731818 29:-0.867065 30:-0.618001 31:-0.880012 32:-0.61506 33:-0.9057 34:-0.726375 35:-0.988252 36:-0.995976 37:-0.97561 38:-0.967532 39:-0.984221 40:-0.946996 41:-0.937778 42:-0.962848 43:-0.942668 44:-0.915357 45:-0.842761 46:-0.046875 47:0.289474 48:-0.137255 49:-0.560284 50:0.183333 51:-0.398601 52:-0.328947 53:-0.484536 54:-0.435897 55:-0.738095 56:-0.418182 57:-0.615385 58:-0.636364 59:-0.966102 60:-0.150186 61:0.523577 62:0.485149 63:-0.264762 64:0.798826 65:-0.5 66:-0.973333 67:-0.939698 68:-0.296957 69:0.944954 70:-0.469388 71:0.138572 72:-0.402597 73:-0.0981818 74:-0.616 75:-0.264762 76:0.798826 77:-0.5 78:-0.973333 79:-0.939698 80:-0.296957 81:0.944954 82:-0.469388 83:0.138572 84:-0.402597 85:-0.0981818 86:-0.616 
0.03125 1:-0.986458 2:-0.991081 3:-0.994194 4:-0.0683438 5:0.547259 6:-0.965316 7:0.0893097 8:-0.996751 9:-0.99961 10:0.514774 11:-0.266994 12:-0.999048 13:-0.454707 14:-0.999084 15:-0.943618 16:-0.865501 17:-1 18:-1 19:-0.968485 20:-0.850918 21:-1 22:-1 23:-0.969775 24:-0.8696 25:-1 26:-1 27:-1 28:-1 29:-0.80851 30:-0.90436 31:-1 32:-1 33:-0.916094 34:-0.93383 35:-0.992168 36:-0.971831 37:-0.963415 38:-0.987013 39:-0.99211 40:-0.985866 41:-0.982222 42:-0.990712 43:-0.993385 44:-0.995163 45:-0.998082 46:-0.96875 47:-0.894737 48:-0.921569 49:-0.985816 50:-0.966667 51:-0.958042 52:-0.986842 53:-1 54:-0.974359 55:-1 56:-1 57:-1 58:-0.909091 59:-0.966102 60:-0.0905518 61:-0.288319 62:0.108911 63:0.920841 64:-0.929208 65:-1 66:-1 67:-0.983946 68:-0.962733 69:-0.809365 70:-0.734959 71:0.766234 72:-0.797605 73:-0.773318 74:-1 75:0.920841 76:-0.929208 77:-1 78:-1 79:-0.983946 80:-0.962733 81:-0.809365 82:-0.734959 83:0.766234 84:-0.797605 85:-0.773318 86:-1 
0.03125 1:-0.986192 2:-0.981367 3:-0.999775 4:-0.0879433 5:0.542387 6:-0.855421 7:0.0936229 8:-0.994872 9:-0.998643 10:0.514774 11:-0.266994 12:-0.998829 13:-0.454707 14:-0.998632 15:-1 16:-1 17:-1 18:-1 19:-0.662723 20:-0.755992 21:-1 22:-1 23:-0.715805 24:-0.826633 25:-1 26:-1 27:-1 28:-1 29:-0.786782 30:-0.907555 31:-1 32:-1 33:-0.873476 34:-0.91704 35:-0.997203 36:-0.987928 37:-1 38:-0.974026 39:-0.996055 40:-0.996466 41:-1 42:-0.987616 43:-0.99559 44:-0.995163 45:-0.982742 46:-0.984375 47:-0.907895 48:-0.986928 49:-0.943262 50:-0.966667 51:-0.944056 52:-0.921053 53:-0.979381 54:-0.794872 55:-0.880952 56:-0.963636 57:-0.615385 58:-1 59:-1 60:-0.329105 61:-0.174196 62:-0.207921 63:0.64835 64:-0.790344 65:-0.743587 66:-0.863248 67:-0.8812 68:-0.705686 69:-0.811809 70:-0.947669 71:0.736264 72:-0.933397 73:-0.627037 74:-0.917946 75:0.64835 76:-0.790344 77:-0.743587 78:-0.863248 79:-0.8812 80:-0.705686 81:-0.811809 82:-0.947669 83:0.736264 84:-0.933397 85:-0.627037 86:-0.917946 
0.03125 1:-0.999469 2:-0.971874 3:-0.999894 4:-0.0865858 5:0.543106 6:-0.785284 7:0.0839125 8:-0.998748 9:-0.999636 10:0.514774 11:-0.266994 12:-0.999504 13:-0.454707 14:-0.999417 15:-0.899669 16:-0.813314 17:-1 18:-1 19:-1 20:-1 21:-0.925929 22:-0.781275 23:-1 24:-1 25:-1 26:-1 27:-0.909691 28:-0.886678 29:-1 30:-1 31:-1 32:-1 33:-0.921466 34:-0.980825 35:-0.998881 36:-0.987928 37:-1 38:-0.987013 39:-0.99211 40:-0.989399 41:-0.995556 42:-0.996904 43:-1 44:-1 45:-0.996165 46:-1 47:-0.986842 48:-0.986928 49:-1 50:-0.983333 51:-0.972028 52:-0.986842 53:-0.979381 54:-0.897436 55:-1 56:-1 57:-1 58:-1 59:-1 60:-0.091962 61:-0.125689 62:0.00990099 63:0.782312 64:-1 65:-1 66:-0.809525 67:-0.866474 68:-1 69:-0.606815 70:-0.271139 71:0.448979 72:-0.443413 73:-0.792209 74:-1 75:0.782312 76:-1 77:-1 78:-0.809525 79:-0.866474 80:-1 81:-0.606815 82:-0.271139 83:0.448979 84:-0.443413 85:-0.792209 86:-1 
0.03125 1:-0.986458 2:-0.991055 3:-0.994214 4:-0.0683426 5:0.548084 6:-0.965194 7:0.0903955 8:-0.996266 9:-0.99963 10:0.514774 11:-0.266994 12:-0.99907 13:-0.454707 14:-0.999088 15:-0.94113 16:-0.836173 17:-1 18:-1 19:-0.962518 20:-0.848054 21:-1 22:-1 23:-0.97806 24:-0.859756 25:-1 26:-1 27:-1 28:-1 29:-0.830451 30:-0.922688 31:-1 32:-1 33:-0.920955 34:-0.935222 35:-0.991608 36:-0.971831 37:-0.969512 38:-0.980519 39:-0.988166 40:-0.985866 41:-0.995556 42:-0.993808 43:-0.99118 44:-0.995163 45:-0.99233 46:-0.984375 47:-0.868421 48:-0.947712 49:-0.985816 50:-0.916667 51:-0.986014 52:-1 53:-0.979381 54:-1 55:-0.97619 56:-1 57:-1 58:-1 59:-0.966102 60:-0.106604 61:-0.302977 62:0.108911 63:0.881262 64:-1 65:-1 66:-0.930736 67:-0.931737 68:-0.962733 69:-0.666389 70:-0.787967 71:0.666049 72:-0.86507 73:-0.697757 74:-0.75065 75:0.881262 76:-1 77:-1 78:-0.930736 79:-0.931737 80:-0.962733 81:-0.666389 82:-0.787967 83:0.666049 84:-0.86507 85:-0.697757 86:-0.75065 
0.03125 1:-0.985661 2:-0.981392 3:-0.999773 4:-0.087945 5:0.542304 6:-0.855569 7:0.0947255 8:-0.994677 9:-0.998579 10:0.514774 11:-0.266994 12:-0.998757 13:-0.454707 14:-0.998532 15:-0.990462 16:-0.993926 17:-1 18:-1 19:-0.662108 20:-0.752401 21:-1 22:-1 23:-0.704016 24:-0.849968 25:-1 26:-1 27:-1 28:-1 29:-0.787038 30:-0.912317 31:-1 32:-1 33:-0.859545 34:-0.90919 35:-0.996084 36:-0.995976 37:-0.981707 38:-0.980519 39:-0.996055 40:-0.996466 41:-0.995556 42:-0.993808 43:-0.99559 44:-0.992745 45:-0.99233 46:-0.96875 47:-0.947368 48:-0.934641 49:-0.957447 50:-0.983333 51:-0.944056 52:-0.947368 53:-0.896907 54:-0.974359 55:-0.880952 56:-0.745455 57:-0.923077 58:-0.454545 59:-0.966102 60:-0.289263 61:-0.182679 62:-0.247525 63:0.657143 64:-0.795588 65:-0.666667 66:-0.933333 67:-0.934673 68:-0.748913 69:-0.678899 70:-0.94898 71:0.742857 72:-0.935065 73:-0.563636 74:-1 75:0.657143 76:-0.795588 77:-0.666667 78:-0.933333 79:-0.934673 80:-0.748913 81:-0.678899 82:-0.94898 83:0.742857 84:-0.935065 85:-0.563636 86:-1 
0.03125 1:-0.997345 2:-0.97189 3:-0.999905 4:-0.0863607 5:0.542817 6:-0.784075 7:0.0920446 8:-0.997705 9:-0.999467 10:0.514774 11:-0.266994 12:-0.999326 13:-0.454707 14:-0.999202 15:-0.899637 16:-0.795025 17:-1 18:-1 19:-1 20:-1 21:-0.908394 22:-0.777479 23:-1 24:-1 25:-1 26:-1 27:-0.907115 28:-0.90996 29:-1 30:-1 31:-1 32:-1 33:-0.919503 34:-0.977707 35:-0.997203 36:-1 37:-0.987805 38:-0.987013 39:-1 40:-0.989399 41:-0.991111 42:-0.993808 43:-0.997795 44:-0.997582 45:-0.998082 46:-0.984375 47:-0.986842 48:-1 49:-0.971631 50:-1 51:-0.93007 52:-1 53:-0.958763 54:-0.948718 55:-1 56:-1 57:-1 58:-0.909091 59:-0.966102 60:0.00852288 61:-0.0842974 62:0.0693069 63:0.830686 64:-1 65:-0.814813 66:-1 67:-0.954215 68:-0.68116 69:-0.796125 70:-1 71:0.642857 72:-1 73:-0.838383 74:-0.822221 75:0.830686 76:-1 77:-0.814813 78:-1 79:-0.954215 80:-0.68116 81:-0.796125 82:-1 83:0.642857 84:-1 85:-0.838383 86:-0.822221 
0.03125 1:-0.980351 2:-0.981091 3:-0.994088 4:-0.0576821 5:0.552285 6:-0.894095 7:0.104453 8:-0.99017 9:-0.997202 10:0.514774 11:-0.266994 12:-0.998496 13:-0.454707 14:-0.997492 15:-0.649746 16:-0.939495 17:-1 18:-1 19:-0.658463 20:-0.917938 21:-1 22:-1 23:-1 24:-1 25:-0.7111 26:-0.882055 27:-1 28:-1 29:-0.806947 30:-0.831441 31:-1 32:-1 33:-0.8736 34:-0.953091 35:-0.997203 36:-0.963783 37:-0.884146 38:-0.935065 39:-0.972387 40:-0.992933 41:-0.968889 42:-0.981424 43:-0.988975 44:-0.978235 45:-0.996165 46:-0.953125 47:-0.973684 48:-0.973856 49:-0.957447 50:-0.983333 51:-0.958042 52:-0.986842 53:-1 54:-1 55:-1 56:-1 57:-1 58:-1 59:-1 60:-0.241509 61:-0.378057 62:0.207921 63:0.177143 64:-0.672941 65:-0.133333 66:-0.626667 67:-0.969849 68:-0.54087 69:0.137615 70:-0.714286 71:0.357143 72:-0.0649351 73:-0.767273 74:-0.872 75:0.177143 76:-0.672941 77:-0.133333 78:-0.626667 79:-0.969849 80:-0.54087 81:0.137615 82:-0.714286 83:0.357143 84:-0.0649351 85:-0.767273 86:-0.872 
0.03125 1:-0.958311 2:-0.99072 3:-0.999185 4:-0.0752753 5:0.527712 6:-0.934041 7:0.00924616 8:-0.813573 9:-0.998182 10:0.51385 11:-0.269797 12:-0.994517 13:-0.454886 14:-0.994469 15:-0.916453 16:-0.967726 17:-0.90996 18:-0.9037 19:-0.877984 20:-0.939353 21:-0.883111 22:-0.948881 23:-0.79363 24:-0.861028 25:-0.888546 26:-0.969278 27:-0.792814 28:-0.891654 29:-0.782619 30:-0.878649 31:-0.687253 32:-0.905624 33:-0.86523 34:-0.972648 35:-0.988252 36:-0.963783 37:-0.902439 38:-0.941558 39:-0.956607 40:-0.911661 41:-0.964444 42:-0.947368 43:-0.975744 44:-0.987908 45:-0.99233 46:-0.90625 47:-0.947368 48:-0.895425 49:-0.914894 50:-0.95 51:-0.986014 52:-0.986842 53:-0.958763 54:-0.974359 55:-0.904762 56:-1 57:-0.923077 58:-0.818182 59:-0.966102 60:-0.0411268 61:-0.216707 62:0.306931 63:0.117358 64:-0.195756 65:-0.453553 66:-0.70856 67:-0.878243 68:-0.357091 69:0.463879 70:-0.0186245 71:-0.0257606 72:0.0503169 73:-0.395927 74:-0.440435 75:0.117358 76:-0.195756 77:-0.453553 78:-0.70856 79:-0.878243 80:-0.357091 81:0.463879 82:-0.0186245 83:-0.0257606 84:0.0503169 85:-0.395927 86:-0.440435 
0.03125 1:-0.986989 2:-0.991151 3:-0.994183 4:-0.0683419 5:0.547517 6:-0.965375 7:0.0896321 8:-0.99641 9:-0.999628 10:0.514774 11:-0.266994 12:-0.999067 13:-0.454707 14:-0.999116 15:-0.923527 16:-0.883916 17:-1 18:-1 19:-0.961988 20:-0.844056 21:-1 22:-1 23:-0.974596 24:-0.875404 25:-1 26:-1 27:-1 28:-1 29:-0.810308 30:-0.9315 31:-1 32:-1 33:-0.931901 34:-0.940896 35:-0.991608 36:-0.975855 37:-0.963415 38:-0.987013 39:-0.996055 40:-0.989399 41:-0.977778 42:-0.987616 43:-0.997795 44:-0.995163 45:-0.998082 46:-0.984375 47:-0.881579 48:-0.908497 49:-0.957447 50:-0.983333 51:-0.972028 52:-1 53:-0.979381 54:-1 55:-1 56:-1 57:-1 58:-0.727273 59:-1 60:-0.0732729 61:-0.278682 62:0.108911 63:0.959366 64:-1 65:-1 66:-1 67:-0.98325 68:-0.923477 69:-1 70:-1 71:0.931428 72:-1 73:-1 74:-0.914669 75:0.959366 76:-1 77:-1 78:-1 79:-0.98325 80:-0.923477 81:-1 82:-1 83:0.931428 84:-1 85:-1 86:-0.914669 
0.03125 1:-0.986458 2:-0.981355 3:-0.999777 4:-0.0879067 5:0.542295 6:-0.855416 7:0.0949443 8:-0.994563 9:-0.998665 10:0.515235 11:-0.266994 12:-0.998826 13:-0.454707 14:-0.998626 15:-0.990436 16:-0.999053 17:-1 18:-1 19:-0.661876 20:-0.755486 21:-1 22:-1 23:-0.71101 24:-0.800154 25:-1 26:-1 27:-1 28:-1 29:-0.784545 30:-0.914568 31:-1 32:-1 33:-0.872338 34:-0.90617 35:-0.997762 36:-0.987928 37:-0.987805 38:-0.993506 39:-0.99211 40:-0.992933 41:-1 42:-0.993808 43:-0.99559 44:-0.997582 45:-0.986577 46:-0.960938 47:-0.960526 48:-0.947712 49:-0.957447 50:-0.966667 51:-0.944056 52:-0.947368 53:-0.938144 54:-0.974359 55:-0.833333 56:-0.745455 57:-0.923077 58:-0.545455 59:-0.966102 60:-0.321155 61:-0.160944 62:-0.247525 63:0.604206 64:-0.716832 65:-0.74026 66:-0.861472 67:-0.879528 68:-0.701864 69:-0.761706 70:-0.946992 71:0.732839 72:-0.932535 73:-0.622196 74:-0.916883 75:0.604206 76:-0.716832 77:-0.74026 78:-0.861472 79:-0.879528 80:-0.701864 81:-0.761706 82:-0.946992 83:0.732839 84:-0.932535 85:-0.622196 86:-0.916883 
0.03125 1:-0.999203 2:-0.971982 3:-0.999898 4:-0.0865865 5:0.543149 6:-0.78517 7:0.0827833 8:-0.998882 9:-0.999617 10:0.516159 11:-0.266994 12:-0.999535 13:-0.453639 14:-0.999435 15:-0.899952 16:-0.809814 17:-1 18:-1 19:-1 20:-1 21:-0.914977 22:-0.778055 23:-1 24:-1 25:-1 26:-1 27:-0.907266 28:-0.872292 29:-1 30:-1 31:-1 32:-1 33:-0.919653 34:-0.97873 35:-0.999441 36:-0.983903 37:-1 38:-0.987013 39:-0.988166 40:-0.992933 41:-0.995556 42:-0.996904 43:-1 44:-0.995163 45:-0.996165 46:-1 47:-1 48:-0.986928 49:-0.985816 50:-1 51:-0.958042 52:-1 53:-0.979381 54:-0.974359 55:-1 56:-0.963636 57:-0.846154 58:-1 59:-1 60:-0.0108814 61:-0.0860496 62:0.0693069 63:0.789821 64:-1 65:-1 66:-0.816091 67:-0.871425 68:-0.901049 69:-0.746914 70:-0.718506 71:0.55665 72:-0.641735 73:-0.799372 74:-0.779309 75:0.789821 76:-1 77:-1 78:-0.816091 79:-0.871425 80:-0.901049 81:-0.746914 82:-0.718506 83:0.55665 84:-0.641735 85:-0.799372 86:-0.779309 
0.03125 1:-0.986723 2:-0.991367 3:-0.99419 4:-0.0683263 5:0.547794 6:-0.965246 7:0.0900046 8:-0.996126 9:-0.999597 10:0.514774 11:-0.266994 12:-0.999015 13:-0.454707 14:-0.999056 15:-0.91783 16:-0.817918 17:-1 18:-1 19:-0.969079 20:-0.867218 21:-1 22:-1 23:-0.975945 24:-0.871313 25:-1 26:-1 27:-1 28:-1 29:-0.812774 30:-0.924022 31:-1 32:-1 33:-0.931613 34:-0.932199 35:-0.992168 36:-0.967807 37:-0.969512 38:-0.987013 39:-0.988166 40:-0.985866 41:-0.995556 42:-0.990712 43:-0.988975 44:-0.992745 45:-0.996165 46:-0.984375 47:-0.947368 48:-0.947712 49:-0.914894 50:-0.933333 51:-0.972028 52:-0.986842 53:-1 54:-0.974359 55:-1 56:-1 57:-1 58:-1 59:-0.966102 60:-0.103217 61:-0.298415 62:0.108911 63:0.839598 64:-0.856552 65:-1 66:-1 67:-0.957154 68:-0.962242 69:-0.662 70:-0.892588 71:0.729324 72:-0.863294 73:-0.770333 74:-0.831578 75:0.839598 76:-0.856552 77:-1 78:-1 79:-0.957154 80:-0.962242 81:-0.662 82:-0.892588 83:0.729324 84:-0.863294 85:-0.770333 86:-0.831578 
0.03125 1:-0.934944 2:-0.994899 3:-0.999298 4:-0.087384 5:0.541733 6:-0.962606 7:0.089253 8:-0.995206 9:-0.993837 10:0.51385 11:-0.268395 12:-0.99526 13:-0.454886 14:-0.993803 15:-0.942086 16:-0.856642 17:-0.944571 18:-0.872761 19:-0.74652 20:-0.88013 21:-0.847166 22:-0.915483 23:-0.815447 24:-0.824442 25:-0.639081 26:-0.82421 27:-0.86264 28:-0.80965 29:-0.883573 30:-0.845364 31:-0.847368 32:-0.96367 33:-0.882713 34:-0.959897 35:-0.953566 36:-0.923541 37:-0.95122 38:-0.941558 39:-0.968442 40:-0.968198 41:-0.937778 42:-0.965944 43:-0.984564 44:-0.970979 45:-0.98466 46:-0.960938 47:-0.868421 48:-0.803922 49:-0.815603 50:-0.883333 51:-0.972028 52:-0.973684 53:-0.896907 54:-0.871795 55:-0.785714 56:-0.927273 57:-0.692308 58:-0.818182 59:-0.966102 60:0.2525 61:-0.183397 62:0.386139 63:0.207619 64:0.00843268 65:-0.566667 66:-0.973333 67:-0.969849 68:-0.598261 69:0.486239 70:-0.326531 71:0.125715 72:-0.220779 73:-0.127273 74:-0.776 75:0.207619 76:0.00843268 77:-0.566667 78:-0.973333 79:-0.969849 80:-0.598261 81:0.486239 82:-0.326531 83:0.125715 84:-0.220779 85:-0.127273 86:-0.776 
0.03125 1:-0.987785 2:-0.981317 3:-0.999782 4:-0.087854 5:0.542605 6:-0.855433 7:0.0907953 8:-0.996626 9:-0.999091 10:0.514774 11:-0.265592 12:-0.998994 13:-0.454529 14:-0.998883 15:-0.701593 16:-0.814274 17:-1 18:-1 19:-1 20:-1 21:-0.729784 22:-0.824861 23:-1 24:-1 25:-1 26:-1 27:-0.820881 28:-0.928588 29:-1 30:-1 31:-1 32:-1 33:-0.876279 34:-0.905889 35:-0.999441 36:-0.987928 37:-0.981707 38:-0.987013 39:-0.996055 40:-0.982332 41:-0.986667 42:-0.981424 43:-0.977949 44:-0.990326 45:-0.994247 46:-0.976562 47:-0.921053 48:-0.895425 49:-0.957447 50:-1 51:-0.874126 52:-1 53:-1 54:-1 55:-1 56:-1 57:-1 58:-0.909091 59:-1 60:-0.328209 61:-0.0853785 62:0.0891089 63:0.576719 64:-0.848582 65:-0.53704 66:-0.851851 67:-0.870464 68:-0.641305 69:-0.847094 70:-1 71:0.750001 72:-1 73:-0.595962 74:-0.91111 75:0.576719 76:-0.848582 77:-0.53704 78:-0.851851 79:-0.870464 80:-0.641305 81:-0.847094 82:-1 83:0.750001 84:-1 85:-0.595962 86:-0.91111 
0.03125 1:-0.999203 2:-0.971859 3:-0.9999 4:-0.0865342 5:0.542926 6:-0.785129 7:0.0887453 8:-0.998242 9:-0.999554 10:0.514774 11:-0.266994 12:-0.999528 13:-0.454707 14:-0.999413 15:-0.899209 16:-0.800262 17:-1 18:-1 19:-1 20:-1 21:-0.912641 22:-0.78029 23:-1 24:-1 25:-1 26:-1 27:-0.907578 28:-0.907775 29:-1 30:-1 31:-1 32:-1 33:-0.936793 34:-0.980558 35:-0.998322 36:-0.995976 37:-1 38:-0.993506 39:-0.99211 40:-0.992933 41:-0.977778 42:-1 43:-0.997795 44:-1 45:-0.998082 46:-1 47:-1 48:-0.986928 49:-0.985816 50:-0.966667 51:-0.972028 52:-0.986842 53:-0.938144 54:-1 55:-1 56:-0.927273 57:-1 58:-1 59:-1 60:-0.00216754 61:-0.103496 62:0.0693069 63:0.894909 64:-1 65:-1 66:-1 67:-0.940738 68:-0.802098 69:-1 70:-1 71:0.822661 72:-1 73:-1 74:-1 75:0.894909 76:-1 77:-1 78:-1 79:-0.940738 80:-0.802098 81:-1 82:-1 83:0.822661 84:-1 85:-1 86:-1 
0.03125 1:-0.983802 2:-0.978769 3:-0.98265 4:-0.107269 5:0.54978 6:-0.9632 7:0.0788147 8:-0.996364 9:-0.998799 10:0.514774 11:-0.266994 12:-0.997548 13:-0.454707 14:-0.997383 15:-0.864273 16:-0.825001 17:-0.975751 18:-0.956778 19:-0.905144 20:-0.917622 21:-1 22:-1 23:-0.852595 24:-0.820446 25:-0.901125 26:-0.824687 27:-0.995666 28:-0.982416 29:-0.913357 30:-0.879259 31:-1 32:-1 33:-0.966826 34:-0.949679 35:-0.998322 36:-0.923541 37:-0.932927 38:-0.941558 39:-0.980276 40:-0.996466 41:-0.968889 42:-0.98452 43:-0.997795 44:-0.997582 45:-0.998082 46:-0.992188 47:-0.934211 48:-0.947712 49:-0.957447 50:-1 51:-0.958042 52:-0.986842 53:-0.979381 54:-0.948718 55:-0.97619 56:-0.963636 57:-1 58:-1 59:-0.966102 60:-0.18891 61:-0.471671 62:-0.00990099 63:-0.296113 64:0.0024802 65:0.149427 66:-0.693488 67:-0.594177 68:-0.0434796 69:0.181061 70:-0.765424 71:-0.123153 72:-0.223766 73:-0.0637382 74:-0.264365 75:-0.296113 76:0.0024802 77:0.149427 78:-0.693488 79:-0.594177 80:-0.0434796 81:0.181061 82:-0.765424 83:-0.123153 84:-0.223766 85:-0.0637382 86:-0.264365 
0.03125 1:-0.987254 2:-0.991435 3:-0.994196 4:-0.0683803 5:0.547908 6:-0.965482 7:0.0901332 8:-0.996046 9:-0.999608 10:0.514774 11:-0.266994 12:-0.999054 13:-0.454707 14:-0.99909 15:-0.905771 16:-0.82187 17:-1 18:-1 19:-0.964004 20:-0.843562 21:-1 22:-1 23:-0.974238 24:-0.878906 25:-1 26:-1 27:-1 28:-1 29:-0.807165 30:-0.924041 31:-1 32:-1 33:-0.930342 34:-0.926425 35:-0.993287 36:-0.963783 37:-0.969512 38:-0.993506 39:-0.996055 40:-0.978799 41:-0.991111 42:-0.987616 43:-0.99559 44:-0.995163 45:-0.994247 46:-0.984375 47:-0.894737 48:-0.947712 49:-0.943262 50:-0.983333 51:-0.958042 52:-0.986842 53:-0.979381 54:-1 55:-0.97619 56:-1 57:-1 58:-1 59:-0.966102 60:-0.0986131 61:-0.279453 62:0.108911 63:0.958814 64:-1 65:-1 66:-1 67:-0.982886 68:-1 69:-1 70:-0.558743 71:0.722008 72:-1 73:-0.685504 74:-0.740538 75:0.958814 76:-1 77:-1 78:-1 79:-0.982886 80:-1 81:-1 82:-0.558743 83:0.722008 84:-1 85:-0.685504 86:-0.740538 
0.03125 1:-0.987785 2:-0.981242 3:-0.999774 4:-0.0879764 5:0.542512 6:-0.85525 7:0.0919084 8:-0.995623 9:-0.998924 10:0.514774 11:-0.278206 12:-0.998998 13:-0.45346 14:-0.998869 15:-0.657853 16:-0.766858 17:-1 18:-1 19:-1 20:-1 21:-0.744796 22:-0.831217 23:-1 24:-1 25:-1 26:-1 27:-0.80822 28:-0.934634 29:-1 30:-1 31:-1 32:-1 33:-0.874341 34:-0.917812 35:-0.998881 36:-1 37:-0.969512 38:-0.993506 39:-0.996055 40:-0.989399 41:-0.968889 42:-0.98452 43:-0.99118 44:-0.983071 45:-0.994247 46:-0.945312 47:-0.960526 48:-0.960784 49:-0.858156 50:-0.966667 51:-1 52:-0.894737 53:-1 54:-1 55:-1 56:-1 57:-1 58:-1 59:-1 60:-0.36797 61:-0.124839 62:0.00990099 63:0.619048 64:-0.772874 65:-0.72222 66:-0.851851 67:-0.89838 68:-0.760871 69:-0.694191 70:-0.88662 71:0.750001 72:-1 73:-0.595962 74:-0.91111 75:0.619048 76:-0.772874 77:-0.72222 78:-0.851851 79:-0.89838 80:-0.760871 81:-0.694191 82:-0.88662 83:0.750001 84:-1 85:-0.595962 86:-0.91111 
0.03125 1:-0.999469 2:-0.97189 3:-0.999906 4:-0.0865038 5:0.542884 6:-0.786807 7:0.0898553 8:-0.998273 9:-0.999586 10:0.515235 11:-0.266994 12:-0.99962 13:-0.454351 14:-0.999508 15:-0.899546 16:-0.81428 17:-1 18:-1 19:-1 20:-1 21:-0.901165 22:-0.788162 23:-1 24:-1 25:-1 26:-1 27:-0.906755 28:-0.913836 29:-1 30:-1 31:-1 32:-1 33:-0.952089 34:-0.983428 35:-0.997762 36:-1 37:-0.993902 38:-0.993506 39:-0.996055 40:-0.996466 41:-0.991111 42:-0.996904 43:-1 44:-0.997582 45:-0.998082 46:-1 47:-0.986842 48:-0.986928 49:-0.957447 50:-1 51:-0.972028 52:-0.986842 53:-0.938144 54:-1 55:-1 56:-0.963636 57:-0.846154 58:-1 59:-1 60:0.0359714 61:0.00636162 62:0.0693069 63:0.891157 64:-1 65:-1 66:-1 67:-0.866474 68:-1 69:-1 70:-1 71:0.908164 72:-1 73:-1 74:-1 75:0.891157 76:-1 77:-1 78:-1 79:-0.866474 80:-1 81:-1 82:-1 83:0.908164 84:-1 85:-1 86:-1 
0.03125 1:-0.986458 2:-0.991605 3:-0.99423 4:-0.068385 5:0.548968 6:-0.965296 7:0.0915402 8:-0.995125 9:-0.99959 10:0.51385 11:-0.266994 12:-0.99903 13:-0.456489 14:-0.999043 15:-0.900043 16:-0.788524 17:-1 18:-1 19:-0.972041 20:-0.864793 21:-1 22:-1 23:-0.976995 24:-0.869628 25:-1 26:-1 27:-1 28:-1 29:-0.828038 30:-0.939891 31:-1 32:-1 33:-0.949211 34:-0.929884 35:-0.98993 36:-0.983903 37:-0.97561 38:-0.974026 39:-0.988166 40:-0.996466 41:-0.982222 42:-0.987616 43:-0.99118 44:-0.997582 45:-0.99233 46:-0.960938 47:-0.921053 48:-0.947712 49:-0.929078 50:-0.983333 51:-1 52:-0.973684 53:-0.979381 54:-1 55:-1 56:-1 57:-1 58:-1 59:-0.966102 60:-0.103633 61:-0.299439 62:0.148515 63:0.881262 64:-1 65:-1 66:-0.861472 67:-0.931737 68:-1 69:-0.61873 70:-0.946992 71:0.732839 72:-1 73:-0.924439 74:-0.501299 75:0.881262 76:-1 77:-1 78:-0.861472 79:-0.931737 80:-1 81:-0.61873 82:-0.946992 83:0.732839 84:-1 85:-0.924439 86:-0.501299 
0.03125 1:-0.985927 2:-0.981392 3:-0.999783 4:-0.0878007 5:0.54258 6:-0.854985 7:0.0912357 8:-0.996651 9:-0.9989 10:0.514774 11:-0.268395 12:-0.998722 13:-0.454707 14:-0.998554 15:-0.990292 16:-0.997361 17:-1 18:-1 19:-0.69222 20:-0.819109 21:-1 22:-1 23:-0.724877 24:-0.843813 25:-1 26:-1 27:-1 28:-1 29:-0.764431 30:-0.894475 31:-1 32:-1 33:-0.842443 34:-0.949829 35:-0.997203 36:-0.987928 37:-0.97561 38:-1 39:-1 40:-0.985866 41:-0.973333 42:-0.98452 43:-0.982359 44:-0.990326 45:-0.990412 46:-0.984375 47:-0.973684 48:-0.973856 49:-0.971631 50:-0.883333 51:-0.86014 52:-0.921053 53:-0.979381 54:-1 55:-0.952381 56:-1 57:-1 58:-1 59:-1 60:-0.255104 61:-0.149671 62:0.00990099 63:0.652803 64:-1 65:-0.493673 66:-0.864981 67:-0.806501 68:-0.745734 69:-0.814191 70:-0.948335 71:0.674504 72:-0.802727 73:-0.705408 74:-0.837978 75:0.652803 76:-1 77:-0.493673 78:-0.864981 79:-0.806501 80:-0.745734 81:-0.814191 82:-0.948335 83:0.674504 84:-0.802727 85:-0.705408 86:-0.837978 
0.03125 1:-0.980351 2:-0.985778 3:-0.999369 4:-0.0904313 5:0.539459 6:-0.889042 7:0.110025 8:-0.978909 9:-0.996596 10:0.518006 11:-0.266994 12:-0.997121 13:-0.450966 14:-0.996623 15:-0.607873 16:-0.825297 17:-1 18:-1 19:-0.732742 20:-0.646483 21:-1 22:-1 23:-1 24:-1 25:-0.805857 26:-0.624396 27:-1 28:-1 29:-0.83421 30:-0.914638 31:-1 32:-1 33:-0.916972 34:-0.965294 35:-0.998322 36:-0.983903 37:-0.97561 38:-0.993506 39:-1 40:-0.968198 41:-0.977778 42:-0.987616 43:-0.988975 44:-1 45:-0.988495 46:-0.984375 47:-0.973684 48:-0.882353 49:-0.985816 50:-0.866667 51:-0.79021 52:-0.921053 53:-0.958763 54:-0.974359 55:-0.833333 56:-0.927273 57:-0.846154 58:-1 59:-0.966102 60:-0.268645 61:-0.0666969 62:-0.0693069 63:0.908571 64:-1 65:-0.866667 66:-1 67:-0.969849 68:-0.913913 69:-0.963303 70:-0.795918 71:0.922857 72:-0.948052 73:-0.941818 74:-1 75:0.908571 76:-1 77:-0.866667 78:-1 79:-0.969849 80:-0.913913 81:-0.963303 82:-0.795918 83:0.922857 84:-0.948052 85:-0.941818 86:-1 
0.03125 1:-0.986458 2:-0.990835 3:-0.994212 4:-0.0683364 5:0.5481 6:-0.965179 7:0.0904162 8:-0.996243 9:-0.999642 10:0.514774 11:-0.266994 12:-0.999087 13:-0.454707 14:-0.999111 15:-0.953318 16:-0.842843 17:-1 18:-1 19:-0.972064 20:-0.855834 21:-1 22:-1 23:-0.975642 24:-0.908064 25:-0.98571 26:-0.973393 27:-1 28:-1 29:-0.823713 30:-0.924951 31:-1 32:-1 33:-0.916551 34:-0.934614 35:-0.992168 36:-0.967807 37:-0.969512 38:-0.987013 39:-0.99211 40:-0.992933 41:-0.977778 42:-0.996904 43:-0.982359 44:-0.995163 45:-1 46:-0.90625 47:-0.960526 48:-0.947712 49:-0.957447 50:-1 51:-0.958042 52:-1 53:-1 54:-1 55:-0.97619 56:-1 57:-1 58:-0.909091 59:-1 60:-0.0903543 61:-0.270122 62:0.188119 63:0.881262 64:-1 65:-1 66:-0.861472 67:-0.931737 68:-1 69:-0.571072 70:-0.840976 71:0.666049 72:-0.932535 73:-0.697757 74:-0.667533 75:0.881262 76:-1 77:-1 78:-0.861472 79:-0.931737 80:-1 81:-0.571072 82:-0.840976 83:0.666049 84:-0.932535 85:-0.697757 86:-0.667533 
0.03125 1:-0.987254 2:-0.981242 3:-0.99979 4:-0.0877609 5:0.542704 6:-0.854789 7:0.089562 8:-0.997203 9:-0.999074 10:0.514774 11:-0.266994 12:-0.998957 13:-0.454707 14:-0.99882 15:-0.704169 16:-0.826209 17:-1 18:-1 19:-1 20:-1 21:-0.729621 22:-0.845586 23:-1 24:-1 25:-1 26:-1 27:-0.802351 28:-0.915646 29:-1 30:-1 31:-1 32:-1 33:-0.857174 34:-0.929727 35:-0.998881 36:-0.991952 37:-0.969512 38:-0.993506 39:-1 40:-0.992933 41:-0.982222 42:-0.981424 43:-0.99118 44:-0.990326 45:-0.982742 46:-0.976562 47:-0.960526 48:-0.973856 49:-0.971631 50:-0.916667 51:-1 52:-0.868421 53:-0.835052 54:-0.974359 55:-1 56:-1 57:-1 58:-1 59:-1 60:-0.320975 61:-0.128506 62:-0.049505 63:0.629342 64:-1 65:-0.45946 66:-0.855856 67:-0.792748 68:-0.689777 69:-0.900818 70:-0.944841 71:0.687258 72:-0.8596 73:-0.685504 74:-0.827027 75:0.629342 76:-1 77:-0.45946 78:-0.855856 79:-0.792748 80:-0.689777 81:-0.900818 82:-0.944841 83:0.687258 84:-0.8596 85:-0.685504 86:-0.827027 
0.03125 1:-1 2:-0.97189 3:-0.999898 4:-0.0865552 5:0.543197 6:-0.786752 7:0.0815164 8:-0.998903 9:-0.999649 10:0.514774 11:-0.266994 12:-0.999592 13:-0.454707 14:-0.999497 15:-0.899806 16:-0.8098 17:-1 18:-1 19:-1 20:-1 21:-0.900748 22:-0.795164 23:-1 24:-1 25:-1 26:-1 27:-0.931621 28:-0.905225 29:-1 30:-1 31:-1 32:-1 33:-0.921263 34:-0.964253 35:-0.998881 36:-0.991952 37:-0.987805 38:-0.987013 39:-0.996055 40:-0.996466 41:-0.986667 42:-0.990712 43:-1 44:-1 45:-1 46:-1 47:-1 48:-1 49:-0.985816 50:-0.983333 51:-0.972028 52:-0.986842 53:-0.938144 54:-0.974359 55:-1 56:-1 57:-1 58:-1 59:-1 60:-0.0342775 61:-0.146752 62:0.0693069 63:0.64835 64:-0.790344 65:-1 66:-1 67:-0.778121 68:-0.889631 69:-0.435428 70:-1 71:0.505494 72:-0.400597 73:-0.776221 74:-1 75:0.64835 76:-0.790344 77:-1 78:-1 79:-0.778121 80:-0.889631 81:-0.435428 82:-1 83:0.505494 84:-0.400597 85:-0.776221 86:-1 
0.03125 1:-0.985927 2:-0.990888 3:-0.994172 4:-0.0682765 5:0.547841 6:-0.965116 7:0.0900663 8:-0.996281 9:-0.99961 10:0.514774 11:-0.266994 12:-0.999004 13:-0.454707 14:-0.999042 15:-0.950636 16:-0.840946 17:-1 18:-1 19:-0.975445 20:-0.868758 21:-1 22:-1 23:-0.974008 24:-0.872969 25:-1 26:-1 27:-1 28:-1 29:-0.806554 30:-0.91058 31:-1 32:-1 33:-0.920758 34:-0.933482 35:-0.991608 36:-0.975855 37:-0.957317 38:-0.993506 39:-0.984221 40:-0.982332 41:-0.977778 42:-0.996904 43:-0.98677 44:-0.997582 45:-0.990412 46:-0.976562 47:-0.960526 48:-0.934641 49:-0.971631 50:-0.95 51:-0.972028 52:-1 53:-0.958763 54:-1 55:-1 56:-1 57:-1 58:-1 59:-0.932203 60:-0.0708085 61:-0.298454 62:0.148515 63:0.807113 64:-0.931001 65:-1 66:-0.797467 67:-0.908275 68:-0.854705 69:-0.767739 70:-0.896669 71:0.707053 72:-0.934244 73:-0.926353 74:-0.513926 75:0.807113 76:-0.931001 77:-1 78:-0.797467 79:-0.908275 80:-0.854705 81:-0.767739 82:-0.896669 83:0.707053 84:-0.934244 85:-0.926353 86:-0.513926 
0.03125 1:-1 2:-0.957123 3:-0.969943 4:-0.137224 5:0.603462 6:-0.897263 7:0.0250559 8:-0.925208 9:-0.999822 10:0.514774 11:-0.266994 12:-0.999846 13:-0.454707 14:-0.999817 15:-0.848513 16:-0.84798 17:-1 18:-1 19:-1 20:-1 21:-1 22:-1 23:-0.899973 24:-0.834762 25:-1 26:-1 27:-1 28:-1 29:-1 30:-1 31:-1 32:-1 33:-0.965947 34:-0.980334 35:-0.997203 36:-1 37:-1 38:-1 39:-1 40:-0.996466 41:-1 42:-0.993808 43:-0.997795 44:-0.995163 45:-0.998082 46:-1 47:-1 48:-1 49:-0.985816 50:-0.983333 51:-0.986014 52:-1 53:-0.979381 54:-1 55:-0.928571 56:-0.927273 57:-0.923077 58:-0.909091 59:-0.932203 60:0.28225 61:0.217 62:0.148515 63:0.882782 64:-1 65:-1 66:-1 67:-0.93274 68:-0.889631 69:-1 70:-1 71:0.901098 72:-1 73:-1 74:-1 75:0.882782 76:-1 77:-1 78:-1 79:-0.93274 80:-0.889631 81:-1 82:-1 83:0.901098 84:-1 85:-1 86:-1 
0.03125 1:-0.98752 2:-0.981229 3:-0.999785 4:-0.0878555 5:0.542402 6:-0.855353 7:0.093581 8:-0.995951 9:-0.998972 10:0.514774 11:-0.274001 12:-0.999075 13:-0.455776 14:-0.998907 15:-0.696899 16:-0.824323 17:-1 18:-1 19:-1 20:-1 21:-0.708279 22:-0.876649 23:-1 24:-1 25:-1 26:-1 27:-0.788903 28:-0.894304 29:-1 30:-1 31:-1 32:-1 33:-0.904362 34:-0.955154 35:-0.998322 36:-1 37:-0.987805 38:-0.987013 39:-0.996055 40:-0.996466 41:-0.982222 42:-0.993808 43:-0.988975 44:-1 45:-0.98466 46:-0.992188 47:-0.921053 48:-0.947712 49:-0.985816 50:-0.966667 51:-0.972028 52:-0.960526 53:-0.876289 54:-1 55:-0.857143 56:-0.745455 57:-0.846154 58:-0.727273 59:-0.966102 60:-0.355789 61:-0.160286 62:-0.247525 63:0.582519 64:-0.775986 65:-0.6347 66:-0.853883 67:-0.927445 68:-0.803455 69:-0.497299 70:-0.944086 71:0.7182 72:-0.715351 73:-0.760896 74:-1 75:0.582519 76:-0.775986 77:-0.6347 78:-0.853883 79:-0.927445 80:-0.803455 81:-0.497299 82:-0.944086 83:0.7182 84:-0.715351 85:-0.760896 86:-1 
0.03125 1:-0.993362 2:-0.981592 3:-0.980938 4:-0.0803786 5:0.536603 6:-0.999691 7:0.083586 8:-0.998544 9:-0.998997 10:0.514774 11:-0.266994 12:-0.997984 13:-0.454707 14:-0.997676 15:-0.988134 16:-0.910289 17:-0.931385 18:-0.826935 19:-1 20:-1 21:-0.979469 22:-0.750138 23:-0.964132 24:-0.691874 25:-1 26:-1 27:-0.984434 28:-0.734875 29:-1 30:-1 31:-0.983452 32:-0.667999 33:-0.937081 34:-0.918034 35:-0.999441 36:-0.991952 37:-0.97561 38:-0.967532 39:-0.984221 40:-0.982332 41:-0.982222 42:-0.978328 43:-0.997795 44:-0.98549 45:-1 46:-0.992188 47:-1 48:-1 49:-0.971631 50:-0.983333 51:-0.972028 52:-0.973684 53:-1 54:-0.974359 55:-0.97619 56:-0.963636 57:-1 58:-1 59:-1 60:-0.256334 61:-0.286465 62:0.029703 63:-0.195145 64:0.0688187 65:0.176473 66:-1 67:-0.734161 68:-0.774937 69:0.151288 70:-0.519808 71:0.445379 72:-0.490706 73:-1 74:-0.37255 75:-0.195145 76:0.0688187 77:0.176473 78:-1 79:-0.734161 80:-0.774937 81:0.151288 82:-0.519808 83:0.445379 84:-0.490706 85:-1 86:-0.37255 
0.03125 1:-0.758364 2:-0.99789 3:-0.997033 4:-0.0832103 5:0.537696 6:-0.999709 7:0.0847919 8:-0.988984 9:-0.983517 10:0.51385 11:-0.271198 12:-0.965775 13:-0.454351 14:-0.96574 15:-0.752375 16:-0.841701 17:-0.804698 18:-0.848466 19:-0.801728 20:-0.846114 21:-0.822516 22:-0.838696 23:-0.87001 24:-0.823743 25:-0.882668 26:-0.782823 27:-0.856813 28:-0.757382 29:-0.771933 30:-0.652157 31:-0.816783 32:-0.606524 33:-0.84924 34:-0.722058 35:-0.733706 36:-0.967807 37:-0.969512 38:-0.922078 39:-0.940828 40:-0.925795 41:-0.924444 42:-0.93808 43:-0.971334 44:-0.961306 45:-0.938639 46:-0.757812 47:-0.526316 48:-0.398693 49:-0.390071 50:-0.333333 51:-0.608392 52:-0.592105 53:-0.690722 54:-0.769231 55:-0.785714 56:-0.854545 57:-0.769231 58:-0.727273 59:-0.932203 60:0.300006 61:-0.283763 62:0.425743 63:0.00952381 64:0.171962 65:-0.566667 66:-0.786667 67:-0.748744 68:-0.469131 69:0.211009 70:-0.183673 71:0.202857 72:-0.168831 73:-0.621818 74:-0.488 75:0.00952381 76:0.171962 77:-0.566667 78:-0.786667 79:-0.748744 80:-0.469131 81:0.211009 82:-0.183673 83:0.202857 84:-0.168831 85:-0.621818 86:-0.488 
0.03125 1:-0.985927 2:-0.991605 3:-0.994218 4:-0.0683744 5:0.548693 6:-0.96532 7:0.0911738 8:-0.99522 9:-0.999548 10:0.514774 11:-0.266994 12:-0.998994 13:-0.454707 14:-0.999014 15:-0.900043 16:-0.789117 17:-1 18:-1 19:-0.972701 20:-0.863048 21:-1 22:-1 23:-0.97399 24:-0.861608 25:-1 26:-1 27:-1 28:-1 29:-0.815301 30:-0.922951 31:-1 32:-1 33:-0.935844 34:-0.934856 35:-0.99049 36:-0.983903 37:-0.945122 38:-0.993506 39:-0.99211 40:-0.982332 41:-0.995556 42:-0.981424 43:-0.988975 44:-0.997582 45:-0.996165 46:-0.921875 47:-0.894737 48:-0.973856 49:-0.985816 50:-0.983333 51:-0.986014 52:-1 53:-1 54:-1 55:-1 56:-1 57:-0.846154 58:-1 59:-1 60:-0.0949159 61:-0.299932 62:0.207921 63:0.807113 64:-0.862003 65:-1 66:-0.864981 67:-0.933719 68:-0.891028 69:-0.674833 70:-0.948335 71:0.739602 72:-1 73:-0.631761 74:-0.918989 75:0.807113 76:-0.862003 77:-1 78:-0.864981 79:-0.933719 80:-0.891028 81:-0.674833 82:-0.948335 83:0.739602 84:-1 85:-0.631761 86:-0.918989 
0.03125 1:-0.99522 2:-0.984042 3:-0.999271 4:-0.0913417 5:0.542199 6:-0.882383 7:0.0901261 8:-0.996299 9:-0.999169 10:0.514774 11:-0.266994 12:-0.998999 13:-0.454707 14:-0.998842 15:-0.824344 16:-0.952341 17:-1 18:-1 19:-0.974612 20:-0.950267 21:-1 22:-1 23:-1 24:-1 25:-0.918787 26:-0.87582 27:-1 28:-1 29:-0.838888 30:-0.889221 31:-1 32:-1 33:-0.906263 34:-0.964174 35:-0.998322 36:-1 37:-0.993902 38:-0.987013 39:-0.99211 40:-0.975265 41:-0.995556 42:-0.990712 43:-0.997795 44:-0.995163 45:-1 46:-1 47:-0.986842 48:-0.986928 49:-0.985816 50:-0.95 51:-0.944056 52:-1 53:-0.896907 54:-0.871795 55:-0.97619 56:-1 57:-1 58:-1 59:-1 60:-0.11804 61:-0.0871476 62:0.00990099 63:0.653681 64:-0.752225 65:-0.848487 66:-1 67:-0.827319 68:-0.869564 69:-0.833193 70:-0.907237 71:0.766234 72:-1 73:-0.735535 74:-0.854547 75:0.653681 76:-0.752225 77:-0.848487 78:-1 79:-0.827319 80:-0.869564 81:-0.833193 82:-0.907237 83:0.766234 84:-1 85:-0.735535 86:-0.854547 
0.03125 1:-0.972384 2:-0.978756 3:-0.980003 4:-0.101206 5:0.558928 6:-0.981682 7:0.0759517 8:-0.988866 9:-0.997909 10:0.514312 11:-0.266994 12:-0.994683 13:-0.454707 14:-0.994598 15:-0.781499 16:-0.894745 17:-0.840376 18:-0.899747 19:-1 20:-1 21:-0.857987 22:-0.843776 23:-1 24:-1 25:-0.88365 26:-0.683458 27:-0.930681 28:-0.680265 29:-1 30:-1 31:-0.923009 32:-0.654617 33:-0.94787 34:-0.920329 35:-0.996643 36:-0.991952 37:-0.987805 38:-0.987013 39:-0.984221 40:-0.996466 41:-0.995556 42:-0.975232 43:-0.98677 44:-0.98549 45:-0.994247 46:-0.9375 47:-0.828947 48:-0.882353 49:-0.858156 50:-0.8 51:-0.846154 52:-0.868421 53:-0.938144 54:-0.820513 55:-0.952381 56:-0.927273 57:-0.923077 58:-1 59:-1 60:-0.307783 61:0.00294004 62:-0.00990099 63:-0.0080579 64:-0.203316 65:-0.282053 66:-0.630768 67:-0.83997 68:0.0374564 69:0.0444587 70:-0.843012 71:-0.087912 72:-0.280717 73:0.20839 74:-0.556922 75:-0.0080579 76:-0.203316 77:-0.282053 78:-0.630768 79:-0.83997 80:0.0374564 81:0.0444587 82:-0.843012 83:-0.087912 84:-0.280717 85:0.20839 86:-0.556922 
0.03125 1:-0.986989 2:-0.990888 3:-0.994201 4:-0.0683202 5:0.54864 6:-0.965162 7:0.091111 8:-0.995407 9:-0.999642 10:0.514774 11:-0.266994 12:-0.999087 13:-0.454707 14:-0.999127 15:-0.927559 16:-0.836198 17:-1 18:-1 19:-0.975486 20:-0.872009 21:-1 22:-1 23:-0.977089 24:-0.880498 25:-0.98609 26:-0.985113 27:-1 28:-1 29:-0.82542 30:-0.924837 31:-1 32:-1 33:-0.93521 34:-0.935225 35:-0.993287 36:-0.955734 37:-0.963415 38:-1 39:-0.99211 40:-0.985866 41:-0.977778 42:-0.996904 43:-0.988975 44:-0.997582 45:-0.998082 46:-0.921875 47:-0.921053 48:-0.960784 49:-0.971631 50:-0.966667 51:-0.986014 52:-1 53:-1 54:-1 55:-1 56:-0.963636 57:-1 58:-0.909091 59:-1 60:-0.0787195 61:-0.28906 62:0.188119 63:0.837461 64:-0.927322 65:-1 66:-0.928891 67:-0.929648 68:-0.885217 69:-0.75535 70:-0.836735 71:0.725714 72:-0.930738 73:-0.689699 74:-0.914669 75:0.837461 76:-0.927322 77:-1 78:-0.928891 79:-0.929648 80:-0.885217 81:-0.75535 82:-0.836735 83:0.725714 84:-0.930738 85:-0.689699 86:-0.914669 
0.03125 1:-0.986458 2:-0.981342 3:-0.999775 4:-0.0879409 5:0.542399 6:-0.854678 7:0.0935147 8:-0.995045 9:-0.998619 10:0.514774 11:-0.266994 12:-0.998825 13:-0.454707 14:-0.998602 15:-1 16:-1 17:-1 18:-1 19:-0.661447 20:-0.755154 21:-1 22:-1 23:-0.709946 24:-0.863724 25:-1 26:-1 27:-1 28:-1 29:-0.774452 30:-0.8988 31:-1 32:-1 33:-0.873498 34:-0.904704 35:-0.997762 36:-0.987928 37:-0.987805 38:-0.993506 39:-0.996055 40:-0.989399 41:-0.991111 42:-0.987616 43:-0.99118 44:-0.978235 45:-0.996165 46:-0.945312 47:-0.947368 48:-0.973856 49:-1 50:-0.933333 51:-0.958042 52:-0.960526 53:-0.752577 54:-0.974359 55:-0.952381 56:-0.927273 57:-0.923077 58:-1 59:-1 60:-0.313495 61:-0.165493 62:-0.128713 63:0.643785 64:-0.787624 65:-0.74026 66:-0.861472 67:-0.905632 68:-0.739131 69:-0.714048 70:-0.946992 71:0.732839 72:-0.932535 73:-0.546636 74:-1 75:0.643785 76:-0.787624 77:-0.74026 78:-0.861472 79:-0.905632 80:-0.739131 81:-0.714048 82:-0.946992 83:0.732839 84:-0.932535 85:-0.546636 86:-1 
0.03125 1:-0.980351 2:-0.985811 3:-0.999379 4:-0.0903931 5:0.539736 6:-0.88869 7:0.108234 8:-0.98106 9:-0.996329 10:0.514312 11:-0.266994 12:-0.997248 13:-0.454707 14:-0.996584 15:-0.608215 16:-0.837294 17:-1 18:-1 19:-0.739538 20:-0.666287 21:-1 22:-1 23:-1 24:-1 25:-0.804123 26:-0.615687 27:-1 28:-1 29:-0.848682 30:-0.904627 31:-1 32:-1 33:-0.907839 34:-0.969553 35:-0.997762 36:-0.983903 37:-0.97561 38:-0.993506 39:-0.996055 40:-0.985866 41:-0.991111 42:-0.98452 43:-0.993385 44:-0.990326 45:-0.994247 46:-0.992188 47:-0.921053 48:-0.960784 49:-0.957447 50:-0.85 51:-0.748252 52:-0.947368 53:-0.938144 54:-0.897436 55:-0.857143 56:-0.818182 57:-0.923077 58:-1 59:-0.966102 60:-0.256396 61:-0.0484044 62:-0.0891089 63:0.847619 64:-0.83647 65:-0.933333 66:-1 67:-0.98995 68:-0.913913 69:-0.853211 70:-0.755102 71:0.845714 72:-0.844156 73:-0.941818 74:-0.936 75:0.847619 76:-0.83647 77:-0.933333 78:-1 79:-0.98995 80:-0.913913 81:-0.853211 82:-0.755102 83:0.845714 84:-0.844156 85:-0.941818 86:-0.936 
0.03125 1:-0.932554 2:-0.995097 3:-0.999287 4:-0.0874421 5:0.541559 6:-0.962206 7:0.0899152 8:-0.993675 9:-0.992313 10:0.51385 11:-0.266994 12:-0.994661 13:-0.454886 14:-0.992918 15:-0.919339 16:-0.932517 17:-0.949264 18:-0.845968 19:-0.743331 20:-0.878595 21:-0.837678 22:-0.90592 23:-1 24:-1 25:-0.608973 26:-0.770534 27:-0.790434 28:-0.762538 29:-0.905268 30:-0.85691 31:-0.873204 32:-0.944727 33:-0.846382 34:-0.915656 35:-0.945734 36:-0.939638 37:-0.908537 38:-0.967532 39:-0.968442 40:-0.971731 41:-0.96 42:-0.944272 43:-0.98677 44:-0.997582 45:-0.982742 46:-0.945312 47:-0.828947 48:-0.882353 49:-0.77305 50:-0.85 51:-0.902098 52:-0.934211 53:-0.896907 54:-0.846154 55:-0.857143 56:-0.963636 57:-0.923077 58:-0.727273 59:-1 60:0.0830416 61:-0.317231 62:0.207921 63:-0.142857 64:0.308237 65:-0.3 66:-0.866667 67:-0.869347 68:-0.325652 69:0.247706 70:-0.530612 71:0.138572 72:-0.324675 73:-0.301818 74:-0.52 75:-0.142857 76:0.308237 77:-0.3 78:-0.866667 79:-0.869347 80:-0.325652 81:0.247706 82:-0.530612 83:0.138572 84:-0.324675 85:-0.301818 86:-0.52 
0.03125 1:-0.987785 2:-0.990888 3:-0.99422 4:-0.0683404 5:0.547819 6:-0.965159 7:0.0900579 8:-0.996455 9:-0.999686 10:0.514774 11:-0.266994 12:-0.999193 13:-0.454707 14:-0.999227 15:-0.958119 16:-0.847794 17:-1 18:-1 19:-0.973121 20:-0.873718 21:-1 22:-1 23:-0.974705 24:-0.872618 25:-1 26:-1 27:-1 28:-1 29:-0.820762 30:-0.91961 31:-1 32:-1 33:-0.936871 34:-0.942659 35:-0.993287 36:-0.979879 37:-0.957317 38:-0.987013 39:-0.99211 40:-0.992933 41:-0.986667 42:-0.990712 43:-0.993385 44:-0.98549 45:-0.998082 46:-0.992188 47:-0.894737 48:-0.934641 49:-1 50:-0.933333 51:-0.958042 52:-1 53:-0.979381 54:-0.974359 55:-1 56:-1 57:-0.846154 58:-1 59:-1 60:-0.0952934 61:-0.259438 62:0.108911 63:0.830686 64:-0.848582 65:-0.907407 66:-1 67:-0.982133 68:-0.960145 69:-0.694191 70:-0.489796 71:0.571428 72:-0.783548 73:-0.595962 74:-0.733331 75:0.830686 76:-0.848582 77:-0.907407 78:-1 79:-0.982133 80:-0.960145 81:-0.694191 82:-0.489796 83:0.571428 84:-0.783548 85:-0.595962 86:-0.733331 
0.03125 1:-0.988582 2:-0.985789 3:-0.999282 4:-0.0909088 5:0.542011 6:-0.894209 7:0.0909976 8:-0.997479 9:-0.999465 10:0.514774 11:-0.266994 12:-0.998895 13:-0.454173 14:-0.998862 15:-0.822062 16:-0.939419 17:-1 18:-1 19:-1 20:-1 21:-0.866243 22:-0.821798 23:-1 24:-1 25:-1 26:-1 27:-0.859428 28:-0.904652 29:-1 30:-1 31:-1 32:-1 33:-0.900828 34:-0.945008 35:-0.999441 36:-0.991952 37:-1 38:-0.993506 39:-0.996055 40:-1 41:-0.986667 42:-0.993808 43:-1 44:-1 45:-0.996165 46:-0.992188 47:-0.960526 48:-0.973856 49:-0.971631 50:-0.9 51:-0.972028 52:-0.907895 53:-0.71134 54:-0.923077 55:-0.880952 56:-0.927273 57:-0.769231 58:-0.454545 59:-1 60:-0.384309 61:0.073404 62:-0.168317 63:1 64:-1 65:-1 66:-1 67:1 68:-1 69:-1 70:-1 71:1 72:-1 73:-1 74:-1 75:1 76:-1 77:-1 78:-1 79:1 80:-1 81:-1 82:-1 83:1 84:-1 85:-1 86:-1 
0.03125 1:-0.986989 2:-0.981342 3:-0.999791 4:-0.0877325 5:0.542554 6:-0.855016 7:0.0916939 8:-0.996562 9:-0.998961 10:0.514774 11:-0.266994 12:-0.998901 13:-0.454707 14:-0.998736 15:-1 16:-1 17:-1 18:-1 19:-0.694541 20:-0.814657 21:-1 22:-1 23:-0.705324 24:-0.85709 25:-1 26:-1 27:-1 28:-1 29:-0.777338 30:-0.898794 31:-1 32:-1 33:-0.865443 34:-0.899194 35:-0.998322 36:-0.983903 37:-0.993902 38:-0.987013 39:-1 40:-0.992933 41:-1 42:-0.990712 43:-0.99118 44:-0.995163 45:-0.988495 46:-0.960938 47:-0.960526 48:-0.934641 49:-0.957447 50:-0.916667 51:-0.958042 52:-1 53:-0.938144 54:-0.897436 55:-0.857143 56:-0.963636 57:-0.461538 58:-0.818182 59:-1 60:-0.302812 61:-0.165035 62:-0.207921 63:0.634286 64:-0.927322 65:-0.555553 66:-0.857776 67:-0.902848 68:-0.693912 69:-0.706422 70:-1 71:0.691429 72:-0.792208 73:-0.612119 74:-1 75:0.634286 76:-0.927322 77:-0.555553 78:-0.857776 79:-0.902848 80:-0.693912 81:-0.706422 82:-1 83:0.691429 84:-0.792208 85:-0.612119 86:-1 
0.03125 1:-0.990175 2:-0.990243 3:-0.994159 4:-0.0681482 5:0.546075 6:-0.964567 7:0.0878108 8:-0.998156 9:-0.999788 10:0.514774 11:-0.266994 12:-0.9993 13:-0.454707 14:-0.999338 15:-0.958408 16:-0.906429 17:-1 18:-1 19:-0.971878 20:-0.908675 21:-1 22:-1 23:-0.978389 24:-0.896403 25:-1 26:-1 27:-1 28:-1 29:-0.833127 30:-0.940003 31:-1 32:-1 33:-0.925496 34:-0.93414 35:-0.994406 36:-0.979879 37:-0.969512 38:-0.993506 39:-0.99211 40:-0.985866 41:-0.991111 42:-0.996904 43:-0.99559 44:-0.987908 45:-0.99233 46:-0.984375 47:-0.947368 48:-0.973856 49:-0.957447 50:-0.9 51:-0.972028 52:-1 53:-1 54:-0.974359 55:-1 56:-1 57:-0.923077 58:-1 59:-1 60:-0.121576 61:-0.251252 62:0.108911 63:0.854875 64:-0.913476 65:-1 66:-0.915344 67:-0.946239 68:-1 69:-0.708752 70:-0.740849 71:0.67347 72:-0.917543 73:-0.722944 74:-0.695238 75:0.854875 76:-0.913476 77:-1 78:-0.915344 79:-0.946239 80:-1 81:-0.708752 82:-0.740849 83:0.67347 84:-0.917543 85:-0.722944 86:-0.695238 
0.03125 1:-0.985927 2:-0.98138 3:-0.999778 4:-0.0879065 5:0.542385 6:-0.85522 7:0.0937254 8:-0.994803 9:-0.998583 10:0.514774 11:-0.266994 12:-0.998819 13:-0.454707 14:-0.998603 15:-1 16:-1 17:-1 18:-1 19:-0.665625 20:-0.76104 21:-1 22:-1 23:-0.705184 24:-0.803291 25:-1 26:-1 27:-1 28:-1 29:-0.784192 30:-0.930955 31:-1 32:-1 33:-0.857364 34:-0.916607 35:-0.997203 36:-0.991952 37:-0.987805 38:-0.993506 39:-0.988166 40:-1 41:-0.995556 42:-0.990712 43:-0.993385 44:-0.997582 45:-0.986577 46:-0.953125 47:-0.947368 48:-0.947712 49:-0.957447 50:-0.966667 51:-0.93007 52:-0.986842 53:-0.835052 54:-0.974359 55:-0.928571 56:-0.709091 57:-0.923077 58:-0.727273 59:-0.966102 60:-0.337885 61:-0.190069 62:-0.247525 63:0.652803 64:-0.792999 65:-0.662447 66:-0.932491 67:-0.933719 68:-0.709411 69:-0.721288 70:-1 71:0.739602 72:-0.934244 73:-0.558115 74:-1 75:0.652803 76:-0.792999 77:-0.662447 78:-0.932491 79:-0.933719 80:-0.709411 81:-0.721288 82:-1 83:0.739602 84:-0.934244 85:-0.558115 86:-1 
0.03125 1:-0.999203 2:-0.971828 3:-0.999879 4:-0.0866358 5:0.542181 6:-0.782584 7:0.108411 8:-0.98975 9:-0.999441 10:0.514774 11:-0.266994 12:-0.999234 13:-0.454707 14:-0.999169 15:-0.950833 16:-0.98452 17:-1 18:-1 19:-0.901116 20:-0.787769 21:-1 22:-1 23:-1 24:-1 25:-0.914989 26:-0.77638 27:-1 28:-1 29:-0.885266 30:-0.75502 31:-1 32:-1 33:-0.952823 34:-0.986362 35:-0.996643 36:-0.991952 37:-0.987805 38:-0.987013 39:-0.996055 40:-0.996466 41:-0.982222 42:-0.996904 43:-0.997795 44:-1 45:-0.998082 46:-1 47:-1 48:-1 49:-1 50:-0.966667 51:-1 52:-1 53:-0.979381 54:-0.974359 55:-0.952381 56:-1 57:-0.923077 58:-1 59:-1 60:0.0103626 61:-0.337017 62:0.00990099 63:0.369457 64:-1 65:-0.770113 66:-0.264368 67:-0.594177 68:-0.703149 69:-0.746914 70:-1 71:0.55665 72:-0.820868 73:-0.598743 74:-0.779309 75:0.369457 76:-1 77:-0.770113 78:-0.264368 79:-0.594177 80:-0.703149 81:-0.746914 82:-1 83:0.55665 84:-0.820868 85:-0.598743 86:-0.779309 
0.03125 1:-0.999203 2:-0.902382 3:-0.904941 4:-0.151066 5:0.480267 6:-0.94903 7:0.10824 8:-0.971481 9:-0.999747 10:0.514774 11:-0.266994 12:-0.999075 13:-0.454707 14:-0.999128 15:-0.945551 16:-0.926786 17:-1 18:-1 19:-1 20:-1 21:-1 22:-1 23:-0.77441 24:-0.86925 25:-1 26:-1 27:-1 28:-1 29:-1 30:-1 31:-1 32:-1 33:-0.842594 34:-0.88935 35:-0.998881 36:-1 37:-0.993902 38:-0.993506 39:-0.984221 40:-1 41:-0.995556 42:-0.996904 43:-0.99118 44:-0.990326 45:-0.998082 46:-0.992188 47:-0.986842 48:-0.986928 49:-0.971631 50:-0.983333 51:-0.986014 52:-1 53:-1 54:-0.948718 55:-1 56:-1 57:-1 58:-1 59:-1 60:-0.438928 61:-0.401436 62:-0.247525 63:0.264369 64:-1 65:-0.08046 66:-0.816091 67:-0.871425 68:-0.505247 69:-0.367288 70:-1 71:0.55665 72:-0.820868 73:-0.598743 74:-1 75:0.264369 76:-1 77:-0.08046 78:-0.816091 79:-0.871425 80:-0.505247 81:-0.367288 82:-1 83:0.55665 84:-0.820868 85:-0.598743 86:-1 
0.03125 1:-0.988317 2:-0.990306 3:-0.994143 4:-0.068133 5:0.546116 6:-0.964579 7:0.0878582 8:-0.9981 9:-0.999714 10:0.514774 11:-0.266994 12:-0.999177 13:-0.454707 14:-0.999202 15:-0.962686 16:-0.898792 17:-1 18:-1 19:-0.967804 20:-0.900351 21:-1 22:-1 23:-0.977573 24:-0.874598 25:-1 26:-1 27:-1 28:-1 29:-0.821068 30:-0.924972 31:-1 32:-1 33:-0.914384 34:-0.934502 35:-0.992168 36:-0.971831 37:-0.963415 38:-0.993506 39:-0.996055 40:-0.985866 41:-0.977778 42:-0.990712 43:-0.99118 44:-0.997582 45:-0.998082 46:-0.929688 47:-0.947368 48:-0.973856 49:-0.957447 50:-0.966667 51:-0.986014 52:-1 53:-0.979381 54:-1 55:-1 56:-1 57:-1 58:-1 59:-1 60:-0.133215 61:-0.323903 62:0.188119 63:0.782312 64:-0.766387 65:-1 66:-1 67:-0.952621 68:-1 69:-0.580602 70:-0.591837 71:0.559183 72:-1 73:-0.418182 74:-0.634285 75:0.782312 76:-0.766387 77:-1 78:-1 79:-0.952621 80:-1 81:-0.580602 82:-0.591837 83:0.559183 84:-1 85:-0.418182 86:-0.634285 
0.03125 1:-0.985661 2:-0.98133 3:-0.999775 4:-0.0878706 5:0.542288 6:-0.855499 7:0.0950985 8:-0.994854 9:-0.998669 10:0.514774 11:-0.300631 12:-0.998599 13:-0.452213 14:-0.998398 15:-0.800204 16:-0.993398 17:-1 18:-1 19:-1 20:-1 21:-0.670489 22:-0.773232 23:-1 24:-1 25:-0.717779 26:-0.806557 27:-1 28:-1 29:-0.771092 30:-0.915773 31:-1 32:-1 33:-0.859576 34:-0.91711 35:-0.998881 36:-0.983903 37:-0.987805 38:-0.987013 39:-0.99211 40:-1 41:-0.986667 42:-1 43:-0.997795 44:-0.983071 45:-0.998082 46:-0.945312 47:-0.986842 48:-0.882353 49:-0.985816 50:-0.916667 51:-0.944056 52:-0.960526 53:-0.958763 54:-0.923077 55:-0.857143 56:-0.745455 57:-0.923077 58:-0.636364 59:-0.932203 60:-0.330531 61:-0.172462 62:-0.247525 63:0.619048 64:-0.523039 65:-0.833333 66:-1 67:-0.984925 68:-0.892391 69:-0.311927 70:-0.94898 71:0.678572 72:-0.87013 73:-0.563636 74:-0.92 75:0.619048 76:-0.523039 77:-0.833333 78:-1 79:-0.984925 80:-0.892391 81:-0.311927 82:-0.94898 83:0.678572 84:-0.87013 85:-0.563636 86:-0.92 
0.03125 1:-0.997876 2:-0.902382 3:-0.904568 4:-0.150842 5:0.491299 6:-0.949555 7:0.103831 8:-0.980132 9:-0.999684 10:0.514774 11:-0.266994 12:-0.998907 13:-0.454707 14:-0.998943 15:-0.951041 16:-0.925039 17:-1 18:-1 19:-1 20:-1 21:-1 22:-1 23:-0.773241 24:-0.840149 25:-1 26:-1 27:-1 28:-1 29:-1 30:-1 31:-1 32:-1 33:-0.878582 34:-0.86163 35:-0.998881 36:-0.983903 37:-1 38:-0.974026 39:-0.996055 40:-0.992933 41:-1 42:-0.993808 43:-1 44:-0.990326 45:-1 46:-0.976562 47:-1 48:-0.973856 49:-0.971631 50:-0.966667 51:-0.972028 52:-0.973684 53:-1 54:-1 55:-1 56:-1 57:-1 58:-1 59:-0.966102 60:-0.351112 61:-0.424212 62:-0.247525 63:0.193277 64:-0.519032 65:-0.215687 66:-1 67:-0.891811 68:-0.662404 69:-0.24447 70:-0.879951 71:0.621848 72:-0.84721 73:-0.657751 74:-0.811763 75:0.193277 76:-0.519032 77:-0.215687 78:-1 79:-0.891811 80:-0.662404 81:-0.24447 82:-0.879951 83:0.621848 84:-0.84721 85:-0.657751 86:-0.811763 
0.03125 1:-0.989379 2:-0.990215 3:-0.994105 4:-0.0680632 5:0.545692 6:-0.964467 7:0.0873015 8:-0.998588 9:-0.99975 10:0.514774 11:-0.266994 12:-0.999249 13:-0.454173 14:-0.999263 15:-0.961274 16:-0.919081 17:-1 18:-1 19:-0.964192 20:-0.904958 21:-1 22:-1 23:-0.978939 24:-0.889952 25:-1 26:-1 27:-1 28:-1 29:-0.805905 30:-0.926364 31:-1 32:-1 33:-0.872187 34:-0.936555 35:-0.993846 36:-0.967807 37:-0.987805 38:-0.993506 39:-0.99211 40:-0.985866 41:-0.995556 42:-0.987616 43:-0.997795 44:-0.992745 45:-0.994247 46:-0.984375 47:-0.881579 48:-0.973856 49:-0.985816 50:-0.916667 51:-0.986014 52:-0.986842 53:-0.979381 54:-0.974359 55:-0.97619 56:-1 57:-1 58:-1 59:-0.966102 60:-0.0774681 61:-0.236341 62:0.108911 63:0.953822 64:-1 65:-1 66:-1 67:-0.979594 68:-0.95652 69:-1 70:-0.381571 71:0.844156 72:-0.76387 73:-1 74:-1 75:0.953822 76:-1 77:-1 78:-1 79:-0.979594 80:-0.95652 81:-1 82:-0.381571 83:0.844156 84:-0.76387 85:-1 86:-1 
0.03125 1:-0.98752 2:-0.981104 3:-0.999785 4:-0.0878468 5:0.542669 6:-0.854732 7:0.0899626 8:-0.996907 9:-0.999021 10:0.514774 11:-0.266994 12:-0.999015 13:-0.454707 14:-0.998864 15:-0.705422 16:-0.835741 17:-1 18:-1 19:-1 20:-1 21:-0.714927 22:-0.822797 23:-1 24:-1 25:-1 26:-1 27:-0.80643 28:-0.945483 29:-1 30:-1 31:-1 32:-1 33:-0.872588 34:-0.914602 35:-0.997762 36:-0.991952 37:-0.993902 38:-0.987013 39:-0.984221 40:-0.978799 41:-0.955556 42:-0.972136 43:-0.988975 44:-0.992745 45:-0.990412 46:-0.929688 47:-0.934211 48:-0.921569 49:-0.985816 50:-1 51:-1 52:-1 53:-1 54:-1 55:-1 56:-1 57:-1 58:-1 59:-1 60:-0.334557 61:-0.127231 62:0.247525 63:0.624265 64:-0.775986 65:-0.6347 66:-0.926939 67:-0.89991 68:-0.724838 69:-0.698378 70:-0.944086 71:0.7182 72:-0.857678 73:-0.681193 74:-0.912326 75:0.624265 76:-0.775986 77:-0.6347 78:-0.926939 79:-0.89991 80:-0.724838 81:-0.698378 82:-0.944086 83:0.7182 84:-0.857678 85:-0.681193 86:-0.912326 
0.03125 1:-0.997345 2:-0.970885 3:-0.992427 4:-0.116954 5:0.536495 6:-0.837385 7:0.100126 8:-0.994719 9:-0.999185 10:0.515697 11:-0.268395 12:-0.99936 13:-0.454707 14:-0.999113 15:-1 16:-1 17:-0.963533 18:-0.967934 19:-1 20:-1 21:-0.849215 22:-0.846635 23:-1 24:-1 25:-0.802482 26:-0.922123 27:-1 28:-1 29:-0.740341 30:-0.765287 31:-0.872865 32:-0.954192 33:-1 34:-1 35:-0.993846 36:-1 37:-1 38:-1 39:-1 40:-1 41:-1 42:-1 43:-1 44:-1 45:-1 46:-1 47:-1 48:-1 49:-1 50:-1 51:-1 52:-1 53:-1 54:-1 55:-1 56:-1 57:-1 58:-1 59:-0.186441 60:-0.970169 61:-0.972972 62:-0.980198 63:0.407409 64:-0.697165 65:-0.629627 66:-0.851851 67:-0.89838 68:-0.760871 69:-0.286444 70:0.133788 71:0.285714 72:0.0100987 73:-0.838383 74:-0.822221 75:0.407409 76:-0.697165 77:-0.629627 78:-0.851851 79:-0.89838 80:-0.760871 81:-0.286444 82:0.133788 83:0.285714 84:0.0100987 85:-0.838383 86:-0.822221 
0.03125 1:-0.971588 2:-0.986438 3:-0.996038 4:-0.0650623 5:0.543442 6:-0.921397 7:0.0847465 8:-0.997117 9:-0.998488 10:0.514774 11:-0.268395 12:-0.994537 13:-0.454529 14:-0.994644 15:-0.875908 16:-0.827517 17:-0.878448 18:-0.873086 19:-0.850355 20:-0.895236 21:-1 22:-1 23:-0.847547 24:-0.930873 25:-0.855708 26:-0.926844 27:-1 28:-1 29:-0.771235 30:-0.811091 31:-0.77669 32:-0.929368 33:-0.941233 34:-0.967755 35:-0.996084 36:-0.971831 37:-0.847561 38:-0.785714 39:-0.952663 40:-0.968198 41:-0.995556 42:-0.98452 43:-0.988975 44:-0.990326 45:-1 46:-1 47:-0.934211 48:-1 49:-0.929078 50:-0.95 51:-0.93007 52:-1 53:-0.979381 54:-0.974359 55:-1 56:-0.963636 57:-0.769231 58:-1 59:-1 60:-0.238668 61:-0.444877 62:0.0693069 63:-0.466523 64:0.270533 65:0.203007 66:-0.6792 67:-0.81358 68:0.14351 69:0.0209028 70:-0.294155 71:-0.140709 72:0.288935 73:-0.0813382 74:-0.80752 75:-0.466523 76:0.270533 77:0.203007 78:-0.6792 79:-0.81358 80:0.14351 81:0.0209028 82:-0.294155 83:-0.140709 84:0.288935 85:-0.0813382 86:-0.80752 
0.03125 1:-0.979819 2:-0.984559 3:-0.997198 4:-0.0662073 5:0.538786 6:-0.903835 7:0.0705482 8:-0.99477 9:-0.999186 10:0.514774 11:-0.266994 12:-0.997798 13:-0.454707 14:-0.997736 15:-0.963385 16:-0.991636 17:-0.879704 18:-0.923944 19:-1 20:-1 21:-0.80984 22:-0.891964 23:-0.825176 24:-0.857854 25:-1 26:-1 27:-0.838892 28:-0.894492 29:-1 30:-1 31:-0.806314 32:-0.925354 33:-0.970929 34:-0.982681 35:-0.98993 36:-0.859155 37:-0.97561 38:-0.844156 39:-1 40:-0.982332 41:-0.986667 42:-1 43:-0.997795 44:-0.995163 45:-1 46:-0.992188 47:-0.973684 48:-1 49:-0.985816 50:-1 51:-1 52:-1 53:-0.979381 54:-0.974359 55:-1 56:-0.963636 57:-1 58:-0.909091 59:-0.966102 60:-0.459881 61:-0.719165 62:-0.207921 63:-0.52381 64:0.0153827 65:0.0457533 66:-0.267973 67:-0.812987 68:0.659845 69:-0.172514 70:-0.71989 71:-0.134452 72:0.018587 73:0.140817 74:-0.749018 75:-0.52381 76:0.0153827 77:0.0457533 78:-0.267973 79:-0.812987 80:0.659845 81:-0.172514 82:-0.71989 83:-0.134452 84:0.018587 85:0.140817 86:-0.749018 
0.03125 1:-0.971588 2:-0.990206 3:-0.994147 4:-0.0681141 5:0.546017 6:-0.964466 7:0.087736 8:-0.998282 9:-0.999424 10:0.514774 11:-0.268395 12:-0.998315 13:-0.454707 14:-0.99834 15:-0.961218 16:-0.905185 17:-1 18:-1 19:-0.970348 20:-0.900578 21:-1 22:-1 23:-0.973659 24:-0.884068 25:-1 26:-1 27:-1 28:-1 29:-0.808975 30:-0.910848 31:-1 32:-1 33:-0.915116 34:-0.907321 35:-0.98993 36:-0.95171 37:-0.932927 38:-0.935065 39:-0.988166 40:-0.975265 41:-0.986667 42:-0.962848 43:-0.980154 44:-0.995163 45:-0.994247 46:-0.882812 47:-0.894737 48:-0.947712 49:-0.900709 50:-0.966667 51:-0.986014 52:-0.986842 53:-0.979381 54:-1 55:-1 56:-0.963636 57:-0.923077 58:-1 59:-0.966102 60:-0.125822 61:-0.270176 62:0.207921 63:0.862513 64:-0.918028 65:-0.949873 66:-0.919797 67:-0.964712 68:-0.978424 69:-0.751673 70:-0.4476 71:0.613319 72:-0.765647 73:-0.518796 74:-0.903757 75:0.862513 76:-0.918028 77:-0.949873 78:-0.919797 79:-0.964712 80:-0.978424 81:-0.751673 82:-0.4476 83:0.613319 84:-0.765647 85:-0.518796 86:-0.903757 
0.03125 1:-0.985927 2:-0.981367 3:-0.999771 4:-0.0879109 5:0.542322 6:-0.855507 7:0.0945639 8:-0.995093 9:-0.99872 10:0.514774 11:-0.266994 12:-0.998604 13:-0.454707 14:-0.998416 15:-0.991328 16:-0.986882 17:-1 18:-1 19:-1 20:-1 21:-0.668138 22:-0.769853 23:-1 24:-1 25:-0.727144 26:-0.807807 27:-1 28:-1 29:-0.784669 30:-0.922345 31:-1 32:-1 33:-0.842311 34:-0.949266 35:-0.998322 36:-0.995976 37:-1 38:-0.974026 39:-0.996055 40:-0.992933 41:-1 42:-0.990712 43:-0.984564 44:-0.997582 45:-0.976989 46:-1 47:-0.921053 48:-1 49:-0.971631 50:-0.933333 51:-0.958042 52:-0.894737 53:-1 54:-0.846154 55:-0.880952 56:-0.927273 57:-0.538462 58:-0.818182 59:-1 60:-0.35493 61:-0.134398 62:-0.207921 63:0.575646 64:-0.862003 65:-0.493673 66:-0.864981 67:-0.882832 68:-0.745734 69:-0.489024 70:-0.948335 71:0.576854 72:-0.736971 73:-0.631761 74:-0.75696 75:0.575646 76:-0.862003 77:-0.493673 78:-0.864981 79:-0.882832 80:-0.745734 81:-0.489024 82:-0.948335 83:0.576854 84:-0.736971 85:-0.631761 86:-0.75696 
0.03125 1:-0.986989 2:-0.991263 3:-0.994054 4:-0.0680991 5:0.545739 6:-0.964932 7:0.0873263 8:-0.997439 9:-0.999586 10:0.514774 11:-0.266994 12:-0.998987 13:-0.454707 14:-0.999045 15:-0.982374 16:-0.898211 17:-0.960024 18:-0.95312 19:-0.901658 20:-0.831661 21:-0.966464 22:-0.891361 23:-1 24:-1 25:-0.845581 26:-0.912909 27:-1 28:-1 29:-0.922342 30:-0.936656 31:-1 32:-1 33:-0.99408 34:-0.982896 35:-0.991049 36:-0.959759 37:-0.987805 38:-0.967532 39:-0.99211 40:-0.989399 41:-0.973333 42:-0.987616 43:-0.99559 44:-0.995163 45:-0.982742 46:-0.976562 47:-0.934211 48:-0.986928 49:-0.971631 50:-0.966667 51:-1 52:-1 53:-1 54:-1 55:-1 56:-1 57:-1 58:-1 59:-1 60:-0.112362 61:-0.321753 62:0.326733 63:0.67492 64:-0.927322 65:-0.733333 66:-0.786667 67:-0.876046 68:-0.693912 69:-0.608561 70:-0.94558 71:0.554287 72:-0.653678 73:-0.844847 74:-0.573331 75:0.67492 76:-0.927322 77:-0.733333 78:-0.786667 79:-0.876046 80:-0.693912 81:-0.608561 82:-0.94558 83:0.554287 84:-0.653678 85:-0.844847 86:-0.573331 
0.03125 1:-0.986458 2:-0.981355 3:-0.999776 4:-0.0878102 5:0.542463 6:-0.855298 7:0.0928158 8:-0.99662 9:-0.999018 10:0.514774 11:-0.265592 12:-0.998589 13:-0.454529 14:-0.998446 15:-0.992117 16:-0.987852 17:-1 18:-1 19:-1 20:-1 21:-0.703064 22:-0.825507 23:-1 24:-1 25:-0.750345 26:-0.837384 27:-1 28:-1 29:-0.783495 30:-0.927581 31:-1 32:-1 33:-0.846238 34:-0.91023 35:-0.998322 36:-0.987928 37:-0.969512 38:-1 39:-0.996055 40:-1 41:-0.977778 42:-0.98452 43:-0.982359 44:-0.980653 45:-0.990412 46:-0.96875 47:-0.986842 48:-0.947712 49:-0.971631 50:-0.9 51:-0.874126 52:-0.921053 53:-0.979381 54:-1 55:-1 56:-1 57:-1 58:-1 59:-1 60:-0.313723 61:-0.152351 62:0.00990099 63:0.525047 64:-0.64604 65:-0.65368 66:-0.861472 67:-0.879528 68:-0.739131 69:-0.571072 70:-0.893984 71:0.632654 72:-0.59521 73:-0.773318 74:-0.916883 75:0.525047 76:-0.64604 77:-0.65368 78:-0.861472 79:-0.879528 80:-0.739131 81:-0.571072 82:-0.893984 83:0.632654 84:-0.59521 85:-0.773318 86:-0.916883 
0.03125 1:-0.630112 2:-0.997823 3:-0.999799 4:-0.0841041 5:0.542268 6:-0.981658 7:0.08852 8:-0.996991 9:-0.985878 10:0.515697 11:-0.295025 12:-0.960536 13:-0.453104 14:-0.957983 15:-0.872389 16:-0.949727 17:-0.871251 18:-0.919313 19:-0.882244 20:-0.880078 21:-0.844835 22:-0.917486 23:-0.741563 24:-0.900795 25:-0.740269 26:-0.884419 27:-0.768738 28:-0.915442 29:-0.764451 30:-0.854527 31:-0.73348 32:-0.887484 33:-0.766952 34:-0.903509 35:-0.724755 36:-0.879276 37:-0.890244 38:-0.720779 39:-0.881657 40:-0.770318 41:-0.76 42:-0.95356 43:-0.971334 44:-0.951632 45:-0.948226 46:-0.757812 47:-0.592105 48:-0.411765 49:-0.390071 51:-0.188811 52:-0.184211 53:1 54:0.230769 55:0.833333 56:0.163636 58:-0.181818 59:-0.830508 60:0.347119 61:-0.0711572 62:0.306931 63:-0.340952 64:0.144707 65:-0.133333 66:-0.493333 67:-0.497487 68:-0.0673917 69:0.174312 70:-0.795918 71:-0.17 72:0.402597 73:-0.68 74:-0.2 75:-0.340952 76:0.144707 77:-0.133333 78:-0.493333 79:-0.497487 80:-0.0673917 81:0.174312 82:-0.795918 83:-0.17 84:0.402597 85:-0.68 86:-0.2 
0.03125 1:-0.929634 2:-0.995195 3:-0.999279 4:-0.0874567 5:0.541243 6:-0.961837 7:0.0911924 8:-0.991491 9:-0.992505 10:0.514774 11:-0.266994 12:-0.992576 13:-0.453282 14:-0.991482 15:-0.765945 16:-0.823872 17:-0.939564 18:-0.797962 19:-0.722916 20:-0.885998 21:-0.577921 22:-0.828066 23:-0.945085 24:-0.965476 25:-0.595381 26:-0.830652 27:-0.811877 28:-0.862362 29:-0.846073 30:-0.76878 31:-0.901876 32:-0.981761 33:-0.884324 34:-0.963928 35:-0.941818 36:-0.935614 37:-0.926829 38:-0.954545 39:-0.976331 40:-0.971731 41:-0.946667 42:-0.962848 43:-0.982359 44:-0.975816 45:-0.975072 46:-0.875 47:-0.842105 48:-0.816993 49:-0.929078 50:-0.9 51:-0.804196 52:-0.973684 53:-0.979381 54:-0.974359 55:-0.952381 56:-0.781818 57:-0.769231 58:-1 59:-1 60:0.178483 61:-0.26092 62:0.405941 63:0.222857 64:-0.509411 65:-0.0666667 66:-0.893333 67:-0.839196 68:-0.282609 69:-0.155963 70:-0.734694 71:0.215715 72:-0.298701 73:-0.563636 74:-0.424 75:0.222857 76:-0.509411 77:-0.0666667 78:-0.893333 79:-0.839196 80:-0.282609 81:-0.155963 82:-0.734694 83:0.215715 84:-0.298701 85:-0.563636 86:-0.424 
0.03125 1:-0.991503 2:-0.984065 3:-0.999424 4:-0.0902332 5:0.539973 6:-0.880072 7:0.108782 8:-0.983948 9:-0.998712 10:0.514312 11:-0.266994 12:-0.998013 13:-0.454707 14:-0.997873 15:-0.599161 16:-0.836259 17:-1 18:-1 19:-0.937376 20:-0.925772 21:-1 22:-1 23:-1 24:-1 25:-0.909907 26:-0.865376 27:-1 28:-1 29:-0.872915 30:-0.893634 31:-1 32:-1 33:-0.90682 34:-0.966813 35:-0.997203 36:-0.987928 37:-0.969512 38:-0.967532 39:-0.996055 40:-0.996466 41:-0.977778 42:-0.990712 43:-0.99559 44:-1 45:-0.988495 46:-0.992188 47:-1 48:-1 49:-0.985816 50:-0.983333 51:-0.972028 52:-0.986842 53:-0.979381 54:-0.871795 55:-0.904762 56:-0.963636 57:-0.769231 58:-0.909091 59:-1 60:-0.118579 61:-0.203481 62:-0.0891089 63:0.789821 64:-0.812034 65:-1 66:-1 67:-0.871425 68:-1 69:-0.810187 70:-0.929629 71:0.822661 72:-0.910436 73:-0.899689 74:-0.889658 75:0.789821 76:-0.812034 77:-1 78:-1 79:-0.871425 80:-1 81:-0.810187 82:-0.929629 83:0.822661 84:-0.910436 85:-0.899689 86:-0.889658 
0.03125 1:-0.98752 2:-0.981367 3:-0.999827 4:-0.0872542 5:0.542409 6:-0.856927 7:0.0945353 8:-0.995577 9:-0.999008 10:0.514774 11:-0.261388 12:-0.999045 13:-0.455064 14:-0.9989 15:-0.990812 16:-0.996704 17:-1 18:-1 19:-0.705533 20:-0.805559 21:-1 22:-1 23:-0.72551 24:-0.837054 25:-1 26:-1 27:-1 28:-1 29:-0.756299 30:-0.933709 31:-1 32:-1 33:-0.904862 34:-0.978597 35:-0.998881 36:-0.987928 37:-0.993902 38:-0.993506 39:-0.996055 40:-0.996466 41:-1 42:-0.996904 43:-0.982359 44:-0.995163 45:-0.98466 46:-0.953125 47:-0.960526 48:-0.947712 49:-0.943262 50:-0.816667 51:-0.944056 52:-0.894737 53:-1 54:-0.948718 55:-1 56:-0.963636 57:-0.923077 58:-1 59:-1 60:-0.385329 61:-0.0941755 62:-0.0891089 63:0.415525 64:-0.551972 65:-0.817353 66:-0.634704 67:-0.84484 68:-0.685527 69:-0.245949 70:-0.552698 71:0.330724 72:-0.359543 73:-0.601495 74:-0.649312 75:0.415525 76:-0.551972 77:-0.817353 78:-0.634704 79:-0.84484 80:-0.685527 81:-0.245949 82:-0.552698 83:0.330724 84:-0.359543 85:-0.601495 86:-0.649312 
0.03125 1:-0.893255 2:-0.995521 3:-0.99872 4:-0.0765255 5:0.539442 6:-0.971053 7:0.0744817 8:-0.991808 9:-0.99482 10:0.513389 11:-0.269797 12:-0.979266 13:-0.455064 14:-0.979003 15:-0.932436 16:-0.838236 17:-0.955602 18:-0.844821 19:-0.913223 20:-0.815476 21:-0.953185 22:-0.794327 23:-0.899318 24:-0.786675 25:-0.870813 26:-0.781548 27:-0.859899 28:-0.763802 29:-0.786308 30:-0.764421 31:-0.844013 32:-0.762728 33:-0.859032 34:-0.825962 35:-0.973706 36:-0.939638 37:-0.896341 38:-0.720779 39:-0.786982 40:-0.780919 41:-0.666667 42:-0.928793 43:-0.955899 44:-0.958888 45:-0.990412 46:-0.90625 47:-0.934211 48:-0.934641 49:-0.914894 50:-0.933333 51:-0.916084 52:-0.960526 53:-0.876289 54:-0.948718 55:-1 56:-1 57:-1 58:-1 59:-1 60:-0.158806 61:-0.213506 62:0.584158 63:-0.462857 64:0.417257 65:-0.0333333 66:-0.626667 67:-0.798995 68:0.0186952 69:0.651376 70:-0.77551 71:-0.0542854 72:-0.012987 73:-0.330909 74:-0.36 75:-0.462857 76:0.417257 77:-0.0333333 78:-0.626667 79:-0.798995 80:0.0186952 81:0.651376 82:-0.77551 83:-0.0542854 84:-0.012987 85:-0.330909 86:-0.36 
0.03125 1:-0.921136 2:-0.991707 3:-0.990598 4:-0.0826645 5:0.537025 6:-0.999931 7:0.0840548 8:-0.992802 9:-0.993352 10:0.516159 11:-0.268395 12:-0.986552 13:-0.454707 14:-0.986148 15:-0.727559 16:-0.824753 17:-0.791819 18:-0.829577 19:-0.808198 20:-0.813538 21:-0.902572 22:-0.837106 23:-0.845662 24:-0.685002 25:-0.882372 26:-0.664553 27:-0.869173 28:-0.640997 29:-0.894064 30:-0.631625 31:-0.917751 32:-0.679743 33:-0.893596 34:-0.905142 35:-0.991608 36:-0.919517 37:-0.810976 38:-0.649351 39:-0.861933 40:-0.957597 41:-0.942222 42:-0.941176 43:-0.947078 44:-0.949214 45:-0.955896 46:-0.695312 47:-0.894737 48:-0.973856 49:-0.957447 50:-1 51:-0.986014 52:-0.986842 53:-1 54:-0.974359 55:-1 56:-1 57:-1 58:-1 59:-1 60:0.0391119 61:0.0279475 62:0.980198 63:0.0552381 64:-0.427646 65:-0.1 66:-0.653333 67:-0.869347 68:-0.124783 69:-0.0825688 70:-0.530612 71:0.241429 72:-0.298701 73:-0.330909 74:-0.744 75:0.0552381 76:-0.427646 77:-0.1 78:-0.653333 79:-0.869347 80:-0.124783 81:-0.0825688 82:-0.530612 83:0.241429 84:-0.298701 85:-0.330909 86:-0.744 
0.03125 1:-0.93282 2:-0.994985 3:-0.999273 4:-0.0874675 5:0.54151 6:-0.962655 7:0.0900013 8:-0.994886 9:-0.992113 10:0.514312 11:-0.268395 12:-0.995111 13:-0.454707 14:-0.992858 15:-0.919211 16:-0.9374 17:-0.946218 18:-0.845214 19:-0.734684 20:-0.876572 21:-0.84339 22:-0.927173 23:-0.963355 24:-0.984939 25:-0.587282 26:-0.830519 27:-0.69502 28:-0.876051 29:-0.687696 30:-0.82289 31:-0.87641 32:-0.940117 33:-0.883457 34:-0.961791 35:-0.947413 36:-0.927565 37:-0.945122 38:-0.948052 39:-0.976331 40:-0.929329 41:-0.964444 42:-0.965944 43:-0.993385 44:-0.975816 45:-0.980825 46:-0.9375 47:-0.828947 48:-0.777778 49:-0.900709 50:-0.866667 51:-0.902098 52:-0.894737 53:-0.938144 54:-0.871795 55:-1 56:-1 57:-0.923077 58:-0.727273 59:-0.966102 60:0.234397 61:-0.219785 62:0.445545 63:0.299048 64:-0.127842 65:-0.7 66:-0.893333 67:-0.979899 68:-0.799131 69:0.357798 70:-0.142857 71:0.138572 72:-0.142857 73:-0.301818 74:-0.712 75:0.299048 76:-0.127842 77:-0.7 78:-0.893333 79:-0.979899 80:-0.799131 81:0.357798 82:-0.142857 83:0.138572 84:-0.142857 85:-0.301818 86:-0.712 
0.03125 1:-0.986723 2:-0.981367 3:-0.999805 4:-0.0876066 5:0.542266 6:-0.855967 7:0.0959375 8:-0.99437 9:-0.998507 10:0.514774 11:-0.266994 12:-0.999063 13:-0.454707 14:-0.998761 15:-1 16:-1 17:-1 18:-1 19:-0.660388 20:-0.753674 21:-1 22:-1 23:-0.705024 24:-0.843785 25:-1 26:-1 27:-1 28:-1 29:-0.753804 30:-0.920346 31:-1 32:-1 33:-0.914634 34:-0.955474 35:-0.995524 36:-0.995976 37:-1 38:-0.980519 39:-0.996055 40:-0.996466 41:-1 42:-0.993808 43:-0.997795 44:-0.983071 45:-0.994247 46:-0.96875 47:-0.815789 48:-0.973856 49:-0.971631 50:-0.866667 51:-0.986014 52:-0.986842 53:-0.896907 54:-0.846154 55:-0.97619 56:-0.890909 57:-1 58:-0.909091 59:-1 60:-0.33278 61:-0.185751 62:-0.168317 63:0.639098 64:-0.713104 65:-0.73684 66:-0.929824 67:-0.957154 68:-0.886727 69:-0.275714 70:-0.570355 71:0.458648 72:-0.658239 73:-0.693777 74:-0.494739 75:0.639098 76:-0.713104 77:-0.73684 78:-0.929824 79:-0.957154 80:-0.886727 81:-0.275714 82:-0.570355 83:0.458648 84:-0.658239 85:-0.693777 86:-0.494739 
0.03125 1:-0.929102 2:-0.994899 3:-0.999287 4:-0.0873842 5:0.540431 6:-0.962443 7:0.0943313 8:-0.990727 9:-0.993176 10:0.515235 11:-0.265592 12:-0.992938 13:-0.454707 14:-0.991353 15:-0.874574 16:-0.943982 17:-0.946656 18:-0.957159 19:-0.935416 20:-0.85008 21:-0.743554 22:-0.889488 23:-0.841988 24:-0.906747 25:-0.596156 26:-0.835679 27:-0.881935 28:-0.856013 29:-0.895029 30:-0.864192 31:-0.884837 32:-0.95518 33:-0.877955 34:-0.944141 35:-0.936783 36:-0.919517 37:-0.969512 38:-0.967532 39:-0.99211 40:-0.954064 41:-0.951111 42:-0.978328 43:-0.977949 44:-0.983071 45:-0.988495 46:-0.945312 47:-0.776316 48:-0.869281 49:-0.914894 50:-0.816667 51:-0.86014 52:-0.855263 53:-0.896907 54:-0.897436 55:-0.880952 56:-1 57:-0.846154 58:-0.727273 59:-0.932203 60:0.25981 61:-0.240727 62:0.366337 63:0.253333 64:-0.427646 65:-0.2 66:-0.946667 67:-0.969849 68:-0.713044 69:0.266055 70:-0.183673 71:0.357143 72:-0.0649351 73:-0.621818 74:-1 75:0.253333 76:-0.427646 77:-0.2 78:-0.946667 79:-0.969849 80:-0.713044 81:0.266055 82:-0.183673 83:0.357143 84:-0.0649351 85:-0.621818 86:-1 
0.03125 1:-0.981413 2:-0.991478 3:-0.994043 4:-0.0683782 5:0.552689 6:-0.96612 7:0.0960491 8:-0.988576 9:-0.999017 10:0.514774 11:-0.266994 12:-0.997038 13:-0.454707 14:-0.997018 15:-0.856298 16:-0.950847 17:-1 18:-1 19:-0.971595 20:-0.896637 21:-0.963796 22:-0.960886 23:-0.971866 24:-0.876295 25:-0.966271 26:-0.883354 27:-1 28:-1 29:-0.807407 30:-0.895762 31:-0.944758 32:-0.892921 33:-0.974476 34:-0.965125 35:-0.984895 36:-0.95171 37:-0.987805 38:-0.967532 39:-0.988166 40:-0.982332 41:-0.96 42:-0.987616 43:-0.99118 44:-0.983071 45:-0.99233 46:-0.96875 47:-0.947368 48:-0.960784 49:-1 50:-0.983333 51:-1 52:-1 53:-1 54:-1 55:-0.97619 56:-1 57:-1 58:-1 59:-1 60:-0.000967091 61:-0.309574 62:0.544554 63:0.777777 64:-1 65:-0.791667 66:-0.833333 67:-0.905361 68:-0.701086 69:-1 70:-0.914967 71:0.758929 72:-0.945886 73:-0.87879 74:-0.666669 75:0.777777 76:-1 77:-0.791667 78:-0.833333 79:-0.905361 80:-0.701086 81:-1 82:-0.914967 83:0.758929 84:-0.945886 85:-0.87879 86:-0.666669 
0.03125 1:-0.985927 2:-0.991306 3:-0.994099 4:-0.0681184 5:0.543957 6:-0.964731 7:0.0850487 8:-0.998165 9:-0.999596 10:0.514774 11:-0.266994 12:-0.998764 13:-0.454707 14:-0.998842 15:-0.903068 16:-0.825532 17:-0.973874 18:-0.974632 19:-0.975094 20:-0.923251 21:-0.965128 22:-0.887855 23:-1 24:-1 25:-0.848097 26:-0.915409 27:-1 28:-1 29:-0.938246 30:-0.934415 31:-0.919615 32:-0.924076 33:-0.960622 34:-0.964415 35:-0.994406 36:-0.947686 37:-0.987805 38:-0.961039 39:-0.988166 40:-0.996466 41:-0.991111 42:-0.993808 43:-0.997795 44:-0.997582 45:-0.998082 46:-0.984375 47:-0.960526 48:-0.973856 49:-0.929078 50:-1 51:-0.986014 52:-0.960526 53:-0.938144 54:-0.948718 55:-0.928571 56:-0.854545 57:-1 58:-0.727273 59:-0.830508 60:-0.130378 61:-0.33294 62:-0.207921 63:0.729957 64:-1 65:-0.746833 66:-0.797467 67:-0.908275 68:-0.636765 69:-0.860642 70:-0.638335 71:0.641952 72:-0.934244 73:-0.779055 74:-0.594938 75:0.729957 76:-1 77:-0.746833 78:-0.797467 79:-0.908275 80:-0.636765 81:-0.860642 82:-0.638335 83:0.641952 84:-0.934244 85:-0.779055 86:-0.594938 
0.03125 1:-0.990175 2:-0.980584 3:-0.994603 4:-0.106375 5:0.568708 6:-0.890284 7:0.0230263 8:-0.924532 9:-0.999101 10:0.514774 11:-0.266994 12:-0.999234 13:-0.454707 14:-0.999013 15:-0.863732 16:-0.938885 17:-1 18:-1 19:-1 20:-1 21:-0.743544 22:-0.893367 23:-1 24:-1 25:-1 26:-1 27:-0.745222 28:-0.867505 29:-1 30:-1 31:-1 32:-1 33:-0.913065 34:-0.946412 35:-0.998881 36:-1 37:-0.97561 38:-1 39:-1 40:-0.996466 41:-0.986667 42:-0.987616 43:-0.988975 44:-0.997582 45:-0.990412 46:-0.953125 47:-0.947368 48:-0.921569 49:-0.858156 50:-0.866667 51:-1 52:-0.973684 53:-1 54:-1 55:-1 56:-1 57:-0.923077 58:-1 59:-1 60:-0.373281 61:-0.0523273 62:0.029703 63:0.371127 64:-0.913476 65:-0.4709 66:-0.492064 67:-0.627184 68:-0.498966 69:-0.883501 70:-0.935212 71:0.510205 72:-0.917543 73:-0.630592 74:-0.390477 75:0.371127 76:-0.913476 77:-0.4709 78:-0.492064 79:-0.627184 80:-0.498966 81:-0.883501 82:-0.935212 83:0.510205 84:-0.917543 85:-0.630592 86:-0.390477 
0.03125 1:-0.990441 2:-0.981192 3:-0.999807 4:-0.0874902 5:0.542917 6:-0.856329 7:0.0866844 8:-0.997119 9:-0.999262 10:0.514774 11:-0.266994 12:-0.99911 13:-0.454707 14:-0.999042 15:-0.702405 16:-0.831582 17:-1 18:-1 19:-1 20:-1 21:-0.743422 22:-0.851517 23:-1 24:-1 25:-1 26:-1 27:-0.807009 28:-0.927924 29:-1 30:-1 31:-1 32:-1 33:-0.859237 34:-0.938068 35:-0.997762 36:-0.987928 37:-1 38:-0.993506 39:-0.980276 40:-0.985866 41:-0.964444 42:-0.965944 43:-1 44:-0.990326 45:-0.990412 46:-0.953125 47:-0.921053 48:-0.986928 49:-1 50:-0.966667 51:-1 52:-1 53:-1 54:-1 55:-0.97619 56:-1 57:-1 58:-1 59:-1 60:-0.278224 61:-0.136226 62:0.247525 63:0.360984 64:-0.736243 65:-0.35484 66:-0.741936 67:-0.91279 68:-0.259466 69:-0.585677 70:-0.868335 71:0.460831 72:-0.832426 73:-0.155427 74:-0.896774 75:0.360984 76:-0.736243 77:-0.35484 78:-0.741936 79:-0.91279 80:-0.259466 81:-0.585677 82:-0.868335 83:0.460831 84:-0.832426 85:-0.155427 86:-0.896774 
