svm_type c_svc
kernel_type rbf
gamma 0.0078125
nr_class 2
total_sv 610
rho 0.39542176574468613
label 1 2
probA -7.5561558197743945
probB 0.81263041185445772
nr_sv 305 305
SV
0.125 1:-0.98551 2:-0.987823 3:-0.992418 4:-0.184292 5:0.541891 6:-0.974377 7:0.0669071 8:-0.997789 9:-0.99946 10:0.573064 11:-0.659865 12:-0.999089 13:-0.0911202 14:-0.99915 15:-0.961369 16:-0.845716 17:-0.9735 18:-0.970301 19:-0.977548 20:-0.921994 21:-0.892366 22:-0.904931 23:-0.994046 24:-0.997066 25:-0.819757 26:-0.938139 27:-1 28:-1 29:-0.950653 30:-0.90418 31:-1 32:-1 33:-0.965029 34:-0.973979 35:-0.993065 36:-0.970238 37:-0.943005 38:-0.971671 39:-1 40:-0.983553 41:-0.996575 42:-0.993976 43:-0.997795 44:-0.99455 45:-0.996748 46:-0.985207 47:-0.993399 48:-1 49:-0.99115 50:-0.955556 51:-1 52:-0.986842 53:-0.896907 54:-0.897436 55:-0.97619 56:-0.854545 57:-0.8 58:-1 59:-1 60:-0.0707683 61:-0.376978 
0.125 1:-0.984852 2:-0.987462 3:-0.99244 4:-0.184295 5:0.541144 6:-0.974308 7:0.0659797 8:-0.998328 9:-0.999464 10:0.573064 11:-0.659865 12:-0.999053 13:-0.0911202 14:-0.999105 15:-0.967006 16:-0.8737 17:-0.978912 18:-0.980419 19:-0.975158 20:-0.894316 21:-0.923163 22:-0.884005 23:-1 24:-1 25:-0.836344 26:-0.908912 27:-1 28:-1 29:-0.948642 30:-0.917618 31:-1 32:-1 33:-0.9511 34:-0.942111 35:-0.99003 36:-0.985119 37:-0.963731 38:-0.971671 39:-1 40:-0.983553 41:-0.986301 42:-0.993976 43:-0.997795 44:-0.992734 45:-0.996748 46:-0.988166 47:-1 48:-0.98324 49:-0.973451 50:-0.992593 51:-0.944056 52:-0.986842 53:-1 54:-0.923077 55:-0.928571 56:-0.890909 57:-0.9 58:-0.72093 59:-0.986207 60:-0.0563199 61:-0.374734 
0.125 1:-0.999122 2:-0.886146 3:-0.879105 4:-0.164026 5:0.586358 6:-0.988019 7:0.0736403 8:-0.984447 9:-0.997963 10:0.57333 11:-0.659865 12:-0.998828 13:-0.090899 14:-0.998394 15:-0.976548 16:-0.964528 17:-1 18:-1 19:-1 20:-1 21:-0.9114 22:-0.908859 23:-1 24:-1 25:-1 26:-1 27:-0.523785 28:-0.786599 29:-1 30:-1 31:-1 32:-1 33:-0.468059 34:-0.848038 35:-1 36:-1 37:-0.989637 38:-0.988669 39:-1 40:-1 41:-1 42:-0.997992 43:-1 44:-0.99455 45:-0.995122 46:-0.994083 47:-0.9967 48:-0.988827 49:-0.99115 50:-0.985185 51:-0.972028 52:-1 53:-0.958763 54:-1 55:-1 56:-0.927273 57:-0.95 58:-0.906977 59:-1 60:-0.153018 61:-0.00556864 
0.125 1:-0.921186 2:-0.99463 3:-0.997684 4:-0.201449 5:0.535713 6:-0.983826 7:0.0703156 8:-0.992603 9:-0.993423 10:0.573064 11:-0.659796 12:-0.992992 13:-0.0911202 14:-0.992748 15:-0.864245 16:-0.748451 17:-0.786907 18:-0.768436 19:-0.798176 20:-0.767198 21:-0.800435 22:-0.756404 23:-0.815306 24:-0.874946 25:-0.851836 26:-0.654975 27:-0.859431 28:-0.833561 29:-0.853558 30:-0.896112 31:-0.905262 32:-0.881474 33:-0.921768 34:-0.909952 35:-0.979627 36:-0.872024 37:-0.901554 38:-0.954674 39:-0.946117 40:-0.934211 41:-0.914384 42:-0.971888 43:-0.971334 44:-0.970936 45:-0.969106 46:-0.964497 47:-0.933993 48:-0.949721 49:-0.920354 50:-0.881481 51:-0.818182 52:-0.75 53:-0.85567 54:-0.641026 55:-0.833333 56:-0.745455 57:-0.65 58:-0.906977 59:-1 60:0.153472 61:-0.071225 
0.125 1:-0.987267 2:-0.987607 3:-0.992483 4:-0.184113 5:0.544438 6:-0.973403 7:0.0702334 8:-0.9955 9:-0.999407 10:0.573064 11:-0.659865 12:-0.999344 13:-0.0907885 14:-0.999386 15:-0.967909 16:-0.858397 17:-1 18:-1 19:-0.94209 20:-0.843022 21:-1 22:-1 23:-0.897501 24:-0.903333 25:-1 26:-1 27:-1 28:-1 29:-0.781385 30:-0.84748 31:-1 32:-1 33:-0.942063 34:-0.930441 35:-0.990464 36:-0.985119 37:-0.984456 38:-1 39:-0.990491 40:-0.990132 41:-0.993151 42:-0.987952 43:-0.977949 44:-0.992734 45:-0.995122 46:-0.991124 47:-0.990099 48:-0.977654 49:-0.99115 50:-0.985185 51:-0.944056 52:-1 53:-0.979381 54:-1 55:-0.97619 56:-1 57:-1 58:-1 59:-0.972414 60:-0.113158 61:-0.367219 
0.125 1:-0.99978 2:-0.885785 3:-0.879492 4:-0.163462 5:0.616274 6:-0.98766 7:0.0802819 8:-0.963738 9:-0.998635 10:0.573064 11:-0.659727 12:-0.99911 13:-0.0881345 14:-0.998824 15:-0.912781 16:-0.910409 17:-1 18:-1 19:-1 20:-1 21:-1 22:-1 23:-0.565405 24:-0.80211 25:-1 26:-1 27:-1 28:-1 29:-1 30:-1 31:-1 32:-1 33:-0.49926 34:-0.843324 35:-1 36:-1 37:-0.994819 38:-1 39:-0.99683 40:-0.996711 41:-0.982877 42:-0.997992 43:-0.99559 44:-0.996367 45:-0.998374 46:-0.997041 47:-0.993399 48:-0.988827 49:-0.99115 50:-0.992593 51:-0.986014 52:-1 53:-1 54:-0.974359 55:-0.97619 56:-1 57:-1 58:-0.953488 59:-1 60:-0.220009 61:0.0796859 
0.125 1:-0.920966 2:-0.994622 3:-0.997682 4:-0.201527 5:0.53351 6:-0.98331 7:0.0744859 8:-0.985876 9:-0.993559 10:0.572797 11:-0.659935 12:-0.992373 13:-0.0912308 14:-0.992299 15:-0.888789 16:-0.75768 17:-0.85796 18:-0.929924 19:-0.952607 20:-0.754042 21:-0.799058 22:-0.778301 23:-0.788088 24:-0.757168 25:-0.805887 26:-0.879169 27:-0.849602 28:-0.673704 29:-0.831569 30:-0.862479 31:-0.858073 32:-0.884887 33:-0.912388 34:-0.863936 35:-0.986129 36:-0.866071 37:-0.896373 38:-0.954674 39:-0.955626 40:-0.934211 41:-0.890411 42:-0.961847 43:-0.969129 44:-0.983651 45:-0.970732 46:-0.976331 47:-0.914191 48:-0.944134 49:-0.893805 50:-0.903704 51:-0.706294 52:-0.75 53:-0.731959 54:-0.846154 55:-0.785714 56:-0.6 57:-0.9 58:-0.860465 59:-1 60:0.129072 61:-0.0324366 
0.125 1:-0.893524 2:-0.995872 3:-0.995569 4:-0.193039 5:0.534839 6:-0.99678 7:0.0611012 8:-0.995886 9:-0.995281 10:0.572265 11:-0.660212 12:-0.988557 13:-0.0910096 14:-0.98862 15:-0.940202 16:-0.905247 17:-0.957836 18:-0.893416 19:-0.950362 20:-0.854212 21:-0.939443 22:-0.842974 23:-0.877827 24:-0.827157 25:-0.880884 26:-0.770176 27:-0.906664 28:-0.771145 29:-0.915443 30:-0.733858 31:-0.925833 32:-0.806166 33:-0.892158 34:-0.879303 35:-0.991331 36:-0.967262 37:-0.948187 38:-0.903683 39:-0.955626 40:-0.894737 41:-0.907534 42:-0.953815 43:-0.931643 44:-0.891008 45:-0.918699 46:-0.813609 47:-0.838284 48:-0.72067 49:-0.867257 50:-0.881481 51:-0.776224 52:-0.947368 53:-0.979381 54:-1 55:-1 56:-1 57:-1 58:-1 59:-1 60:-0.171162 61:0.175486 
0.125 1:-0.920088 2:-0.994574 3:-0.997717 4:-0.201561 5:0.534537 6:-0.982967 7:0.072712 8:-0.988834 9:-0.992649 10:0.572265 11:-0.659796 12:-0.993995 13:-0.090899 14:-0.993647 15:-0.872162 16:-0.760403 17:-0.874801 18:-0.768336 19:-0.799756 20:-0.777025 21:-0.803436 22:-0.759338 23:-0.795031 24:-0.855802 25:-0.773597 26:-0.728957 27:-0.826663 28:-0.920778 29:-0.817178 30:-0.915362 31:-0.877635 32:-0.873792 33:-0.917801 34:-0.882993 35:-0.98743 36:-0.877976 37:-0.943005 38:-0.915014 39:-0.952456 40:-0.924342 41:-0.934932 42:-0.961847 43:-0.958104 44:-0.981835 45:-0.970732 46:-0.946746 47:-0.943894 48:-0.932961 49:-0.902655 50:-0.82963 51:-0.804196 52:-0.842105 53:-0.587629 54:-0.589744 55:-0.547619 56:-0.927273 57:-0.85 58:-0.906977 59:-1 60:0.112429 61:0.00753667 
0.125 1:-0.950823 2:-0.989639 3:-0.993905 4:-0.206495 5:0.548729 6:-0.976056 7:0.050966 8:-0.987218 9:-0.995296 10:0.57333 11:-0.659588 12:-0.989812 13:-0.0906779 14:-0.989816 15:-0.772624 16:-0.822858 17:-0.784759 18:-0.855043 19:-0.80555 20:-0.882812 21:-0.821794 22:-0.918107 23:-0.890143 24:-0.981308 25:-0.862057 26:-0.947314 27:-0.782795 28:-0.914635 29:-0.719009 30:-0.887077 31:-0.764982 32:-0.891637 33:-0.94398 34:-0.904634 35:-0.992631 36:-0.979167 37:-1 38:-0.954674 39:-0.980983 40:-0.967105 41:-0.962329 42:-0.973896 43:-0.973539 44:-0.976385 45:-0.954472 46:-0.920118 47:-0.924092 48:-0.916201 49:-0.840708 50:-0.896296 51:-0.86014 52:-0.973684 53:-0.979381 54:-0.794872 55:-0.952381 56:-1 57:-0.9 58:-0.953488 59:-1 60:-0.0531094 61:0.158187 
0.125 1:-0.987267 2:-0.974436 3:-0.999699 4:-0.2007 5:0.537851 6:-0.893421 7:0.0846544 8:-0.990307 9:-0.99802 10:0.573064 11:-0.659865 12:-0.998578 13:-0.0912308 14:-0.998362 15:-0.952995 16:-0.969433 17:-0.963582 18:-0.987437 19:-1 20:-1 21:-0.740523 22:-0.788524 23:-0.825997 24:-0.816323 25:-1 26:-1 27:-0.805329 28:-0.893569 29:-1 30:-1 31:-0.889716 32:-0.91726 33:-0.988108 34:-0.995497 35:-0.999567 36:-0.994048 37:-1 38:-0.983003 39:-0.993661 40:-0.996711 41:-0.989726 42:-0.98996 43:-0.997795 44:-0.996367 45:-0.995122 46:-0.988166 47:-0.960396 48:-0.98324 49:-0.929204 50:-0.955556 51:-0.958042 52:-0.986842 53:-0.917526 54:-0.820513 55:-0.809524 56:-0.963636 57:-0.9 58:-1 59:-1 60:-0.389115 61:-0.130145 
0.125 1:-0.912843 2:-0.994646 3:-0.997639 4:-0.201507 5:0.534403 6:-0.983705 7:0.0726584 8:-0.987857 9:-0.992142 10:0.573596 11:-0.659935 12:-0.990834 13:-0.0915625 14:-0.990953 15:-0.887468 16:-0.755551 17:-0.746768 18:-0.772108 19:-0.798097 20:-0.770331 21:-0.800897 22:-0.760421 23:-0.809061 24:-0.877571 25:-0.808796 26:-0.664892 27:-0.786325 28:-0.886566 29:-0.781991 30:-0.896249 31:-0.953018 32:-0.86749 33:-0.928017 34:-0.915355 35:-0.979194 36:-0.869048 37:-0.818653 38:-0.96034 39:-0.946117 40:-0.914474 41:-0.890411 42:-0.965863 43:-0.953693 44:-0.983651 45:-0.982114 46:-0.931953 47:-0.943894 48:-0.916201 49:-0.929204 50:-0.82963 51:-0.762238 52:-0.894737 53:-0.731959 54:-0.487179 55:-0.833333 56:-0.963636 57:-1 58:-0.953488 59:-0.986207 60:0.125981 61:-0.0917421 
0.125 1:-0.986828 2:-0.988794 3:-0.992173 4:-0.183936 5:0.54231 6:-0.973679 7:0.0674188 8:-0.996835 9:-0.99923 10:0.573064 11:-0.659865 12:-0.99919 13:-0.0911202 14:-0.999216 15:-0.892217 16:-0.814213 17:-0.939222 18:-0.915602 19:-0.946116 20:-0.914847 21:-0.925907 22:-0.93722 23:-1 24:-1 25:-0.839958 26:-0.89989 27:-1 28:-1 29:-0.950714 30:-0.899503 31:-1 32:-1 33:-0.99138 34:-0.996735 35:-0.995232 36:-0.964286 37:-0.963731 38:-0.971671 39:-0.990491 40:-0.993421 41:-0.993151 42:-0.995984 43:-0.997795 44:-0.996367 45:-1 46:-0.991124 47:-0.990099 48:-0.988827 49:-0.946903 50:-0.955556 51:-1 52:-0.960526 53:-0.896907 54:-0.948718 55:-0.928571 56:-0.927273 57:-0.9 58:-1 59:-1 60:-0.0751518 61:-0.328228 
0.125 1:-0.988145 2:-0.974436 3:-0.999713 4:-0.200676 5:0.53785 6:-0.893182 7:0.0848309 8:-0.989993 9:-0.998279 10:0.573064 11:-0.659865 12:-0.998834 13:-0.0911202 14:-0.998675 15:-0.95944 16:-0.979654 17:-0.983773 18:-0.991698 19:-1 20:-1 21:-0.752645 22:-0.786133 23:-1 24:-1 25:-0.810032 26:-0.808074 27:-1 28:-1 29:-0.804004 30:-0.863165 31:-1 32:-1 33:-0.902397 34:-0.9325 35:-1 36:-0.997024 37:-0.989637 38:-1 39:-0.99683 40:-0.993421 41:-0.989726 42:-0.991968 43:-0.993385 44:-0.998183 45:-0.998374 46:-0.97929 47:-0.970297 48:-0.972067 49:-0.973451 50:-0.962963 51:-0.93007 52:-0.960526 53:-0.958763 54:-0.974359 55:-0.928571 56:-0.890909 57:-0.45 58:-0.953488 59:-0.972414 60:-0.447765 61:-0.0984828 
0.125 1:-0.993633 2:-0.953703 3:-0.957556 4:-0.221953 5:0.55348 6:-0.978876 7:0.056956 8:-0.993607 9:-0.999414 10:0.574927 11:-0.660074 12:-0.998634 13:-0.0911202 14:-0.998723 15:-0.997268 16:-0.98882 17:-0.946817 18:-0.848346 19:-1 20:-1 21:-0.955378 22:-0.859353 23:-1 24:-1 25:-0.939251 26:-0.819075 27:-1 28:-1 29:-0.878357 30:-0.882798 31:-1 32:-1 33:-0.964037 34:-0.917201 35:-0.999133 36:-1 37:-0.994819 38:-1 39:-1 40:-0.960526 41:-0.993151 42:-0.991968 43:-0.997795 44:-0.996367 45:-0.993496 46:-0.994083 47:-0.9967 48:-1 49:-0.982301 50:-0.992593 51:-0.986014 52:-0.973684 53:-0.917526 54:-0.897436 55:-0.857143 56:-1 57:-1 58:-1 59:-0.972414 60:-0.469093 61:-0.262786 
0.125 1:-0.916136 2:-0.994598 3:-0.997647 4:-0.201531 5:0.533981 6:-0.983515 7:0.0734895 8:-0.986813 9:-0.992782 10:0.572797 11:-0.659935 12:-0.991406 13:-0.0911202 14:-0.991511 15:-0.774461 16:-0.748917 17:-0.865395 18:-0.758964 19:-0.794971 20:-0.763004 21:-0.802826 22:-0.761686 23:-0.810599 24:-0.881962 25:-0.8013 26:-0.680104 27:-0.794102 28:-0.881967 29:-0.78375 30:-0.897038 31:-0.936749 32:-0.872496 33:-0.933972 34:-0.923565 35:-0.981361 36:-0.883929 37:-0.875648 38:-0.926346 39:-0.933439 40:-0.9375 41:-0.921233 42:-0.955823 43:-0.964719 44:-0.976385 45:-0.970732 46:-0.973373 47:-0.940594 48:-0.944134 49:-0.823009 50:-0.866667 51:-0.762238 52:-0.802632 53:-0.773196 54:-0.794872 55:-0.666667 56:-0.745455 57:-0.8 58:-0.813953 59:-1 60:0.143369 61:-0.0528747 
0.125 1:-0.993633 2:-0.970228 3:-0.981514 4:-0.225808 5:0.5504 6:-0.935673 7:0.0497041 8:-0.992123 9:-0.999267 10:0.573064 11:-0.659935 12:-0.998603 13:-0.0911202 14:-0.998657 15:-0.934486 16:-0.837471 17:-1 18:-1 19:-0.732487 20:-0.830904 21:-1 22:-1 23:-0.952112 24:-0.876694 25:-1 26:-1 27:-1 28:-1 29:-0.911502 30:-0.84538 31:-1 32:-1 33:-0.922911 34:-0.948499 35:-0.996966 36:-0.997024 37:-0.979275 38:-0.988669 39:-1 40:-0.983553 41:-0.989726 42:-0.995984 43:-0.988975 44:-0.996367 45:-0.993496 46:-0.994083 47:-0.9967 48:-0.988827 49:-0.99115 50:-0.985185 51:-0.986014 52:-0.947368 53:-0.958763 54:-1 55:-1 56:-0.963636 57:-1 58:-0.953488 59:-0.986207 60:-0.100629 61:-0.242823 
0.125 1:-0.987267 2:-0.977352 3:-0.999326 4:-0.189853 5:0.519771 6:-0.910995 7:-0.0948909 8:-0.569038 9:-0.998334 10:0.573064 11:-0.660004 12:-0.99866 13:-0.0915625 14:-0.998344 15:-0.700232 16:-0.95603 17:-1 18:-1 19:-0.738767 20:-0.897235 21:-1 22:-1 23:-0.741026 24:-0.898338 25:-1 26:-1 27:-1 28:-1 29:-0.746867 30:-0.911961 31:-1 32:-1 33:-0.7416 34:-0.943606 35:-0.992198 36:-0.967262 37:-0.984456 38:-0.966006 39:-0.987322 40:-0.996711 41:-0.979452 42:-0.997992 43:-0.99559 44:-0.996367 45:-0.998374 46:-0.994083 47:-0.993399 48:-0.994413 49:-0.982301 50:-0.962963 51:-0.986014 52:-0.986842 53:-0.979381 54:-0.897436 55:-0.952381 56:-1 57:-0.85 58:-0.953488 59:-0.972414 60:0.0187751 61:-0.338825 
0.125 1:-0.986608 2:-0.974401 3:-0.999681 4:-0.200954 5:0.538184 6:-0.892731 7:0.0792166 8:-0.992441 9:-0.997909 10:0.573064 11:-0.659865 12:-0.99869 13:-0.0910096 14:-0.998489 15:-0.967001 16:-0.986624 17:-0.97397 18:-0.993271 19:-1 20:-1 21:-0.740501 22:-0.790334 23:-1 24:-1 25:-0.809585 26:-0.822587 27:-1 28:-1 29:-0.753946 30:-0.864075 31:-1 32:-1 33:-0.869475 34:-0.925591 35:-1 36:-1 37:-0.994819 38:-0.994334 39:-1 40:-0.983553 41:-1 42:-0.991968 43:-0.993385 44:-0.996367 45:-0.996748 46:-0.991124 47:-0.950495 48:-0.977654 49:-0.964602 50:-0.948148 51:-0.972028 52:-0.947368 53:-0.979381 54:-0.948718 55:-0.857143 56:-0.818182 57:-0.55 58:-0.813953 59:-0.986207 60:-0.464054 61:-0.0896434 
0.125 1:-0.920966 2:-0.99463 3:-0.99761 4:-0.201516 5:0.535323 6:-0.983988 7:0.0708585 8:-0.99061 9:-0.993047 10:0.573596 11:-0.659727 12:-0.993411 13:-0.090899 14:-0.993398 15:-0.868643 16:-0.766027 17:-0.788298 18:-0.770352 19:-0.777694 20:-0.770723 21:-0.794291 22:-0.759452 23:-0.819448 24:-0.862756 25:-0.796643 26:-0.673706 27:-0.789748 28:-0.871607 29:-0.787346 30:-0.893831 31:-0.932572 32:-0.878303 33:-0.932353 34:-0.90135 35:-0.986129 36:-0.886905 37:-0.875648 38:-0.932011 39:-0.946117 40:-0.940789 41:-0.910959 42:-0.973896 43:-0.953693 44:-0.978202 45:-0.969106 46:-0.97929 47:-0.950495 48:-0.949721 49:-0.902655 50:-0.851852 51:-0.762238 52:-0.723684 53:-0.835052 54:-0.666667 55:-0.714286 56:-0.418182 57:-0.95 58:-0.953488 59:-0.986207 60:0.16182 61:-0.0063467 
0.125 1:-0.981778 2:-0.97078 3:-0.973301 4:-0.213983 5:0.537935 6:-0.983985 7:0.0644719 8:-0.997667 9:-0.998345 10:0.57333 11:-0.659865 12:-0.997934 13:-0.0911202 14:-0.997844 15:-0.913441 16:-0.950291 17:-0.964082 18:-0.953398 19:-0.893309 20:-0.837176 21:-0.996989 22:-0.978003 23:-0.902816 24:-0.837076 25:-0.837528 26:-0.755128 27:-1 28:-1 29:-0.93608 30:-0.761425 31:-1 32:-1 33:-0.953309 34:-0.911448 35:-0.992631 36:-0.824405 37:-0.989637 38:-0.971671 39:-0.99683 40:-0.973684 41:-0.996575 42:-0.997992 43:-1 44:-1 45:-0.996748 46:-0.994083 47:-1 48:-0.994413 49:-1 50:-0.992593 51:-0.958042 52:-0.986842 53:-0.979381 54:-1 55:-0.97619 56:-0.963636 57:-1 58:-1 59:-1 60:-0.467952 61:-0.770776 
0.125 1:-0.669813 2:-0.999141 3:-0.998688 4:-0.195516 5:0.539984 6:-0.99939 7:0.0640144 8:-0.99839 9:-0.975743 10:0.572265 11:-0.660212 12:-0.985716 13:-0.090899 14:-0.981914 15:-0.874746 16:-0.846898 17:-0.803142 18:-0.783431 19:-0.839625 20:-0.77456 21:-0.815316 22:-0.788515 23:-0.809231 24:-0.760083 25:-0.797504 26:-0.755626 27:-0.826935 28:-0.760233 29:-0.811606 30:-0.732616 31:-0.817614 32:-0.722816 33:-0.852308 34:-0.711322 35:-0.985262 36:-0.943452 37:-0.943005 38:-0.864023 39:-0.933439 40:-0.934211 41:-0.681507 42:-0.861446 43:-0.828004 44:-0.756585 45:-0.793496 46:-0.292899 47:-0.155116 48:-0.268156 49:-0.221239 50:-0.62963 51:-0.552448 52:-0.565789 53:-0.278351 54:-0.512821 55:-0.666667 56:-1 57:-0.95 58:-1 59:-1 60:-0.190667 61:0.365779 
0.125 1:-0.917234 2:-0.99463 3:-0.997604 4:-0.201501 5:0.535479 6:-0.984071 7:0.0705652 8:-0.991029 9:-0.992649 10:0.574661 11:-0.659796 12:-0.992551 13:-0.0905673 14:-0.992541 15:-0.779994 16:-0.767011 17:-0.783423 18:-0.770615 19:-0.792344 20:-0.77304 21:-0.796508 22:-0.759567 23:-0.82048 24:-0.874196 25:-0.791596 26:-0.664776 27:-0.793149 28:-0.865937 29:-0.78642 30:-0.891224 31:-0.941947 32:-0.873229 33:-0.925317 34:-0.901209 35:-0.982228 36:-0.869048 37:-0.906736 38:-0.926346 39:-0.958796 40:-0.947368 41:-0.914384 42:-0.955823 43:-0.966924 44:-0.963669 45:-0.977236 46:-0.973373 47:-0.947195 48:-0.938547 49:-0.920354 50:-0.82963 51:-0.748252 52:-0.75 53:-0.690722 54:-0.846154 55:-0.809524 56:-0.272727 57:-0.7 58:-1 59:-1 60:0.178019 61:-0.0163222 
0.125 1:-0.999341 2:-0.960799 3:-0.966822 4:-0.221223 5:0.533973 6:-0.974542 7:0.066927 8:-0.998554 9:-0.99992 10:0.573064 11:-0.659865 12:-0.999738 13:-0.0911202 14:-0.999762 15:-0.983446 16:-0.913655 17:-1 18:-1 19:-1 20:-1 21:-0.937849 22:-0.900392 23:-1 24:-1 25:-1 26:-1 27:-0.934738 28:-0.891209 29:-1 30:-1 31:-1 32:-1 33:-0.985827 34:-0.952494 35:-1 36:-1 37:-0.968912 38:-1 39:-1 40:-0.963816 41:-1 42:-0.993976 43:-1 44:-1 45:-1 46:-1 47:-0.9967 48:-1 49:-1 50:-0.992593 51:-1 52:-0.960526 53:-1 54:-1 55:-1 56:-1 57:-0.9 58:-1 59:-1 60:-0.820888 61:-0.835524 
0.125 1:-0.986169 2:-0.986985 3:-0.988478 4:-0.187901 5:0.543509 6:-0.991769 7:0.0661244 8:-0.99866 9:-0.999669 10:0.573064 11:-0.659865 12:-0.998363 13:-0.0911202 14:-0.998449 15:-0.936546 16:-0.973125 17:-0.98766 18:-0.961342 19:-0.939259 20:-0.878678 21:-0.945703 22:-0.894382 23:-1 24:-1 25:-0.93126 26:-0.951943 27:-0.926269 28:-0.925386 29:-0.918709 30:-0.949027 31:-0.967983 32:-0.913457 33:-0.983569 34:-0.897195 35:-1 36:-0.997024 37:-0.984456 38:-0.988669 39:-0.987322 40:-0.990132 41:-0.982877 42:-0.959839 43:-0.975744 44:-0.998183 45:-0.964228 46:-0.997041 47:-0.990099 48:-1 49:-0.982301 50:-0.97037 51:-0.972028 52:-1 53:-0.979381 54:-1 55:-1 56:-0.963636 57:-1 58:-1 59:-0.986207 60:-0.606199 61:-0.473385 
0.125 1:-0.964215 2:-0.980412 3:-0.986432 4:-0.214563 5:0.52114 6:-0.966388 7:0.0831871 8:-0.971383 9:-0.993857 10:0.572797 11:-0.659796 12:-0.99672 13:-0.0910096 14:-0.99692 15:-0.771272 16:-0.635107 17:-1 18:-1 19:-0.74254 20:-0.745926 21:-0.948432 22:-0.93 23:-1 24:-1 25:-0.712811 26:-0.747933 27:-1 28:-1 29:-0.880914 30:-0.851705 31:-1 32:-1 33:-0.764719 34:-0.917154 35:-0.994365 36:-0.97619 37:-0.92228 38:-0.898017 39:-0.974643 40:-0.973684 41:-0.989726 42:-0.981928 43:-0.977949 44:-0.976385 45:-0.973984 46:-0.973373 47:-0.976898 48:-0.910615 49:-0.938053 50:-0.962963 51:-0.944056 52:-0.907895 53:-0.938144 54:-0.897436 55:-1 56:-0.963636 57:-0.85 58:-1 59:-1 60:-0.251669 61:-0.305722 
0.125 1:-0.986608 2:-0.974436 3:-0.99972 4:-0.20076 5:0.538518 6:-0.892537 7:0.0752678 8:-0.99368 9:-0.997875 10:0.573064 11:-0.659865 12:-0.998998 13:-0.0911202 14:-0.99878 15:-0.960787 16:-0.962536 17:-1 18:-1 19:-0.735701 20:-0.785697 21:-1 22:-1 23:-0.727697 24:-0.803495 25:-1 26:-1 27:-1 28:-1 29:-0.765304 30:-0.862279 31:-1 32:-1 33:-0.85571 34:-0.94197 35:-0.9987 36:-1 37:-0.968912 38:-0.994334 39:-1 40:-0.996711 41:-0.993151 42:-0.995984 43:-0.99118 44:-0.99455 45:-0.995122 46:-0.991124 47:-0.990099 48:-0.916201 49:-0.99115 50:-0.955556 51:-1 52:-0.960526 53:-0.938144 54:-0.897436 55:-0.857143 56:-0.672727 57:-0.75 58:-1 59:-0.972414 60:-0.377903 61:-0.157965 
0.125 1:-0.985291 2:-0.987966 3:-0.992397 4:-0.184373 5:0.540625 6:-0.974766 7:0.0653092 8:-0.998025 9:-0.999141 10:0.573064 11:-0.659865 12:-0.99902 13:-0.0911202 14:-0.99901 15:-0.944037 16:-0.830944 17:-1 18:-1 19:-0.946972 20:-0.815687 21:-0.97413 22:-0.972466 23:-0.930576 24:-0.848644 25:-0.916028 26:-0.945667 27:-0.942347 28:-0.969781 29:-0.926246 30:-0.955105 31:-0.934558 32:-0.913857 33:-0.940718 34:-0.943989 35:-0.989597 36:-0.97619 37:-0.984456 38:-0.966006 39:-0.987322 40:-0.993421 41:-0.982877 42:-0.997992 43:-0.993385 44:-0.992734 45:-0.995122 46:-0.991124 47:-0.993399 48:-0.972067 49:-0.973451 50:-0.985185 51:-0.93007 52:-1 53:-0.979381 54:-0.974359 55:-0.952381 56:-0.927273 57:-0.9 58:-1 59:-1 60:-0.0441582 61:-0.361695 
0.125 1:-0.968825 2:-0.988037 3:-0.989519 4:-0.187968 5:0.547151 6:-0.991088 7:0.0686247 8:-0.99537 9:-0.998905 10:0.572531 11:-0.659865 12:-0.997238 13:-0.0928895 14:-0.99727 15:-0.981714 16:-0.957676 17:-0.930729 18:-0.955323 19:-0.909938 20:-0.859357 21:-0.911979 22:-0.840728 23:-0.954871 24:-0.85915 25:-1 26:-1 27:-0.950079 28:-0.805712 29:-0.895169 30:-0.82214 31:-0.947939 32:-0.862659 33:-0.969817 34:-0.917744 35:-0.992198 36:-0.982143 37:-0.984456 38:-0.96034 39:-0.977813 40:-0.950658 41:-0.917808 42:-0.959839 43:-0.940463 44:-0.987284 45:-0.988618 46:-0.982249 47:-0.990099 48:-0.988827 49:-0.973451 50:-0.985185 51:-0.972028 52:-0.986842 53:-1 54:-0.974359 55:-0.97619 56:-0.927273 57:-0.95 58:-1 59:-0.986207 60:-0.495449 61:-0.518208 
0.125 1:-0.985291 2:-0.987954 3:-0.992391 4:-0.184362 5:0.540852 6:-0.974746 7:0.0655903 8:-0.997823 9:-0.999119 10:0.573064 11:-0.659865 12:-0.999042 13:-0.0911202 14:-0.999033 15:-0.948347 16:-0.841179 17:-1 18:-1 19:-0.946194 20:-0.812887 21:-1 22:-1 23:-0.918394 24:-0.81069 25:-0.966657 26:-0.970456 27:-0.854573 28:-0.913463 29:-0.956286 30:-0.948605 31:-0.93536 32:-0.908461 33:-0.947525 34:-0.955612 35:-0.992631 36:-0.967262 37:-0.979275 38:-0.966006 39:-0.990491 40:-0.986842 41:-0.989726 42:-0.98996 43:-1 44:-0.998183 45:-0.996748 46:-0.985207 47:-1 48:-0.96648 49:-0.982301 50:-0.955556 51:-0.986014 52:-0.986842 53:-0.938144 54:-0.897436 55:-1 56:-0.927273 57:-0.9 58:-0.860465 59:-1 60:-0.0510772 61:-0.352331 
0.125 1:-0.987706 2:-0.974401 3:-0.999723 4:-0.200744 5:0.538608 6:-0.892413 7:0.0740759 8:-0.994303 9:-0.998126 10:0.573064 11:-0.659865 12:-0.999094 13:-0.0911202 14:-0.998907 15:-0.972348 16:-0.983692 17:-1 18:-1 19:-0.735735 20:-0.790267 21:-1 22:-1 23:-0.75986 24:-0.797646 25:-1 26:-1 27:-1 28:-1 29:-0.764062 30:-0.860344 31:-1 32:-1 33:-0.867753 34:-0.940214 35:-0.999567 36:-1 37:-0.979275 38:-1 39:-0.987322 40:-0.996711 41:-0.996575 42:-0.995984 43:-0.993385 44:-0.99455 45:-0.993496 46:-0.994083 47:-0.990099 48:-0.910615 49:-0.99115 50:-0.977778 51:-1 52:-0.934211 53:-0.958763 54:-0.948718 55:-0.857143 56:-0.709091 57:-0.7 58:-1 59:-0.958621 60:-0.391516 61:-0.138016 
0.125 1:-0.974314 2:-0.977931 3:-0.977488 4:-0.18786 5:0.548207 6:-0.995707 7:0.0663492 8:-0.996662 9:-0.998021 10:0.572797 11:-0.659865 12:-0.9961 13:-0.0911202 14:-0.995983 15:-0.924536 16:-0.771948 17:-0.894177 18:-0.831465 19:-0.88532 20:-0.833733 21:-1 22:-1 23:-0.869103 24:-0.772725 25:-0.927215 26:-0.781989 27:-1 28:-1 29:-0.885303 30:-0.774971 31:-0.981341 32:-0.898677 33:-0.986612 34:-0.967927 35:-0.997399 36:-1 37:-0.979275 38:-1 39:-0.990491 40:-0.990132 41:-0.94863 42:-0.991968 43:-0.964719 44:-0.990917 45:-0.965854 46:-0.952663 47:-0.980198 48:-0.955307 49:-0.946903 50:-0.955556 51:-0.916084 52:-0.960526 53:-0.979381 54:-0.974359 55:-1 56:-0.854545 57:-0.85 58:-0.953488 59:-0.958621 60:-0.364524 61:-0.171604 
0.125 1:-0.98112 2:-0.975707 3:-0.976289 4:-0.206287 5:0.527603 6:-0.994226 7:0.0676656 8:-0.994823 9:-0.998989 10:0.573064 11:-0.659865 12:-0.99776 13:-0.0911202 14:-0.997778 15:-0.934565 16:-0.885044 17:-0.97319 18:-0.880954 19:-1 20:-1 21:-0.927493 22:-0.824102 23:-1 24:-1 25:-0.936844 26:-0.822126 27:-0.944103 28:-0.762222 29:-1 30:-1 31:-0.912501 32:-0.846857 33:-0.965826 34:-0.940575 35:-0.998266 36:-0.991071 37:-0.979275 38:-1 39:-0.987322 40:-0.976974 41:-0.993151 42:-1 43:-0.988975 44:-0.983651 45:-1 46:-0.991124 47:-0.937294 48:-0.988827 49:-1 50:-0.896296 51:-0.846154 52:-1 53:-0.793814 54:-0.820513 55:-0.952381 56:-1 57:-0.8 58:-1 59:-1 60:-0.722033 61:-0.663675 
0.125 1:-0.978046 2:-0.981114 3:-0.999175 4:-0.203135 5:0.535674 6:-0.916956 7:0.0895601 8:-0.977454 9:-0.995156 10:0.573064 11:-0.659727 12:-0.99736 13:-0.0907885 14:-0.997196 15:-0.649187 16:-0.825335 17:-1 18:-1 19:-0.710934 20:-0.642992 21:-1 22:-1 23:-0.764017 24:-0.620703 25:-1 26:-1 27:-0.845489 28:-0.927107 29:-1 30:-1 31:-0.946251 32:-0.950825 33:-1 34:-1 35:-0.996532 36:-0.991071 37:-0.974093 38:-0.988669 39:-0.993661 40:-0.993421 41:-0.989726 42:-0.98996 43:-0.99559 44:-0.969119 45:-0.993496 46:-0.982249 47:-0.933993 48:-0.905028 49:-0.946903 50:-0.955556 51:-0.944056 52:-0.973684 53:-0.938144 54:-0.871795 55:-1 56:-0.927273 57:-1 58:-1 59:-1 60:-0.250651 61:-0.062839 
0.125 1:-0.988804 2:-0.974333 3:-0.999734 4:-0.200662 5:0.538551 6:-0.892622 7:0.07505 8:-0.99279 9:-0.998236 10:0.573064 11:-0.659865 12:-0.999149 13:-0.0911202 14:-0.999045 15:-0.983257 16:-0.99633 17:-1 18:-1 19:-0.744002 20:-0.792667 21:-1 22:-1 23:-0.714617 24:-0.816664 25:-1 26:-1 27:-1 28:-1 29:-0.789103 30:-0.827752 31:-1 32:-1 33:-0.871379 34:-0.928304 35:-1 36:-1 37:-0.984456 38:-0.983003 39:-0.99683 40:-0.993421 41:-0.989726 42:-0.993976 43:-0.997795 44:-0.996367 45:-0.998374 46:-0.988166 47:-0.976898 48:-0.938547 49:-0.982301 50:-0.962963 51:-1 52:-0.973684 53:-0.876289 54:-0.948718 55:-0.928571 56:-0.890909 57:-0.45 58:-1 59:-1 60:-0.411119 61:-0.153336 
0.125 1:-0.98595 2:-0.98806 3:-0.992539 4:-0.184705 5:0.542553 6:-0.975724 7:0.0676553 8:-0.997494 9:-0.999132 10:0.573064 11:-0.659865 12:-0.999228 13:-0.0911202 14:-0.999172 15:-0.956559 16:-0.839611 17:-1 18:-1 19:-0.944754 20:-0.811186 21:-1 22:-1 23:-0.896042 24:-0.789099 25:-1 26:-1 27:-0.840062 28:-0.843899 29:-0.947226 30:-0.910889 31:-1 32:-1 33:-0.977602 34:-0.975132 35:-0.991764 36:-0.97619 37:-0.974093 38:-0.971671 39:-0.984152 40:-0.980263 41:-0.996575 42:-0.993976 43:-0.997795 44:-0.987284 45:-0.998374 46:-0.994083 47:-0.983498 48:-0.960894 49:-1 50:-0.955556 51:-1 52:-0.986842 53:-0.979381 54:-0.948718 55:-0.97619 56:-1 57:-1 58:-0.906977 59:-1 60:-0.0715032 61:-0.353878 
0.125 1:-0.98551 2:-0.987966 3:-0.992262 4:-0.184074 5:0.54018 6:-0.973939 7:0.0647662 8:-0.998526 9:-0.999377 10:0.573064 11:-0.659865 12:-0.998946 13:-0.0911202 14:-0.99898 15:-0.957853 16:-0.843222 17:-0.991474 18:-0.989886 19:-0.950878 20:-0.845868 21:-0.970057 22:-0.880661 23:-1 24:-1 25:-0.847971 26:-0.920816 27:-1 28:-1 29:-0.956177 30:-0.904457 31:-1 32:-1 33:-0.924108 34:-0.928237 35:-0.992198 36:-0.970238 37:-0.968912 38:-0.96034 39:-0.993661 40:-0.993421 41:-0.989726 42:-0.991968 43:-0.99559 44:-1 45:-0.998374 46:-0.988166 47:-1 48:-0.994413 49:-0.99115 50:-0.962963 51:-0.958042 52:-0.960526 53:-0.979381 54:-0.846154 55:-1 56:-0.927273 57:-0.9 58:-0.72093 59:-0.986207 60:-0.0475584 61:-0.360518 
0.125 1:-0.974973 2:-0.981114 3:-0.999147 4:-0.203282 5:0.534193 6:-0.916523 7:0.0993724 8:-0.965744 9:-0.993055 10:0.572531 11:-0.659865 12:-0.997094 13:-0.0912308 14:-0.99653 15:-0.749511 16:-0.877494 17:-0.967922 18:-0.983207 19:-0.739817 20:-0.923667 21:-1 22:-1 23:-0.705337 24:-0.641173 25:-1 26:-1 27:-0.748433 28:-0.585536 29:-1 30:-1 31:-0.816345 32:-0.913716 33:-0.942128 34:-0.967058 35:-0.996099 36:-0.991071 37:-0.974093 38:-0.977337 39:-0.984152 40:-0.996711 41:-0.976027 42:-0.985944 43:-1 44:-0.965486 45:-0.990244 46:-0.994083 47:-0.927393 48:-0.927374 49:-0.911504 50:-0.948148 51:-0.944056 52:-0.973684 53:-0.835052 54:-0.974359 55:-0.97619 56:-0.963636 57:-1 58:-0.953488 59:-1 60:-0.233927 61:-0.088139 
0.125 1:-0.984413 2:-0.974401 3:-0.999668 4:-0.201014 5:0.538146 6:-0.892908 7:0.0794899 8:-0.991597 9:-0.997442 10:0.573064 11:-0.659865 12:-0.998383 13:-0.0911202 14:-0.998159 15:-0.949668 16:-0.973871 17:-0.973581 18:-0.991625 19:-1 20:-1 21:-0.741038 22:-0.813914 23:-0.974895 24:-0.989542 25:-0.683641 26:-0.790745 27:-1 28:-1 29:-0.754982 30:-0.858991 31:-1 32:-1 33:-0.82475 34:-0.960884 35:-0.9987 36:-1 37:-1 38:-0.994334 39:-0.987322 40:-0.996711 41:-0.989726 42:-0.993976 43:-0.99118 44:-0.996367 45:-0.993496 46:-0.985207 47:-0.980198 48:-0.955307 49:-0.893805 50:-0.992593 51:-0.93007 52:-0.986842 53:-0.85567 54:-0.974359 55:-0.880952 56:-0.818182 57:-0.45 58:-0.953488 59:-0.972414 60:-0.396599 61:-0.151882 
0.125 1:-0.922503 2:-0.994582 3:-0.997694 4:-0.201607 5:0.534569 6:-0.98287 7:0.0726243 8:-0.98918 9:-0.992495 10:0.573064 11:-0.659796 12:-0.994535 13:-0.0912308 14:-0.994009 15:-0.785666 16:-0.779362 17:-0.789805 18:-0.749412 19:-0.790683 20:-0.773357 21:-0.798442 22:-0.761579 23:-0.814259 24:-0.870458 25:-0.808435 26:-0.71998 27:-0.841692 28:-0.896741 29:-0.851715 30:-0.892847 31:-0.89691 32:-0.853058 33:-0.92791 34:-0.917997 35:-0.979194 36:-0.907738 37:-0.917098 38:-0.926346 39:-0.939778 40:-0.930921 41:-0.931507 42:-0.953815 43:-0.944873 44:-0.974569 45:-0.973984 46:-0.961538 47:-0.940594 48:-0.888268 49:-0.814159 50:-0.777778 51:-0.734266 52:-0.947368 53:-0.876289 54:-1 55:-1 56:-1 57:-1 58:-1 59:-1 60:0.116123 61:0.00531316 
0.125 1:-0.98573 2:-0.987859 3:-0.992277 4:-0.184039 5:0.541064 6:-0.97375 7:0.0658795 8:-0.998088 9:-0.999371 10:0.573064 11:-0.659865 12:-0.99903 13:-0.0911202 14:-0.999071 15:-0.951824 16:-0.849201 17:-0.989923 18:-0.991873 19:-0.953673 20:-0.830859 21:-0.973808 22:-0.939545 23:-0.977886 24:-0.965977 25:-0.846748 26:-0.912726 27:-1 28:-1 29:-0.951211 30:-0.940539 31:-0.991647 32:-0.97852 33:-0.952227 34:-0.955403 35:-0.988296 36:-0.97619 37:-0.963731 38:-0.971671 39:-0.993661 40:-0.990132 41:-0.982877 42:-0.995984 43:-0.988975 44:-0.983651 45:-0.996748 46:-0.988166 47:-0.973597 48:-0.994413 49:-0.99115 50:-1 51:-1 52:-1 53:-1 54:-1 55:-1 56:-1 57:-1 58:-1 59:-1 60:-0.0163577 61:-0.342257 
0.125 1:-0.984413 2:-0.981143 3:-0.999119 4:-0.203351 5:0.535898 6:-0.920706 7:0.0861909 8:-0.984077 9:-0.997426 10:0.573064 11:-0.659865 12:-0.998902 13:-0.0911202 14:-0.998734 15:-0.751729 16:-0.925885 17:-1 18:-1 19:-0.776584 20:-0.874612 21:-1 22:-1 23:-1 24:-1 25:-0.811141 26:-0.914494 27:-1 28:-1 29:-0.86287 30:-0.940382 31:-1 32:-1 33:-0.935576 34:-0.961973 35:-1 36:-0.997024 37:-0.989637 38:-1 39:-1 40:-0.990132 41:-0.989726 42:-0.997992 43:-0.99118 44:-0.989101 45:-0.990244 46:-0.982249 47:-0.963696 48:-0.96648 49:-0.867257 50:-0.962963 51:-0.874126 52:-0.934211 53:-0.979381 54:-0.846154 55:-0.928571 56:-0.963636 57:-0.95 58:-1 59:-1 60:-0.372259 61:0.088157 
0.125 1:-0.987706 2:-0.974436 3:-0.999714 4:-0.200823 5:0.538623 6:-0.892601 7:0.0736656 8:-0.993395 9:-0.998067 10:0.572797 11:-0.659865 12:-0.999061 13:-0.0911202 14:-0.998926 15:-0.973461 16:-0.994024 17:-1 18:-1 19:-0.743047 20:-0.790398 21:-1 22:-1 23:-0.718199 24:-0.787 25:-1 26:-1 27:-1 28:-1 29:-0.767812 30:-0.859625 31:-1 32:-1 33:-0.869438 34:-0.933557 35:-0.999133 36:-0.991071 37:-1 38:-0.994334 39:-0.993661 40:-0.993421 41:-0.989726 42:-0.995984 43:-0.99559 44:-0.998183 45:-0.996748 46:-0.985207 47:-0.990099 48:-0.944134 49:-0.964602 50:-0.962963 51:-0.986014 52:-0.960526 53:-0.958763 54:-0.948718 55:-0.833333 56:-0.854545 57:-0.45 58:-0.906977 59:-0.986207 60:-0.362686 61:-0.129706 
0.125 1:-0.922942 2:-0.994598 3:-0.997675 4:-0.201511 5:0.534564 6:-0.983533 7:0.0724535 8:-0.989243 9:-0.993641 10:0.57333 11:-0.659865 12:-0.993314 13:-0.0911202 14:-0.993204 15:-0.779137 16:-0.75615 17:-0.780724 18:-0.775656 19:-0.795287 20:-0.769749 21:-0.795645 22:-0.753365 23:-0.81757 24:-0.871008 25:-0.834509 26:-0.697693 27:-0.852232 28:-0.893018 29:-0.82842 30:-0.89372 31:-0.907927 32:-0.884698 33:-0.927198 34:-0.921849 35:-0.974426 36:-0.877976 37:-0.943005 38:-0.88102 39:-0.904913 40:-0.927632 41:-0.941781 42:-0.949799 43:-0.975744 44:-0.960036 45:-0.969106 46:-0.943787 47:-0.914191 48:-0.905028 49:-0.769912 50:-0.97037 51:-0.944056 52:-1 53:-0.979381 54:-1 55:-1 56:-1 57:-1 58:-1 59:-1 60:0.176236 61:-0.0222925 
0.125 1:-0.985291 2:-0.987643 3:-0.992236 4:-0.184021 5:0.540343 6:-0.97381 7:0.0649706 8:-0.998308 9:-0.999406 10:0.572531 11:-0.659865 12:-0.998963 13:-0.0923366 14:-0.99902 15:-0.952553 16:-0.836508 17:-0.989356 18:-0.992436 19:-0.967792 20:-0.860975 21:-0.973681 22:-0.879541 23:-1 24:-1 25:-0.838836 26:-0.909896 27:-1 28:-1 29:-0.957666 30:-0.912576 31:-1 32:-1 33:-0.918942 34:-0.961203 35:-0.988296 36:-0.970238 37:-0.963731 38:-0.977337 39:-0.987322 40:-0.993421 41:-0.989726 42:-0.995984 43:-0.980154 44:-0.989101 45:-0.998374 46:-0.982249 47:-0.976898 48:-0.98324 49:-1 50:-1 51:-1 52:-1 53:-1 54:-1 55:-1 56:-1 57:-1 58:-1 59:-1 60:-0.0108204 61:-0.348668 
0.125 1:-0.987047 2:-0.974367 3:-0.999717 4:-0.200775 5:0.538609 6:-0.892602 7:0.0739608 8:-0.993794 9:-0.997894 10:0.573064 11:-0.659865 12:-0.998996 13:-0.0911202 14:-0.998795 15:-0.960626 16:-0.958685 17:-1 18:-1 19:-0.734658 20:-0.787581 21:-1 22:-1 23:-0.71375 24:-0.78412 25:-1 26:-1 27:-1 28:-1 29:-0.778007 30:-0.868926 31:-1 32:-1 33:-0.855795 34:-0.93298 35:-0.999133 36:-1 37:-0.984456 38:-0.994334 39:-0.993661 40:-0.996711 41:-0.989726 42:-0.995984 43:-0.993385 44:-0.992734 45:-0.996748 46:-0.988166 47:-0.986799 48:-0.916201 49:-1 50:-0.977778 51:-1 52:-0.947368 53:-0.876289 54:-0.974359 55:-0.880952 56:-0.818182 57:-0.45 58:-0.953488 59:-0.986207 60:-0.387637 61:-0.140379 
0.125 1:-0.998244 2:-0.962269 3:-0.990433 4:-0.224794 5:0.537197 6:-0.884107 7:0.0688247 8:-0.998321 9:-0.999841 10:0.573064 11:-0.659865 12:-0.999528 13:-0.0911202 14:-0.999565 15:-0.923834 16:-0.944692 17:-1 18:-1 19:-0.894079 20:-0.926555 21:-1 22:-1 23:-1 24:-1 25:-0.938673 26:-0.831318 27:-1 28:-1 29:-0.932251 30:-0.909362 31:-1 32:-1 33:-0.981096 34:-0.980403 35:-0.996966 36:-1 37:-1 38:-1 39:-1 40:-1 41:-1 42:-1 43:-1 44:-1 45:-1 46:-1 47:-0.924092 48:-1 49:-1 50:-1 51:-1 52:-1 53:-1 54:-1 55:-1 56:-1 57:-1 58:-1 59:-0.972414 60:-0.964728 61:-0.967726 
0.125 1:-0.984852 2:-0.987894 3:-0.992242 4:-0.184025 5:0.540313 6:-0.973806 7:0.0649342 8:-0.99817 9:-0.999324 10:0.573064 11:-0.659796 12:-0.998947 13:-0.0911202 14:-0.998994 15:-0.957039 16:-0.837299 17:-0.987146 18:-0.993702 19:-0.949136 20:-0.824508 21:-0.974164 22:-0.874351 23:-0.983494 24:-0.978931 25:-0.837902 26:-0.905111 27:-1 28:-1 29:-0.956899 30:-0.911755 31:-1 32:-1 33:-0.929268 34:-0.948506 35:-0.986996 36:-0.967262 37:-0.968912 38:-0.977337 39:-0.984152 40:-1 41:-0.986301 42:-0.991968 43:-0.98677 44:-0.990917 45:-0.995122 46:-0.97929 47:-0.986799 48:-0.977654 49:-1 50:-1 51:-1 52:-1 53:-1 54:-1 55:-1 56:-1 57:-1 58:-1 59:-1 60:-0.0157447 61:-0.375531 
0.125 1:-0.986608 2:-0.974436 3:-0.999726 4:-0.200685 5:0.538671 6:-0.892095 7:0.0733509 8:-0.993681 9:-0.998157 10:0.573064 11:-0.659865 12:-0.998911 13:-0.0911202 14:-0.998823 15:-0.987921 16:-0.974753 17:-1 18:-1 19:-0.741665 20:-0.786837 21:-1 22:-1 23:-0.705558 24:-0.804173 25:-1 26:-1 27:-1 28:-1 29:-0.767977 30:-0.859943 31:-1 32:-1 33:-0.866894 34:-0.923965 35:-0.998266 36:-0.997024 37:-0.994819 38:-0.994334 39:-0.993661 40:-0.993421 41:-0.979452 42:-0.995984 43:-0.99559 44:-0.992734 45:-0.996748 46:-0.988166 47:-0.986799 48:-0.927374 49:-0.973451 50:-0.962963 51:-0.972028 52:-1 53:-0.938144 54:-1 55:-0.857143 56:-0.709091 57:-0.6 58:-0.953488 59:-0.986207 60:-0.365423 61:-0.179724 
0.125 1:-0.994512 2:-0.973571 3:-0.992662 4:-0.217045 5:0.536225 6:-0.919567 7:0.0707764 8:-0.998321 9:-0.999715 10:0.568539 11:-0.659727 12:-0.99912 13:-0.0911202 14:-0.999153 15:-0.908139 16:-0.919755 17:-1 18:-1 19:-0.942555 20:-0.964552 21:-1 22:-1 23:-0.986748 24:-0.89011 25:-1 26:-1 27:-0.948518 28:-0.851425 29:-0.914261 30:-0.926194 31:-0.982575 32:-0.976575 33:-0.94717 34:-0.981192 35:-0.992631 36:-1 37:-1 38:-1 39:-0.961965 40:-1 41:-1 42:-1 43:-0.964719 44:-1 45:-1 46:-1 47:-0.9967 48:-1 49:-1 50:-1 51:-0.958042 52:-1 53:-1 54:-1 55:-1 56:-1 57:-1 58:-1 59:-1 60:-0.916131 61:-0.951766 
0.125 1:-0.954775 2:-0.988863 3:-0.99404 4:-0.207423 5:0.544774 6:-0.970986 7:0.0555165 8:-0.995858 9:-0.997324 10:0.572531 11:-0.659796 12:-0.991705 13:-0.0910096 14:-0.991786 15:-0.932733 16:-0.852598 17:-0.941739 18:-0.859317 19:-0.934972 20:-0.794691 21:-0.929732 22:-0.863785 23:-0.949445 24:-0.822667 25:-0.897169 26:-0.852391 27:-0.917967 28:-0.886868 29:-0.881102 30:-0.711066 31:-0.916542 32:-0.742555 33:-0.893447 34:-0.843901 35:-0.997833 36:-0.988095 37:-0.958549 38:-0.903683 39:-0.939778 40:-0.914474 41:-0.886986 42:-0.943775 43:-0.971334 44:-0.985468 45:-0.973984 46:-0.973373 47:-0.953795 48:-0.960894 49:-0.964602 50:-0.955556 51:-0.888112 52:-0.986842 53:-0.958763 54:-1 55:-0.97619 56:-1 57:-1 58:-0.953488 59:-1 60:-0.25838 61:-0.151764 
0.125 1:-0.978705 2:-0.977336 3:-0.993402 4:-0.177726 5:0.539609 6:-0.928685 7:0.0643121 8:-0.996789 9:-0.99732 10:0.57333 11:-0.659865 12:-0.997217 13:-0.0911202 14:-0.997001 15:-0.918909 16:-0.945928 17:-0.8842 18:-0.930791 19:-0.897349 20:-0.637075 21:-1 22:-1 23:-0.892731 24:-0.704944 25:-0.829485 26:-0.789172 27:-1 28:-1 29:-0.830319 30:-0.83998 31:-0.907865 32:-0.885304 33:-0.973157 34:-0.982215 35:-0.999133 36:-0.967262 37:-0.974093 38:-0.96034 39:-0.974643 40:-0.986842 41:-0.989726 42:-0.977912 43:-0.977949 44:-0.998183 45:-0.99187 46:-0.976331 47:-0.993399 48:-0.977654 49:-0.938053 50:-0.992593 51:-0.916084 52:-0.894737 53:-0.979381 54:-0.871795 55:-0.880952 56:-1 57:-0.8 58:-1 59:-0.958621 60:-0.27685 61:-0.288378 
0.125 1:-0.98573 2:-0.987799 3:-0.99226 4:-0.184019 5:0.539904 6:-0.973716 7:0.0644253 8:-0.998548 9:-0.999441 10:0.573064 11:-0.659865 12:-0.998967 13:-0.0911202 14:-0.999017 15:-0.953566 16:-0.851454 17:-0.986083 18:-0.988263 19:-0.954404 20:-0.84814 21:-0.968628 22:-0.877925 23:-1 24:-1 25:-0.846681 26:-0.924648 27:-1 28:-1 29:-0.965791 30:-0.906906 31:-1 32:-1 33:-0.924926 34:-0.934314 35:-0.991764 36:-0.964286 37:-0.989637 38:-0.977337 39:-0.990491 40:-0.993421 41:-0.982877 42:-0.993976 43:-0.99559 44:-0.99455 45:-0.996748 46:-0.988166 47:-0.9967 48:-0.988827 49:-1 50:-0.955556 51:-0.972028 52:-1 53:-0.938144 54:-0.871795 55:-0.97619 56:-0.927273 57:-0.9 58:-0.813953 59:-1 60:-0.101901 61:-0.38927 
0.125 1:-0.986169 2:-0.974453 3:-0.999692 4:-0.200915 5:0.53827 6:-0.892876 7:0.0781749 8:-0.992282 9:-0.997785 10:0.573064 11:-0.659865 12:-0.998772 13:-0.0911202 14:-0.998576 15:-0.976851 16:-0.985656 17:-0.980195 18:-0.987008 19:-1 20:-1 21:-0.739978 22:-0.78786 23:-1 24:-1 25:-0.695415 26:-0.777912 27:-1 28:-1 29:-0.766742 30:-0.85227 31:-1 32:-1 33:-0.857532 34:-0.930472 35:-0.998266 36:-0.997024 37:-0.989637 38:-0.994334 39:-0.99683 40:-0.996711 41:-0.986301 42:-0.995984 43:-0.99118 44:-0.99455 45:-0.998374 46:-0.994083 47:-0.980198 48:-0.921788 49:-1 50:-0.933333 51:-0.986014 52:-0.973684 53:-0.917526 54:-0.948718 55:-0.880952 56:-0.745455 57:-0.75 58:-0.906977 59:-0.944828 60:-0.359264 61:-0.148812 
0.125 1:-0.987267 2:-0.988096 3:-0.992257 4:-0.184019 5:0.541991 6:-0.973748 7:0.0670359 8:-0.997871 9:-0.999455 10:0.573064 11:-0.659865 12:-0.999185 13:-0.0911202 14:-0.999216 15:-0.955932 16:-0.86814 17:-0.983305 18:-0.961893 19:-0.938423 20:-0.851434 21:-0.973478 22:-0.887254 23:-1 24:-1 25:-0.849552 26:-0.920985 27:-1 28:-1 29:-0.938539 30:-0.922401 31:-1 32:-1 33:-0.950209 34:-0.944866 35:-0.994365 36:-0.964286 37:-0.979275 38:-0.966006 39:-0.99683 40:-0.993421 41:-0.993151 42:-0.995984 43:-0.997795 44:-0.998183 45:-1 46:-0.988166 47:-0.990099 48:-0.988827 49:-0.973451 50:-0.985185 51:-0.972028 52:-0.947368 53:-0.917526 54:-1 55:-0.928571 56:-0.890909 57:-0.9 58:-0.813953 59:-0.972414 60:-0.133509 61:-0.372177 
0.125 1:-0.991877 2:-0.974419 3:-0.999675 4:-0.201108 5:0.539172 6:-0.894517 7:0.0659581 8:-0.999007 9:-0.999301 10:0.573064 11:-0.659865 12:-0.999421 13:-0.0911202 14:-0.999327 15:-0.981279 16:-0.989704 17:-1 18:-1 19:-0.810609 20:-0.927528 21:-1 22:-1 23:-0.809529 24:-0.987327 25:-0.848366 26:-0.957721 27:-1 28:-1 29:-0.775269 30:-0.869273 31:-1 32:-1 33:-0.853354 34:-0.964342 35:-0.999567 36:-0.997024 37:-1 38:-1 39:-1 40:-0.996711 41:-0.996575 42:-0.995984 43:-1 44:-0.990917 45:-0.998374 46:-0.985207 47:-0.976898 48:-0.960894 49:-0.99115 50:-0.992593 51:-0.986014 52:-0.960526 53:-0.938144 54:-0.897436 55:-0.880952 56:-0.672727 57:-0.9 58:-0.953488 59:-1 60:-0.427833 61:-0.0589328 
0.125 1:-0.992755 2:-0.976652 3:-0.994501 4:-0.213511 5:0.539524 6:-0.925909 7:0.0632891 8:-0.999812 9:-0.999631 10:0.573064 11:-0.659865 12:-0.999043 13:-0.0911202 14:-0.99904 15:-0.811289 16:-0.95282 17:-1 18:-1 19:-0.887803 20:-0.924165 21:-1 22:-1 23:-0.933286 24:-0.989001 25:-1 26:-1 27:-0.914579 28:-0.896405 29:-0.92383 30:-0.927131 31:-0.896221 32:-0.892276 33:-0.900554 34:-0.916264 35:-0.999567 36:-1 37:-1 38:-1 39:-1 40:-1 41:-0.876712 42:-1 43:-1 44:-1 45:-1 46:-1 47:-0.940594 48:-1 49:-1 50:-1 51:-1 52:-1 53:-1 54:-1 55:-1 56:-1 57:-1 58:-1 59:-0.972414 60:-0.949437 61:-0.946116 
0.125 1:-0.964215 2:-0.986399 3:-0.993833 4:-0.209184 5:0.550543 6:-0.962486 7:0.0448646 8:-0.983608 9:-0.993082 10:0.574128 11:-0.659865 12:-0.994276 13:-0.0910096 14:-0.993045 15:-0.908924 16:-0.819255 17:-0.852352 18:-0.819703 19:-0.814023 20:-0.899713 21:-0.816099 22:-0.904862 23:-0.792455 24:-0.882262 25:-0.695028 26:-0.84275 27:-0.92244 28:-0.92302 29:-0.604132 30:-0.83394 31:-0.961405 32:-0.881567 33:-0.665447 34:-0.785367 35:-0.992631 36:-0.988095 37:-0.974093 38:-0.949008 39:-0.974643 40:-0.944079 41:-0.928082 42:-0.957831 43:-0.955899 44:-0.978202 45:-0.98374 46:-0.976331 47:-0.986799 48:-0.96648 49:-0.964602 50:-0.962963 51:-0.902098 52:-0.986842 53:-1 54:-0.923077 55:-1 56:-1 57:-0.9 58:-0.906977 59:-0.986207 60:-0.052602 61:-0.049518 
0.125 1:-0.985291 2:-0.988725 3:-0.992201 4:-0.183984 5:0.540618 6:-0.973761 7:0.0653123 8:-0.998045 9:-0.99929 10:0.572797 11:-0.659935 12:-0.998949 13:-0.0911202 14:-0.998987 15:-0.947686 16:-0.853792 17:-0.981733 18:-0.979585 19:-0.906642 20:-0.812636 21:-0.974587 22:-0.879665 23:-1 24:-1 25:-0.831258 26:-0.923629 27:-1 28:-1 29:-0.952031 30:-0.902372 31:-1 32:-1 33:-0.947094 34:-0.925869 35:-0.98873 36:-0.967262 37:-0.968912 38:-0.971671 39:-0.990491 40:-0.990132 41:-0.989726 42:-0.991968 43:-0.99118 44:-0.989101 45:-0.993496 46:-0.991124 47:-0.980198 48:-0.96648 49:-0.99115 50:-1 51:-1 52:-1 53:-1 54:-1 55:-1 56:-1 57:-1 58:-1 59:-1 60:-0.0657789 61:-0.393855 
0.125 1:-0.990121 2:-0.974453 3:-0.999684 4:-0.201042 5:0.538917 6:-0.894025 7:0.0692927 8:-0.99588 9:-0.998813 10:0.572797 11:-0.659865 12:-0.999256 13:-0.0911202 14:-0.999192 15:-0.965276 16:-0.935564 17:-1 18:-1 19:-0.782701 20:-0.788619 21:-1 22:-1 23:-0.762834 24:-0.865853 25:-0.831393 26:-0.95108 27:-1 28:-1 29:-0.772211 30:-0.851895 31:-1 32:-1 33:-0.872662 34:-0.926903 35:-0.999567 36:-0.994048 37:-0.989637 38:-0.971671 39:-0.993661 40:-1 41:-1 42:-0.993976 43:-0.993385 44:-0.992734 45:-0.998374 46:-0.982249 47:-0.970297 48:-0.972067 49:-0.99115 50:-0.992593 51:-0.986014 52:-0.934211 53:-1 54:-0.974359 55:-0.880952 56:-0.672727 57:-1 58:-0.860465 59:-1 60:-0.339616 61:-0.171903 
0.125 1:-0.985291 2:-0.988529 3:-0.992319 4:-0.184338 5:0.540283 6:-0.974864 7:0.0648777 8:-0.997742 9:-0.998897 10:0.573064 11:-0.659865 12:-0.999004 13:-0.0911202 14:-0.998948 15:-0.93465 16:-0.877083 17:-0.977416 18:-0.961224 19:-0.913947 20:-0.827861 21:-0.966145 22:-0.938841 23:-0.983733 24:-0.933511 25:-0.838967 26:-0.921785 27:-1 28:-1 29:-0.931636 30:-0.901846 31:-1 32:-1 33:-0.917656 34:-0.953485 35:-0.99003 36:-0.979167 37:-0.958549 38:-0.977337 39:-0.980983 40:-1 41:-0.986301 42:-0.997992 43:-0.984564 44:-0.99455 45:-0.996748 46:-0.994083 47:-0.980198 48:-0.988827 49:-0.973451 50:-0.962963 51:-0.986014 52:-0.986842 53:-0.938144 54:-0.974359 55:-0.952381 56:-1 57:-1 58:-1 59:-1 60:-0.0758469 61:-0.371058 
0.125 1:-0.979363 2:-0.980397 3:-0.986707 4:-0.214232 5:0.527688 6:-0.966926 7:0.0762062 8:-0.989963 9:-0.996902 10:0.572797 11:-0.659865 12:-0.998725 13:-0.0910096 14:-0.998221 15:-0.910602 16:-0.837288 17:-1 18:-1 19:-0.748313 20:-0.762803 21:-1 22:-1 23:-0.998354 24:-0.987996 25:-0.745402 26:-0.783672 27:-1 28:-1 29:-0.810922 30:-0.836976 31:-1 32:-1 33:-0.893214 34:-0.92989 35:-0.997399 36:-0.982143 37:-0.953368 38:-0.949008 39:-0.993661 40:-0.983553 41:-0.993151 42:-0.991968 43:-0.982359 44:-0.985468 45:-0.977236 46:-0.985207 47:-0.986799 48:-0.955307 49:-0.946903 50:-0.962963 51:-0.902098 52:-0.947368 53:-0.896907 54:-1 55:-1 56:-0.963636 57:-1 58:-1 59:-1 60:-0.271594 61:-0.262384 
0.125 1:-0.986608 2:-0.974401 3:-0.999711 4:-0.200806 5:0.53868 6:-0.893108 7:0.0728822 8:-0.994669 9:-0.997944 10:0.573064 11:-0.659865 12:-0.998961 13:-0.0911202 14:-0.998746 15:-0.966389 16:-0.940698 17:-1 18:-1 19:-0.734165 20:-0.784947 21:-1 22:-1 23:-0.819534 24:-0.83068 25:-0.829293 26:-0.960552 27:-1 28:-1 29:-0.724712 30:-0.838136 31:-1 32:-1 33:-0.844812 34:-0.940663 35:-0.999567 36:-1 37:-0.979275 38:-1 39:-0.99683 40:-0.996711 41:-0.986301 42:-0.991968 43:-0.982359 44:-0.996367 45:-0.996748 46:-0.985207 47:-0.983498 48:-0.932961 49:-0.99115 50:-0.977778 51:-1 52:-0.986842 53:-0.85567 54:-0.948718 55:-0.904762 56:-0.781818 57:-0.6 58:-1 59:-0.944828 60:-0.384737 61:-0.152743 
0.125 1:-0.985291 2:-0.988249 3:-0.992329 4:-0.184343 5:0.540264 6:-0.974851 7:0.0648557 8:-0.997835 9:-0.998919 10:0.573064 11:-0.659865 12:-0.999007 13:-0.0911202 14:-0.998951 15:-0.952167 16:-0.848794 17:-0.983834 18:-0.994656 19:-0.928462 20:-0.820038 21:-0.960019 22:-0.917208 23:-0.990122 24:-0.953604 25:-0.841752 26:-0.91538 27:-1 28:-1 29:-0.931989 30:-0.894839 31:-1 32:-1 33:-0.918117 34:-0.961111 35:-0.991331 36:-0.97619 37:-0.937824 38:-0.966006 39:-0.987322 40:-0.996711 41:-0.989726 42:-0.995984 43:-0.98677 44:-0.99455 45:-0.995122 46:-0.988166 47:-0.986799 48:-0.988827 49:-0.955752 50:-0.992593 51:-0.958042 52:-0.973684 53:-0.958763 54:-1 55:-1 56:-1 57:-1 58:-1 59:-1 60:-0.04696 61:-0.362509 
0.125 1:-0.986169 2:-0.974315 3:-0.999694 4:-0.200858 5:0.538338 6:-0.893448 7:0.077358 8:-0.993705 9:-0.997822 10:0.566143 11:-0.658547 12:-0.99875 13:-0.0911202 14:-0.99849 15:-0.950171 16:-0.983162 17:-0.979966 18:-0.985348 19:-1 20:-1 21:-0.73923 22:-0.810702 23:-0.983047 24:-0.99816 25:-0.719665 26:-0.795082 27:-1 28:-1 29:-0.714517 30:-0.828367 31:-1 32:-1 33:-0.853867 34:-0.94613 35:-0.998266 36:-1 37:-1 38:-0.994334 39:-0.993661 40:-0.993421 41:-0.982877 42:-0.98996 43:-0.99559 44:-0.99455 45:-0.99187 46:-0.985207 47:-0.963696 48:-0.955307 49:-0.982301 50:-0.97037 51:-0.972028 52:-0.934211 53:-0.958763 54:-0.948718 55:-0.952381 56:-0.6 57:-1 58:-0.813953 59:-1 60:-0.385428 61:-0.161574 
0.125 1:-0.986828 2:-0.988284 3:-0.992387 4:-0.18434 5:0.541991 6:-0.974666 7:0.0670033 8:-0.997188 9:-0.998974 10:0.573064 11:-0.659865 12:-0.999211 13:-0.0911202 14:-0.999145 15:-0.957251 16:-0.852612 17:-0.972425 18:-0.944184 19:-0.927495 20:-0.803479 21:-0.963376 22:-0.95023 23:-0.987272 24:-0.938501 25:-0.863201 26:-0.920641 27:-0.966546 28:-0.9623 29:-0.953824 30:-0.910869 31:-1 32:-1 33:-0.985304 34:-0.968493 35:-0.990897 36:-0.979167 37:-0.958549 38:-0.988669 39:-0.980983 40:-0.990132 41:-0.996575 42:-0.985944 43:-0.993385 44:-0.992734 45:-0.998374 46:-0.988166 47:-0.993399 48:-0.972067 49:-0.982301 50:-0.985185 51:-0.986014 52:-0.986842 53:-0.958763 54:-0.948718 55:-1 56:-1 57:-1 58:-1 59:-1 60:-0.0208683 61:-0.342755 
0.125 1:-0.987925 2:-0.974315 3:-0.999709 4:-0.200726 5:0.537857 6:-0.892344 7:0.0846559 8:-0.991791 9:-0.99853 10:0.573064 11:-0.659657 12:-0.998864 13:-0.089572 14:-0.998676 15:-0.959634 16:-0.98868 17:-1 18:-1 19:-0.983453 20:-0.999082 21:-0.697719 22:-0.772555 23:-1 24:-1 25:-0.715316 26:-0.848413 27:-1 28:-1 29:-0.795392 30:-0.901466 31:-1 32:-1 33:-0.931967 34:-0.96784 35:-1 36:-0.991071 37:-0.974093 38:-0.994334 39:-0.990491 40:-1 41:-1 42:-0.997992 43:-1 44:-1 45:-0.985366 46:-0.985207 47:-0.976898 48:-0.944134 49:-0.973451 50:-0.985185 51:-0.93007 52:-0.973684 53:-0.85567 54:-0.74359 55:-1 56:-0.818182 57:-1 58:-0.953488 59:-1 60:-0.348782 61:-0.149342 
0.125 1:-0.917892 2:-0.99519 3:-0.997322 4:-0.201062 5:0.535882 6:-0.987926 7:0.0688029 8:-0.995061 9:-0.996018 10:0.573862 11:-0.660212 12:-0.989987 13:-0.0925578 14:-0.990301 15:-0.84632 16:-0.921631 17:-0.844607 18:-0.927616 19:-0.854289 20:-0.91053 21:-0.859967 22:-0.943704 23:-0.83071 24:-0.884084 25:-0.898508 26:-0.95474 27:-0.823549 28:-0.942603 29:-0.764305 30:-0.93406 31:-0.879957 32:-0.898497 33:-0.889965 34:-0.913331 35:-0.93498 36:-0.928571 37:-0.860104 38:-0.886686 39:-0.936609 40:-0.934211 41:-0.965753 42:-0.991968 43:-0.988975 44:-0.992734 45:-0.988618 46:-0.964497 47:-0.966997 48:-0.932961 49:-0.955752 50:-0.866667 51:-0.916084 52:-0.842105 53:-0.649485 54:-0.897436 55:-0.880952 56:-0.854545 57:-1 58:-0.953488 59:-0.986207 60:0.194558 61:-0.345802 
0.125 1:-0.993414 2:-0.97732 3:-0.995694 4:-0.180862 5:0.534096 6:-0.924374 7:0.0486742 8:-0.995364 9:-0.99989 10:0.573064 11:-0.659865 12:-0.998977 13:-0.0911202 14:-0.99905 15:-0.970163 16:-0.969128 17:-0.964467 18:-0.959415 19:-1 20:-1 21:-0.929186 22:-0.969149 23:-0.954406 24:-0.92296 25:-1 26:-1 27:-0.882705 28:-0.95174 29:-1 30:-1 31:-0.980314 32:-0.944791 33:-0.948829 34:-0.988155 35:-0.996966 36:-0.946429 37:-1 38:-0.966006 39:-1 40:-0.973684 41:-1 42:-0.991968 43:-0.997795 44:-1 45:-0.990244 46:-1 47:-1 48:-1 49:-0.982301 50:-1 51:-0.986014 52:-1 53:-1 54:-1 55:-1 56:-1 57:-1 58:-1 59:-0.986207 60:-0.799239 61:-0.851283 
0.125 1:-0.986828 2:-0.988131 3:-0.992574 4:-0.184755 5:0.543043 6:-0.975824 7:0.0682559 8:-0.997085 9:-0.999092 10:0.573064 11:-0.659865 12:-0.999323 13:-0.0911202 14:-0.999247 15:-0.959174 16:-0.853593 17:-1 18:-1 19:-0.927865 20:-0.80446 21:-1 22:-1 23:-1 24:-1 25:-0.89237 26:-0.804384 27:-1 28:-1 29:-0.815188 30:-0.850594 31:-1 32:-1 33:-0.93067 34:-0.893616 35:-0.993065 36:-0.979167 37:-0.958549 38:-0.988669 39:-0.987322 40:-0.980263 41:-0.993151 42:-0.98996 43:-0.98677 44:-0.99455 45:-0.993496 46:-0.991124 47:-0.980198 48:-0.972067 49:-0.99115 50:-1 51:-0.986014 52:-0.986842 53:-0.979381 54:-0.974359 55:-1 56:-0.963636 57:-0.95 58:-1 59:-1 60:-0.0916724 61:-0.335712 
0.125 1:-0.988804 2:-0.974384 3:-0.999685 4:-0.20107 5:0.538895 6:-0.892696 7:0.0696116 8:-0.996245 9:-0.998775 10:0.572797 11:-0.659865 12:-0.999201 13:-0.0911202 14:-0.999125 15:-1 16:-1 17:-1 18:-1 19:-0.760766 20:-0.872889 21:-1 22:-1 23:-0.747601 24:-0.78432 25:-1 26:-1 27:-1 28:-1 29:-0.775564 30:-0.866853 31:-1 32:-1 33:-0.869472 34:-0.919613 35:-0.998266 36:-0.997024 37:-0.994819 38:-0.994334 39:-0.99683 40:-1 41:-0.989726 42:-0.997992 43:-1 44:-1 45:-0.98374 46:-1 47:-0.970297 48:-0.972067 49:-0.973451 50:-0.985185 51:-0.944056 52:-0.986842 53:-0.814433 54:-0.794872 55:-0.833333 56:-1 57:-0.8 58:-1 59:-0.986207 60:-0.381702 61:-0.124819 
0.125 1:-0.987267 2:-0.988202 3:-0.992575 4:-0.184757 5:0.543256 6:-0.975831 7:0.0685173 8:-0.996885 9:-0.999157 10:0.573064 11:-0.659865 12:-0.999332 13:-0.0911202 14:-0.999274 15:-0.933453 16:-0.85121 17:-1 18:-1 19:-0.927671 20:-0.799038 21:-1 22:-1 23:-1 24:-1 25:-0.906545 26:-0.803942 27:-1 28:-1 29:-0.820589 30:-0.850612 31:-1 32:-1 33:-0.93586 34:-0.905623 35:-0.992198 36:-0.988095 37:-0.974093 38:-0.971671 39:-0.993661 40:-0.986842 41:-0.989726 42:-0.991968 43:-0.98677 44:-0.990917 45:-0.996748 46:-0.991124 47:-0.976898 48:-0.988827 49:-0.99115 50:-0.962963 51:-0.986014 52:-0.986842 53:-0.979381 54:-1 55:-1 56:-1 57:-1 58:-0.906977 59:-0.986207 60:-0.0931487 61:-0.333416 
0.125 1:-0.988584 2:-0.974401 3:-0.999681 4:-0.201065 5:0.538747 6:-0.893029 7:0.0715214 8:-0.996512 9:-0.998795 10:0.573064 11:-0.659865 12:-0.999139 13:-0.0911202 14:-0.999038 15:-0.983985 16:-0.992055 17:-1 18:-1 19:-0.752394 20:-0.879068 21:-1 22:-1 23:-0.749081 24:-0.800989 25:-1 26:-1 27:-1 28:-1 29:-0.774845 30:-0.864467 31:-1 32:-1 33:-0.871046 34:-0.915671 35:-0.997833 36:-0.997024 37:-0.989637 38:-1 39:-0.990491 40:-0.993421 41:-1 42:-0.997992 43:-1 44:-0.998183 45:-0.990244 46:-0.97929 47:-0.983498 48:-0.949721 49:-0.99115 50:-1 51:-0.944056 52:-0.934211 53:-0.917526 54:-0.871795 55:-0.809524 56:-0.890909 57:-0.9 58:-0.953488 59:-0.986207 60:-0.350322 61:-0.141864 
0.125 1:-0.987047 2:-0.988025 3:-0.992464 4:-0.184819 5:0.544007 6:-0.976397 7:0.0693344 8:-0.997274 9:-0.999299 10:0.573064 11:-0.659865 12:-0.99905 13:-0.0911202 14:-0.998995 15:-0.961152 16:-0.848683 17:-1 18:-1 19:-0.924694 20:-0.808766 21:-1 22:-1 23:-1 24:-1 25:-0.920001 26:-0.849166 27:-1 28:-1 29:-0.898597 30:-0.793001 31:-1 32:-1 33:-0.933373 34:-0.924447 35:-0.994798 36:-0.955357 37:-0.989637 38:-0.96034 39:-0.987322 40:-0.986842 41:-0.982877 42:-0.991968 43:-0.993385 44:-0.992734 45:-0.998374 46:-0.988166 47:-1 48:-0.994413 49:-0.982301 50:-0.985185 51:-0.958042 52:-0.973684 53:-0.979381 54:-0.974359 55:-1 56:-0.890909 57:-0.95 58:-0.906977 59:-1 60:-0.198292 61:-0.464191 
0.125 1:-0.987925 2:-0.980517 3:-0.999001 4:-0.203859 5:0.537831 6:-0.920354 7:0.0729934 8:-0.996924 9:-0.999137 10:0.573064 11:-0.659865 12:-0.999348 13:-0.0911202 14:-0.999263 15:-0.814755 16:-0.953278 17:-1 18:-1 19:-1 20:-1 21:-0.817542 22:-0.816734 23:-1 24:-1 25:-1 26:-1 27:-0.83331 28:-0.929617 29:-1 30:-1 31:-1 32:-1 33:-0.935189 34:-0.962679 35:-0.999567 36:-1 37:-1 38:-1 39:-0.99683 40:-1 41:-0.993151 42:-0.997992 43:-0.997795 44:-0.996367 45:-0.995122 46:-0.976331 47:-0.986799 48:-0.955307 49:-0.893805 50:-0.925926 51:-0.93007 52:-0.921053 53:-0.938144 54:-0.923077 55:-0.809524 56:-0.963636 57:-1 58:-1 59:-1 60:-0.474496 61:0.101187 
0.125 1:-0.988145 2:-0.974453 3:-0.999681 4:-0.201082 5:0.538793 6:-0.89318 7:0.0708921 8:-0.996358 9:-0.998772 10:0.573064 11:-0.659865 12:-0.999155 13:-0.0911202 14:-0.999069 15:-0.991519 16:-0.996778 17:-1 18:-1 19:-0.753654 20:-0.870973 21:-1 22:-1 23:-0.757058 24:-0.812532 25:-1 26:-1 27:-1 28:-1 29:-0.764026 30:-0.864572 31:-1 32:-1 33:-0.871212 34:-0.919293 35:-0.9987 36:-0.997024 37:-1 38:-0.988669 39:-1 40:-0.996711 41:-0.996575 42:-0.98996 43:-0.997795 44:-1 45:-0.98374 46:-0.997041 47:-0.963696 48:-0.977654 49:-0.964602 50:-1 51:-0.902098 52:-0.921053 53:-0.896907 54:-0.923077 55:-0.785714 56:-0.963636 57:-0.85 58:-1 59:-1 60:-0.409345 61:-0.148174 
0.125 1:-0.987706 2:-0.988167 3:-0.992474 4:-0.18487 5:0.543214 6:-0.976585 7:0.0683625 8:-0.997768 9:-0.999212 10:0.573064 11:-0.659865 12:-0.999172 13:-0.0911202 14:-0.999087 15:-0.940308 16:-0.859094 17:-1 18:-1 19:-0.91938 20:-0.803104 21:-1 22:-1 23:-1 24:-1 25:-0.920878 26:-0.853168 27:-1 28:-1 29:-0.883169 30:-0.793644 31:-1 32:-1 33:-0.931132 34:-0.919557 35:-0.994798 36:-0.967262 37:-0.968912 38:-0.96034 39:-0.971474 40:-0.993421 41:-0.993151 42:-0.997992 43:-0.997795 44:-0.992734 45:-0.996748 46:-0.991124 47:-0.990099 48:-0.994413 49:-0.99115 50:-0.977778 51:-0.958042 52:-0.973684 53:-1 54:-1 55:-0.928571 56:-1 57:-0.8 58:-1 59:-1 60:-0.160309 61:-0.444588 
0.125 1:-0.987706 2:-0.974487 3:-0.999681 4:-0.201105 5:0.538701 6:-0.893026 7:0.0720553 8:-0.996114 9:-0.998609 10:0.573064 11:-0.659865 12:-0.999184 13:-0.0911202 14:-0.999052 15:-0.992537 16:-0.989565 17:-1 18:-1 19:-0.75119 20:-0.867904 21:-1 22:-1 23:-0.737419 24:-0.803789 25:-1 26:-1 27:-1 28:-1 29:-0.766447 30:-0.860127 31:-1 32:-1 33:-0.869909 34:-0.935255 35:-0.998266 36:-0.988095 37:-0.984456 38:-0.994334 39:-1 40:-0.996711 41:-0.989726 42:-1 43:-0.997795 44:-0.996367 45:-0.988618 46:-0.970414 47:-0.983498 48:-0.988827 49:-0.982301 50:-0.985185 51:-0.874126 52:-0.934211 53:-0.896907 54:-0.871795 55:-0.904762 56:-0.854545 57:-1 58:-0.953488 59:-1 60:-0.330827 61:-0.156023 
0.125 1:-0.987267 2:-0.988155 3:-0.992428 4:-0.184957 5:0.543309 6:-0.977051 7:0.0684191 8:-0.99752 9:-0.999227 10:0.573064 11:-0.659865 12:-0.998929 13:-0.0911202 14:-0.998883 15:-0.954535 16:-0.84834 17:-1 18:-1 19:-0.916664 20:-0.804644 21:-1 22:-1 23:-1 24:-1 25:-0.904122 26:-0.849714 27:-1 28:-1 29:-0.886 30:-0.82611 31:-1 32:-1 33:-0.930084 34:-0.931195 35:-0.996099 36:-0.952381 37:-0.979275 38:-0.971671 39:-0.984152 40:-0.983553 41:-0.986301 42:-0.993976 43:-0.988975 44:-0.992734 45:-0.993496 46:-0.985207 47:-0.9967 48:-1 49:-0.99115 50:-0.985185 51:-0.986014 52:-0.986842 53:-1 54:-0.974359 55:-1 56:-1 57:-0.9 58:-0.906977 59:-0.972414 60:-0.225168 61:-0.477193 
0.125 1:-0.987925 2:-0.974419 3:-0.999683 4:-0.201058 5:0.53872 6:-0.89294 7:0.0718948 8:-0.99581 9:-0.99874 10:0.573064 11:-0.659865 12:-0.999103 13:-0.0911202 14:-0.999035 15:-0.983325 16:-0.990327 17:-1 18:-1 19:-0.760704 20:-0.867729 21:-1 22:-1 23:-0.749476 24:-0.781175 25:-1 26:-1 27:-1 28:-1 29:-0.775667 30:-0.858348 31:-1 32:-1 33:-0.870669 34:-0.925159 35:-0.996966 36:-0.997024 37:-0.994819 38:-1 39:-1 40:-0.990132 41:-1 42:-0.995984 43:-1 44:-0.996367 45:-0.988618 46:-0.97929 47:-0.983498 48:-0.972067 49:-0.973451 50:-0.97037 51:-0.944056 52:-0.894737 53:-0.958763 54:-0.923077 55:-0.809524 56:-1 57:-0.75 58:-0.953488 59:-0.986207 60:-0.345211 61:-0.148407 
0.125 1:-0.987267 2:-0.988296 3:-0.99245 4:-0.184729 5:0.541956 6:-0.976105 7:0.066881 8:-0.997348 9:-0.99921 10:0.573064 11:-0.659865 12:-0.999209 13:-0.0911202 14:-0.9992 15:-0.970472 16:-0.87306 17:-1 18:-1 19:-0.924883 20:-0.810105 21:-1 22:-1 23:-0.903636 24:-0.833315 25:-1 26:-1 27:-0.833807 28:-0.917448 29:-1 30:-1 31:-0.916481 32:-0.894106 33:-0.977823 34:-0.98678 35:-0.99003 36:-0.985119 37:-0.974093 38:-0.966006 39:-0.990491 40:-0.986842 41:-0.986301 42:-0.997992 43:-0.99559 44:-0.992734 45:-0.996748 46:-0.997041 47:-0.993399 48:-0.988827 49:-0.973451 50:-0.985185 51:-0.93007 52:-0.960526 53:-1 54:-0.974359 55:-0.97619 56:-0.963636 57:-0.95 58:-0.953488 59:-1 60:-0.0209065 61:-0.374881 
0.125 1:-0.983974 2:-0.974607 3:-0.999916 4:-0.195954 5:0.539187 6:-0.88901 7:0.0288919 8:-0.97861 9:-0.998113 10:0.57333 11:-0.659935 12:-0.997464 13:-0.0911202 14:-0.997514 15:-1 16:-1 17:-0.763113 18:-0.78381 19:-1 20:-1 21:-0.831909 22:-0.77147 23:-1 24:-1 25:-0.83127 26:-0.803155 27:-0.781728 28:-0.799256 29:-1 30:-1 31:-0.76944 32:-0.829607 33:-0.804259 34:-0.959842 35:-0.9987 36:-0.934524 37:-0.927461 38:-0.949008 39:-0.977813 40:-0.976974 41:-0.976027 42:-0.98996 43:-0.993385 44:-0.990917 45:-0.996748 46:-0.994083 47:-0.980198 48:-0.988827 49:-1 50:-1 51:-0.986014 52:-0.986842 53:-1 54:-0.974359 55:-1 56:-1 57:-1 58:-1 59:-1 60:-0.00525622 61:-0.302863 
0.125 1:-0.986169 2:-0.988389 3:-0.992383 4:-0.184743 5:0.541787 6:-0.97635 7:0.06665 8:-0.997623 9:-0.999133 10:0.573064 11:-0.659935 12:-0.999046 13:-0.0911202 14:-0.999024 15:-0.968884 16:-0.856963 17:-1 18:-1 19:-0.921516 20:-0.807696 21:-1 22:-1 23:-0.917761 24:-0.870528 25:-1 26:-1 27:-0.833884 28:-0.878487 29:-0.939345 30:-0.921716 31:-1 32:-1 33:-0.969584 34:-0.966696 35:-0.98873 36:-0.982143 37:-0.974093 38:-0.977337 39:-0.984152 40:-0.990132 41:-0.993151 42:-0.993976 43:-0.99559 44:-0.990917 45:-0.998374 46:-0.994083 47:-0.990099 48:-0.994413 49:-0.99115 50:-0.985185 51:-0.986014 52:-0.934211 53:-1 54:-0.974359 55:-0.904762 56:-0.963636 57:-0.95 58:-1 59:-0.958621 60:-0.00337802 61:-0.382351 
0.125 1:-0.99539 2:-0.980562 3:-0.999121 4:-0.203362 5:0.53656 6:-0.921531 7:0.0816841 8:-0.992008 9:-0.99968 10:0.573064 11:-0.659865 12:-0.999747 13:-0.0911202 14:-0.999751 15:-0.856765 16:-0.951551 17:-1 18:-1 19:-1 20:-1 21:-0.897296 22:-0.842233 23:-1 24:-1 25:-1 26:-1 27:-0.968618 28:-0.943512 29:-1 30:-1 31:-1 32:-1 33:-0.985191 34:-0.972794 35:-1 36:-1 37:-1 38:-0.994334 39:-0.99683 40:-1 41:-1 42:-1 43:-1 44:-0.998183 45:-0.998374 46:-0.997041 47:-0.9967 48:-0.988827 49:-0.99115 50:-0.948148 51:-0.986014 52:-0.960526 53:-0.690722 54:-0.948718 55:-0.809524 56:-1 57:-1 58:-1 59:-1 60:-0.567527 61:0.0560274 
0.125 1:-0.995829 2:-0.97435 3:-0.999487 4:-0.202484 5:0.536582 6:-0.892205 7:0.0916305 8:-0.985268 9:-0.999234 10:0.573064 11:-0.659865 12:-0.999536 13:-0.0911202 14:-0.999492 15:-0.901376 16:-0.948709 17:-1 18:-1 19:-0.756278 20:-0.841703 21:-1 22:-1 23:-0.870322 24:-0.812516 25:-1 26:-1 27:-1 28:-1 29:-0.897101 30:-0.954188 31:-1 32:-1 33:-0.989433 34:-0.997477 35:-0.998266 36:-0.997024 37:-0.994819 38:-0.994334 39:-1 40:-1 41:-0.986301 42:-0.993976 43:-0.997795 44:-0.998183 45:-1 46:-0.994083 47:-0.990099 48:-1 49:-0.973451 50:-0.955556 51:-0.986014 52:-0.973684 53:-0.958763 54:-0.974359 55:-0.97619 56:-0.890909 57:-1 58:-0.906977 59:-0.986207 60:-0.367526 61:-0.298351 
0.125 1:-0.97607 2:-0.980186 3:-0.999756 4:-0.199341 5:0.539475 6:-0.91542 7:0.0617014 8:-0.996521 9:-0.997021 10:0.57333 11:-0.659935 12:-0.996316 13:-0.0910096 14:-0.996141 15:-0.854709 16:-0.714755 17:-0.842921 18:-0.770629 19:-0.804078 20:-0.74828 21:-1 22:-1 23:-0.904413 24:-0.886127 25:-0.820088 26:-0.864004 27:-0.938286 28:-0.954387 29:-0.823982 30:-0.949632 31:-0.835868 32:-0.871672 33:-0.879446 34:-0.945157 35:-0.998266 36:-0.964286 37:-0.953368 38:-0.932011 39:-0.984152 40:-0.957237 41:-0.955479 42:-0.983936 43:-0.993385 44:-0.985468 45:-0.99187 46:-0.991124 47:-0.990099 48:-0.960894 49:-0.938053 50:-0.955556 51:-0.958042 52:-0.986842 53:-0.938144 54:-0.948718 55:-0.952381 56:-0.963636 57:-0.85 58:-1 59:-1 60:0.0577702 61:-0.0274431 
0.125 1:-0.98573 2:-0.988178 3:-0.992451 4:-0.184723 5:0.541359 6:-0.976059 7:0.0661622 8:-0.997553 9:-0.99909 10:0.573064 11:-0.659865 12:-0.999046 13:-0.0911202 14:-0.999032 15:-0.96765 16:-0.859401 17:-1 18:-1 19:-0.930597 20:-0.826205 21:-1 22:-1 23:-0.881514 24:-0.79469 25:-1 26:-1 27:-0.828834 28:-0.922037 29:-0.959517 30:-0.973115 31:-0.937081 32:-0.905226 33:-0.966471 34:-0.951278 35:-0.987863 36:-0.982143 37:-0.958549 38:-0.977337 39:-0.993661 40:-0.986842 41:-0.986301 42:-0.985944 43:-0.99559 44:-0.99455 45:-1 46:-0.985207 47:-0.993399 48:-0.98324 49:-1 50:-0.985185 51:-0.986014 52:-0.934211 53:-1 54:-1 55:-0.97619 56:-0.927273 57:-1 58:-1 59:-1 60:-0.0250056 61:-0.40924 
0.125 1:-0.994292 2:-0.974384 3:-0.999464 4:-0.202573 5:0.538355 6:-0.892141 7:0.0736191 8:-0.997049 9:-0.999497 10:0.573064 11:-0.659865 12:-0.999381 13:-0.0911202 14:-0.999363 15:-0.901979 16:-0.949548 17:-1 18:-1 19:-0.874498 20:-0.96642 21:-1 22:-1 23:-0.833178 24:-0.823896 25:-1 26:-1 27:-1 28:-1 29:-0.885916 30:-0.935621 31:-1 32:-1 33:-0.88933 34:-0.939328 35:-0.999133 36:-1 37:-0.979275 38:-1 39:-1 40:-0.993421 41:-0.989726 42:-0.997992 43:-1 44:-0.998183 45:-1 46:-0.994083 47:-0.993399 48:-0.972067 49:-0.973451 50:-0.985185 51:-0.944056 52:-0.960526 53:-0.958763 54:-0.846154 55:-0.928571 56:-1 57:-0.8 58:-0.953488 59:-1 60:-0.403836 61:-0.250104 
0.125 1:-0.98595 2:-0.988237 3:-0.992463 4:-0.184765 5:0.541448 6:-0.976201 7:0.0662645 8:-0.997604 9:-0.999136 10:0.57333 11:-0.659935 12:-0.999081 13:-0.0911202 14:-0.99907 15:-0.961478 16:-0.861642 17:-1 18:-1 19:-0.922627 20:-0.81665 21:-1 22:-1 23:-0.886896 24:-0.79671 25:-1 26:-1 27:-0.85104 28:-0.861208 29:-1 30:-1 31:-0.949147 32:-0.879397 33:-0.973033 34:-0.977273 35:-0.987863 36:-0.988095 37:-0.984456 38:-0.949008 39:-0.990491 40:-0.983553 41:-0.982877 42:-0.993976 43:-1 44:-0.990917 45:-1 46:-0.988166 47:-0.993399 48:-0.98324 49:-0.973451 50:-0.977778 51:-1 52:-0.986842 53:-0.979381 54:-0.974359 55:-0.952381 56:-1 57:-0.95 58:-0.953488 59:-0.986207 60:-0.0391367 61:-0.416137 
0.125 1:-0.994072 2:-0.974419 3:-0.999462 4:-0.20259 5:0.538272 6:-0.892202 7:0.0744121 8:-0.996881 9:-0.999509 10:0.573064 11:-0.659865 12:-0.999383 13:-0.0911202 14:-0.999368 15:-0.902481 16:-0.949518 17:-1 18:-1 19:-0.867035 20:-0.972165 21:-1 22:-1 23:-0.845645 24:-0.823412 25:-1 26:-1 27:-1 28:-1 29:-0.858696 30:-0.927858 31:-1 32:-1 33:-0.907422 34:-0.955216 35:-0.9987 36:-0.997024 37:-0.994819 38:-1 39:-0.993661 40:-0.996711 41:-0.996575 42:-1 43:-0.997795 44:-0.998183 45:-0.998374 46:-0.985207 47:-0.993399 48:-0.96648 49:-0.982301 50:-0.985185 51:-0.944056 52:-0.960526 53:-0.979381 54:-0.820513 55:-1 56:-0.890909 57:-0.8 58:-1 59:-1 60:-0.411191 61:-0.212821 
0.125 1:-0.993853 2:-0.973693 3:-0.993335 4:-0.216529 5:0.563305 6:-0.916231 7:0.00600668 8:-0.937632 9:-0.999576 10:0.573064 11:-0.659865 12:-0.99956 13:-0.0911202 14:-0.999566 15:-0.887458 16:-0.95307 17:-1 18:-1 19:-1 20:-1 21:-0.832247 22:-0.968163 23:-1 24:-1 25:-1 26:-1 27:-0.859516 28:-0.820516 29:-1 30:-1 31:-1 32:-1 33:-0.937161 34:-0.951786 35:-0.999567 36:-1 37:-0.994819 38:-0.977337 39:-0.993661 40:-0.980263 41:-0.993151 42:-0.983936 43:-0.99118 44:-0.998183 45:-0.996748 46:-0.994083 47:-0.9967 48:-0.98324 49:-0.964602 50:-0.992593 51:-0.958042 52:-0.960526 53:-1 54:-1 55:-0.97619 56:-0.927273 57:-0.95 58:-1 59:-1 60:-0.295854 61:-0.279281 
0.125 1:-0.987047 2:-0.974195 3:-0.999614 4:-0.201604 5:0.537883 6:-0.891923 7:0.0809833 8:-0.99211 9:-0.998134 10:0.573064 11:-0.659865 12:-0.998985 13:-0.0911202 14:-0.998789 15:-0.976879 16:-0.984154 17:-0.990083 18:-0.993185 19:-1 20:-1 21:-0.753039 22:-0.819227 23:-1 24:-1 25:-0.713806 26:-0.814434 27:-1 28:-1 29:-0.785399 30:-0.886541 31:-1 32:-1 33:-0.906783 34:-0.957738 35:-0.999133 36:-1 37:-0.984456 38:-0.983003 39:-0.99683 40:-0.990132 41:-0.996575 42:-0.98996 43:-0.993385 44:-0.99455 45:-0.99187 46:-0.994083 47:-0.990099 48:-0.994413 49:-0.973451 50:-0.925926 51:-0.972028 52:-0.947368 53:-0.896907 54:-0.974359 55:-0.809524 56:-0.709091 57:-0.75 58:-1 59:-0.972414 60:-0.388508 61:-0.216544 
0.125 1:-0.992097 2:-0.973326 3:-0.993229 4:-0.216824 5:0.564373 6:-0.915127 7:0.0035385 8:-0.933722 9:-0.999179 10:0.5712 11:-0.661184 12:-0.999527 13:-0.0911202 14:-0.999407 15:-0.868391 16:-0.941468 17:-1 18:-1 19:-1 20:-1 21:-0.769463 22:-0.895095 23:-1 24:-1 25:-1 26:-1 27:-0.808653 28:-0.923591 29:-1 30:-1 31:-1 32:-1 33:-0.914106 34:-0.941656 35:-0.999567 36:-0.991071 37:-1 38:-1 39:-0.99683 40:-0.996711 41:-0.989726 42:-0.993976 43:-0.993385 44:-0.998183 45:-0.990244 46:-0.991124 47:-0.993399 48:-0.98324 49:-0.929204 50:-0.992593 51:-0.93007 52:-0.907895 53:-0.979381 54:-0.948718 55:-0.952381 56:-0.963636 57:-0.95 58:-0.953488 59:-0.986207 60:-0.352723 61:-0.0547456 
0.125 1:-0.987047 2:-0.974436 3:-0.999729 4:-0.200664 5:0.538414 6:-0.894282 7:0.0767811 8:-0.995364 9:-0.998722 10:0.573064 11:-0.659865 12:-0.999149 13:-0.0911202 14:-0.999013 15:-0.813332 16:-0.967365 17:-1 18:-1 19:-0.80764 20:-0.832678 21:-1 22:-1 23:-0.738177 24:-0.838443 25:-0.982491 26:-0.991572 27:-1 28:-1 29:-0.765263 30:-0.949099 31:-1 32:-1 33:-0.902742 34:-0.937661 35:-0.999567 36:-0.994048 37:-0.974093 38:-1 39:-0.99683 40:-0.990132 41:-0.996575 42:-0.985944 43:-0.984564 44:-0.987284 45:-0.99187 46:-0.994083 47:-0.993399 48:-0.955307 49:-0.893805 50:-0.955556 51:-0.972028 52:-0.907895 53:-0.938144 54:-0.974359 55:-1 56:-1 57:-1 58:-0.953488 59:-1 60:-0.323728 61:-0.0708953 
0.125 1:-0.908891 2:-0.994598 3:-0.996839 4:-0.190853 5:0.537564 6:-0.987161 7:0.0612554 8:-0.997742 9:-0.995738 10:0.57333 11:-0.659865 12:-0.98905 13:-0.0910096 14:-0.989372 15:-0.872075 16:-0.948222 17:-0.876577 18:-0.923322 19:-0.87975 20:-0.935554 21:-0.878633 22:-0.871737 23:-0.894344 24:-0.821208 25:-0.892265 26:-0.796569 27:-0.875712 28:-0.779909 29:-0.858354 30:-0.768805 31:-0.861558 32:-0.780259 33:-0.896114 34:-0.919621 35:-0.977893 36:-0.860119 37:-0.580311 38:-0.796034 39:-0.873217 40:-0.924342 41:-0.976027 42:-0.987952 43:-0.982359 44:-0.989101 45:-0.980488 46:-0.95858 47:-0.947195 48:-0.910615 49:-0.858407 50:-0.933333 51:-0.678322 52:-0.828947 53:-0.876289 54:-0.897436 55:-0.97619 56:-0.927273 57:-0.95 58:-0.953488 59:-1 60:0.133994 61:-0.231405 
0.125 1:-0.987925 2:-0.97447 3:-0.999747 4:-0.200432 5:0.538534 6:-0.895 7:0.0756561 8:-0.996336 9:-0.998932 10:0.573064 11:-0.659865 12:-0.9991 13:-0.0911202 14:-0.998986 15:-1 16:-1 17:-0.973633 18:-0.992317 19:-0.991621 20:-0.998214 21:-0.917489 22:-0.897213 23:-0.85563 24:-0.98709 25:-0.779854 26:-0.927953 27:-1 28:-1 29:-0.923694 30:-0.986568 31:-0.732504 32:-0.978853 33:-0.902884 34:-0.963346 35:-0.9987 36:-1 37:-0.989637 38:-0.994334 39:-1 40:-0.996711 41:-0.996575 42:-0.991968 43:-0.99559 44:-0.989101 45:-0.995122 46:-0.988166 47:-0.980198 48:-0.988827 49:-0.982301 50:-0.992593 51:-0.986014 52:-0.973684 53:-0.917526 54:-0.769231 55:-0.666667 56:-0.854545 57:-0.75 58:-0.953488 59:-0.986207 60:-0.358918 61:-0.0680138 
0.125 1:-0.988804 2:-0.987763 3:-0.992265 4:-0.18398 5:0.543537 6:-0.973578 7:0.0689904 8:-0.997135 9:-0.999618 10:0.573064 11:-0.659865 12:-0.999374 13:-0.0911202 14:-0.999414 15:-0.950526 16:-0.871768 17:-1 18:-1 19:-0.972329 20:-0.85842 21:-1 22:-1 23:-0.9732 24:-0.878041 25:-1 26:-1 27:-1 28:-1 29:-0.812742 30:-0.916849 31:-1 32:-1 33:-0.928265 34:-0.93383 35:-0.994365 36:-0.979167 37:-0.968912 38:-0.988669 39:-0.993661 40:-0.986842 41:-0.986301 42:-0.993976 43:-0.993385 44:-0.996367 45:-0.998374 46:-0.988166 47:-0.973597 48:-0.96648 49:-0.99115 50:-0.985185 51:-0.958042 52:-0.986842 53:-1 54:-0.974359 55:-1 56:-1 57:-1 58:-0.953488 59:-0.986207 60:-0.0907241 61:-0.307725 
0.125 1:-0.988584 2:-0.974436 3:-0.999686 4:-0.201147 5:0.538625 6:-0.889859 7:0.0732232 8:-0.995479 9:-0.998671 10:0.573064 11:-0.659865 12:-0.999231 13:-0.0911202 14:-0.999125 15:-1 16:-1 17:-1 18:-1 19:-0.703854 20:-0.76827 21:-1 22:-1 23:-0.748006 24:-0.837855 25:-1 26:-1 27:-1 28:-1 29:-0.791495 30:-0.919626 31:-1 32:-1 33:-0.891829 34:-0.91704 35:-0.998266 36:-0.991071 37:-1 38:-0.977337 39:-0.99683 40:-0.996711 41:-1 42:-0.991968 43:-0.99559 44:-0.996367 45:-0.985366 46:-0.994083 47:-0.976898 48:-0.994413 49:-0.964602 50:-0.985185 51:-0.944056 52:-0.921053 53:-0.979381 54:-0.794872 55:-0.880952 56:-0.963636 57:-0.75 58:-1 59:-1 60:-0.329315 61:-0.196712 
0.125 1:-0.951043 2:-0.987583 3:-0.98619 4:-0.198634 5:0.528112 6:-0.999418 7:0.0652668 8:-0.990883 9:-0.996473 10:0.543519 11:-0.658339 12:-0.993864 13:-0.0911202 14:-0.993931 15:-0.806523 16:-0.863571 17:-0.848721 18:-0.849563 19:-0.897371 20:-0.827032 21:-0.962685 22:-0.834585 23:-0.92375 24:-0.799306 25:-0.939465 26:-0.741202 27:-0.945275 28:-0.733332 29:-0.935407 30:-0.740945 31:-0.978401 32:-0.934093 33:-0.966869 34:-0.936665 35:-0.999567 36:-0.988095 37:-0.974093 38:-0.92068 39:-0.971474 40:-0.970395 41:-0.94863 42:-0.959839 43:-0.929438 44:-0.963669 45:-0.969106 46:-0.920118 47:-0.966997 48:-0.949721 49:-0.867257 50:-0.933333 51:-0.86014 52:-0.894737 53:-0.876289 54:-0.948718 55:-0.952381 56:-0.963636 57:-1 58:-1 59:-1 60:-0.124628 61:0.171962 
0.125 1:-0.988804 2:-0.987727 3:-0.992291 4:-0.183979 5:0.544368 6:-0.973485 7:0.0700559 8:-0.996708 9:-0.999638 10:0.573064 11:-0.659865 12:-0.999389 13:-0.0911202 14:-0.999417 15:-0.948342 16:-0.843807 17:-1 18:-1 19:-0.967089 20:-0.8557 21:-1 22:-1 23:-0.980546 24:-0.868834 25:-1 26:-1 27:-1 28:-1 29:-0.834198 30:-0.932783 31:-1 32:-1 33:-0.93242 34:-0.935222 35:-0.993932 36:-0.979167 37:-0.974093 38:-0.983003 39:-0.990491 40:-0.986842 41:-0.996575 42:-0.995984 43:-0.99118 44:-0.996367 45:-0.993496 46:-0.994083 47:-0.966997 48:-0.977654 49:-0.99115 50:-0.962963 51:-0.986014 52:-1 53:-0.979381 54:-1 55:-0.97619 56:-1 57:-1 58:-1 59:-0.986207 60:-0.106779 61:-0.321984 
0.125 1:-0.988145 2:-0.97447 3:-0.999684 4:-0.201148 5:0.538541 6:-0.889972 7:0.0743052 8:-0.995308 9:-0.998609 10:0.573064 11:-0.659865 12:-0.999183 13:-0.0911202 14:-0.999061 15:-0.991631 16:-0.994209 17:-1 18:-1 19:-0.703314 20:-0.76486 21:-1 22:-1 23:-0.737553 24:-0.85968 25:-1 26:-1 27:-1 28:-1 29:-0.791745 30:-0.923766 31:-1 32:-1 33:-0.879918 34:-0.90919 35:-0.997399 36:-0.997024 37:-0.984456 38:-0.983003 39:-0.99683 40:-0.996711 41:-0.996575 42:-0.995984 43:-0.99559 44:-0.99455 45:-0.993496 46:-0.988166 47:-0.986799 48:-0.972067 49:-0.973451 50:-0.992593 51:-0.944056 52:-0.947368 53:-0.896907 54:-0.974359 55:-0.880952 56:-0.745455 57:-0.95 58:-0.72093 59:-0.986207 60:-0.289466 61:-0.204963 
0.125 1:-0.983754 2:-0.974057 3:-0.992124 4:-0.174642 5:0.548605 6:-0.919321 7:0.0838513 8:-0.991334 9:-0.997261 10:0.573064 11:-0.659865 12:-0.999012 13:-0.0911202 14:-0.998395 15:-0.692657 16:-0.942314 17:-1 18:-1 19:-0.700114 20:-0.922067 21:-1 22:-1 23:-1 24:-1 25:-0.714829 26:-0.886593 27:-1 28:-1 29:-0.811214 30:-0.853451 31:-1 32:-1 33:-0.891935 34:-0.953091 35:-0.998266 36:-0.973214 37:-0.901554 38:-0.943343 39:-0.977813 40:-0.993421 41:-0.976027 42:-0.987952 43:-0.988975 44:-0.983651 45:-0.996748 46:-0.982249 47:-0.993399 48:-0.988827 49:-0.973451 50:-0.992593 51:-0.958042 52:-0.986842 53:-1 54:-1 55:-1 56:-1 57:-1 58:-1 59:-1 60:-0.241705 61:-0.395019 
0.125 1:-0.965532 2:-0.987268 3:-0.998901 4:-0.190051 5:0.523829 6:-0.949752 7:-0.00957967 8:-0.835653 9:-0.998219 10:0.572531 11:-0.660004 12:-0.996396 13:-0.0912308 14:-0.996462 15:-0.926688 16:-0.96923 17:-0.90996 18:-0.906088 19:-0.892864 20:-0.942405 21:-0.897112 22:-0.949534 23:-0.817013 24:-0.870024 25:-0.889985 26:-0.97046 27:-0.806555 28:-0.901143 29:-0.787424 30:-0.894495 31:-0.710088 32:-0.920586 33:-0.884779 34:-0.972648 35:-0.991331 36:-0.973214 37:-0.917098 38:-0.949008 39:-0.965135 40:-0.917763 41:-0.972603 42:-0.965863 43:-0.975744 44:-0.990917 45:-0.993496 46:-0.964497 47:-0.986799 48:-0.955307 49:-0.946903 50:-0.977778 51:-0.986014 52:-0.986842 53:-0.958763 54:-0.974359 55:-0.904762 56:-1 57:-0.95 58:-0.906977 59:-0.986207 60:-0.0412913 61:-0.238065 
0.125 1:-0.988804 2:-0.974419 3:-0.999689 4:-0.201115 5:0.538532 6:-0.889855 7:0.0745199 8:-0.995207 9:-0.998693 10:0.57333 11:-0.659865 12:-0.999228 13:-0.0911202 14:-0.999121 15:-0.991608 16:-0.999097 17:-1 18:-1 19:-0.70311 20:-0.76779 21:-1 22:-1 23:-0.743754 24:-0.81309 25:-1 26:-1 27:-1 28:-1 29:-0.789307 30:-0.925724 31:-1 32:-1 33:-0.890855 34:-0.90617 35:-0.9987 36:-0.991071 37:-0.989637 38:-0.994334 39:-0.993661 40:-0.993421 41:-1 42:-0.995984 43:-0.99559 44:-0.998183 45:-0.988618 46:-0.985207 47:-0.990099 48:-0.977654 49:-0.973451 50:-0.985185 51:-0.944056 52:-0.947368 53:-0.938144 54:-0.974359 55:-0.833333 56:-0.745455 57:-0.95 58:-0.767442 59:-0.986207 60:-0.321363 61:-0.183821 
0.125 1:-0.989023 2:-0.988155 3:-0.99226 4:-0.183965 5:0.544077 6:-0.973524 7:0.0696723 8:-0.996585 9:-0.999605 10:0.573064 11:-0.659865 12:-0.999353 13:-0.0911202 14:-0.999396 15:-0.927897 16:-0.826403 17:-1 18:-1 19:-0.97285 20:-0.8739 21:-1 22:-1 23:-0.978671 24:-0.879643 25:-1 26:-1 27:-1 28:-1 29:-0.816912 30:-0.933943 31:-1 32:-1 33:-0.941532 34:-0.932199 35:-0.994365 36:-0.97619 37:-0.974093 38:-0.988669 39:-0.990491 40:-0.986842 41:-0.996575 42:-0.993976 43:-0.988975 44:-0.99455 45:-0.996748 46:-0.994083 47:-0.986799 48:-0.977654 49:-0.946903 50:-0.97037 51:-0.972028 52:-0.986842 53:-1 54:-0.974359 55:-1 56:-1 57:-1 58:-1 59:-0.986207 60:-0.103391 61:-0.317546 
0.125 1:-0.989901 2:-0.974367 3:-0.999696 4:-0.201069 5:0.538845 6:-0.889868 7:0.0704483 8:-0.997026 9:-0.99911 10:0.573064 11:-0.659796 12:-0.999339 13:-0.0910096 14:-0.999285 15:-0.738152 16:-0.822929 17:-1 18:-1 19:-1 20:-1 21:-0.762152 22:-0.8271 23:-1 24:-1 25:-1 26:-1 27:-0.832761 28:-0.934842 29:-1 30:-1 31:-1 32:-1 33:-0.894225 34:-0.905889 35:-1 36:-0.991071 37:-0.984456 38:-0.988669 39:-0.99683 40:-0.983553 41:-0.989726 42:-0.987952 43:-0.977949 44:-0.992734 45:-0.995122 46:-0.991124 47:-0.980198 48:-0.955307 49:-0.973451 50:-1 51:-0.874126 52:-1 53:-1 54:-1 55:-1 56:-1 57:-1 58:-0.953488 59:-1 60:-0.328419 61:-0.110314 
0.125 1:-0.986608 2:-0.970872 3:-0.976915 4:-0.218074 5:0.546078 6:-0.971966 7:0.0586912 8:-0.996794 9:-0.998824 10:0.573064 11:-0.659865 12:-0.998388 13:-0.0911202 14:-0.998326 15:-0.880902 16:-0.833156 17:-0.975751 18:-0.95785 19:-0.916711 20:-0.921767 21:-1 22:-1 23:-0.869297 24:-0.832068 25:-0.902401 26:-0.831433 27:-0.995954 28:-0.983956 29:-0.915272 30:-0.895025 31:-1 32:-1 33:-0.971638 34:-0.949679 35:-0.999133 36:-0.943452 37:-0.943005 38:-0.949008 39:-0.984152 40:-0.996711 41:-0.976027 42:-0.98996 43:-0.997795 44:-0.998183 45:-0.998374 46:-0.997041 47:-0.983498 48:-0.977654 49:-0.973451 50:-1 51:-0.958042 52:-0.986842 53:-0.979381 54:-0.948718 55:-0.97619 56:-0.963636 57:-1 58:-1 59:-0.986207 60:-0.189098 61:-0.486083 
0.125 1:-0.989462 2:-0.988249 3:-0.992267 4:-0.184012 5:0.544191 6:-0.973704 7:0.0697985 8:-0.996515 9:-0.999616 10:0.573064 11:-0.659865 12:-0.999378 13:-0.0911202 14:-0.999418 15:-0.917315 16:-0.830171 17:-1 18:-1 19:-0.968394 20:-0.851434 21:-1 22:-1 23:-0.977157 24:-0.886745 25:-1 26:-1 27:-1 28:-1 29:-0.811427 30:-0.933959 31:-1 32:-1 33:-0.940446 34:-0.926425 35:-0.995232 36:-0.973214 37:-0.974093 38:-0.994334 39:-0.99683 40:-0.980263 41:-0.993151 42:-0.991968 43:-0.99559 44:-0.996367 45:-0.995122 46:-0.994083 47:-0.973597 48:-0.977654 49:-0.964602 50:-0.992593 51:-0.958042 52:-0.986842 53:-0.979381 54:-1 55:-0.97619 56:-1 57:-1 58:-1 59:-0.986207 60:-0.0987867 61:-0.299101 
0.125 1:-0.989901 2:-0.974264 3:-0.999685 4:-0.201176 5:0.53875 6:-0.889729 7:0.0715407 8:-0.996142 9:-0.998946 10:0.573064 11:-0.660421 12:-0.999342 13:-0.0903461 14:-0.999276 15:-0.69977 16:-0.777723 17:-1 18:-1 19:-1 20:-1 21:-0.775366 22:-0.833375 23:-1 24:-1 25:-1 26:-1 27:-0.82094 28:-0.940359 29:-1 30:-1 31:-1 32:-1 33:-0.892568 34:-0.917812 35:-0.999567 36:-1 37:-0.974093 38:-0.994334 39:-0.99683 40:-0.990132 41:-0.976027 42:-0.98996 43:-0.99118 44:-0.987284 45:-0.995122 46:-0.97929 47:-0.990099 48:-0.98324 49:-0.911504 50:-0.985185 51:-1 52:-0.894737 53:-1 54:-1 55:-1 56:-1 57:-1 58:-1 59:-1 60:-0.368186 61:-0.1487 
0.125 1:-0.988804 2:-0.988483 3:-0.992313 4:-0.184016 5:0.54526 6:-0.973562 7:0.0711793 8:-0.995703 9:-0.999598 10:0.572531 11:-0.659865 12:-0.999362 13:-0.092226 14:-0.999387 15:-0.912289 16:-0.798379 17:-1 18:-1 19:-0.975451 20:-0.871597 21:-1 22:-1 23:-0.979601 24:-0.878067 25:-1 26:-1 27:-1 28:-1 29:-0.831839 30:-0.94774 31:-1 32:-1 33:-0.956578 34:-0.929884 35:-0.992631 36:-0.988095 37:-0.979275 38:-0.977337 39:-0.990491 40:-0.996711 41:-0.986301 42:-0.991968 43:-0.99118 44:-0.998183 45:-0.993496 46:-0.985207 47:-0.980198 48:-0.977654 49:-0.955752 50:-0.992593 51:-1 52:-0.973684 53:-0.979381 54:-1 55:-1 56:-1 57:-1 58:-1 59:-0.986207 60:-0.103807 61:-0.318543 
0.125 1:-0.988364 2:-0.97447 3:-0.999696 4:-0.201022 5:0.538819 6:-0.889527 7:0.0708805 8:-0.997048 9:-0.998923 10:0.573064 11:-0.659935 12:-0.99916 13:-0.0911202 14:-0.999075 15:-0.991482 16:-0.997484 17:-1 18:-1 19:-0.729754 20:-0.828211 21:-1 22:-1 23:-0.75605 24:-0.853923 25:-1 26:-1 27:-1 28:-1 29:-0.769638 30:-0.908254 31:-1 32:-1 33:-0.865297 34:-0.949829 35:-0.998266 36:-0.991071 37:-0.979275 38:-1 39:-1 40:-0.986842 41:-0.979452 42:-0.98996 43:-0.982359 44:-0.992734 45:-0.99187 46:-0.994083 47:-0.993399 48:-0.988827 49:-0.982301 50:-0.948148 51:-0.86014 52:-0.921053 53:-0.979381 54:-1 55:-0.952381 56:-1 57:-1 58:-1 59:-1 60:-0.255302 61:-0.172854 
0.125 1:-0.983754 2:-0.980487 3:-0.999147 4:-0.203326 5:0.535673 6:-0.915471 7:0.0893191 8:-0.981407 9:-0.996667 10:0.574927 11:-0.659865 12:-0.998108 13:-0.088798 14:-0.997839 15:-0.655913 16:-0.833438 17:-1 18:-1 19:-0.765335 20:-0.664272 21:-1 22:-1 23:-1 24:-1 25:-0.808363 26:-0.638848 27:-1 28:-1 29:-0.837875 30:-0.925784 31:-1 32:-1 33:-0.929015 34:-0.965294 35:-0.999133 36:-0.988095 37:-0.979275 38:-0.994334 39:-1 40:-0.970395 41:-0.982877 42:-0.991968 43:-0.988975 44:-1 45:-0.990244 46:-0.994083 47:-0.993399 48:-0.949721 49:-0.99115 50:-0.940741 51:-0.79021 52:-0.921053 53:-0.958763 54:-0.974359 55:-0.833333 56:-0.927273 57:-0.9 58:-1 59:-0.986207 60:-0.268845 61:-0.0921413 
0.125 1:-0.989462 2:-0.974264 3:-0.999706 4:-0.200987 5:0.538944 6:-0.889378 7:0.069238 8:-0.997534 9:-0.999093 10:0.573064 11:-0.659865 12:-0.999315 13:-0.0911202 14:-0.999245 15:-0.740412 16:-0.834308 17:-1 18:-1 19:-1 20:-1 21:-0.762009 22:-0.847561 23:-1 24:-1 25:-1 26:-1 27:-0.81546 28:-0.923033 29:-1 30:-1 31:-1 32:-1 33:-0.877891 34:-0.929727 35:-0.999567 36:-0.994048 37:-0.974093 38:-0.994334 39:-1 40:-0.993421 41:-0.986301 42:-0.987952 43:-0.99118 44:-0.992734 45:-0.985366 46:-0.991124 47:-0.990099 48:-0.988827 49:-0.982301 50:-0.962963 51:-1 52:-0.868421 53:-0.835052 54:-0.974359 55:-1 56:-1 57:-1 58:-1 59:-1 60:-0.321184 61:-0.152267 
0.125 1:-0.994951 2:-0.969987 3:-0.981408 4:-0.17087 5:0.501982 6:-0.953018 7:0.0233907 8:-0.946984 9:-0.99976 10:0.573064 11:-0.659865 12:-0.999646 13:-0.0911202 14:-0.999632 15:-0.886823 16:-0.89237 17:-1 18:-1 19:-1 20:-1 21:-0.913562 22:-0.862186 23:-1 24:-1 25:-1 26:-1 27:-0.93482 28:-0.907639 29:-1 30:-1 31:-1 32:-1 33:-0.97265 34:-0.945631 35:-0.9987 36:-0.985119 37:-0.994819 38:-1 39:-0.987322 40:-1 41:-1 42:-0.997992 43:-0.997795 44:-1 45:-0.998374 46:-0.973373 47:-0.993399 48:-0.972067 49:-0.955752 50:-0.992593 51:-0.944056 52:-0.973684 53:-0.979381 54:-0.948718 55:-1 56:-1 57:-1 58:-1 59:-1 60:-0.451484 61:0.00365165 
0.125 1:-0.988364 2:-0.987498 3:-0.992235 4:-0.183921 5:0.544124 6:-0.973425 7:0.0697329 8:-0.996721 9:-0.999619 10:0.573064 11:-0.659865 12:-0.999346 13:-0.0911202 14:-0.999387 15:-0.956684 16:-0.848358 17:-1 18:-1 19:-0.978439 20:-0.875362 21:-1 22:-1 23:-0.976953 24:-0.881192 25:-1 26:-1 27:-1 28:-1 29:-0.81083 30:-0.922257 31:-1 32:-1 33:-0.932252 34:-0.933482 35:-0.993932 36:-0.982143 37:-0.963731 38:-0.994334 39:-0.987322 40:-0.983553 41:-0.982877 42:-0.997992 43:-0.98677 44:-0.998183 45:-0.99187 46:-0.991124 47:-0.990099 48:-0.972067 49:-0.982301 50:-0.977778 51:-0.972028 52:-1 53:-0.958763 54:-1 55:-1 56:-1 57:-1 58:-1 59:-0.972414 60:-0.0709777 61:-0.317584 
0.125 1:-0.989682 2:-0.974247 3:-0.999699 4:-0.20107 5:0.53864 6:-0.889807 7:0.073182 8:-0.99643 9:-0.998994 10:0.573064 11:-0.660212 12:-0.999392 13:-0.0917837 14:-0.999301 15:-0.734033 16:-0.83251 17:-1 18:-1 19:-1 20:-1 21:-0.743223 22:-0.878226 23:-1 24:-1 25:-1 26:-1 27:-0.802904 28:-0.903561 29:-1 30:-1 31:-1 32:-1 33:-0.918234 34:-0.955154 35:-0.999133 36:-1 37:-0.989637 38:-0.988669 39:-0.99683 40:-0.996711 41:-0.986301 42:-0.995984 43:-0.988975 44:-1 45:-0.986992 46:-0.997041 47:-0.980198 48:-0.977654 49:-0.99115 50:-0.985185 51:-0.972028 52:-0.960526 53:-0.876289 54:-1 55:-0.857143 56:-0.745455 57:-0.9 58:-0.860465 59:-0.986207 60:-0.356003 61:-0.183181 
0.125 1:-0.994512 2:-0.974744 3:-0.974638 4:-0.194521 5:0.532793 6:-0.999765 7:0.0633735 8:-0.998717 9:-0.999017 10:0.573064 11:-0.659865 12:-0.998675 13:-0.0911202 14:-0.998513 15:-0.989588 16:-0.914469 17:-0.931385 18:-0.831226 19:-1 20:-1 21:-0.981928 22:-0.753333 23:-0.968196 24:-0.711819 25:-1 26:-1 27:-0.985467 28:-0.758095 29:-1 30:-1 31:-0.98466 32:-0.72063 33:-0.946208 34:-0.918034 35:-1 36:-0.994048 37:-0.979275 38:-0.971671 39:-0.987322 40:-0.983553 41:-0.986301 42:-0.985944 43:-0.997795 44:-0.989101 45:-1 46:-0.997041 47:-1 48:-1 49:-0.982301 50:-0.992593 51:-0.972028 52:-0.973684 53:-1 54:-0.974359 55:-0.97619 56:-0.963636 57:-1 58:-1 59:-1 60:-0.256533 61:-0.305923 
0.125 1:-0.80022 2:-0.997105 3:-0.99604 4:-0.197001 5:0.533895 6:-0.999778 7:0.0645569 8:-0.990288 9:-0.98386 10:0.572531 11:-0.660074 12:-0.977507 13:-0.090899 14:-0.978082 15:-0.782713 16:-0.849078 17:-0.804698 18:-0.852222 19:-0.825908 20:-0.853858 21:-0.843776 22:-0.840758 23:-0.884738 24:-0.835152 25:-0.884182 26:-0.791179 27:-0.86631 28:-0.778631 29:-0.776974 30:-0.697578 31:-0.830161 32:-0.6689 33:-0.871108 34:-0.722058 35:-0.794105 36:-0.97619 37:-0.974093 38:-0.932011 39:-0.952456 40:-0.930921 41:-0.941781 42:-0.959839 43:-0.971334 44:-0.970936 45:-0.947967 46:-0.908284 47:-0.881188 48:-0.743017 49:-0.619469 50:-0.703704 51:-0.608392 52:-0.592105 53:-0.690722 54:-0.769231 55:-0.785714 56:-0.854545 57:-0.85 58:-0.860465 59:-0.972414 60:0.299895 61:-0.303293 
0.125 1:-0.988364 2:-0.988483 3:-0.992296 4:-0.184007 5:0.544983 6:-0.973581 7:0.0708198 8:-0.995786 9:-0.999557 10:0.573064 11:-0.659865 12:-0.999339 13:-0.0911202 14:-0.999369 15:-0.912289 16:-0.798945 17:-1 18:-1 19:-0.97603 20:-0.86994 21:-1 22:-1 23:-0.976937 24:-0.870567 25:-1 26:-1 27:-1 28:-1 29:-0.819384 30:-0.933012 31:-1 32:-1 33:-0.94515 34:-0.934856 35:-0.993065 36:-0.988095 37:-0.953368 38:-0.994334 39:-0.993661 40:-0.983553 41:-0.996575 42:-0.987952 43:-0.988975 44:-0.998183 45:-0.996748 46:-0.970414 47:-0.973597 48:-0.988827 49:-0.99115 50:-0.992593 51:-0.986014 52:-1 53:-1 54:-1 55:-1 56:-1 57:-0.9 58:-1 59:-1 60:-0.0950889 61:-0.319022 
0.125 1:-0.977168 2:-0.970853 3:-0.973395 4:-0.212764 5:0.555302 6:-0.986045 7:0.0558816 8:-0.990184 9:-0.997952 10:0.572797 11:-0.659865 12:-0.996505 13:-0.0911202 14:-0.996544 15:-0.808269 16:-0.89965 17:-0.840376 18:-0.902233 19:-1 20:-1 21:-0.874999 22:-0.845773 23:-1 24:-1 25:-0.885152 26:-0.695639 27:-0.935279 28:-0.708267 29:-1 30:-1 31:-0.92863 32:-0.709369 33:-0.955432 34:-0.920329 35:-0.997833 36:-0.994048 37:-0.989637 38:-0.988669 39:-0.987322 40:-0.996711 41:-0.996575 42:-0.983936 43:-0.98677 44:-0.989101 45:-0.995122 46:-0.976331 47:-0.957096 48:-0.949721 49:-0.911504 50:-0.911111 51:-0.846154 52:-0.868421 53:-0.938144 54:-0.820513 55:-0.952381 56:-0.927273 57:-0.95 58:-1 59:-1 60:-0.307989 61:-0.0244014 
0.125 1:-0.989243 2:-0.987498 3:-0.992274 4:-0.183959 5:0.544929 6:-0.973461 7:0.0707581 8:-0.995951 9:-0.99965 10:0.573064 11:-0.659865 12:-0.9994 13:-0.0911202 14:-0.999441 15:-0.936434 16:-0.843832 17:-1 18:-1 19:-0.978476 20:-0.878449 21:-1 22:-1 23:-0.979685 24:-0.888233 25:-0.98627 26:-0.985686 27:-1 28:-1 29:-0.829279 30:-0.934652 31:-1 32:-1 33:-0.944608 34:-0.935225 35:-0.995232 36:-0.967262 37:-0.968912 38:-1 39:-0.993661 40:-0.986842 41:-0.982877 42:-0.997992 43:-0.988975 44:-0.998183 45:-0.998374 46:-0.970414 47:-0.980198 48:-0.98324 49:-0.982301 50:-0.985185 51:-0.986014 52:-1 53:-1 54:-1 55:-1 56:-0.963636 57:-1 58:-0.953488 59:-1 60:-0.0788899 61:-0.308447 
0.125 1:-0.988804 2:-0.974401 3:-0.999686 4:-0.201145 5:0.538637 6:-0.889293 7:0.073117 8:-0.995632 9:-0.998648 10:0.573064 11:-0.659865 12:-0.999228 13:-0.0911202 14:-0.999105 15:-1 16:-1 17:-1 18:-1 19:-0.702734 20:-0.767475 21:-1 22:-1 23:-0.742811 24:-0.872545 25:-1 26:-1 27:-1 28:-1 29:-0.779437 30:-0.912015 31:-1 32:-1 33:-0.891847 34:-0.904704 35:-0.9987 36:-0.991071 37:-0.989637 38:-0.994334 39:-0.99683 40:-0.990132 41:-0.993151 42:-0.991968 43:-0.99118 44:-0.983651 45:-0.996748 46:-0.97929 47:-0.986799 48:-0.988827 49:-1 50:-0.97037 51:-0.958042 52:-0.960526 53:-0.752577 54:-0.974359 55:-0.952381 56:-0.927273 57:-0.95 58:-1 59:-1 60:-0.313703 61:-0.188246 
0.125 1:-0.983754 2:-0.980532 3:-0.99916 4:-0.203293 5:0.535951 6:-0.915203 7:0.0875616 8:-0.983304 9:-0.996405 10:0.572797 11:-0.659865 12:-0.998191 13:-0.0911202 14:-0.997815 15:-0.656214 16:-0.844876 17:-1 18:-1 19:-0.771302 20:-0.68308 21:-1 22:-1 23:-1 24:-1 25:-0.806651 26:-0.630474 27:-1 28:-1 29:-0.852027 30:-0.917081 31:-1 32:-1 33:-0.921207 34:-0.969553 35:-0.9987 36:-0.988095 37:-0.979275 38:-0.994334 39:-0.99683 40:-0.986842 41:-0.993151 42:-0.98996 43:-0.993385 44:-0.992734 45:-0.995122 46:-0.997041 47:-0.980198 48:-0.98324 49:-0.973451 50:-0.933333 51:-0.748252 52:-0.947368 53:-0.938144 54:-0.897436 55:-0.857143 56:-0.818182 57:-0.95 58:-1 59:-0.986207 60:-0.256595 61:-0.0743471 
0.125 1:-0.944237 2:-0.993274 3:-0.999038 4:-0.200708 5:0.53779 6:-0.971208 7:0.0695847 8:-0.994424 9:-0.992473 10:0.572531 11:-0.659865 12:-0.996491 13:-0.0912308 14:-0.995469 15:-0.929221 16:-0.935662 17:-0.949264 18:-0.849787 19:-0.774632 20:-0.884704 21:-0.857122 22:-0.907123 23:-1 24:-1 25:-0.614021 26:-0.779363 27:-0.804333 28:-0.783335 29:-0.907362 30:-0.875594 31:-0.882461 32:-0.953489 33:-0.868664 34:-0.915656 35:-0.958388 36:-0.955357 37:-0.92228 38:-0.971671 39:-0.974643 40:-0.973684 41:-0.969178 42:-0.963855 43:-0.98677 44:-0.998183 45:-0.985366 46:-0.97929 47:-0.957096 48:-0.949721 49:-0.858407 50:-0.933333 51:-0.902098 52:-0.934211 53:-0.896907 54:-0.846154 55:-0.857143 56:-0.963636 57:-0.95 58:-0.860465 59:-1 60:0.0828967 61:-0.33585 
0.125 1:-0.989243 2:-0.974401 3:-0.999707 4:-0.200962 5:0.538793 6:-0.889551 7:0.0713301 8:-0.996969 9:-0.998983 10:0.573064 11:-0.659865 12:-0.999278 13:-0.0911202 14:-0.999191 15:-1 16:-1 17:-1 18:-1 19:-0.731792 20:-0.823984 21:-1 22:-1 23:-0.738713 24:-0.866341 25:-1 26:-1 27:-1 28:-1 29:-0.78226 30:-0.91201 31:-1 32:-1 33:-0.884961 34:-0.899194 35:-0.999133 36:-0.988095 37:-0.994819 38:-0.988669 39:-1 40:-0.993421 41:-1 42:-0.993976 43:-0.99118 44:-0.996367 45:-0.990244 46:-0.985207 47:-0.990099 48:-0.972067 49:-0.973451 50:-0.962963 51:-0.958042 52:-1 53:-0.938144 54:-0.897436 55:-0.857143 56:-0.963636 57:-0.65 58:-0.906977 59:-1 60:-0.303018 61:-0.1878 
0.125 1:-0.988364 2:-0.974453 3:-0.99969 4:-0.201115 5:0.538623 6:-0.889706 7:0.0733238 8:-0.995419 9:-0.998612 10:0.573064 11:-0.659865 12:-0.999224 13:-0.0911202 14:-0.999106 15:-1 16:-1 17:-1 18:-1 19:-0.706403 20:-0.773065 21:-1 22:-1 23:-0.738589 24:-0.816024 25:-1 26:-1 27:-1 28:-1 29:-0.788962 30:-0.939971 31:-1 32:-1 33:-0.878054 34:-0.916607 35:-0.998266 36:-0.994048 37:-0.989637 38:-0.994334 39:-0.990491 40:-1 41:-0.996575 42:-0.993976 43:-0.993385 44:-0.998183 45:-0.988618 46:-0.982249 47:-0.986799 48:-0.977654 49:-0.973451 50:-0.985185 51:-0.93007 52:-0.986842 53:-0.835052 54:-0.974359 55:-0.928571 56:-0.709091 57:-0.95 58:-0.860465 59:-0.986207 60:-0.338096 61:-0.212152 
0.125 1:-0.999341 2:-0.866069 3:-0.873584 4:-0.256435 5:0.475994 6:-0.961171 7:0.0875676 8:-0.974859 9:-0.999752 10:0.573064 11:-0.659865 12:-0.999392 13:-0.0911202 14:-0.999442 15:-0.952222 16:-0.930198 17:-1 18:-1 19:-1 20:-1 21:-1 22:-1 23:-0.799971 24:-0.877714 25:-1 26:-1 27:-1 28:-1 29:-1 30:-1 31:-1 32:-1 33:-0.865426 34:-0.88935 35:-0.999567 36:-1 37:-0.994819 38:-0.994334 39:-0.987322 40:-1 41:-0.996575 42:-0.997992 43:-0.99118 44:-0.992734 45:-0.998374 46:-0.997041 47:-0.9967 48:-0.994413 49:-0.982301 50:-0.992593 51:-0.986014 52:-1 53:-1 54:-0.948718 55:-1 56:-1 57:-1 58:-1 59:-1 60:-0.439155 61:-0.417761 
0.125 1:-0.981998 2:-0.97858 3:-0.977095 4:-0.196196 5:0.534066 6:-0.99999 7:0.0637181 8:-0.995207 9:-0.998571 10:0.573064 11:-0.659865 12:-0.997663 13:-0.0911202 14:-0.9978 15:-0.992855 16:-0.983522 17:-0.937475 18:-0.879833 19:-0.888 20:-0.873661 21:-1 22:-1 23:-0.874867 24:-0.819483 25:-0.846928 26:-0.800494 27:-1 28:-1 29:-0.888649 30:-0.774313 31:-0.960904 32:-0.879101 33:-0.994013 34:-0.940349 35:-0.994798 36:-0.991071 37:-1 38:-0.971671 39:-0.980983 40:-0.993421 41:-0.965753 42:-0.975904 43:-0.988975 44:-0.978202 45:-0.98374 46:-0.97929 47:-0.986799 48:-0.988827 49:-0.955752 50:-0.962963 51:-1 52:-0.960526 53:-0.938144 54:-1 55:-1 56:-1 57:-1 58:-1 59:-1 60:-0.125437 61:-0.0707014 
0.125 1:-0.99034 2:-0.9867 3:-0.992198 4:-0.183795 5:0.542385 6:-0.973016 7:0.067566 8:-0.998325 9:-0.99972 10:0.573064 11:-0.659865 12:-0.999459 13:-0.0911202 14:-0.999489 15:-0.967258 16:-0.903508 17:-1 18:-1 19:-0.971731 20:-0.905365 21:-1 22:-1 23:-0.980115 24:-0.882715 25:-1 26:-1 27:-1 28:-1 29:-0.825023 30:-0.934769 31:-1 32:-1 33:-0.926803 34:-0.934502 35:-0.994365 36:-0.979167 37:-0.968912 38:-0.994334 39:-0.99683 40:-0.986842 41:-0.982877 42:-0.993976 43:-0.99118 44:-0.998183 45:-0.998374 46:-0.973373 47:-0.986799 48:-0.988827 49:-0.973451 50:-0.985185 51:-0.986014 52:-1 53:-0.979381 54:-1 55:-1 56:-1 57:-1 58:-1 59:-1 60:-0.133394 61:-0.34234 
0.125 1:-0.988145 2:-0.974384 3:-0.999685 4:-0.201083 5:0.538525 6:-0.889918 7:0.0746713 8:-0.995464 9:-0.998697 10:0.573064 11:-0.661531 12:-0.999079 13:-0.089572 14:-0.998975 15:-0.824682 16:-0.993706 17:-1 18:-1 19:-1 20:-1 21:-0.70996 22:-0.776131 23:-1 24:-1 25:-0.721422 26:-0.814 27:-1 28:-1 29:-0.776151 30:-0.926771 31:-1 32:-1 33:-0.879945 34:-0.91711 35:-0.999567 36:-0.988095 37:-0.989637 38:-0.988669 39:-0.993661 40:-1 41:-0.989726 42:-1 43:-0.997795 44:-0.987284 45:-0.998374 46:-0.97929 47:-0.9967 48:-0.949721 49:-0.99115 50:-0.962963 51:-0.944056 52:-0.960526 53:-0.958763 54:-0.923077 55:-0.857143 56:-0.745455 57:-0.95 58:-0.813953 59:-0.972414 60:-0.330741 61:-0.195025 
0.125 1:-0.998244 2:-0.866069 3:-0.873087 4:-0.256238 5:0.487117 6:-0.961571 7:0.0832411 8:-0.982485 9:-0.99969 10:0.573064 11:-0.659865 12:-0.999282 13:-0.0911202 14:-0.999324 15:-0.957039 16:-0.928532 17:-1 18:-1 19:-1 20:-1 21:-1 22:-1 23:-0.798934 24:-0.850496 25:-1 26:-1 27:-1 28:-1 29:-1 30:-1 31:-1 32:-1 33:-0.896193 34:-0.86163 35:-0.999567 36:-0.988095 37:-1 38:-0.977337 39:-0.99683 40:-0.993421 41:-1 42:-0.995984 43:-1 44:-0.992734 45:-1 46:-0.991124 47:-1 48:-0.988827 49:-0.982301 50:-0.985185 51:-0.972028 52:-0.973684 53:-1 54:-1 55:-1 56:-1 57:-1 58:-1 59:-0.986207 60:-0.351325 61:-0.439917 
0.125 1:-0.989682 2:-0.974074 3:-0.999699 4:-0.201062 5:0.538909 6:-0.889334 7:0.0696312 8:-0.997273 9:-0.999041 10:0.573064 11:-0.659865 12:-0.999352 13:-0.0911202 14:-0.999273 15:-0.741512 16:-0.843396 17:-1 18:-1 19:-1 20:-1 21:-0.749075 22:-0.825063 23:-1 24:-1 25:-1 26:-1 27:-0.819269 28:-0.950258 29:-1 30:-1 31:-1 32:-1 33:-0.891069 34:-0.914602 35:-0.9987 36:-0.994048 37:-0.994819 38:-0.988669 39:-0.987322 40:-0.980263 41:-0.965753 42:-0.981928 43:-0.988975 44:-0.99455 45:-0.99187 46:-0.973373 47:-0.983498 48:-0.96648 49:-0.99115 50:-1 51:-1 52:-1 53:-1 54:-1 55:-1 56:-1 57:-1 58:-1 59:-1 60:-0.334768 61:-0.151026 
0.125 1:-0.997805 2:-0.960054 3:-0.989915 4:-0.226557 5:0.532684 6:-0.876119 7:0.0796054 8:-0.995344 9:-0.999202 10:0.573596 11:-0.659935 12:-0.99958 13:-0.0911202 14:-0.999432 15:-1 16:-1 17:-0.963533 18:-0.968729 19:-1 20:-1 21:-0.867277 22:-0.848596 23:-1 24:-1 25:-0.805031 26:-0.92512 27:-1 28:-1 29:-0.74608 30:-0.795936 31:-0.882148 32:-0.961454 33:-1 34:-1 35:-0.995665 36:-1 37:-1 38:-1 39:-1 40:-1 41:-1 42:-1 43:-1 44:-1 45:-1 46:-1 47:-1 48:-1 49:-1 50:-1 51:-1 52:-1 53:-1 54:-1 55:-1 56:-1 57:-1 58:-1 59:-0.668966 60:-0.97048 61:-0.973727 
0.125 1:-0.94775 2:-0.990302 3:-0.990326 4:-0.191669 5:0.534826 6:-0.997033 7:0.0620219 8:-0.997734 9:-0.998022 10:0.57333 11:-0.660004 12:-0.993814 13:-0.090899 14:-0.993989 15:-0.967235 16:-0.911383 17:-0.960916 18:-0.881262 19:-0.949671 20:-0.871874 21:-0.940725 22:-0.861316 23:-0.899405 24:-0.83147 25:-0.837923 26:-0.821034 27:-0.878364 28:-0.813858 29:-0.902923 30:-0.840697 31:-0.896965 32:-0.899637 33:-0.953365 34:-0.916237 35:-0.997399 36:-0.967262 37:-0.968912 38:-0.966006 39:-0.965135 40:-0.940789 41:-0.924658 42:-0.929719 43:-0.969129 44:-0.978202 45:-0.990244 46:-0.95858 47:-0.976898 48:-0.910615 49:-0.955752 50:-0.888889 51:-0.734266 52:-0.815789 53:-0.835052 54:-0.820513 55:-0.952381 56:-0.781818 57:-0.95 58:-0.953488 59:-1 60:-0.135012 61:-0.0291449 
0.125 1:-0.976509 2:-0.981394 3:-0.994717 4:-0.181106 5:0.539688 6:-0.94012 7:0.0645123 8:-0.997459 9:-0.99852 10:0.573064 11:-0.659935 12:-0.996409 13:-0.0910096 14:-0.996574 15:-0.891111 16:-0.835555 17:-0.878448 18:-0.876232 19:-0.868604 20:-0.900507 21:-1 22:-1 23:-0.864821 24:-0.935347 25:-0.857571 26:-0.929659 27:-1 28:-1 29:-0.776291 30:-0.835758 31:-0.792994 32:-0.940565 33:-0.949757 34:-0.967755 35:-0.997399 36:-0.979167 37:-0.870466 38:-0.813031 39:-0.961965 40:-0.970395 41:-0.996575 42:-0.98996 43:-0.988975 44:-0.992734 45:-1 46:-1 47:-0.983498 48:-1 49:-0.955752 50:-0.977778 51:-0.93007 52:-1 53:-0.979381 54:-0.974359 55:-1 56:-0.963636 57:-0.85 58:-1 59:-1 60:-0.238864 61:-0.460019 
0.125 1:-0.983315 2:-0.978816 3:-0.996259 4:-0.182109 5:0.534994 6:-0.926741 7:0.0505789 8:-0.995389 9:-0.999203 10:0.573064 11:-0.659865 12:-0.998553 13:-0.0911202 14:-0.998551 15:-0.96787 16:-0.992026 17:-0.879704 18:-0.92583 19:-1 20:-1 21:-0.832619 22:-0.893346 23:-0.844984 24:-0.867055 25:-1 26:-1 27:-0.849578 28:-0.903733 29:-1 30:-1 31:-0.820456 32:-0.937188 33:-0.975146 34:-0.982681 35:-0.992631 36:-0.895833 37:-0.979275 38:-0.864023 39:-1 40:-0.983553 41:-0.989726 42:-1 43:-0.997795 44:-0.996367 45:-1 46:-0.997041 47:-0.993399 48:-1 49:-0.99115 50:-1 51:-1 52:-1 53:-0.979381 54:-0.974359 55:-1 56:-0.963636 57:-1 58:-0.953488 59:-0.986207 60:-0.460111 61:-0.726834 
0.125 1:-0.988364 2:-0.974436 3:-0.999681 4:-0.201119 5:0.538559 6:-0.889925 7:0.0741466 8:-0.995674 9:-0.998747 10:0.573064 11:-0.659865 12:-0.999083 13:-0.0911202 14:-0.998987 15:-0.992391 16:-0.987493 17:-1 18:-1 19:-1 20:-1 21:-0.70789 22:-0.772795 23:-1 24:-1 25:-0.730667 26:-0.815202 27:-1 28:-1 29:-0.789429 30:-0.932485 31:-1 32:-1 33:-0.865183 34:-0.949266 35:-0.999133 36:-0.997024 37:-1 38:-0.977337 39:-0.99683 40:-0.993421 41:-1 42:-0.993976 43:-0.984564 44:-0.998183 45:-0.980488 46:-1 47:-0.980198 48:-1 49:-0.982301 50:-0.97037 51:-0.958042 52:-0.894737 53:-1 54:-0.846154 55:-0.880952 56:-0.927273 57:-0.7 58:-0.906977 59:-1 60:-0.355144 61:-0.157998 
0.125 1:-0.989243 2:-0.988013 3:-0.992078 4:-0.183766 5:0.542004 6:-0.973285 7:0.0670441 8:-0.997742 9:-0.999595 10:0.573064 11:-0.659865 12:-0.999334 13:-0.0911202 14:-0.999389 15:-0.984534 16:-0.902955 17:-0.960024 18:-0.954283 19:-0.913651 20:-0.840131 21:-0.970481 22:-0.89275 23:-1 24:-1 25:-0.847574 26:-0.91626 27:-1 28:-1 29:-0.924058 30:-0.944927 31:-1 32:-1 33:-0.994939 34:-0.982896 35:-0.993498 36:-0.970238 37:-0.989637 38:-0.971671 39:-0.993661 40:-0.990132 41:-0.979452 42:-0.991968 43:-0.99559 44:-0.996367 45:-0.985366 46:-0.991124 47:-0.983498 48:-0.994413 49:-0.982301 50:-0.985185 51:-1 52:-1 53:-1 54:-1 55:-1 56:-1 57:-1 58:-1 59:-1 60:-0.112537 61:-0.340249 
0.125 1:-0.988804 2:-0.974419 3:-0.999688 4:-0.20103 5:0.538702 6:-0.889765 7:0.0724311 8:-0.99702 9:-0.999038 10:0.573064 11:-0.659796 12:-0.999073 13:-0.0910096 14:-0.999006 15:-0.993083 16:-0.988418 17:-1 18:-1 19:-1 20:-1 21:-0.738633 22:-0.827738 23:-1 24:-1 25:-0.753568 26:-0.843641 27:-1 28:-1 29:-0.788281 30:-0.937037 31:-1 32:-1 33:-0.868541 34:-0.91023 35:-0.999133 36:-0.991071 37:-0.974093 38:-1 39:-0.99683 40:-1 41:-0.982877 42:-0.98996 43:-0.982359 44:-0.985468 45:-0.99187 46:-0.988166 47:-0.9967 48:-0.977654 49:-0.982301 50:-0.955556 51:-0.874126 52:-0.921053 53:-0.979381 54:-1 55:-1 56:-1 57:-1 58:-1 59:-1 60:-0.313931 61:-0.175462 
0.125 1:-0.982437 2:-0.963425 3:-0.964365 4:-0.209981 5:0.520827 6:-0.992789 7:0.0693819 8:-0.992183 9:-0.998692 10:0.584243 11:-0.659865 12:-0.996792 13:-0.0924472 14:-0.996792 15:-0.979968 16:-0.896534 17:-0.935305 18:-0.86147 19:-1 20:-1 21:-0.940726 22:-0.771817 23:-1 24:-1 25:-0.878509 26:-0.777351 27:-0.936191 28:-0.734838 29:-1 30:-1 31:-0.940608 32:-0.768521 33:-0.978753 34:-0.939782 35:-0.997833 36:-0.988095 37:-0.968912 38:-0.977337 39:-0.952456 40:-0.9375 41:-0.993151 42:-0.971888 43:-0.993385 44:-0.990917 45:-0.99187 46:-0.991124 47:-0.986799 48:-0.98324 49:-0.973451 50:-1 51:-0.958042 52:-0.986842 53:-0.979381 54:-0.948718 55:-0.97619 56:-1 57:-1 58:-1 59:-0.986207 60:-0.190338 61:-0.228536 
0.125 1:-0.998683 2:-0.922024 3:-0.932664 4:-0.241041 5:0.554923 6:-0.959609 7:0.0555382 8:-0.997254 9:-0.999807 10:0.573064 11:-0.659865 12:-0.999458 13:-0.0911202 14:-0.99946 15:-0.973444 16:-0.956416 17:-1 18:-1 19:-1 20:-1 21:-0.924131 22:-0.915124 23:-1 24:-1 25:-1 26:-1 27:-0.929202 28:-0.798255 29:-1 30:-1 31:-1 32:-1 33:-0.945856 34:-0.889154 35:-0.999567 36:-1 37:-1 38:-0.994334 39:-0.99683 40:-0.990132 41:-1 42:-0.997992 43:-0.99559 44:-0.996367 45:-0.996748 46:-0.997041 47:-1 48:-0.98324 49:-0.982301 50:-0.948148 51:-0.986014 52:-0.986842 53:-0.979381 54:-1 55:-1 56:-0.963636 57:-1 58:-1 59:-1 60:-0.319102 61:-0.106765 
0.125 1:-0.991438 2:-0.977851 3:-0.98359 4:-0.177846 5:0.491824 6:-0.971993 7:0.0215945 8:-0.901272 9:-0.999181 10:0.573064 11:-0.659865 12:-0.999582 13:-0.0911202 14:-0.999507 15:-0.906553 16:-0.970514 17:-1 18:-1 19:-0.869233 20:-0.877243 21:-1 22:-1 23:-0.930023 24:-0.87242 25:-0.958855 26:-0.933861 27:-1 28:-1 29:-0.935633 30:-0.831006 31:-1 32:-1 33:-0.989283 34:-0.970411 35:-0.996966 36:-0.991071 37:-0.968912 38:-0.983003 39:-0.990491 40:-0.993421 41:-0.986301 42:-0.995984 43:-0.988975 44:-0.996367 45:-0.995122 46:-0.991124 47:-1 48:-0.977654 49:-0.982301 50:-0.992593 51:-0.986014 52:-0.921053 53:-0.958763 54:-1 55:-0.928571 56:-1 57:-1 58:-0.953488 59:-1 60:-0.121051 61:-0.252725 
0.125 1:-0.941822 2:-0.993408 3:-0.999026 4:-0.200721 5:0.537471 6:-0.970927 7:0.070838 8:-0.992499 9:-0.992661 10:0.573064 11:-0.659865 12:-0.995121 13:-0.0902355 14:-0.994551 15:-0.79462 16:-0.832079 17:-0.939564 18:-0.802971 19:-0.756706 20:-0.891735 21:-0.62848 22:-0.830265 23:-0.951307 24:-0.967711 25:-0.600604 26:-0.837168 27:-0.824354 28:-0.874417 29:-0.849476 30:-0.798972 31:-0.909041 32:-0.984652 33:-0.901103 34:-0.963928 35:-0.955353 36:-0.952381 37:-0.937824 38:-0.96034 39:-0.980983 40:-0.973684 41:-0.958904 42:-0.975904 43:-0.982359 44:-0.981835 45:-0.978862 46:-0.952663 47:-0.960396 48:-0.921788 49:-0.955752 50:-0.955556 51:-0.804196 52:-0.973684 53:-0.979381 54:-0.974359 55:-0.952381 56:-0.781818 57:-0.85 58:-1 59:-1 60:0.178353 61:-0.281073 
